<?xml version="1.0"?>
<opencv_storage>
<opencv_ml_svm>
  <format>3</format>
  <svmType>C_SVC</svmType>
  <kernel>
    <type>RBF</type>
    <gamma>2.2500000000000003e-03</gamma></kernel>
  <C>2.5000000000000000e+00</C>
  <term_criteria><epsilon>1.1920928955078125e-07</epsilon>
    <iterations>1000</iterations></term_criteria>
  <var_count>360</var_count>
  <class_count>10</class_count>
  <class_labels type_id="opencv-matrix">
    <rows>10</rows>
    <cols>1</cols>
    <dt>i</dt>
    <data>
      0 1 2 3 4 5 6 7 8 9</data></class_labels>
  <sv_total>129</sv_total>
  <support_vectors>
    <_>
      0. 0. 0. 0. 0. 0. 0. 0. 0. 0. 0. 0. 0. 0. 0. 0. 0. 0. 0. 0. 0. 0.
      0. 0. 0. 0. 7.49019623e-01 7.49019623e-01 0. 0. 0. 0. 0. 0. 0. 0.
      0. 0. 0. 0. 6.27451017e-02 2.50980407e-01 1. 1. 1. 1. 1. 1.
      8.11764717e-01 6.27451017e-02 0. 0. 0. 0. 0. 0. 0. 0.
      8.11764717e-01 1. 1. 1. 1. 1. 1. 1. 1. 8.11764717e-01 0. 0. 0. 0.
      0. 0. 0. 7.49019623e-01 1. 1. 1. 1. 1. 1. 1. 1. 1. 1.
      8.11764717e-01 6.27451017e-02 0. 0. 0. 0. 1.88235298e-01
      9.37254906e-01 1. 1. 1. 1. 1. 1. 1. 1. 1. 1. 1. 2.50980407e-01 0.
      0. 0. 0. 2.50980407e-01 1. 1. 1. 1. 1. 1. 1. 1. 1. 1. 1. 1. 1. 0.
      0. 0. 0. 8.11764717e-01 1. 1. 1. 1. 4.39215690e-01 4.39215690e-01
      1. 1. 1. 1. 1. 1. 1. 0. 0. 0. 0. 1. 1. 1. 1. 5.60784340e-01 0. 0.
      5.60784340e-01 1. 1. 1. 1. 1. 1. 1.88235298e-01 0. 0. 0. 1. 1. 1.
      1. 0. 0. 0. 0. 1. 1. 1. 1. 1. 1. 7.49019623e-01 0. 0. 0. 1. 1. 1.
      1. 0. 0. 0. 0. 1. 1. 1. 1. 1. 1. 7.49019623e-01 0. 0. 0. 1. 1. 1.
      1. 5.60784340e-01 0. 0. 5.60784340e-01 1. 1. 1. 1. 1. 1.
      1.88235298e-01 0. 0. 0. 1. 1. 1. 1. 1. 4.39215690e-01 1. 1. 1. 1.
      1. 1. 1. 1. 0. 0. 0. 0. 1. 1. 1. 1. 1. 1. 1. 1. 1. 1. 1. 1. 1. 1.
      0. 0. 0. 0. 8.11764717e-01 1. 1. 1. 1. 1. 1. 1. 1. 1. 1. 1. 1.
      8.11764717e-01 0. 0. 0. 0. 2.50980407e-01 1. 1. 1. 1. 1. 1. 1. 1.
      1. 1. 1. 1. 2.50980407e-01 0. 0. 0. 0. 0. 7.49019623e-01 1. 1. 1.
      1. 1. 1. 1. 1. 1. 1. 7.49019623e-01 0. 0. 0. 0. 0. 0.
      1.88235298e-01 1. 1. 1. 1. 1. 1. 1. 1. 1. 1. 1.88235298e-01 0. 0.
      0. 0. 0. 0. 0. 0. 5.60784340e-01 7.49019623e-01 9.37254906e-01 1.
      1. 9.37254906e-01 7.49019623e-01 5.60784340e-01 0. 0. 0. 0. 0. 0.
      0. 0. 0. 0. 0. 0. 1.88235298e-01 2.50980407e-01 2.50980407e-01
      1.88235298e-01 0. 0. 0. 0. 0. 0. 0.</_>
    <_>
      0. 0. 0. 0. 0. 0. 0. 0. 0. 0. 0. 0. 0. 0. 0. 0. 0. 0. 0. 0. 0. 0.
      0. 0. 0. 0. 1.88235298e-01 7.49019623e-01 0. 0. 0. 0. 0. 0. 0. 0.
      0. 0. 0. 0. 6.27451017e-02 2.50980407e-01 1. 1. 1. 1. 1. 1.
      2.50980407e-01 6.27451017e-02 0. 0. 0. 0. 0. 0. 0. 0.
      8.11764717e-01 1. 1. 1. 1. 1. 1. 1. 1. 8.11764717e-01 0. 0. 0. 0.
      0. 0. 0. 7.49019623e-01 1. 1. 1. 1. 1. 1. 1. 1. 1. 1.
      8.11764717e-01 6.27451017e-02 0. 0. 0. 0. 1.88235298e-01
      9.37254906e-01 1. 1. 1. 1. 1. 1. 1. 1. 1. 1. 1. 2.50980407e-01 0.
      0. 0. 0. 2.50980407e-01 1. 1. 1. 1. 1. 1. 1. 1. 1. 1. 1. 1. 1. 0.
      0. 0. 0. 8.11764717e-01 1. 1. 1. 1. 4.39215690e-01 4.39215690e-01
      1. 1. 1. 1. 1. 1. 1. 0. 0. 0. 0. 1. 1. 1. 1. 5.60784340e-01 0. 0.
      5.60784340e-01 1. 1. 1. 1. 1. 1. 1.88235298e-01 0. 0. 0. 1. 1. 1.
      1. 0. 0. 0. 0. 1. 1. 1. 1. 1. 1. 7.49019623e-01 0. 0. 0. 1. 1. 1.
      1. 0. 0. 0. 0. 1. 1. 1. 1. 1. 1. 7.49019623e-01 0. 0. 0. 1. 1. 1.
      1. 5.60784340e-01 0. 0. 5.60784340e-01 1. 1. 1. 1. 1. 1.
      1.88235298e-01 0. 0. 0. 1. 1. 1. 1. 1. 4.39215690e-01
      4.39215690e-01 1. 1. 1. 1. 1. 1. 1. 0. 0. 0. 0. 1. 1. 1. 1. 1. 1.
      1. 1. 1. 1. 1. 1. 1. 1. 0. 0. 0. 0. 8.11764717e-01 1. 1. 1. 1. 1.
      1. 1. 1. 1. 1. 1. 1. 8.11764717e-01 0. 0. 0. 0. 2.50980407e-01 1.
      1. 1. 1. 1. 1. 1. 1. 1. 1. 1. 1. 2.50980407e-01 0. 0. 0. 0. 0.
      7.49019623e-01 1. 1. 1. 1. 1. 1. 1. 1. 1. 1. 5.60784340e-01 0. 0.
      0. 0. 0. 0. 1.88235298e-01 1. 1. 1. 1. 1. 1. 1. 1. 1. 1. 0. 0. 0.
      0. 0. 0. 0. 0. 0. 5.60784340e-01 7.49019623e-01 9.37254906e-01 1.
      1. 9.37254906e-01 7.49019623e-01 5.60784340e-01 0. 0. 0. 0. 0. 0.
      0. 0. 0. 0. 0. 0. 1.88235298e-01 2.50980407e-01 2.50980407e-01
      1.88235298e-01 0. 0. 0. 0. 0. 0. 0.</_>
    <_>
      0. 0. 0. 0. 0. 0. 0. 0. 0. 0. 0. 0. 0. 0. 0. 0. 0. 0. 0. 0. 0. 0.
      0. 0. 0. 5.60784340e-01 7.49019623e-01 7.49019623e-01 0. 0. 0. 0.
      0. 0. 0. 0. 0. 0. 0. 0. 6.27451017e-02 8.11764717e-01 1. 1. 1. 1.
      1. 1. 2.50980407e-01 6.27451017e-02 0. 0. 0. 0. 0. 0. 0. 0.
      8.11764717e-01 1. 1. 1. 1. 1. 1. 1. 1. 2.50980407e-01 0. 0. 0. 0.
      0. 0. 6.27451017e-02 8.11764717e-01 1. 1. 1. 1. 1. 1. 1. 1. 1. 1.
      7.49019623e-01 0. 0. 0. 0. 0. 2.50980407e-01 1. 1. 1. 1. 1. 1. 1.
      1. 1. 1. 1. 9.37254906e-01 1.88235298e-01 0. 0. 0. 0. 1. 1. 1. 1.
      1. 1. 1. 1. 1. 1. 1. 1. 1. 2.50980407e-01 0. 0. 0. 0. 1. 1. 1. 1.
      8.11764717e-01 2.50980407e-01 1. 1. 1. 1. 1. 1. 1. 2.50980407e-01
      0. 0. 0. 0. 1. 1. 1. 1. 0. 0. 0. 7.49019623e-01 1. 1. 1. 1. 1. 1.
      0. 0. 0. 5.60784340e-01 1. 1. 1. 1. 0. 0. 0. 7.49019623e-01 1. 1.
      1. 1. 1. 1. 0. 0. 0. 7.49019623e-01 1. 1. 1. 1. 0. 0. 0.
      1.88235298e-01 1. 1. 1. 1. 1. 1. 0. 0. 0. 7.49019623e-01 1. 1. 1.
      1. 0. 0. 0. 7.49019623e-01 1. 1. 1. 1. 1. 1. 0. 0. 0.
      7.49019623e-01 1. 1. 1. 1. 1. 4.39215690e-01 1. 1. 1. 1. 1. 1. 1.
      1. 0. 0. 0. 1.88235298e-01 1. 1. 1. 1. 1. 1. 1. 1. 1. 1. 1. 1. 1.
      4.39215690e-01 0. 0. 0. 0. 1. 1. 1. 1. 1. 1. 1. 1. 1. 1. 1. 1. 1.
      2.50980407e-01 0. 0. 0. 0. 1. 1. 1. 1. 1. 1. 1. 1. 1. 1. 1. 1.
      8.11764717e-01 6.27451017e-02 0. 0. 0. 0. 1.88235298e-01
      9.37254906e-01 1. 1. 1. 1. 1. 1. 1. 1. 1. 1. 5.60784340e-01 0. 0.
      0. 0. 0. 0. 1.88235298e-01 1. 1. 1. 1. 1. 1. 1. 1. 1.
      4.39215690e-01 0. 0. 0. 0. 0. 0. 0. 0. 1.88235298e-01
      7.49019623e-01 7.49019623e-01 9.37254906e-01 1. 1. 7.49019623e-01
      7.49019623e-01 0. 0. 0. 0. 0. 0. 0. 0. 0. 0. 0. 0. 0.
      1.88235298e-01 2.50980407e-01 2.50980407e-01 0. 0. 0. 0. 0. 0. 0.
      0.</_>
    <_>
      0. 0. 0. 0. 0. 0. 0. 0. 0. 0. 0. 0. 0. 0. 0. 0. 0. 0. 0. 0. 0. 0.
      0. 0. 0. 0. 7.49019623e-01 7.49019623e-01 0. 0. 0. 0. 0. 0. 0. 0.
      0. 0. 0. 0. 6.27451017e-02 2.50980407e-01 1. 1. 1. 1. 1. 1.
      2.50980407e-01 6.27451017e-02 0. 0. 0. 0. 0. 0. 0. 0.
      8.11764717e-01 1. 1. 1. 1. 1. 1. 1. 1. 8.11764717e-01 0. 0. 0. 0.
      0. 0. 0. 7.49019623e-01 1. 1. 1. 1. 1. 1. 1. 1. 1. 1.
      8.11764717e-01 6.27451017e-02 0. 0. 0. 0. 1.88235298e-01
      9.37254906e-01 1. 1. 1. 1. 1. 1. 1. 1. 1. 1. 1. 2.50980407e-01 0.
      0. 0. 0. 2.50980407e-01 1. 1. 1. 1. 1. 1. 1. 1. 1. 1. 1. 1. 1. 0.
      0. 0. 0. 8.11764717e-01 1. 1. 1. 1. 4.39215690e-01 4.39215690e-01
      1. 1. 1. 1. 1. 1. 1. 0. 0. 0. 0. 1. 1. 1. 1. 5.60784340e-01 0. 0.
      5.60784340e-01 1. 1. 1. 1. 1. 1. 0. 0. 0. 0. 1. 1. 1. 1. 0. 0. 0.
      0. 1. 1. 1. 1. 1. 1. 5.60784340e-01 0. 0. 0. 1. 1. 1. 1. 0. 0. 0.
      0. 1. 1. 1. 1. 1. 1. 7.49019623e-01 0. 0. 0. 1. 1. 1. 1.
      5.60784340e-01 0. 0. 5.60784340e-01 1. 1. 1. 1. 1. 1.
      7.49019623e-01 0. 0. 0. 1. 1. 1. 1. 1. 1. 4.39215690e-01 1. 1. 1.
      1. 1. 1. 1. 0. 0. 0. 0. 1. 1. 1. 1. 1. 1. 1. 1. 1. 1. 1. 1. 1. 1.
      0. 0. 0. 0. 8.11764717e-01 1. 1. 1. 1. 1. 1. 1. 1. 1. 1. 1. 1.
      8.11764717e-01 0. 0. 0. 0. 2.50980407e-01 1. 1. 1. 1. 1. 1. 1. 1.
      1. 1. 1. 1. 2.50980407e-01 0. 0. 0. 0. 0. 7.49019623e-01 1. 1. 1.
      1. 1. 1. 1. 1. 1. 1. 7.49019623e-01 0. 0. 0. 0. 0. 0.
      1.88235298e-01 1. 1. 1. 1. 1. 1. 1. 1. 1. 4.39215690e-01
      1.88235298e-01 0. 0. 0. 0. 0. 0. 0. 0. 5.60784340e-01
      7.49019623e-01 7.49019623e-01 1. 1. 9.37254906e-01 7.49019623e-01
      5.60784340e-01 0. 0. 0. 0. 0. 0. 0. 0. 0. 0. 0. 0. 0.
      2.50980407e-01 2.50980407e-01 1.88235298e-01 0. 0. 0. 0. 0. 0. 0.</_>
    <_>
      0. 0. 0. 0. 0. 0. 0. 0. 0. 0. 0. 0. 0. 0. 0. 0. 0. 0. 0. 0. 0. 0.
      0. 0. 0. 5.60784340e-01 7.49019623e-01 7.49019623e-01 0. 0. 0. 0.
      0. 0. 0. 0. 0. 0. 0. 0. 6.27451017e-02 8.11764717e-01 1. 1. 1. 1.
      1. 1. 1.88235298e-01 0. 0. 0. 0. 0. 0. 0. 0. 0. 8.11764717e-01 1.
      1. 1. 1. 1. 1. 1. 9.37254906e-01 7.49019623e-01 0. 0. 0. 0. 0. 0.
      6.27451017e-02 8.11764717e-01 1. 1. 1. 1. 1. 1. 1. 1. 1. 1.
      7.49019623e-01 0. 0. 0. 0. 0. 2.50980407e-01 1. 1. 1. 1. 1. 1. 1.
      1. 1. 1. 1. 9.37254906e-01 1.88235298e-01 0. 0. 0. 0. 1. 1. 1. 1.
      1. 1. 1. 1. 1. 1. 1. 1. 1. 2.50980407e-01 0. 0. 0. 0. 1. 1. 1. 1.
      8.11764717e-01 2.50980407e-01 4.39215690e-01 1. 1. 1. 1. 1. 1.
      2.50980407e-01 0. 0. 0. 0. 1. 1. 1. 1. 0. 0. 0. 7.49019623e-01 1.
      1. 1. 1. 1. 1. 0. 0. 0. 5.60784340e-01 1. 1. 1. 1. 0. 0. 0.
      7.49019623e-01 1. 1. 1. 1. 1. 1. 0. 0. 0. 7.49019623e-01 1. 1. 1.
      1. 0. 0. 0. 1.88235298e-01 1. 1. 1. 1. 1. 1. 0. 0. 0.
      7.49019623e-01 1. 1. 1. 1. 0. 0. 0. 7.49019623e-01 1. 1. 1. 1. 1.
      1. 0. 0. 0. 7.49019623e-01 1. 1. 1. 1. 1. 4.39215690e-01 1. 1. 1.
      1. 1. 1. 1. 8.11764717e-01 0. 0. 0. 1.88235298e-01 1. 1. 1. 1. 1.
      1. 1. 1. 1. 1. 1. 1. 1. 2.50980407e-01 0. 0. 0. 0. 1. 1. 1. 1. 1.
      1. 1. 1. 1. 1. 1. 1. 1. 2.50980407e-01 0. 0. 0. 0. 1. 1. 1. 1. 1.
      1. 1. 1. 1. 1. 1. 1. 8.11764717e-01 6.27451017e-02 0. 0. 0. 0.
      2.50980407e-01 1. 1. 1. 1. 1. 1. 1. 1. 1. 1. 1. 5.60784340e-01 0.
      0. 0. 0. 0. 6.27451017e-02 2.50980407e-01 1. 1. 1. 1. 1. 1. 1. 1.
      1. 4.39215690e-01 0. 0. 0. 0. 0. 0. 0. 0. 1.88235298e-01
      7.49019623e-01 8.11764717e-01 1. 1. 1. 9.37254906e-01
      7.49019623e-01 0. 0. 0. 0. 0. 0. 0. 0. 0. 0. 0. 0. 6.27451017e-02
      2.50980407e-01 2.50980407e-01 2.50980407e-01 1.88235298e-01 0. 0.
      0. 0. 0. 0. 0.</_>
    <_>
      0. 0. 0. 0. 0. 0. 0. 0. 0. 0. 0. 0. 0. 0. 0. 0. 0. 0. 0. 0. 0. 0.
      0. 0. 0. 5.60784340e-01 7.49019623e-01 1.88235298e-01 0. 0. 0. 0.
      0. 0. 0. 0. 0. 0. 0. 0. 6.27451017e-02 8.11764717e-01 1. 1. 1. 1.
      1. 1. 1.88235298e-01 0. 0. 0. 0. 0. 0. 0. 0. 0. 8.11764717e-01 1.
      1. 1. 1. 1. 1. 1. 9.37254906e-01 7.49019623e-01 0. 0. 0. 0. 0. 0.
      6.27451017e-02 8.11764717e-01 1. 1. 1. 1. 1. 1. 1. 1. 1. 1.
      7.49019623e-01 0. 0. 0. 0. 0. 2.50980407e-01 1. 1. 1. 1. 1. 1. 1.
      1. 1. 1. 1. 7.49019623e-01 0. 0. 0. 0. 0. 1. 1. 1. 1. 1. 1. 1. 1.
      1. 1. 1. 1. 1. 2.50980407e-01 0. 0. 0. 0. 1. 1. 1. 1.
      8.11764717e-01 2.50980407e-01 4.39215690e-01 1. 1. 1. 1. 1. 1.
      8.11764717e-01 0. 0. 0. 0. 1. 1. 1. 1. 0. 0. 0. 7.49019623e-01 1.
      1. 1. 1. 1. 1. 0. 0. 0. 5.60784340e-01 1. 1. 1. 1. 0. 0. 0.
      7.49019623e-01 1. 1. 1. 1. 1. 1. 0. 0. 0. 7.49019623e-01 1. 1. 1.
      1. 0. 0. 0. 1.88235298e-01 1. 1. 1. 1. 1. 1. 0. 0. 0.
      7.49019623e-01 1. 1. 1. 1. 0. 0. 0. 7.49019623e-01 1. 1. 1. 1. 1.
      1. 0. 0. 0. 7.49019623e-01 1. 1. 1. 1. 8.11764717e-01
      2.50980407e-01 1. 1. 1. 1. 1. 1. 1. 8.11764717e-01 0. 0. 0.
      1.88235298e-01 1. 1. 1. 1. 1. 1. 1. 1. 1. 1. 1. 1. 1.
      2.50980407e-01 0. 0. 0. 0. 1. 1. 1. 1. 1. 1. 1. 1. 1. 1. 1. 1. 1.
      2.50980407e-01 0. 0. 0. 0. 1. 1. 1. 1. 1. 1. 1. 1. 1. 1. 1. 1.
      8.11764717e-01 6.27451017e-02 0. 0. 0. 0. 2.50980407e-01 1. 1. 1.
      1. 1. 1. 1. 1. 1. 1. 1. 5.60784340e-01 0. 0. 0. 0. 0.
      6.27451017e-02 2.50980407e-01 1. 1. 1. 1. 1. 1. 1. 1. 1.
      4.39215690e-01 0. 0. 0. 0. 0. 0. 0. 0. 1.88235298e-01
      7.49019623e-01 8.11764717e-01 1. 1. 1. 9.37254906e-01
      7.49019623e-01 0. 0. 0. 0. 0. 0. 0. 0. 0. 0. 0. 0. 6.27451017e-02
      2.50980407e-01 2.50980407e-01 2.50980407e-01 1.88235298e-01 0. 0.
      0. 0. 0. 0. 0.</_>
    <_>
      0. 0. 0. 0. 0. 0. 0. 0. 0. 0. 0. 0. 0. 0. 0. 0. 0. 0. 0. 0. 0. 0.
      0. 0. 0. 0. 7.49019623e-01 7.49019623e-01 0. 0. 0. 0. 0. 0. 0. 0.
      0. 0. 0. 0. 6.27451017e-02 8.11764717e-01 1. 1. 1. 1. 1. 1.
      2.50980407e-01 6.27451017e-02 0. 0. 0. 0. 0. 0. 0. 0.
      8.11764717e-01 1. 1. 1. 1. 1. 1. 1. 1. 8.11764717e-01 0. 0. 0. 0.
      0. 0. 6.27451017e-02 8.11764717e-01 1. 1. 1. 1. 1. 1. 1. 1. 1. 1.
      8.11764717e-01 6.27451017e-02 0. 0. 0. 0. 2.50980407e-01 1. 1. 1.
      1. 1. 1. 1. 1. 1. 1. 1. 1. 2.50980407e-01 0. 0. 0. 0.
      4.39215690e-01 1. 1. 1. 1. 1. 1. 1. 1. 1. 1. 1. 1. 4.39215690e-01
      0. 0. 0. 0. 1. 1. 1. 1. 1. 4.39215690e-01 4.39215690e-01 1. 1. 1.
      1. 1. 1. 1. 0. 0. 0. 0. 1. 1. 1. 1. 0. 0. 0. 7.49019623e-01 1. 1.
      1. 1. 1. 1. 0. 0. 0. 0. 1. 1. 1. 1. 0. 0. 0. 1.88235298e-01 1. 1.
      1. 1. 1. 1. 0. 0. 0. 0. 1. 1. 1. 1. 0. 0. 0. 1.88235298e-01 1. 1.
      1. 1. 1. 1. 0. 0. 0. 0. 1. 1. 1. 1. 0. 0. 0. 7.49019623e-01 1. 1.
      1. 1. 1. 1. 0. 0. 0. 0. 1. 1. 1. 1. 1. 4.39215690e-01 1. 1. 1. 1.
      1. 1. 1. 1. 0. 0. 0. 0. 1. 1. 1. 1. 1. 1. 1. 1. 1. 1. 1. 1. 1. 1.
      0. 0. 0. 0. 1. 1. 1. 1. 1. 1. 1. 1. 1. 1. 1. 1. 1. 2.50980407e-01
      0. 0. 0. 0. 4.39215690e-01 1. 1. 1. 1. 1. 1. 1. 1. 1. 1. 1. 1.
      2.50980407e-01 0. 0. 0. 0. 1.88235298e-01 9.37254906e-01 1. 1. 1.
      1. 1. 1. 1. 1. 1. 1. 5.60784340e-01 0. 0. 0. 0. 0. 0.
      1.88235298e-01 1. 1. 1. 1. 1. 1. 1. 1. 1. 4.39215690e-01 0. 0. 0.
      0. 0. 0. 0. 0. 0. 5.60784340e-01 7.49019623e-01 9.37254906e-01 1.
      1. 9.37254906e-01 7.49019623e-01 5.60784340e-01 0. 0. 0. 0. 0. 0.
      0. 0. 0. 0. 0. 0. 1.88235298e-01 2.50980407e-01 2.50980407e-01
      1.88235298e-01 0. 0. 0. 0. 0. 0. 0.</_>
    <_>
      0. 0. 0. 0. 0. 0. 0. 0. 0. 0. 0. 0. 0. 0. 0. 0. 0. 0. 0. 0. 0. 0.
      0. 0. 0. 5.60784340e-01 7.49019623e-01 1.88235298e-01 0. 0. 0. 0.
      0. 0. 0. 0. 0. 0. 0. 0. 6.27451017e-02 8.11764717e-01 1. 1. 1. 1.
      1. 1. 1.88235298e-01 0. 0. 0. 0. 0. 0. 0. 0. 0. 8.11764717e-01 1.
      1. 1. 1. 1. 1. 1. 9.37254906e-01 7.49019623e-01 0. 0. 0. 0. 0. 0.
      6.27451017e-02 8.11764717e-01 1. 1. 1. 1. 1. 1. 1. 1. 1. 1.
      1.88235298e-01 0. 0. 0. 0. 0. 2.50980407e-01 1. 1. 1. 1. 1. 1. 1.
      1. 1. 1. 1. 9.37254906e-01 1.88235298e-01 0. 0. 0. 0. 1. 1. 1. 1.
      1. 1. 1. 1. 1. 1. 1. 1. 1. 2.50980407e-01 0. 0. 0. 0. 1. 1. 1. 1.
      8.11764717e-01 2.50980407e-01 1. 1. 1. 1. 1. 1. 1. 2.50980407e-01
      0. 0. 0. 1.88235298e-01 1. 1. 1. 1. 0. 0. 0. 7.49019623e-01 1. 1.
      1. 1. 1. 1. 0. 0. 0. 7.49019623e-01 1. 1. 1. 1. 0. 0. 0.
      7.49019623e-01 1. 1. 1. 1. 1. 1. 0. 0. 0. 7.49019623e-01 1. 1. 1.
      1. 0. 0. 0. 1.88235298e-01 1. 1. 1. 1. 1. 1. 0. 0. 0.
      7.49019623e-01 1. 1. 1. 1. 0. 0. 0. 7.49019623e-01 1. 1. 1. 1. 1.
      1. 0. 0. 0. 7.49019623e-01 1. 1. 1. 1. 1. 4.39215690e-01 1. 1. 1.
      1. 1. 1. 1. 8.11764717e-01 0. 0. 0. 1.88235298e-01 1. 1. 1. 1. 1.
      1. 1. 1. 1. 1. 1. 1. 1. 2.50980407e-01 0. 0. 0. 0. 1. 1. 1. 1. 1.
      1. 1. 1. 1. 1. 1. 1. 1. 2.50980407e-01 0. 0. 0. 0. 1. 1. 1. 1. 1.
      1. 1. 1. 1. 1. 1. 1. 8.11764717e-01 6.27451017e-02 0. 0. 0. 0.
      2.50980407e-01 1. 1. 1. 1. 1. 1. 1. 1. 1. 1. 1. 5.60784340e-01 0.
      0. 0. 0. 0. 6.27451017e-02 2.50980407e-01 1. 1. 1. 1. 1. 1. 1. 1.
      1. 4.39215690e-01 0. 0. 0. 0. 0. 0. 0. 0. 1.88235298e-01
      7.49019623e-01 7.49019623e-01 9.37254906e-01 1. 1. 9.37254906e-01
      7.49019623e-01 0. 0. 0. 0. 0. 0. 0. 0. 0. 0. 0. 0. 0.
      1.88235298e-01 2.50980407e-01 2.50980407e-01 1.88235298e-01 0. 0.
      0. 0. 0. 0. 0.</_>
    <_>
      0. 0. 0. 0. 0. 0. 0. 0. 0. 0. 0. 0. 0. 0. 0. 0. 0. 0. 0. 0. 0. 0.
      0. 0. 0. 5.60784340e-01 7.49019623e-01 1.88235298e-01 0. 0. 0. 0.
      0. 0. 0. 0. 0. 0. 0. 0. 6.27451017e-02 8.11764717e-01 1. 1. 1. 1.
      1. 1. 1.88235298e-01 0. 0. 0. 0. 0. 0. 0. 0. 0. 8.11764717e-01 1.
      1. 1. 1. 1. 1. 1. 9.37254906e-01 1.88235298e-01 0. 0. 0. 0. 0. 0.
      6.27451017e-02 8.11764717e-01 1. 1. 1. 1. 1. 1. 1. 1. 1. 1.
      1.88235298e-01 0. 0. 0. 0. 0. 2.50980407e-01 1. 1. 1. 1. 1. 1. 1.
      1. 1. 1. 1. 9.37254906e-01 1.88235298e-01 0. 0. 0. 0. 1. 1. 1. 1.
      1. 1. 1. 1. 1. 1. 1. 1. 1. 2.50980407e-01 0. 0. 0. 0. 1. 1. 1. 1.
      8.11764717e-01 2.50980407e-01 1. 1. 1. 1. 1. 1. 1. 2.50980407e-01
      0. 0. 0. 0. 1. 1. 1. 1. 0. 0. 0. 7.49019623e-01 1. 1. 1. 1. 1. 1.
      0. 0. 0. 5.60784340e-01 1. 1. 1. 1. 0. 0. 0. 7.49019623e-01 1. 1.
      1. 1. 1. 1. 0. 0. 0. 7.49019623e-01 1. 1. 1. 1. 0. 0. 0.
      1.88235298e-01 1. 1. 1. 1. 1. 1. 0. 0. 0. 7.49019623e-01 1. 1. 1.
      1. 0. 0. 0. 7.49019623e-01 1. 1. 1. 1. 1. 1. 0. 0. 0.
      7.49019623e-01 1. 1. 1. 1. 1. 4.39215690e-01 1. 1. 1. 1. 1. 1. 1.
      1. 0. 0. 0. 1.88235298e-01 1. 1. 1. 1. 1. 1. 1. 1. 1. 1. 1. 1. 1.
      4.39215690e-01 0. 0. 0. 0. 1. 1. 1. 1. 1. 1. 1. 1. 1. 1. 1. 1. 1.
      2.50980407e-01 0. 0. 0. 0. 1. 1. 1. 1. 1. 1. 1. 1. 1. 1. 1. 1.
      8.11764717e-01 6.27451017e-02 0. 0. 0. 0. 2.50980407e-01 1. 1. 1.
      1. 1. 1. 1. 1. 1. 1. 1. 5.60784340e-01 0. 0. 0. 0. 0.
      6.27451017e-02 8.11764717e-01 1. 1. 1. 1. 1. 1. 1. 1. 1.
      4.39215690e-01 0. 0. 0. 0. 0. 0. 0. 0. 1.88235298e-01
      7.49019623e-01 7.49019623e-01 9.37254906e-01 1. 1. 9.37254906e-01
      7.49019623e-01 0. 0. 0. 0. 0. 0. 0. 0. 0. 0. 0. 0. 0.
      1.88235298e-01 2.50980407e-01 2.50980407e-01 1.88235298e-01 0. 0.
      0. 0. 0. 0. 0.</_>
    <_>
      0. 0. 0. 0. 0. 0. 0. 0. 0. 0. 0. 0. 0. 0. 0. 0. 0. 0. 0. 0. 0. 0.
      0. 0. 0. 5.60784340e-01 7.49019623e-01 7.49019623e-01 0. 0. 0. 0.
      0. 0. 0. 0. 0. 0. 0. 0. 2.50980407e-01 8.11764717e-01 1. 1. 1. 1.
      1. 1. 1.88235298e-01 0. 0. 0. 0. 0. 0. 0. 0. 0. 1. 1. 1. 1. 1. 1.
      1. 1. 9.37254906e-01 1.88235298e-01 0. 0. 0. 0. 0. 0.
      6.27451017e-02 8.11764717e-01 1. 1. 1. 1. 1. 1. 1. 1. 1. 1.
      7.49019623e-01 0. 0. 0. 0. 0. 2.50980407e-01 1. 1. 1. 1. 1. 1. 1.
      1. 1. 1. 1. 9.37254906e-01 1.88235298e-01 0. 0. 0. 0. 1. 1. 1. 1.
      1. 1. 1. 1. 1. 1. 1. 1. 1. 2.50980407e-01 0. 0. 0. 0. 1. 1. 1. 1.
      8.11764717e-01 2.50980407e-01 1. 1. 1. 1. 1. 1. 1. 8.11764717e-01
      0. 0. 0. 0. 1. 1. 1. 1. 0. 0. 0. 7.49019623e-01 1. 1. 1. 1. 1. 1.
      0. 0. 0. 5.60784340e-01 1. 1. 1. 1. 0. 0. 0. 7.49019623e-01 1. 1.
      1. 1. 1. 1. 0. 0. 0. 7.49019623e-01 1. 1. 1. 1. 0. 0. 0.
      1.88235298e-01 1. 1. 1. 1. 1. 1. 0. 0. 0. 7.49019623e-01 1. 1. 1.
      1. 0. 0. 0. 7.49019623e-01 1. 1. 1. 1. 1. 1. 0. 0. 0.
      7.49019623e-01 1. 1. 1. 1. 1. 4.39215690e-01 1. 1. 1. 1. 1. 1. 1.
      8.11764717e-01 0. 0. 0. 1.88235298e-01 1. 1. 1. 1. 1. 1. 1. 1. 1.
      1. 1. 1. 1. 2.50980407e-01 0. 0. 0. 0. 1. 1. 1. 1. 1. 1. 1. 1. 1.
      1. 1. 1. 1. 2.50980407e-01 0. 0. 0. 0. 1. 1. 1. 1. 1. 1. 1. 1. 1.
      1. 1. 1. 8.11764717e-01 6.27451017e-02 0. 0. 0. 0. 2.50980407e-01
      1. 1. 1. 1. 1. 1. 1. 1. 1. 1. 1. 5.60784340e-01 0. 0. 0. 0. 0.
      6.27451017e-02 2.50980407e-01 1. 1. 1. 1. 1. 1. 1. 1. 1.
      4.39215690e-01 0. 0. 0. 0. 0. 0. 0. 0. 1.88235298e-01
      7.49019623e-01 8.11764717e-01 1. 1. 1. 9.37254906e-01
      7.49019623e-01 0. 0. 0. 0. 0. 0. 0. 0. 0. 0. 0. 0. 6.27451017e-02
      2.50980407e-01 2.50980407e-01 2.50980407e-01 1.88235298e-01 0. 0.
      0. 0. 0. 0. 0.</_>
    <_>
      0. 0. 0. 0. 0. 0. 0. 0. 0. 0. 0. 0. 0. 0. 0. 0. 0. 0. 0. 0. 0. 0.
      0. 0. 0. 0. 7.49019623e-01 1.88235298e-01 0. 0. 0. 0. 0. 0. 0. 0.
      0. 0. 0. 0. 6.27451017e-02 8.11764717e-01 1. 1. 1. 1. 1. 1.
      1.88235298e-01 0. 0. 0. 0. 0. 0. 0. 0. 0. 8.11764717e-01 1. 1. 1.
      1. 1. 1. 1. 9.37254906e-01 7.49019623e-01 0. 0. 0. 0. 0. 0.
      6.27451017e-02 8.11764717e-01 1. 1. 1. 1. 1. 1. 1. 1. 1. 1.
      7.49019623e-01 0. 0. 0. 0. 0. 2.50980407e-01 1. 1. 1. 1. 1. 1. 1.
      1. 1. 1. 1. 7.49019623e-01 0. 0. 0. 0. 0. 1. 1. 1. 1. 1. 1. 1. 1.
      1. 1. 1. 1. 1. 2.50980407e-01 0. 0. 0. 0. 1. 1. 1. 1.
      8.11764717e-01 2.50980407e-01 4.39215690e-01 1. 1. 1. 1. 1. 1.
      8.11764717e-01 0. 0. 0. 1.88235298e-01 1. 1. 1. 1. 0. 0. 0.
      7.49019623e-01 1. 1. 1. 1. 1. 1. 0. 0. 0. 7.49019623e-01 1. 1. 1.
      1. 0. 0. 0. 7.49019623e-01 1. 1. 1. 1. 1. 1. 0. 0. 0.
      7.49019623e-01 1. 1. 1. 1. 0. 0. 0. 1.88235298e-01 1. 1. 1. 1. 1.
      1. 0. 0. 0. 7.49019623e-01 1. 1. 1. 1. 0. 0. 0. 7.49019623e-01 1.
      1. 1. 1. 1. 1. 0. 0. 0. 7.49019623e-01 1. 1. 1. 1. 1.
      4.39215690e-01 1. 1. 1. 1. 1. 1. 1. 8.11764717e-01 0. 0. 0.
      1.88235298e-01 1. 1. 1. 1. 1. 1. 1. 1. 1. 1. 1. 1. 1.
      2.50980407e-01 0. 0. 0. 0. 1. 1. 1. 1. 1. 1. 1. 1. 1. 1. 1. 1. 1.
      2.50980407e-01 0. 0. 0. 0. 1. 1. 1. 1. 1. 1. 1. 1. 1. 1. 1. 1.
      8.11764717e-01 6.27451017e-02 0. 0. 0. 0. 2.50980407e-01 1. 1. 1.
      1. 1. 1. 1. 1. 1. 1. 1. 5.60784340e-01 0. 0. 0. 0. 0.
      6.27451017e-02 2.50980407e-01 1. 1. 1. 1. 1. 1. 1. 1. 1.
      4.39215690e-01 0. 0. 0. 0. 0. 0. 0. 0. 1.88235298e-01
      7.49019623e-01 8.11764717e-01 1. 1. 1. 9.37254906e-01
      7.49019623e-01 0. 0. 0. 0. 0. 0. 0. 0. 0. 0. 0. 0. 6.27451017e-02
      2.50980407e-01 2.50980407e-01 2.50980407e-01 1.88235298e-01 0. 0.
      0. 0. 0. 0. 0.</_>
    <_>
      0. 0. 0. 0. 0. 0. 0. 0. 0. 0. 0. 0. 0. 0. 0. 0. 0. 0. 0. 0. 0. 0.
      0. 0. 0. 5.60784340e-01 7.49019623e-01 7.49019623e-01 0. 0. 0. 0.
      0. 0. 0. 0. 0. 0. 0. 0. 2.50980407e-01 8.11764717e-01 1. 1. 1. 1.
      1. 1. 1.88235298e-01 0. 0. 0. 0. 0. 0. 0. 0. 5.60784340e-01 1. 1.
      1. 1. 1. 1. 1. 1. 9.37254906e-01 7.49019623e-01 0. 0. 0. 0. 0. 0.
      6.27451017e-02 8.11764717e-01 1. 1. 1. 1. 1. 1. 1. 1. 1. 1.
      7.49019623e-01 0. 0. 0. 0. 0. 8.11764717e-01 1. 1. 1. 1. 1. 1. 1.
      1. 1. 1. 1. 9.37254906e-01 1.88235298e-01 0. 0. 0. 0. 1. 1. 1. 1.
      1. 1. 1. 1. 1. 1. 1. 1. 1. 2.50980407e-01 0. 0. 0. 0. 1. 1. 1. 1.
      8.11764717e-01 2.50980407e-01 1. 1. 1. 1. 1. 1. 1. 8.11764717e-01
      0. 0. 0. 0. 1. 1. 1. 1. 0. 0. 0. 7.49019623e-01 1. 1. 1. 1. 1. 1.
      0. 0. 0. 5.60784340e-01 1. 1. 1. 1. 0. 0. 0. 7.49019623e-01 1. 1.
      1. 1. 1. 1. 0. 0. 0. 7.49019623e-01 1. 1. 1. 1. 0. 0. 0.
      7.49019623e-01 1. 1. 1. 1. 1. 1. 0. 0. 0. 7.49019623e-01 1. 1. 1.
      1. 0. 0. 1.88235298e-01 9.37254906e-01 1. 1. 1. 1. 1. 1. 0. 0. 0.
      7.49019623e-01 1. 1. 1. 1. 1. 4.39215690e-01 1. 1. 1. 1. 1. 1. 1.
      8.11764717e-01 0. 0. 0. 1.88235298e-01 1. 1. 1. 1. 1. 1. 1. 1. 1.
      1. 1. 1. 1. 2.50980407e-01 0. 0. 0. 0. 1. 1. 1. 1. 1. 1. 1. 1. 1.
      1. 1. 1. 1. 2.50980407e-01 0. 0. 0. 0. 1. 1. 1. 1. 1. 1. 1. 1. 1.
      1. 1. 1. 8.11764717e-01 6.27451017e-02 0. 0. 0. 0. 2.50980407e-01
      1. 1. 1. 1. 1. 1. 1. 1. 1. 1. 1. 5.60784340e-01 0. 0. 0. 0. 0.
      6.27451017e-02 2.50980407e-01 1. 1. 1. 1. 1. 1. 1. 1. 1.
      4.39215690e-01 0. 0. 0. 0. 0. 0. 0. 0. 1.88235298e-01
      7.49019623e-01 8.11764717e-01 1. 1. 1. 7.49019623e-01
      7.49019623e-01 0. 0. 0. 0. 0. 0. 0. 0. 0. 0. 0. 0. 6.27451017e-02
      2.50980407e-01 2.50980407e-01 2.50980407e-01 0. 0. 0. 0. 0. 0. 0.
      0.</_>
    <_>
      0. 0. 0. 0. 0. 0. 0. 0. 0. 0. 0. 0. 0. 0. 0. 0. 0. 0. 0. 0. 0. 0.
      0. 0. 0. 0. 7.49019623e-01 7.49019623e-01 5.60784340e-01 0. 0. 0.
      0. 0. 0. 0. 0. 0. 0. 0. 6.27451017e-02 8.11764717e-01 1. 1. 1. 1.
      1. 1. 8.11764717e-01 6.27451017e-02 0. 0. 0. 0. 0. 0. 0. 0.
      8.11764717e-01 1. 1. 1. 1. 1. 1. 1. 1. 8.11764717e-01 0. 0. 0. 0.
      0. 0. 0. 7.49019623e-01 1. 1. 1. 1. 1. 1. 1. 1. 1. 1.
      8.11764717e-01 6.27451017e-02 0. 0. 0. 0. 1.88235298e-01
      9.37254906e-01 1. 1. 1. 1. 1. 1. 1. 1. 1. 1. 1. 2.50980407e-01 0.
      0. 0. 0. 4.39215690e-01 1. 1. 1. 1. 1. 1. 1. 1. 1. 1. 1. 1. 1. 0.
      0. 0. 0. 1. 1. 1. 1. 1. 4.39215690e-01 4.39215690e-01 1. 1. 1. 1.
      1. 1. 1. 0. 0. 0. 0. 1. 1. 1. 1. 5.60784340e-01 0. 0.
      5.60784340e-01 1. 1. 1. 1. 1. 1. 1.88235298e-01 0. 0. 0. 1. 1. 1.
      1. 0. 0. 0. 0. 1. 1. 1. 1. 1. 1. 7.49019623e-01 0. 0. 0. 1. 1. 1.
      1. 0. 0. 0. 0. 1. 1. 1. 1. 1. 1. 7.49019623e-01 0. 0. 0. 1. 1. 1.
      1. 5.60784340e-01 0. 0. 5.60784340e-01 1. 1. 1. 1. 1. 1.
      7.49019623e-01 0. 0. 0. 1. 1. 1. 1. 1. 1. 1. 1. 1. 1. 1. 1. 1. 1.
      0. 0. 0. 0. 1. 1. 1. 1. 1. 1. 1. 1. 1. 1. 1. 1. 1. 1. 0. 0. 0. 0.
      8.11764717e-01 1. 1. 1. 1. 1. 1. 1. 1. 1. 1. 1. 1. 8.11764717e-01
      0. 0. 0. 0. 2.50980407e-01 1. 1. 1. 1. 1. 1. 1. 1. 1. 1. 1. 1.
      2.50980407e-01 0. 0. 0. 0. 0. 7.49019623e-01 1. 1. 1. 1. 1. 1. 1.
      1. 1. 1. 7.49019623e-01 0. 0. 0. 0. 0. 0. 1.88235298e-01 1. 1. 1.
      1. 1. 1. 1. 1. 1. 1. 1.88235298e-01 0. 0. 0. 0. 0. 0. 0. 0.
      5.60784340e-01 7.49019623e-01 9.37254906e-01 1. 1. 9.37254906e-01
      7.49019623e-01 5.60784340e-01 0. 0. 0. 0. 0. 0. 0. 0. 0. 0. 0. 0.
      1.88235298e-01 2.50980407e-01 2.50980407e-01 1.88235298e-01 0. 0.
      0. 0. 0. 0. 0.</_>
    <_>
      0. 0. 0. 0. 0. 0. 0. 0. 0. 0. 0. 0. 0. 0. 0. 0. 0. 0. 0. 0. 0. 0.
      0. 0. 0. 0. 7.49019623e-01 7.49019623e-01 0. 0. 0. 0. 0. 0. 0. 0.
      0. 0. 0. 0. 6.27451017e-02 8.11764717e-01 1. 1. 1. 1. 1. 1.
      8.11764717e-01 6.27451017e-02 0. 0. 0. 0. 0. 0. 0. 0.
      8.11764717e-01 1. 1. 1. 1. 1. 1. 1. 1. 8.11764717e-01 0. 0. 0. 0.
      0. 0. 0. 7.49019623e-01 1. 1. 1. 1. 1. 1. 1. 1. 1. 1.
      8.11764717e-01 6.27451017e-02 0. 0. 0. 0. 1.88235298e-01
      9.37254906e-01 1. 1. 1. 1. 1. 1. 1. 1. 1. 1. 1. 2.50980407e-01 0.
      0. 0. 0. 4.39215690e-01 1. 1. 1. 1. 1. 1. 1. 1. 1. 1. 1. 1. 1. 0.
      0. 0. 0. 1. 1. 1. 1. 1. 4.39215690e-01 4.39215690e-01 1. 1. 1. 1.
      1. 1. 1. 0. 0. 0. 0. 1. 1. 1. 1. 5.60784340e-01 0. 0.
      5.60784340e-01 1. 1. 1. 1. 1. 1. 1.88235298e-01 0. 0. 0. 1. 1. 1.
      1. 0. 0. 0. 0. 1. 1. 1. 1. 1. 1. 7.49019623e-01 0. 0. 0. 1. 1. 1.
      1. 0. 0. 0. 0. 1. 1. 1. 1. 1. 1. 7.49019623e-01 0. 0. 0. 1. 1. 1.
      1. 5.60784340e-01 0. 0. 5.60784340e-01 1. 1. 1. 1. 1. 1.
      7.49019623e-01 0. 0. 0. 1. 1. 1. 1. 1. 4.39215690e-01
      4.39215690e-01 1. 1. 1. 1. 1. 1. 1. 0. 0. 0. 0. 1. 1. 1. 1. 1. 1.
      1. 1. 1. 1. 1. 1. 1. 1. 0. 0. 0. 0. 8.11764717e-01 1. 1. 1. 1. 1.
      1. 1. 1. 1. 1. 1. 1. 8.11764717e-01 0. 0. 0. 0. 2.50980407e-01 1.
      1. 1. 1. 1. 1. 1. 1. 1. 1. 1. 1. 2.50980407e-01 0. 0. 0. 0.
      1.88235298e-01 9.37254906e-01 1. 1. 1. 1. 1. 1. 1. 1. 1. 1.
      7.49019623e-01 1.88235298e-01 0. 0. 0. 0. 0. 1.88235298e-01 1. 1.
      1. 1. 1. 1. 1. 1. 1. 1. 0. 0. 0. 0. 0. 0. 0. 0. 0. 5.60784340e-01
      7.49019623e-01 9.37254906e-01 1. 1. 9.37254906e-01 7.49019623e-01
      5.60784340e-01 0. 0. 0. 0. 0. 0. 0. 0. 0. 0. 0. 0. 1.88235298e-01
      2.50980407e-01 2.50980407e-01 1.88235298e-01 0. 0. 0. 0. 0. 0. 0.</_>
    <_>
      0. 0. 0. 0. 0. 0. 0. 0. 0. 0. 0. 0. 0. 0. 0. 0. 0. 0. 0. 0. 0. 0.
      0. 0. 0. 0. 7.49019623e-01 7.49019623e-01 0. 0. 0. 0. 0. 0. 0. 0.
      0. 0. 0. 0. 6.27451017e-02 8.11764717e-01 1. 1. 1. 1. 1. 1.
      2.50980407e-01 6.27451017e-02 0. 0. 0. 0. 0. 0. 0. 0.
      8.11764717e-01 1. 1. 1. 1. 1. 1. 1. 1. 8.11764717e-01 0. 0. 0. 0.
      0. 0. 6.27451017e-02 8.11764717e-01 1. 1. 1. 1. 1. 1. 1. 1. 1. 1.
      8.11764717e-01 6.27451017e-02 0. 0. 0. 0. 2.50980407e-01 1. 1. 1.
      1. 1. 1. 1. 1. 1. 1. 1. 1. 2.50980407e-01 0. 0. 0. 0.
      4.39215690e-01 1. 1. 1. 1. 1. 1. 1. 1. 1. 1. 1. 1. 4.39215690e-01
      0. 0. 0. 0. 1. 1. 1. 1. 1. 4.39215690e-01 4.39215690e-01 1. 1. 1.
      1. 1. 1. 1. 0. 0. 0. 0. 1. 1. 1. 1. 0. 0. 0. 7.49019623e-01 1. 1.
      1. 1. 1. 1. 0. 0. 0. 0. 1. 1. 1. 1. 0. 0. 0. 1.88235298e-01 1. 1.
      1. 1. 1. 1. 0. 0. 0. 7.49019623e-01 1. 1. 1. 1. 0. 0. 0.
      1.88235298e-01 1. 1. 1. 1. 1. 1. 0. 0. 0. 7.49019623e-01 1. 1. 1.
      1. 5.60784340e-01 0. 0. 7.49019623e-01 1. 1. 1. 1. 1. 1. 0. 0. 0.
      0. 1. 1. 1. 1. 1. 4.39215690e-01 1. 1. 1. 1. 1. 1. 1. 1. 0. 0. 0.
      0. 1. 1. 1. 1. 1. 1. 1. 1. 1. 1. 1. 1. 1. 1. 0. 0. 0. 0.
      8.11764717e-01 1. 1. 1. 1. 1. 1. 1. 1. 1. 1. 1. 1. 2.50980407e-01
      0. 0. 0. 0. 2.50980407e-01 1. 1. 1. 1. 1. 1. 1. 1. 1. 1. 1. 1.
      2.50980407e-01 0. 0. 0. 0. 1.88235298e-01 9.37254906e-01 1. 1. 1.
      1. 1. 1. 1. 1. 1. 1. 5.60784340e-01 0. 0. 0. 0. 0. 0.
      1.88235298e-01 1. 1. 1. 1. 1. 1. 1. 1. 1. 4.39215690e-01 0. 0. 0.
      0. 0. 0. 0. 0. 1.88235298e-01 7.49019623e-01 7.49019623e-01
      9.37254906e-01 1. 1. 9.37254906e-01 7.49019623e-01 5.60784340e-01
      0. 0. 0. 0. 0. 0. 0. 0. 0. 0. 0. 0. 1.88235298e-01 2.50980407e-01
      2.50980407e-01 1.88235298e-01 0. 0. 0. 0. 0. 0. 0.</_>
    <_>
      0. 0. 0. 0. 0. 0. 0. 0. 0. 0. 0. 0. 0. 0. 0. 0. 0. 0. 0. 0. 0. 0.
      0. 0. 0. 0. 1.88235298e-01 7.49019623e-01 0. 0. 0. 0. 0. 0. 0. 0.
      0. 0. 0. 0. 6.27451017e-02 2.50980407e-01 1. 1. 1. 1. 1. 1.
      8.11764717e-01 6.27451017e-02 0. 0. 0. 0. 0. 0. 0. 0.
      8.11764717e-01 1. 1. 1. 1. 1. 1. 1. 1. 8.11764717e-01 0. 0. 0. 0.
      0. 0. 0. 7.49019623e-01 1. 1. 1. 1. 1. 1. 1. 1. 1. 1.
      8.11764717e-01 6.27451017e-02 0. 0. 0. 0. 1.88235298e-01
      9.37254906e-01 1. 1. 1. 1. 1. 1. 1. 1. 1. 1. 1. 2.50980407e-01 0.
      0. 0. 0. 2.50980407e-01 1. 1. 1. 1. 1. 1. 1. 1. 1. 1. 1. 1. 1. 0.
      0. 0. 0. 8.11764717e-01 1. 1. 1. 1. 4.39215690e-01 4.39215690e-01
      1. 1. 1. 1. 1. 1. 1. 0. 0. 0. 0. 1. 1. 1. 1. 5.60784340e-01 0. 0.
      5.60784340e-01 1. 1. 1. 1. 1. 1. 0. 0. 0. 0. 1. 1. 1. 1. 0. 0. 0.
      0. 1. 1. 1. 1. 1. 1. 5.60784340e-01 0. 0. 0. 1. 1. 1. 1. 0. 0. 0.
      0. 1. 1. 1. 1. 1. 1. 7.49019623e-01 0. 0. 0. 1. 1. 1. 1.
      5.60784340e-01 0. 0. 5.60784340e-01 1. 1. 1. 1. 1. 1.
      1.88235298e-01 0. 0. 0. 1. 1. 1. 1. 1. 4.39215690e-01
      4.39215690e-01 1. 1. 1. 1. 1. 1. 1. 0. 0. 0. 0. 1. 1. 1. 1. 1. 1.
      1. 1. 1. 1. 1. 1. 1. 1. 0. 0. 0. 0. 8.11764717e-01 1. 1. 1. 1. 1.
      1. 1. 1. 1. 1. 1. 1. 8.11764717e-01 0. 0. 0. 0. 2.50980407e-01 1.
      1. 1. 1. 1. 1. 1. 1. 1. 1. 1. 1. 2.50980407e-01 0. 0. 0. 0. 0.
      7.49019623e-01 1. 1. 1. 1. 1. 1. 1. 1. 1. 1. 7.49019623e-01 0. 0.
      0. 0. 0. 0. 1.88235298e-01 1. 1. 1. 1. 1. 1. 1. 1. 1. 1.
      1.88235298e-01 0. 0. 0. 0. 0. 0. 0. 0. 5.60784340e-01
      7.49019623e-01 9.37254906e-01 1. 1. 9.37254906e-01 7.49019623e-01
      5.60784340e-01 0. 0. 0. 0. 0. 0. 0. 0. 0. 0. 0. 0. 1.88235298e-01
      2.50980407e-01 2.50980407e-01 1.88235298e-01 0. 0. 0. 0. 0. 0. 0.</_>
    <_>
      0. 0. 0. 0. 0. 0. 0. 0. 0. 0. 0. 0. 0. 0. 0. 0. 0. 0. 0. 0. 0. 0.
      0. 0. 0. 5.60784340e-01 7.49019623e-01 1.88235298e-01 0. 0. 0. 0.
      0. 0. 0. 0. 0. 0. 0. 0. 1. 1. 1. 1. 1. 1. 1. 1. 7.49019623e-01 0.
      0. 0. 0. 0. 0. 0. 0. 0. 1. 1. 1. 1. 1. 1. 1. 1. 7.49019623e-01 0.
      0. 0. 0. 0. 0. 0. 0. 0. 1. 1. 1. 1. 1. 1. 1. 1. 7.49019623e-01 0.
      0. 0. 0. 0. 0. 0. 0. 0. 1. 1. 1. 1. 1. 1. 1. 1. 7.49019623e-01 0.
      0. 0. 0. 0. 0. 0. 0. 0. 1. 1. 1. 1. 1. 1. 1. 1. 7.49019623e-01 0.
      0. 0. 0. 0. 0. 0. 0. 0. 1. 1. 1. 1. 1. 1. 1. 1. 7.49019623e-01 0.
      0. 0. 0. 0. 0. 0. 0. 0. 7.49019623e-01 9.37254906e-01 1. 1. 1. 1.
      1. 1. 7.49019623e-01 0. 0. 0. 0. 0. 0. 0. 0. 0. 0. 1.88235298e-01
      1. 1. 1. 1. 1. 1. 7.49019623e-01 0. 0. 0. 0. 0. 0. 0. 0. 0. 0. 0.
      1. 1. 1. 1. 1. 1. 7.49019623e-01 0. 0. 0. 0. 0. 0. 0. 0. 0. 0. 0.
      1. 1. 1. 1. 1. 1. 7.49019623e-01 0. 0. 0. 0. 0. 0. 0. 0. 0. 0. 0.
      1. 1. 1. 1. 1. 1. 7.49019623e-01 0. 0. 0. 0. 0. 0. 0. 0. 0. 0. 0.
      1. 1. 1. 1. 1. 1. 7.49019623e-01 0. 0. 0. 0. 0. 0. 0. 0. 0. 0. 0.
      1. 1. 1. 1. 1. 1. 7.49019623e-01 0. 0. 0. 0. 0. 0. 0. 0. 0. 0. 0.
      1. 1. 1. 1. 1. 1. 7.49019623e-01 0. 0. 0. 0. 0. 0. 0. 0. 0. 0. 0.
      1. 1. 1. 1. 1. 1. 7.49019623e-01 0. 0. 0. 0. 0. 0. 0. 0. 0. 0. 0.
      1. 1. 1. 1. 1. 1. 7.49019623e-01 0. 0. 0. 0. 0. 0. 0. 0. 0. 0. 0.
      1. 1. 1. 1. 1. 1. 7.49019623e-01 0. 0. 0. 0. 0. 0. 0. 0. 0. 0. 0.
      2.50980407e-01 2.50980407e-01 2.50980407e-01 2.50980407e-01
      2.50980407e-01 2.50980407e-01 1.88235298e-01 0. 0. 0. 0. 0.</_>
    <_>
      0. 0. 0. 0. 0. 0. 0. 0. 0. 0. 0. 0. 0. 0. 0. 0. 0. 0. 0. 0. 0. 0.
      0. 0. 0. 5.60784340e-01 7.49019623e-01 1.88235298e-01 0. 0. 0. 0.
      0. 0. 0. 0. 0. 0. 0. 0. 2.50980407e-01 1. 1. 1. 1. 1. 1. 1. 1.
      2.50980407e-01 0. 0. 0. 0. 0. 0. 0. 0. 2.50980407e-01 1. 1. 1. 1.
      1. 1. 1. 1. 2.50980407e-01 0. 0. 0. 0. 0. 0. 0. 0. 2.50980407e-01
      1. 1. 1. 1. 1. 1. 1. 1. 2.50980407e-01 0. 0. 0. 0. 0. 0. 0. 0.
      2.50980407e-01 1. 1. 1. 1. 1. 1. 1. 1. 2.50980407e-01 0. 0. 0. 0.
      0. 0. 0. 0. 2.50980407e-01 1. 1. 1. 1. 1. 1. 1. 1. 2.50980407e-01
      0. 0. 0. 0. 0. 0. 0. 0. 2.50980407e-01 1. 1. 1. 1. 1. 1. 1. 1.
      2.50980407e-01 0. 0. 0. 0. 0. 0. 0. 0. 1.88235298e-01
      7.49019623e-01 1. 1. 1. 1. 1. 1. 1. 2.50980407e-01 0. 0. 0. 0. 0.
      0. 0. 0. 0. 0. 1. 1. 1. 1. 1. 1. 1. 2.50980407e-01 0. 0. 0. 0. 0.
      0. 0. 0. 0. 0. 1. 1. 1. 1. 1. 1. 1. 2.50980407e-01 0. 0. 0. 0. 0.
      0. 0. 0. 0. 0. 1. 1. 1. 1. 1. 1. 1. 2.50980407e-01 0. 0. 0. 0. 0.
      0. 0. 0. 0. 0. 1. 1. 1. 1. 1. 1. 1. 2.50980407e-01 0. 0. 0. 0. 0.
      0. 0. 0. 0. 0. 1. 1. 1. 1. 1. 1. 1. 2.50980407e-01 0. 0. 0. 0. 0.
      0. 0. 0. 0. 0. 1. 1. 1. 1. 1. 1. 1. 2.50980407e-01 0. 0. 0. 0. 0.
      0. 0. 0. 0. 0. 1. 1. 1. 1. 1. 1. 1. 2.50980407e-01 0. 0. 0. 0. 0.
      0. 0. 0. 0. 0. 1. 1. 1. 1. 1. 1. 1. 2.50980407e-01 0. 0. 0. 0. 0.
      0. 0. 0. 0. 0. 1. 1. 1. 1. 1. 1. 1. 2.50980407e-01 0. 0. 0. 0. 0.
      0. 0. 0. 0. 0. 1. 1. 1. 1. 1. 1. 1. 2.50980407e-01 0. 0. 0. 0. 0.
      0. 0. 0. 0. 0. 2.50980407e-01 2.50980407e-01 2.50980407e-01
      2.50980407e-01 2.50980407e-01 2.50980407e-01 2.50980407e-01
      6.27451017e-02 0. 0. 0. 0.</_>
    <_>
      0. 0. 0. 0. 0. 0. 0. 0. 0. 0. 0. 0. 0. 0. 0. 0. 0. 0. 0. 0. 0. 0.
      0. 0. 0. 0. 0. 0. 0. 0. 0. 0. 0. 0. 0. 0. 0. 0. 0. 0. 1. 1. 1. 1.
      1. 1. 1. 1. 7.49019623e-01 0. 0. 0. 0. 0. 0. 0. 0. 0. 1. 1. 1. 1.
      1. 1. 1. 1. 7.49019623e-01 0. 0. 0. 0. 0. 0. 0. 0. 0. 1. 1. 1. 1.
      1. 1. 1. 1. 7.49019623e-01 0. 0. 0. 0. 0. 0. 0. 0. 0. 1. 1. 1. 1.
      1. 1. 1. 1. 7.49019623e-01 0. 0. 0. 0. 0. 0. 0. 0. 0. 1. 1. 1. 1.
      1. 1. 1. 1. 7.49019623e-01 0. 0. 0. 0. 0. 0. 0. 0. 0. 1. 1. 1. 1.
      1. 1. 1. 1. 7.49019623e-01 0. 0. 0. 0. 0. 0. 0. 0. 0.
      7.49019623e-01 9.37254906e-01 1. 1. 1. 1. 1. 1. 7.49019623e-01 0.
      0. 0. 0. 0. 0. 0. 0. 0. 0. 7.49019623e-01 1. 1. 1. 1. 1. 1.
      7.49019623e-01 0. 0. 0. 0. 0. 0. 0. 0. 0. 0. 7.49019623e-01 1. 1.
      1. 1. 1. 1. 7.49019623e-01 0. 0. 0. 0. 0. 0. 0. 0. 0. 0.
      7.49019623e-01 1. 1. 1. 1. 1. 1. 7.49019623e-01 0. 0. 0. 0. 0. 0.
      0. 0. 0. 0. 7.49019623e-01 1. 1. 1. 1. 1. 1. 7.49019623e-01 0. 0.
      0. 0. 0. 0. 0. 0. 0. 0. 7.49019623e-01 1. 1. 1. 1. 1. 1.
      7.49019623e-01 0. 0. 0. 0. 0. 0. 0. 0. 0. 0. 7.49019623e-01 1. 1.
      1. 1. 1. 1. 7.49019623e-01 0. 0. 0. 0. 0. 0. 0. 0. 0. 0.
      7.49019623e-01 1. 1. 1. 1. 1. 1. 7.49019623e-01 0. 0. 0. 0. 0. 0.
      0. 0. 0. 0. 7.49019623e-01 1. 1. 1. 1. 1. 1. 7.49019623e-01 0. 0.
      0. 0. 0. 0. 0. 0. 0. 0. 7.49019623e-01 1. 1. 1. 1. 1. 1.
      7.49019623e-01 0. 0. 0. 0. 0. 0. 0. 0. 0. 0. 5.60784340e-01 1. 1.
      1. 1. 1. 1. 7.49019623e-01 0. 0. 0. 0. 0. 0. 0. 0. 0. 0. 0.
      2.50980407e-01 2.50980407e-01 2.50980407e-01 2.50980407e-01
      2.50980407e-01 2.50980407e-01 1.88235298e-01 0. 0. 0. 0. 0.</_>
    <_>
      0. 0. 0. 0. 0. 0. 0. 0. 0. 0. 0. 0. 0. 0. 0. 0. 0. 0. 0. 0. 0. 0.
      0. 0. 0. 5.60784340e-01 7.49019623e-01 7.49019623e-01 0. 0. 0. 0.
      0. 0. 0. 0. 0. 0. 0. 0. 2.50980407e-01 1. 1. 1. 1. 1. 1. 1. 1.
      2.50980407e-01 0. 0. 0. 0. 0. 0. 0. 0. 2.50980407e-01 1. 1. 1. 1.
      1. 1. 1. 1. 2.50980407e-01 0. 0. 0. 0. 0. 0. 0. 0. 2.50980407e-01
      1. 1. 1. 1. 1. 1. 1. 1. 2.50980407e-01 0. 0. 0. 0. 0. 0. 0. 0.
      2.50980407e-01 1. 1. 1. 1. 1. 1. 1. 1. 2.50980407e-01 0. 0. 0. 0.
      0. 0. 0. 0. 2.50980407e-01 1. 1. 1. 1. 1. 1. 1. 1. 2.50980407e-01
      0. 0. 0. 0. 0. 0. 0. 0. 2.50980407e-01 1. 1. 1. 1. 1. 1. 1. 1.
      2.50980407e-01 0. 0. 0. 0. 0. 0. 0. 0. 1.88235298e-01
      7.49019623e-01 1. 1. 1. 1. 1. 1. 1. 2.50980407e-01 0. 0. 0. 0. 0.
      0. 0. 0. 0. 0. 1. 1. 1. 1. 1. 1. 1. 2.50980407e-01 0. 0. 0. 0. 0.
      0. 0. 0. 0. 0. 1. 1. 1. 1. 1. 1. 1. 2.50980407e-01 0. 0. 0. 0. 0.
      0. 0. 0. 0. 0. 1. 1. 1. 1. 1. 1. 1. 2.50980407e-01 0. 0. 0. 0. 0.
      0. 0. 0. 0. 0. 1. 1. 1. 1. 1. 1. 1. 2.50980407e-01 0. 0. 0. 0. 0.
      0. 0. 0. 0. 0. 1. 1. 1. 1. 1. 1. 1. 2.50980407e-01 0. 0. 0. 0. 0.
      0. 0. 0. 0. 0. 1. 1. 1. 1. 1. 1. 1. 2.50980407e-01 0. 0. 0. 0. 0.
      0. 0. 0. 0. 0. 1. 1. 1. 1. 1. 1. 1. 2.50980407e-01 0. 0. 0. 0. 0.
      0. 0. 0. 0. 0. 1. 1. 1. 1. 1. 1. 1. 2.50980407e-01 0. 0. 0. 0. 0.
      0. 0. 0. 0. 0. 1. 1. 1. 1. 1. 1. 1. 2.50980407e-01 0. 0. 0. 0. 0.
      0. 0. 0. 0. 0. 1. 1. 1. 1. 1. 1. 1. 2.50980407e-01 0. 0. 0. 0. 0.
      0. 0. 0. 0. 0. 2.50980407e-01 2.50980407e-01 2.50980407e-01
      2.50980407e-01 2.50980407e-01 2.50980407e-01 2.50980407e-01
      6.27451017e-02 0. 0. 0. 0.</_>
    <_>
      0. 0. 0. 0. 0. 0. 0. 0. 0. 0. 0. 0. 0. 0. 0. 0. 0. 0. 0. 0. 0. 0.
      0. 0. 0. 5.60784340e-01 5.60784340e-01 0. 0. 0. 0. 0. 0. 0. 0. 0.
      0. 0. 0. 0. 4.39215690e-01 1. 1. 1. 1. 1. 1. 1. 1. 2.50980407e-01
      0. 0. 0. 0. 0. 0. 0. 0. 1. 1. 1. 1. 1. 1. 1. 1. 1. 2.50980407e-01
      0. 0. 0. 0. 0. 0. 0. 0. 1. 1. 1. 1. 1. 1. 1. 1. 1. 2.50980407e-01
      0. 0. 0. 0. 0. 0. 0. 0. 1. 1. 1. 1. 1. 1. 1. 1. 1. 2.50980407e-01
      0. 0. 0. 0. 0. 0. 0. 0. 1. 1. 1. 1. 1. 1. 1. 1. 1. 2.50980407e-01
      0. 0. 0. 0. 0. 0. 0. 0. 1. 1. 1. 1. 1. 1. 1. 1. 1. 2.50980407e-01
      0. 0. 0. 0. 0. 0. 0. 0. 7.49019623e-01 7.49019623e-01 1. 1. 1. 1.
      1. 1. 1. 2.50980407e-01 0. 0. 0. 0. 0. 0. 0. 0. 0. 0. 1. 1. 1. 1.
      1. 1. 1. 2.50980407e-01 0. 0. 0. 0. 0. 0. 0. 0. 0. 0. 1. 1. 1. 1.
      1. 1. 1. 2.50980407e-01 0. 0. 0. 0. 0. 0. 0. 0. 0. 0. 1. 1. 1. 1.
      1. 1. 1. 2.50980407e-01 0. 0. 0. 0. 0. 0. 0. 0. 0. 0. 1. 1. 1. 1.
      1. 1. 1. 2.50980407e-01 0. 0. 0. 0. 0. 0. 0. 0. 0. 0. 1. 1. 1. 1.
      1. 1. 1. 2.50980407e-01 0. 0. 0. 0. 0. 0. 0. 0. 0. 0. 1. 1. 1. 1.
      1. 1. 1. 2.50980407e-01 0. 0. 0. 0. 0. 0. 0. 0. 0. 0. 1. 1. 1. 1.
      1. 1. 1. 2.50980407e-01 0. 0. 0. 0. 0. 0. 0. 0. 0. 0. 1. 1. 1. 1.
      1. 1. 1. 2.50980407e-01 0. 0. 0. 0. 0. 0. 0. 0. 0. 0. 1. 1. 1. 1.
      1. 1. 1. 2.50980407e-01 0. 0. 0. 0. 0. 0. 0. 0. 0. 0. 1. 1. 1. 1.
      1. 1. 1. 2.50980407e-01 0. 0. 0. 0. 0. 0. 0. 0. 0. 0.
      2.50980407e-01 2.50980407e-01 2.50980407e-01 2.50980407e-01
      2.50980407e-01 2.50980407e-01 2.50980407e-01 6.27451017e-02 0. 0.
      0. 0.</_>
    <_>
      0. 0. 0. 0. 0. 0. 0. 0. 0. 0. 0. 0. 0. 0. 0. 0. 0. 0. 0. 0. 0. 0.
      0. 0. 0. 5.60784340e-01 5.60784340e-01 0. 0. 0. 0. 0. 0. 0. 0. 0.
      0. 0. 0. 0. 1. 1. 1. 1. 1. 1. 1. 1. 7.49019623e-01 0. 0. 0. 0. 0.
      0. 0. 0. 0. 1. 1. 1. 1. 1. 1. 1. 1. 7.49019623e-01 0. 0. 0. 0. 0.
      0. 0. 0. 0. 1. 1. 1. 1. 1. 1. 1. 1. 7.49019623e-01 0. 0. 0. 0. 0.
      0. 0. 0. 0. 1. 1. 1. 1. 1. 1. 1. 1. 7.49019623e-01 0. 0. 0. 0. 0.
      0. 0. 0. 0. 1. 1. 1. 1. 1. 1. 1. 1. 7.49019623e-01 0. 0. 0. 0. 0.
      0. 0. 0. 0. 1. 1. 1. 1. 1. 1. 1. 1. 7.49019623e-01 0. 0. 0. 0. 0.
      0. 0. 0. 0. 7.49019623e-01 9.37254906e-01 1. 1. 1. 1. 1. 1.
      7.49019623e-01 0. 0. 0. 0. 0. 0. 0. 0. 0. 0. 7.49019623e-01 1. 1.
      1. 1. 1. 1. 7.49019623e-01 0. 0. 0. 0. 0. 0. 0. 0. 0. 0.
      7.49019623e-01 1. 1. 1. 1. 1. 1. 7.49019623e-01 0. 0. 0. 0. 0. 0.
      0. 0. 0. 0. 7.49019623e-01 1. 1. 1. 1. 1. 1. 7.49019623e-01 0. 0.
      0. 0. 0. 0. 0. 0. 0. 0. 7.49019623e-01 1. 1. 1. 1. 1. 1.
      7.49019623e-01 0. 0. 0. 0. 0. 0. 0. 0. 0. 0. 7.49019623e-01 1. 1.
      1. 1. 1. 1. 7.49019623e-01 0. 0. 0. 0. 0. 0. 0. 0. 0. 0.
      7.49019623e-01 1. 1. 1. 1. 1. 1. 7.49019623e-01 0. 0. 0. 0. 0. 0.
      0. 0. 0. 0. 7.49019623e-01 1. 1. 1. 1. 1. 1. 7.49019623e-01 0. 0.
      0. 0. 0. 0. 0. 0. 0. 0. 7.49019623e-01 1. 1. 1. 1. 1. 1.
      7.49019623e-01 0. 0. 0. 0. 0. 0. 0. 0. 0. 0. 7.49019623e-01 1. 1.
      1. 1. 1. 1. 7.49019623e-01 0. 0. 0. 0. 0. 0. 0. 0. 0. 0. 0. 1. 1.
      1. 1. 1. 1. 7.49019623e-01 0. 0. 0. 0. 0. 0. 0. 0. 0. 0. 0.
      2.50980407e-01 2.50980407e-01 2.50980407e-01 2.50980407e-01
      2.50980407e-01 2.50980407e-01 1.88235298e-01 0. 0. 0. 0. 0.</_>
    <_>
      0. 0. 0. 0. 0. 0. 0. 0. 0. 0. 0. 0. 0. 0. 0. 0. 0. 0. 0. 0. 0. 0.
      0. 0. 0. 5.60784340e-01 5.60784340e-01 0. 0. 0. 0. 0. 0. 0. 0. 0.
      0. 0. 0. 0. 1. 1. 1. 1. 1. 1. 1. 1. 7.49019623e-01 0. 0. 0. 0. 0.
      0. 0. 0. 0. 1. 1. 1. 1. 1. 1. 1. 1. 7.49019623e-01 0. 0. 0. 0. 0.
      0. 0. 0. 0. 1. 1. 1. 1. 1. 1. 1. 1. 7.49019623e-01 0. 0. 0. 0. 0.
      0. 0. 0. 0. 1. 1. 1. 1. 1. 1. 1. 1. 7.49019623e-01 0. 0. 0. 0. 0.
      0. 0. 0. 0. 1. 1. 1. 1. 1. 1. 1. 1. 7.49019623e-01 0. 0. 0. 0. 0.
      0. 0. 0. 0. 1. 1. 1. 1. 1. 1. 1. 1. 7.49019623e-01 0. 0. 0. 0. 0.
      0. 0. 0. 0. 7.49019623e-01 9.37254906e-01 1. 1. 1. 1. 1. 1.
      7.49019623e-01 0. 0. 0. 0. 0. 0. 0. 0. 0. 0. 1.88235298e-01 1. 1.
      1. 1. 1. 1. 7.49019623e-01 0. 0. 0. 0. 0. 0. 0. 0. 0. 0. 0. 1. 1.
      1. 1. 1. 1. 7.49019623e-01 0. 0. 0. 0. 0. 0. 0. 0. 0. 0. 0. 1. 1.
      1. 1. 1. 1. 7.49019623e-01 0. 0. 0. 0. 0. 0. 0. 0. 0. 0. 0. 1. 1.
      1. 1. 1. 1. 7.49019623e-01 0. 0. 0. 0. 0. 0. 0. 0. 0. 0. 0. 1. 1.
      1. 1. 1. 1. 7.49019623e-01 0. 0. 0. 0. 0. 0. 0. 0. 0. 0. 0. 1. 1.
      1. 1. 1. 1. 7.49019623e-01 0. 0. 0. 0. 0. 0. 0. 0. 0. 0. 0. 1. 1.
      1. 1. 1. 1. 7.49019623e-01 0. 0. 0. 0. 0. 0. 0. 0. 0. 0. 0. 1. 1.
      1. 1. 1. 1. 7.49019623e-01 0. 0. 0. 0. 0. 0. 0. 0. 0. 0. 0. 1. 1.
      1. 1. 1. 1. 7.49019623e-01 0. 0. 0. 0. 0. 0. 0. 0. 0. 0. 0. 1. 1.
      1. 1. 1. 1. 7.49019623e-01 0. 0. 0. 0. 0. 0. 0. 0. 0. 0. 0.
      2.50980407e-01 2.50980407e-01 2.50980407e-01 2.50980407e-01
      2.50980407e-01 2.50980407e-01 1.88235298e-01 0. 0. 0. 0. 0.</_>
    <_>
      0. 0. 0. 0. 0. 0. 0. 0. 0. 0. 0. 0. 0. 0. 0. 0. 0. 0. 0. 0. 0. 0.
      0. 0. 0. 5.60784340e-01 7.49019623e-01 1.88235298e-01 0. 0. 0. 0.
      0. 0. 0. 0. 0. 0. 0. 0. 4.39215690e-01 1. 1. 1. 1. 1. 1. 1.
      7.49019623e-01 0. 0. 0. 0. 0. 0. 0. 0. 0. 1. 1. 1. 1. 1. 1. 1. 1.
      7.49019623e-01 0. 0. 0. 0. 0. 0. 0. 0. 0. 1. 1. 1. 1. 1. 1. 1. 1.
      7.49019623e-01 0. 0. 0. 0. 0. 0. 0. 0. 0. 1. 1. 1. 1. 1. 1. 1. 1.
      7.49019623e-01 0. 0. 0. 0. 0. 0. 0. 0. 0. 1. 1. 1. 1. 1. 1. 1. 1.
      7.49019623e-01 0. 0. 0. 0. 0. 0. 0. 0. 0. 1. 1. 1. 1. 1. 1. 1. 1.
      7.49019623e-01 0. 0. 0. 0. 0. 0. 0. 0. 0. 7.49019623e-01
      9.37254906e-01 1. 1. 1. 1. 1. 1. 7.49019623e-01 0. 0. 0. 0. 0. 0.
      0. 0. 0. 0. 1.88235298e-01 1. 1. 1. 1. 1. 1. 7.49019623e-01 0. 0.
      0. 0. 0. 0. 0. 0. 0. 0. 0. 1. 1. 1. 1. 1. 1. 7.49019623e-01 0. 0.
      0. 0. 0. 0. 0. 0. 0. 0. 0. 1. 1. 1. 1. 1. 1. 7.49019623e-01 0. 0.
      0. 0. 0. 0. 0. 0. 0. 0. 0. 1. 1. 1. 1. 1. 1. 7.49019623e-01 0. 0.
      0. 0. 0. 0. 0. 0. 0. 0. 0. 1. 1. 1. 1. 1. 1. 7.49019623e-01 0. 0.
      0. 0. 0. 0. 0. 0. 0. 0. 0. 1. 1. 1. 1. 1. 1. 7.49019623e-01 0. 0.
      0. 0. 0. 0. 0. 0. 0. 0. 0. 1. 1. 1. 1. 1. 1. 7.49019623e-01 0. 0.
      0. 0. 0. 0. 0. 0. 0. 0. 0. 1. 1. 1. 1. 1. 1. 7.49019623e-01 0. 0.
      0. 0. 0. 0. 0. 0. 0. 0. 0. 1. 1. 1. 1. 1. 1. 7.49019623e-01 0. 0.
      0. 0. 0. 0. 0. 0. 0. 0. 0. 1. 1. 1. 1. 1. 1. 7.49019623e-01 0. 0.
      0. 0. 0. 0. 0. 0. 0. 0. 0. 2.50980407e-01 2.50980407e-01
      2.50980407e-01 2.50980407e-01 2.50980407e-01 2.50980407e-01
      1.88235298e-01 0. 0. 0. 0. 0.</_>
    <_>
      0. 0. 0. 0. 0. 0. 0. 0. 0. 0. 0. 0. 0. 0. 0. 0. 0. 0. 0. 0. 0. 0.
      0. 0. 0. 5.60784340e-01 7.49019623e-01 1.88235298e-01 0. 0. 0. 0.
      0. 0. 0. 0. 0. 0. 0. 0. 2.50980407e-01 1. 1. 1. 1. 1. 1. 1. 1.
      2.50980407e-01 0. 0. 0. 0. 0. 0. 0. 0. 2.50980407e-01 1. 1. 1. 1.
      1. 1. 1. 1. 2.50980407e-01 0. 0. 0. 0. 0. 0. 0. 0. 2.50980407e-01
      1. 1. 1. 1. 1. 1. 1. 1. 2.50980407e-01 0. 0. 0. 0. 0. 0. 0. 0.
      2.50980407e-01 1. 1. 1. 1. 1. 1. 1. 1. 2.50980407e-01 0. 0. 0. 0.
      0. 0. 0. 0. 2.50980407e-01 1. 1. 1. 1. 1. 1. 1. 1. 2.50980407e-01
      0. 0. 0. 0. 0. 0. 0. 0. 2.50980407e-01 1. 1. 1. 1. 1. 1. 1. 1.
      2.50980407e-01 0. 0. 0. 0. 0. 0. 0. 0. 1.88235298e-01
      7.49019623e-01 1. 1. 1. 1. 1. 1. 1. 2.50980407e-01 0. 0. 0. 0. 0.
      0. 0. 0. 0. 0. 1. 1. 1. 1. 1. 1. 1. 2.50980407e-01 0. 0. 0. 0. 0.
      0. 0. 0. 0. 0. 1. 1. 1. 1. 1. 1. 1. 2.50980407e-01 0. 0. 0. 0. 0.
      0. 0. 0. 0. 0. 1. 1. 1. 1. 1. 1. 1. 2.50980407e-01 0. 0. 0. 0. 0.
      0. 0. 0. 0. 0. 1. 1. 1. 1. 1. 1. 1. 2.50980407e-01 0. 0. 0. 0. 0.
      0. 0. 0. 0. 0. 1. 1. 1. 1. 1. 1. 1. 2.50980407e-01 0. 0. 0. 0. 0.
      0. 0. 0. 0. 0. 1. 1. 1. 1. 1. 1. 1. 2.50980407e-01 0. 0. 0. 0. 0.
      0. 0. 0. 0. 0. 1. 1. 1. 1. 1. 1. 1. 2.50980407e-01 0. 0. 0. 0. 0.
      0. 0. 0. 0. 0. 1. 1. 1. 1. 1. 1. 1. 2.50980407e-01 0. 0. 0. 0. 0.
      0. 0. 0. 0. 0. 1. 1. 1. 1. 1. 1. 1. 2.50980407e-01 0. 0. 0. 0. 0.
      0. 0. 0. 0. 0. 8.11764717e-01 1. 1. 1. 1. 1. 1. 2.50980407e-01 0.
      0. 0. 0. 0. 0. 0. 0. 0. 0. 6.27451017e-02 2.50980407e-01
      2.50980407e-01 2.50980407e-01 2.50980407e-01 2.50980407e-01
      2.50980407e-01 6.27451017e-02 0. 0. 0. 0.</_>
    <_>
      0. 0. 0. 0. 0. 0. 0. 0. 0. 0. 0. 0. 0. 0. 0. 0. 0. 0. 0. 0. 0. 0.
      0. 0. 0. 5.60784340e-01 7.49019623e-01 7.49019623e-01 0. 0. 0. 0.
      0. 0. 0. 0. 0. 0. 0. 0. 2.50980407e-01 1. 1. 1. 1. 1. 1. 1. 1.
      2.50980407e-01 0. 0. 0. 0. 0. 0. 0. 0. 2.50980407e-01 1. 1. 1. 1.
      1. 1. 1. 1. 2.50980407e-01 0. 0. 0. 0. 0. 0. 0. 0. 2.50980407e-01
      1. 1. 1. 1. 1. 1. 1. 1. 2.50980407e-01 0. 0. 0. 0. 0. 0. 0. 0.
      2.50980407e-01 1. 1. 1. 1. 1. 1. 1. 1. 2.50980407e-01 0. 0. 0. 0.
      0. 0. 0. 0. 2.50980407e-01 1. 1. 1. 1. 1. 1. 1. 1. 2.50980407e-01
      0. 0. 0. 0. 0. 0. 0. 0. 2.50980407e-01 1. 1. 1. 1. 1. 1. 1. 1.
      2.50980407e-01 0. 0. 0. 0. 0. 0. 0. 0. 1.88235298e-01
      7.49019623e-01 1. 1. 1. 1. 1. 1. 1. 2.50980407e-01 0. 0. 0. 0. 0.
      0. 0. 0. 0. 0. 1. 1. 1. 1. 1. 1. 1. 2.50980407e-01 0. 0. 0. 0. 0.
      0. 0. 0. 0. 0. 1. 1. 1. 1. 1. 1. 1. 2.50980407e-01 0. 0. 0. 0. 0.
      0. 0. 0. 0. 0. 1. 1. 1. 1. 1. 1. 1. 2.50980407e-01 0. 0. 0. 0. 0.
      0. 0. 0. 0. 0. 1. 1. 1. 1. 1. 1. 1. 2.50980407e-01 0. 0. 0. 0. 0.
      0. 0. 0. 0. 0. 1. 1. 1. 1. 1. 1. 1. 2.50980407e-01 0. 0. 0. 0. 0.
      0. 0. 0. 0. 0. 1. 1. 1. 1. 1. 1. 1. 2.50980407e-01 0. 0. 0. 0. 0.
      0. 0. 0. 0. 0. 1. 1. 1. 1. 1. 1. 1. 2.50980407e-01 0. 0. 0. 0. 0.
      0. 0. 0. 0. 0. 1. 1. 1. 1. 1. 1. 1. 2.50980407e-01 0. 0. 0. 0. 0.
      0. 0. 0. 0. 0. 1. 1. 1. 1. 1. 1. 1. 2.50980407e-01 0. 0. 0. 0. 0.
      0. 0. 0. 0. 0. 8.11764717e-01 1. 1. 1. 1. 1. 1. 2.50980407e-01 0.
      0. 0. 0. 0. 0. 0. 0. 0. 0. 6.27451017e-02 2.50980407e-01
      2.50980407e-01 2.50980407e-01 2.50980407e-01 2.50980407e-01
      2.50980407e-01 6.27451017e-02 0. 0. 0. 0.</_>
    <_>
      0. 0. 0. 0. 0. 0. 0. 0. 0. 0. 0. 0. 0. 0. 0. 0. 0. 0. 0. 0. 0. 0.
      0. 0. 0. 5.60784340e-01 7.49019623e-01 1.88235298e-01 0. 0. 0. 0.
      0. 0. 0. 0. 0. 0. 0. 0. 4.39215690e-01 1. 1. 1. 1. 1. 1. 1. 1.
      2.50980407e-01 0. 0. 0. 0. 0. 0. 0. 0. 1. 1. 1. 1. 1. 1. 1. 1. 1.
      2.50980407e-01 0. 0. 0. 0. 0. 0. 0. 0. 1. 1. 1. 1. 1. 1. 1. 1. 1.
      2.50980407e-01 0. 0. 0. 0. 0. 0. 0. 0. 1. 1. 1. 1. 1. 1. 1. 1. 1.
      2.50980407e-01 0. 0. 0. 0. 0. 0. 0. 0. 1. 1. 1. 1. 1. 1. 1. 1. 1.
      2.50980407e-01 0. 0. 0. 0. 0. 0. 0. 0. 1. 1. 1. 1. 1. 1. 1. 1. 1.
      2.50980407e-01 0. 0. 0. 0. 0. 0. 0. 0. 7.49019623e-01
      7.49019623e-01 1. 1. 1. 1. 1. 1. 1. 2.50980407e-01 0. 0. 0. 0. 0.
      0. 0. 0. 0. 0. 1. 1. 1. 1. 1. 1. 1. 2.50980407e-01 0. 0. 0. 0. 0.
      0. 0. 0. 0. 0. 1. 1. 1. 1. 1. 1. 1. 2.50980407e-01 0. 0. 0. 0. 0.
      0. 0. 0. 0. 0. 1. 1. 1. 1. 1. 1. 1. 2.50980407e-01 0. 0. 0. 0. 0.
      0. 0. 0. 0. 0. 1. 1. 1. 1. 1. 1. 1. 2.50980407e-01 0. 0. 0. 0. 0.
      0. 0. 0. 0. 0. 1. 1. 1. 1. 1. 1. 1. 2.50980407e-01 0. 0. 0. 0. 0.
      0. 0. 0. 0. 0. 1. 1. 1. 1. 1. 1. 1. 2.50980407e-01 0. 0. 0. 0. 0.
      0. 0. 0. 0. 0. 1. 1. 1. 1. 1. 1. 1. 2.50980407e-01 0. 0. 0. 0. 0.
      0. 0. 0. 0. 0. 1. 1. 1. 1. 1. 1. 1. 2.50980407e-01 0. 0. 0. 0. 0.
      0. 0. 0. 0. 0. 1. 1. 1. 1. 1. 1. 1. 2.50980407e-01 0. 0. 0. 0. 0.
      0. 0. 0. 0. 0. 1. 1. 1. 1. 1. 1. 1. 2.50980407e-01 0. 0. 0. 0. 0.
      0. 0. 0. 0. 0. 2.50980407e-01 2.50980407e-01 2.50980407e-01
      2.50980407e-01 2.50980407e-01 2.50980407e-01 2.50980407e-01
      6.27451017e-02 0. 0. 0. 0.</_>
    <_>
      0. 0. 0. 0. 0. 0. 0. 0. 0. 0. 0. 0. 0. 0. 0. 0. 0. 0. 0. 0. 0. 0.
      0. 0. 0. 0. 0. 0. 0. 0. 0. 0. 0. 0. 0. 0. 0. 0. 0. 0. 1. 1. 1. 1.
      1. 1. 1. 1. 7.49019623e-01 0. 0. 0. 0. 0. 0. 0. 0. 0. 1. 1. 1. 1.
      1. 1. 1. 1. 7.49019623e-01 0. 0. 0. 0. 0. 0. 0. 0. 0. 1. 1. 1. 1.
      1. 1. 1. 1. 7.49019623e-01 0. 0. 0. 0. 0. 0. 0. 0. 0. 1. 1. 1. 1.
      1. 1. 1. 1. 7.49019623e-01 0. 0. 0. 0. 0. 0. 0. 0. 0. 1. 1. 1. 1.
      1. 1. 1. 1. 7.49019623e-01 0. 0. 0. 0. 0. 0. 0. 0. 0. 1. 1. 1. 1.
      1. 1. 1. 1. 7.49019623e-01 0. 0. 0. 0. 0. 0. 0. 0. 0.
      7.49019623e-01 9.37254906e-01 1. 1. 1. 1. 1. 1. 7.49019623e-01 0.
      0. 0. 0. 0. 0. 0. 0. 0. 0. 7.49019623e-01 1. 1. 1. 1. 1. 1.
      7.49019623e-01 0. 0. 0. 0. 0. 0. 0. 0. 0. 0. 7.49019623e-01 1. 1.
      1. 1. 1. 1. 7.49019623e-01 0. 0. 0. 0. 0. 0. 0. 0. 0. 0.
      7.49019623e-01 1. 1. 1. 1. 1. 1. 7.49019623e-01 0. 0. 0. 0. 0. 0.
      0. 0. 0. 0. 7.49019623e-01 1. 1. 1. 1. 1. 1. 7.49019623e-01 0. 0.
      0. 0. 0. 0. 0. 0. 0. 0. 7.49019623e-01 1. 1. 1. 1. 1. 1.
      7.49019623e-01 0. 0. 0. 0. 0. 0. 0. 0. 0. 0. 7.49019623e-01 1. 1.
      1. 1. 1. 1. 7.49019623e-01 0. 0. 0. 0. 0. 0. 0. 0. 0. 0.
      7.49019623e-01 1. 1. 1. 1. 1. 1. 7.49019623e-01 0. 0. 0. 0. 0. 0.
      0. 0. 0. 0. 7.49019623e-01 1. 1. 1. 1. 1. 1. 7.49019623e-01 0. 0.
      0. 0. 0. 0. 0. 0. 0. 0. 7.49019623e-01 1. 1. 1. 1. 1. 1.
      7.49019623e-01 0. 0. 0. 0. 0. 0. 0. 0. 0. 0. 0. 1. 1. 1. 1. 1. 1.
      7.49019623e-01 0. 0. 0. 0. 0. 0. 0. 0. 0. 0. 0. 2.50980407e-01
      2.50980407e-01 2.50980407e-01 2.50980407e-01 2.50980407e-01
      2.50980407e-01 1.88235298e-01 0. 0. 0. 0. 0.</_>
    <_>
      0. 0. 0. 0. 0. 0. 0. 0. 0. 0. 0. 0. 0. 0. 0. 0. 0. 0. 0. 0. 0.
      5.60784340e-01 7.49019623e-01 7.49019623e-01 7.49019623e-01
      7.49019623e-01 7.49019623e-01 7.49019623e-01 0. 0. 0. 0. 0. 0. 0.
      0. 0. 0. 1. 1. 1. 1. 1. 1. 1. 1. 1. 1. 8.11764717e-01
      6.27451017e-02 0. 0. 0. 0. 0. 0. 1. 1. 1. 1. 1. 1. 1. 1. 1. 1. 1.
      8.11764717e-01 5.60784340e-01 0. 0. 0. 0. 0. 1. 1. 1. 1. 1. 1. 1.
      1. 1. 1. 1. 1. 8.11764717e-01 6.27451017e-02 0. 0. 0. 0. 1. 1. 1.
      1. 1. 1. 1. 1. 1. 1. 1. 1. 1. 2.50980407e-01 0. 0. 0. 0. 1. 1. 1.
      1. 1. 1. 1. 1. 1. 1. 1. 1. 1. 1. 0. 0. 0. 0. 1. 1. 1. 1. 1. 1. 1.
      1. 1. 1. 1. 1. 1. 1. 0. 0. 0. 0. 7.49019623e-01 7.49019623e-01
      8.11764717e-01 1. 1. 1. 1. 1. 1. 1. 1. 1. 1. 1. 0. 0. 0. 0. 0. 0.
      6.27451017e-02 2.50980407e-01 1. 1. 1. 1. 1. 1. 1. 1. 1.
      4.39215690e-01 0. 0. 0. 0. 0. 0. 0. 0. 1.88235298e-01
      9.37254906e-01 1. 1. 1. 1. 1. 1. 1. 2.50980407e-01 0. 0. 0. 0. 0.
      0. 0. 0. 0. 7.49019623e-01 1. 1. 1. 1. 1. 1. 8.11764717e-01
      6.27451017e-02 0. 0. 0. 0. 0. 0. 0. 0. 4.39215690e-01 1. 1. 1. 1.
      1. 1. 8.11764717e-01 0. 0. 0. 0. 0. 0. 0. 0. 0. 5.60784340e-01 1.
      1. 1. 1. 1. 1. 2.50980407e-01 6.27451017e-02 0. 0. 0. 0. 0. 0.
      6.27451017e-02 2.50980407e-01 1. 1. 1. 1. 1. 1. 0. 0. 0. 0. 0. 0.
      0. 0. 0. 0. 8.11764717e-01 1. 1. 1. 1. 1. 1. 1. 7.49019623e-01
      7.49019623e-01 7.49019623e-01 7.49019623e-01 5.60784340e-01 0. 0.
      0. 0. 0. 1. 1. 1. 1. 1. 1. 1. 1. 1. 1. 1. 1. 7.49019623e-01 0. 0.
      0. 0. 0. 1. 1. 1. 1. 1. 1. 1. 1. 1. 1. 1. 1. 7.49019623e-01 0. 0.
      0. 0. 0. 7.49019623e-01 7.49019623e-01 7.49019623e-01
      7.49019623e-01 7.49019623e-01 7.49019623e-01 7.49019623e-01
      7.49019623e-01 7.49019623e-01 7.49019623e-01 7.49019623e-01
      7.49019623e-01 5.60784340e-01 0. 0. 0. 0. 0. 0. 0. 0. 0. 0. 0. 0.
      0. 0. 0. 0. 0. 0. 0. 0. 0.</_>
    <_>
      0. 0. 0. 0. 0. 0. 0. 0. 0. 0. 0. 0. 0. 0. 0. 0. 0. 0. 0. 0. 0.
      5.60784340e-01 7.49019623e-01 7.49019623e-01 7.49019623e-01
      7.49019623e-01 7.49019623e-01 7.49019623e-01 5.60784340e-01 0. 0.
      0. 0. 0. 0. 0. 0. 0. 2.50980407e-01 1. 1. 1. 1. 1. 1. 1. 1. 1.
      8.11764717e-01 2.50980407e-01 0. 0. 0. 0. 0. 0. 2.50980407e-01 1.
      1. 1. 1. 1. 1. 1. 1. 1. 1. 1. 5.60784340e-01 0. 0. 0. 0. 0.
      2.50980407e-01 1. 1. 1. 1. 1. 1. 1. 1. 1. 1. 1. 1. 4.39215690e-01
      0. 0. 0. 0. 2.50980407e-01 1. 1. 1. 1. 1. 1. 1. 1. 1. 1. 1. 1. 1.
      0. 0. 0. 0. 2.50980407e-01 1. 1. 1. 1. 1. 1. 1. 1. 1. 1. 1. 1. 1.
      1.88235298e-01 0. 0. 0. 2.50980407e-01 1. 1. 1. 1. 1. 1. 1. 1. 1.
      1. 1. 1. 1. 7.49019623e-01 0. 0. 0. 1.88235298e-01 7.49019623e-01
      7.49019623e-01 9.37254906e-01 1. 1. 1. 1. 1. 1. 1. 1. 1. 1.
      5.60784340e-01 0. 0. 0. 0. 0. 0. 1.88235298e-01 4.39215690e-01 1.
      1. 1. 1. 1. 1. 1. 1. 1. 0. 0. 0. 0. 0. 0. 0. 0. 0. 7.49019623e-01
      1. 1. 1. 1. 1. 1. 1. 8.11764717e-01 0. 0. 0. 0. 0. 0. 0. 0. 0.
      7.49019623e-01 1. 1. 1. 1. 1. 1. 8.11764717e-01 6.27451017e-02 0.
      0. 0. 0. 0. 0. 0. 0. 6.27451017e-02 8.11764717e-01 1. 1. 1. 1. 1.
      8.11764717e-01 0. 0. 0. 0. 0. 0. 0. 0. 0. 0. 8.11764717e-01 1. 1.
      1. 1. 1. 8.11764717e-01 6.27451017e-02 0. 0. 0. 0. 0. 0.
      6.27451017e-02 2.50980407e-01 4.39215690e-01 1. 1. 1. 1. 1.
      7.49019623e-01 0. 0. 0. 0. 0. 0. 0. 0. 0. 2.50980407e-01 1. 1. 1.
      1. 1. 1. 1. 9.37254906e-01 7.49019623e-01 7.49019623e-01
      7.49019623e-01 7.49019623e-01 1.88235298e-01 0. 0. 0. 0.
      2.50980407e-01 1. 1. 1. 1. 1. 1. 1. 1. 1. 1. 1. 1. 2.50980407e-01
      0. 0. 0. 0. 2.50980407e-01 1. 1. 1. 1. 1. 1. 1. 1. 1. 1. 1. 1.
      2.50980407e-01 0. 0. 0. 0. 1.88235298e-01 7.49019623e-01
      7.49019623e-01 7.49019623e-01 7.49019623e-01 7.49019623e-01
      7.49019623e-01 7.49019623e-01 7.49019623e-01 7.49019623e-01
      7.49019623e-01 7.49019623e-01 7.49019623e-01 1.88235298e-01 0. 0.
      0. 0. 0. 0. 0. 0. 0. 0. 0. 0. 0. 0. 0. 0. 0. 0. 0. 0.</_>
    <_>
      0. 0. 0. 0. 0. 0. 0. 0. 0. 0. 0. 0. 0. 0. 0. 0. 0. 0. 0. 0. 0.
      5.60784340e-01 7.49019623e-01 7.49019623e-01 7.49019623e-01
      7.49019623e-01 7.49019623e-01 7.49019623e-01 5.60784340e-01 0. 0.
      0. 0. 0. 0. 0. 0. 0. 4.39215690e-01 1. 1. 1. 1. 1. 1. 1. 1. 1.
      8.11764717e-01 2.50980407e-01 0. 0. 0. 0. 0. 0. 1. 1. 1. 1. 1. 1.
      1. 1. 1. 1. 1. 1. 5.60784340e-01 0. 0. 0. 0. 0. 1. 1. 1. 1. 1. 1.
      1. 1. 1. 1. 1. 1. 1. 2.50980407e-01 0. 0. 0. 0. 1. 1. 1. 1. 1. 1.
      1. 1. 1. 1. 1. 1. 1. 8.11764717e-01 0. 0. 0. 0. 1. 1. 1. 1. 1. 1.
      1. 1. 1. 1. 1. 1. 1. 1. 0. 0. 0. 0. 1. 1. 1. 1. 1. 1. 1. 1. 1. 1.
      1. 1. 1. 1. 0. 0. 0. 0. 7.49019623e-01 7.49019623e-01
      7.49019623e-01 9.37254906e-01 1. 1. 1. 1. 1. 1. 1. 1. 1. 1. 0. 0.
      0. 0. 0. 0. 0. 1.88235298e-01 4.39215690e-01 1. 1. 1. 1. 1. 1. 1.
      1. 1. 0. 0. 0. 0. 0. 0. 0. 0. 1.88235298e-01 9.37254906e-01 1. 1.
      1. 1. 1. 1. 1. 2.50980407e-01 0. 0. 0. 0. 0. 0. 0. 0. 0.
      7.49019623e-01 1. 1. 1. 1. 1. 1. 8.11764717e-01 6.27451017e-02 0.
      0. 0. 0. 0. 0. 0. 0. 2.50980407e-01 1. 1. 1. 1. 1. 1.
      8.11764717e-01 0. 0. 0. 0. 0. 0. 0. 0. 0. 5.60784340e-01
      8.11764717e-01 1. 1. 1. 1. 1. 2.50980407e-01 6.27451017e-02 0. 0.
      0. 0. 0. 0. 6.27451017e-02 2.50980407e-01 1. 1. 1. 1. 1. 1.
      1.88235298e-01 0. 0. 0. 0. 0. 0. 0. 0. 0. 8.11764717e-01 1. 1. 1.
      1. 1. 1. 1. 9.37254906e-01 7.49019623e-01 7.49019623e-01
      7.49019623e-01 7.49019623e-01 1.88235298e-01 0. 0. 0. 0. 1. 1. 1.
      1. 1. 1. 1. 1. 1. 1. 1. 1. 1. 2.50980407e-01 0. 0. 0. 0. 1. 1. 1.
      1. 1. 1. 1. 1. 1. 1. 1. 1. 1. 2.50980407e-01 0. 0. 0. 0.
      7.49019623e-01 7.49019623e-01 7.49019623e-01 7.49019623e-01
      7.49019623e-01 7.49019623e-01 7.49019623e-01 7.49019623e-01
      7.49019623e-01 7.49019623e-01 7.49019623e-01 7.49019623e-01
      7.49019623e-01 1.88235298e-01 0. 0. 0. 0. 0. 0. 0. 0. 0. 0. 0. 0.
      0. 0. 0. 0. 0. 0. 0. 0.</_>
    <_>
      0. 0. 0. 0. 0. 0. 0. 0. 0. 0. 0. 0. 0. 0. 0. 0. 0. 0. 0. 0. 0.
      5.60784340e-01 7.49019623e-01 7.49019623e-01 7.49019623e-01
      7.49019623e-01 7.49019623e-01 7.49019623e-01 5.60784340e-01 0. 0.
      0. 0. 0. 0. 0. 0. 0. 1. 1. 1. 1. 1. 1. 1. 1. 1. 1. 8.11764717e-01
      2.50980407e-01 0. 0. 0. 0. 0. 0. 1. 1. 1. 1. 1. 1. 1. 1. 1. 1. 1.
      1. 5.60784340e-01 0. 0. 0. 0. 0. 1. 1. 1. 1. 1. 1. 1. 1. 1. 1. 1.
      1. 1. 2.50980407e-01 0. 0. 0. 0. 1. 1. 1. 1. 1. 1. 1. 1. 1. 1. 1.
      1. 1. 8.11764717e-01 0. 0. 0. 0. 1. 1. 1. 1. 1. 1. 1. 1. 1. 1. 1.
      1. 1. 1. 0. 0. 0. 0. 1. 1. 1. 1. 1. 1. 1. 1. 1. 1. 1. 1. 1. 1. 0.
      0. 0. 0. 7.49019623e-01 7.49019623e-01 8.11764717e-01 1. 1. 1. 1.
      1. 1. 1. 1. 1. 1. 1. 0. 0. 0. 0. 0. 0. 6.27451017e-02
      2.50980407e-01 4.39215690e-01 1. 1. 1. 1. 1. 1. 1. 1. 1. 0. 0. 0.
      0. 0. 0. 0. 0. 0. 7.49019623e-01 1. 1. 1. 1. 1. 1. 1.
      2.50980407e-01 0. 0. 0. 0. 0. 0. 0. 0. 0. 7.49019623e-01 1. 1. 1.
      1. 1. 1. 8.11764717e-01 6.27451017e-02 0. 0. 0. 0. 0. 0. 0. 0.
      4.39215690e-01 1. 1. 1. 1. 1. 1. 8.11764717e-01 0. 0. 0. 0. 0. 0.
      0. 0. 0. 5.60784340e-01 1. 1. 1. 1. 1. 1. 2.50980407e-01
      6.27451017e-02 0. 0. 0. 0. 0. 0. 6.27451017e-02 2.50980407e-01 1.
      1. 1. 1. 1. 1. 1.88235298e-01 0. 0. 0. 0. 0. 0. 0. 0. 0.
      8.11764717e-01 1. 1. 1. 1. 1. 1. 1. 9.37254906e-01 7.49019623e-01
      7.49019623e-01 7.49019623e-01 7.49019623e-01 1.88235298e-01 0. 0.
      0. 0. 1. 1. 1. 1. 1. 1. 1. 1. 1. 1. 1. 1. 1. 2.50980407e-01 0. 0.
      0. 0. 1. 1. 1. 1. 1. 1. 1. 1. 1. 1. 1. 1. 1. 2.50980407e-01 0. 0.
      0. 0. 7.49019623e-01 7.49019623e-01 7.49019623e-01 7.49019623e-01
      7.49019623e-01 7.49019623e-01 7.49019623e-01 7.49019623e-01
      7.49019623e-01 7.49019623e-01 7.49019623e-01 7.49019623e-01
      7.49019623e-01 1.88235298e-01 0. 0. 0. 0. 0. 0. 0. 0. 0. 0. 0. 0.
      0. 0. 0. 0. 0. 0. 0. 0.</_>
    <_>
      0. 0. 0. 0. 0. 0. 0. 0. 0. 0. 0. 0. 0. 0. 0. 0. 0. 0. 0. 0. 0.
      5.60784340e-01 7.49019623e-01 7.49019623e-01 7.49019623e-01
      7.49019623e-01 7.49019623e-01 7.49019623e-01 5.60784340e-01 0. 0.
      0. 0. 0. 0. 0. 0. 0. 2.50980407e-01 1. 1. 1. 1. 1. 1. 1. 1. 1.
      8.11764717e-01 2.50980407e-01 0. 0. 0. 0. 0. 0. 2.50980407e-01 1.
      1. 1. 1. 1. 1. 1. 1. 1. 1. 1. 5.60784340e-01 0. 0. 0. 0. 0.
      2.50980407e-01 1. 1. 1. 1. 1. 1. 1. 1. 1. 1. 1. 1. 4.39215690e-01
      0. 0. 0. 0. 2.50980407e-01 1. 1. 1. 1. 1. 1. 1. 1. 1. 1. 1. 1. 1.
      0. 0. 0. 0. 2.50980407e-01 1. 1. 1. 1. 1. 1. 1. 1. 1. 1. 1. 1. 1.
      1.88235298e-01 0. 0. 0. 2.50980407e-01 1. 1. 1. 1. 1. 1. 1. 1. 1.
      1. 1. 1. 1. 7.49019623e-01 0. 0. 0. 1.88235298e-01 7.49019623e-01
      7.49019623e-01 9.37254906e-01 1. 1. 1. 1. 1. 1. 1. 1. 1. 1.
      5.60784340e-01 0. 0. 0. 0. 0. 0. 1.88235298e-01 4.39215690e-01 1.
      1. 1. 1. 1. 1. 1. 1. 1. 0. 0. 0. 0. 0. 0. 0. 0. 0. 7.49019623e-01
      1. 1. 1. 1. 1. 1. 1. 8.11764717e-01 0. 0. 0. 0. 0. 0. 0. 0. 0.
      7.49019623e-01 1. 1. 1. 1. 1. 1. 8.11764717e-01 6.27451017e-02 0.
      0. 0. 0. 0. 0. 0. 0. 6.27451017e-02 8.11764717e-01 1. 1. 1. 1. 1.
      8.11764717e-01 0. 0. 0. 0. 0. 0. 0. 0. 0. 0. 8.11764717e-01 1. 1.
      1. 1. 1. 2.50980407e-01 6.27451017e-02 0. 0. 0. 0. 0. 0.
      6.27451017e-02 2.50980407e-01 4.39215690e-01 1. 1. 1. 1. 1.
      7.49019623e-01 0. 0. 0. 0. 0. 0. 0. 0. 0. 2.50980407e-01 1. 1. 1.
      1. 1. 1. 1. 9.37254906e-01 7.49019623e-01 7.49019623e-01
      7.49019623e-01 7.49019623e-01 1.88235298e-01 0. 0. 0. 0.
      2.50980407e-01 1. 1. 1. 1. 1. 1. 1. 1. 1. 1. 1. 1. 2.50980407e-01
      0. 0. 0. 0. 2.50980407e-01 1. 1. 1. 1. 1. 1. 1. 1. 1. 1. 1. 1.
      2.50980407e-01 0. 0. 0. 0. 1.88235298e-01 7.49019623e-01
      7.49019623e-01 7.49019623e-01 7.49019623e-01 7.49019623e-01
      7.49019623e-01 7.49019623e-01 7.49019623e-01 7.49019623e-01
      7.49019623e-01 7.49019623e-01 7.49019623e-01 1.88235298e-01 0. 0.
      0. 0. 0. 0. 0. 0. 0. 0. 0. 0. 0. 0. 0. 0. 0. 0. 0. 0.</_>
    <_>
      0. 0. 0. 0. 0. 0. 0. 0. 0. 0. 0. 0. 0. 0. 0. 0. 0. 0. 0. 0. 0.
      5.60784340e-01 7.49019623e-01 7.49019623e-01 7.49019623e-01
      7.49019623e-01 7.49019623e-01 7.49019623e-01 0. 0. 0. 0. 0. 0. 0.
      0. 0. 0. 4.39215690e-01 1. 1. 1. 1. 1. 1. 1. 1. 1. 8.11764717e-01
      2.50980407e-01 0. 0. 0. 0. 0. 0. 1. 1. 1. 1. 1. 1. 1. 1. 1. 1. 1.
      1. 5.60784340e-01 0. 0. 0. 0. 0. 1. 1. 1. 1. 1. 1. 1. 1. 1. 1. 1.
      1. 1. 2.50980407e-01 0. 0. 0. 0. 1. 1. 1. 1. 1. 1. 1. 1. 1. 1. 1.
      1. 1. 8.11764717e-01 0. 0. 0. 0. 1. 1. 1. 1. 1. 1. 1. 1. 1. 1. 1.
      1. 1. 1. 0. 0. 0. 0. 1. 1. 1. 1. 1. 1. 1. 1. 1. 1. 1. 1. 1. 1. 0.
      0. 0. 0. 7.49019623e-01 7.49019623e-01 7.49019623e-01
      9.37254906e-01 1. 1. 1. 1. 1. 1. 1. 1. 1. 1. 0. 0. 0. 0. 0. 0. 0.
      1.88235298e-01 4.39215690e-01 1. 1. 1. 1. 1. 1. 1. 1. 1. 0. 0. 0.
      0. 0. 0. 0. 0. 0. 7.49019623e-01 1. 1. 1. 1. 1. 1. 1.
      2.50980407e-01 0. 0. 0. 0. 0. 0. 0. 0. 0. 7.49019623e-01 1. 1. 1.
      1. 1. 1. 8.11764717e-01 6.27451017e-02 0. 0. 0. 0. 0. 0. 0. 0.
      6.27451017e-02 8.11764717e-01 1. 1. 1. 1. 1. 8.11764717e-01 0. 0.
      0. 0. 0. 0. 0. 0. 0. 5.60784340e-01 8.11764717e-01 1. 1. 1. 1. 1.
      2.50980407e-01 6.27451017e-02 0. 0. 0. 0. 0. 0. 6.27451017e-02
      2.50980407e-01 4.39215690e-01 1. 1. 1. 1. 1. 0. 0. 0. 0. 0. 0. 0.
      0. 0. 0. 8.11764717e-01 1. 1. 1. 1. 1. 1. 1. 7.49019623e-01
      7.49019623e-01 7.49019623e-01 7.49019623e-01 7.49019623e-01
      1.88235298e-01 0. 0. 0. 0. 1. 1. 1. 1. 1. 1. 1. 1. 1. 1. 1. 1. 1.
      2.50980407e-01 0. 0. 0. 0. 1. 1. 1. 1. 1. 1. 1. 1. 1. 1. 1. 1. 1.
      2.50980407e-01 0. 0. 0. 0. 7.49019623e-01 7.49019623e-01
      7.49019623e-01 7.49019623e-01 7.49019623e-01 7.49019623e-01
      7.49019623e-01 7.49019623e-01 7.49019623e-01 7.49019623e-01
      7.49019623e-01 7.49019623e-01 7.49019623e-01 1.88235298e-01 0. 0.
      0. 0. 0. 0. 0. 0. 0. 0. 0. 0. 0. 0. 0. 0. 0. 0. 0. 0.</_>
    <_>
      0. 0. 0. 0. 0. 0. 0. 0. 0. 0. 0. 0. 0. 0. 0. 0. 0. 0. 0. 0. 0.
      5.60784340e-01 7.49019623e-01 7.49019623e-01 7.49019623e-01
      7.49019623e-01 7.49019623e-01 7.49019623e-01 5.60784340e-01 0. 0.
      0. 0. 0. 0. 0. 0. 0. 1. 1. 1. 1. 1. 1. 1. 1. 1. 1. 2.50980407e-01
      6.27451017e-02 0. 0. 0. 0. 0. 0. 1. 1. 1. 1. 1. 1. 1. 1. 1. 1. 1.
      8.11764717e-01 5.60784340e-01 0. 0. 0. 0. 0. 1. 1. 1. 1. 1. 1. 1.
      1. 1. 1. 1. 1. 8.11764717e-01 6.27451017e-02 0. 0. 0. 0. 1. 1. 1.
      1. 1. 1. 1. 1. 1. 1. 1. 1. 1. 8.11764717e-01 0. 0. 0. 0. 1. 1. 1.
      1. 1. 1. 1. 1. 1. 1. 1. 1. 1. 1. 0. 0. 0. 0. 1. 1. 1. 1. 1. 1. 1.
      1. 1. 1. 1. 1. 1. 1. 0. 0. 0. 0. 7.49019623e-01 7.49019623e-01
      7.49019623e-01 9.37254906e-01 1. 1. 1. 1. 1. 1. 1. 1. 1. 1. 0. 0.
      0. 0. 0. 0. 0. 1.88235298e-01 1. 1. 1. 1. 1. 1. 1. 1. 1.
      4.39215690e-01 0. 0. 0. 0. 0. 0. 0. 0. 1.88235298e-01
      9.37254906e-01 1. 1. 1. 1. 1. 1. 9.37254906e-01 1.88235298e-01 0.
      0. 0. 0. 0. 0. 0. 0. 0. 7.49019623e-01 1. 1. 1. 1. 1. 1.
      7.49019623e-01 0. 0. 0. 0. 0. 0. 0. 0. 0. 2.50980407e-01 1. 1. 1.
      1. 1. 9.37254906e-01 7.49019623e-01 0. 0. 0. 0. 0. 0. 0. 0. 0.
      5.60784340e-01 8.11764717e-01 1. 1. 1. 1. 1. 1.88235298e-01 0. 0.
      0. 0. 0. 0. 0. 6.27451017e-02 2.50980407e-01 1. 1. 1. 1. 1. 1.
      1.88235298e-01 0. 0. 0. 0. 0. 0. 0. 0. 0. 8.11764717e-01 1. 1. 1.
      1. 1. 1. 1. 9.37254906e-01 7.49019623e-01 7.49019623e-01
      7.49019623e-01 5.60784340e-01 0. 0. 0. 0. 0. 1. 1. 1. 1. 1. 1. 1.
      1. 1. 1. 1. 1. 7.49019623e-01 0. 0. 0. 0. 0. 1. 1. 1. 1. 1. 1. 1.
      1. 1. 1. 1. 1. 7.49019623e-01 0. 0. 0. 0. 0. 7.49019623e-01
      7.49019623e-01 7.49019623e-01 7.49019623e-01 7.49019623e-01
      7.49019623e-01 7.49019623e-01 7.49019623e-01 7.49019623e-01
      7.49019623e-01 7.49019623e-01 7.49019623e-01 5.60784340e-01 0. 0.
      0. 0. 0. 0. 0. 0. 0. 0. 0. 0. 0. 0. 0. 0. 0. 0. 0. 0. 0.</_>
    <_>
      0. 0. 0. 0. 0. 0. 0. 0. 0. 0. 0. 0. 0. 0. 0. 0. 0. 0. 0. 0. 0.
      5.60784340e-01 1.88235298e-01 7.49019623e-01 7.49019623e-01
      7.49019623e-01 7.49019623e-01 7.49019623e-01 0. 0. 0. 0. 0. 0. 0.
      0. 0. 0. 1. 1. 1. 1. 1. 1. 1. 1. 1. 1. 8.11764717e-01
      2.50980407e-01 0. 0. 0. 0. 0. 0. 1. 1. 1. 1. 1. 1. 1. 1. 1. 1. 1.
      1. 5.60784340e-01 0. 0. 0. 0. 0. 1. 1. 1. 1. 1. 1. 1. 1. 1. 1. 1.
      1. 1. 2.50980407e-01 0. 0. 0. 0. 1. 1. 1. 1. 1. 1. 1. 1. 1. 1. 1.
      1. 1. 8.11764717e-01 0. 0. 0. 0. 1. 1. 1. 1. 1. 1. 1. 1. 1. 1. 1.
      1. 1. 1. 0. 0. 0. 0. 1. 1. 1. 1. 1. 1. 1. 1. 1. 1. 1. 1. 1. 1. 0.
      0. 0. 0. 7.49019623e-01 7.49019623e-01 7.49019623e-01
      9.37254906e-01 1. 1. 1. 1. 1. 1. 1. 1. 1. 1. 0. 0. 0. 0. 0. 0. 0.
      1.88235298e-01 1. 1. 1. 1. 1. 1. 1. 1. 1. 1. 0. 0. 0. 0. 0. 0. 0.
      0. 0. 7.49019623e-01 1. 1. 1. 1. 1. 1. 1. 2.50980407e-01 0. 0. 0.
      0. 0. 0. 0. 0. 0. 7.49019623e-01 1. 1. 1. 1. 1. 1. 8.11764717e-01
      6.27451017e-02 0. 0. 0. 0. 0. 0. 0. 0. 6.27451017e-02
      8.11764717e-01 1. 1. 1. 1. 1. 8.11764717e-01 0. 0. 0. 0. 0. 0. 0.
      0. 0. 5.60784340e-01 8.11764717e-01 1. 1. 1. 1. 1. 2.50980407e-01
      6.27451017e-02 0. 0. 0. 0. 0. 0. 6.27451017e-02 2.50980407e-01
      4.39215690e-01 1. 1. 1. 1. 1. 0. 0. 0. 0. 0. 0. 0. 0. 0. 0.
      8.11764717e-01 1. 1. 1. 1. 1. 1. 1. 7.49019623e-01 7.49019623e-01
      7.49019623e-01 7.49019623e-01 7.49019623e-01 1.88235298e-01 0. 0.
      0. 0. 1. 1. 1. 1. 1. 1. 1. 1. 1. 1. 1. 1. 1. 2.50980407e-01 0. 0.
      0. 0. 1. 1. 1. 1. 1. 1. 1. 1. 1. 1. 1. 1. 1. 2.50980407e-01 0. 0.
      0. 0. 7.49019623e-01 7.49019623e-01 7.49019623e-01 7.49019623e-01
      7.49019623e-01 7.49019623e-01 7.49019623e-01 7.49019623e-01
      7.49019623e-01 7.49019623e-01 7.49019623e-01 7.49019623e-01
      7.49019623e-01 1.88235298e-01 0. 0. 0. 0. 0. 0. 0. 0. 0. 0. 0. 0.
      0. 0. 0. 0. 0. 0. 0. 0.</_>
    <_>
      0. 0. 0. 0. 0. 0. 0. 0. 0. 0. 0. 0. 0. 0. 0. 0. 0. 0. 0. 0. 0.
      5.60784340e-01 7.49019623e-01 7.49019623e-01 7.49019623e-01
      7.49019623e-01 7.49019623e-01 7.49019623e-01 5.60784340e-01 0. 0.
      0. 0. 0. 0. 0. 0. 0. 2.50980407e-01 1. 1. 1. 1. 1. 1. 1. 1. 1.
      8.11764717e-01 2.50980407e-01 0. 0. 0. 0. 0. 0. 2.50980407e-01 1.
      1. 1. 1. 1. 1. 1. 1. 1. 1. 1. 5.60784340e-01 0. 0. 0. 0. 0.
      4.39215690e-01 1. 1. 1. 1. 1. 1. 1. 1. 1. 1. 1. 1. 4.39215690e-01
      0. 0. 0. 0. 1. 1. 1. 1. 1. 1. 1. 1. 1. 1. 1. 1. 1. 1. 0. 0. 0. 0.
      1. 1. 1. 1. 1. 1. 1. 1. 1. 1. 1. 1. 1. 1. 7.49019623e-01 0. 0. 0.
      1. 1. 1. 1. 1. 1. 1. 1. 1. 1. 1. 1. 1. 1. 7.49019623e-01 0. 0. 0.
      1.88235298e-01 7.49019623e-01 7.49019623e-01 9.37254906e-01 1. 1.
      1. 1. 1. 1. 1. 1. 1. 1. 7.49019623e-01 0. 0. 0. 0. 0. 0.
      1.88235298e-01 4.39215690e-01 1. 1. 1. 1. 1. 1. 1. 1. 1.
      1.88235298e-01 0. 0. 0. 0. 0. 0. 0. 0. 7.49019623e-01 1. 1. 1. 1.
      1. 1. 1. 8.11764717e-01 0. 0. 0. 0. 0. 0. 0. 0. 0. 7.49019623e-01
      1. 1. 1. 1. 1. 1. 8.11764717e-01 6.27451017e-02 0. 0. 0. 0. 0. 0.
      0. 0. 6.27451017e-02 8.11764717e-01 1. 1. 1. 1. 1. 8.11764717e-01
      0. 0. 0. 0. 0. 0. 0. 0. 0. 5.60784340e-01 8.11764717e-01 1. 1. 1.
      1. 1. 2.50980407e-01 6.27451017e-02 0. 0. 0. 0. 0. 0.
      6.27451017e-02 2.50980407e-01 4.39215690e-01 1. 1. 1. 1. 1.
      7.49019623e-01 0. 0. 0. 0. 0. 0. 0. 0. 0. 8.11764717e-01 1. 1. 1.
      1. 1. 1. 1. 9.37254906e-01 7.49019623e-01 7.49019623e-01
      7.49019623e-01 7.49019623e-01 1.88235298e-01 0. 0. 0. 0. 1. 1. 1.
      1. 1. 1. 1. 1. 1. 1. 1. 1. 1. 2.50980407e-01 0. 0. 0. 0. 1. 1. 1.
      1. 1. 1. 1. 1. 1. 1. 1. 1. 1. 2.50980407e-01 0. 0. 0. 0.
      7.49019623e-01 7.49019623e-01 7.49019623e-01 7.49019623e-01
      7.49019623e-01 7.49019623e-01 7.49019623e-01 7.49019623e-01
      7.49019623e-01 7.49019623e-01 7.49019623e-01 7.49019623e-01
      7.49019623e-01 1.88235298e-01 0. 0. 0. 0. 0. 0. 0. 0. 0. 0. 0. 0.
      0. 0. 0. 0. 0. 0. 0. 0.</_>
    <_>
      0. 0. 0. 0. 0. 0. 0. 0. 0. 0. 0. 0. 0. 0. 0. 0. 0. 0. 0. 0. 0.
      5.60784340e-01 7.49019623e-01 7.49019623e-01 7.49019623e-01
      7.49019623e-01 7.49019623e-01 7.49019623e-01 0. 0. 0. 0. 0. 0. 0.
      0. 0. 0. 1. 1. 1. 1. 1. 1. 1. 1. 1. 1. 2.50980407e-01
      6.27451017e-02 0. 0. 0. 0. 0. 0. 1. 1. 1. 1. 1. 1. 1. 1. 1. 1. 1.
      8.11764717e-01 5.60784340e-01 0. 0. 0. 0. 0. 1. 1. 1. 1. 1. 1. 1.
      1. 1. 1. 1. 1. 8.11764717e-01 6.27451017e-02 0. 0. 0. 0. 1. 1. 1.
      1. 1. 1. 1. 1. 1. 1. 1. 1. 1. 2.50980407e-01 0. 0. 0. 0. 1. 1. 1.
      1. 1. 1. 1. 1. 1. 1. 1. 1. 1. 1. 0. 0. 0. 0. 1. 1. 1. 1. 1. 1. 1.
      1. 1. 1. 1. 1. 1. 1. 0. 0. 0. 0. 7.49019623e-01 7.49019623e-01
      8.11764717e-01 1. 1. 1. 1. 1. 1. 1. 1. 1. 1. 1. 0. 0. 0. 0. 0. 0.
      6.27451017e-02 2.50980407e-01 1. 1. 1. 1. 1. 1. 1. 1. 1.
      4.39215690e-01 0. 0. 0. 0. 0. 0. 0. 0. 1.88235298e-01
      9.37254906e-01 1. 1. 1. 1. 1. 1. 9.37254906e-01 1.88235298e-01 0.
      0. 0. 0. 0. 0. 0. 0. 0. 7.49019623e-01 1. 1. 1. 1. 1. 1.
      7.49019623e-01 0. 0. 0. 0. 0. 0. 0. 0. 0. 2.50980407e-01 1. 1. 1.
      1. 1. 1. 8.11764717e-01 0. 0. 0. 0. 0. 0. 0. 0. 0. 5.60784340e-01
      8.11764717e-01 1. 1. 1. 1. 1. 2.50980407e-01 6.27451017e-02 0. 0.
      0. 0. 0. 0. 6.27451017e-02 2.50980407e-01 1. 1. 1. 1. 1. 1. 0. 0.
      0. 0. 0. 0. 0. 0. 0. 0. 8.11764717e-01 1. 1. 1. 1. 1. 1. 1.
      7.49019623e-01 7.49019623e-01 7.49019623e-01 7.49019623e-01
      5.60784340e-01 0. 0. 0. 0. 0. 1. 1. 1. 1. 1. 1. 1. 1. 1. 1. 1. 1.
      7.49019623e-01 0. 0. 0. 0. 0. 1. 1. 1. 1. 1. 1. 1. 1. 1. 1. 1. 1.
      7.49019623e-01 0. 0. 0. 0. 0. 7.49019623e-01 7.49019623e-01
      7.49019623e-01 7.49019623e-01 7.49019623e-01 7.49019623e-01
      7.49019623e-01 7.49019623e-01 7.49019623e-01 7.49019623e-01
      7.49019623e-01 7.49019623e-01 5.60784340e-01 0. 0. 0. 0. 0. 0. 0.
      0. 0. 0. 0. 0. 0. 0. 0. 0. 0. 0. 0. 0. 0.</_>
    <_>
      0. 0. 0. 0. 0. 0. 0. 0. 0. 0. 0. 0. 0. 0. 0. 0. 0. 0. 0. 0.
      1.88235298e-01 7.49019623e-01 7.49019623e-01 7.49019623e-01
      7.49019623e-01 7.49019623e-01 7.49019623e-01 7.49019623e-01
      5.60784340e-01 0. 0. 0. 0. 0. 0. 0. 0. 0. 1. 1. 1. 1. 1. 1. 1. 1.
      1. 1. 8.11764717e-01 2.50980407e-01 0. 0. 0. 0. 0. 0. 1. 1. 1. 1.
      1. 1. 1. 1. 1. 1. 1. 1. 5.60784340e-01 0. 0. 0. 0. 0. 1. 1. 1. 1.
      1. 1. 1. 1. 1. 1. 1. 1. 1. 2.50980407e-01 0. 0. 0. 0. 1. 1. 1. 1.
      1. 1. 1. 1. 1. 1. 1. 1. 1. 2.50980407e-01 0. 0. 0. 0. 1. 1. 1. 1.
      1. 1. 1. 1. 1. 1. 1. 1. 1. 1. 0. 0. 0. 0. 1. 1. 1. 1. 1. 1. 1. 1.
      1. 1. 1. 1. 1. 1. 0. 0. 0. 0. 7.49019623e-01 7.49019623e-01
      8.11764717e-01 1. 1. 1. 1. 1. 1. 1. 1. 1. 1. 1. 0. 0. 0. 0. 0. 0.
      6.27451017e-02 2.50980407e-01 1. 1. 1. 1. 1. 1. 1. 1. 1.
      4.39215690e-01 0. 0. 0. 0. 0. 0. 0. 0. 1.88235298e-01
      9.37254906e-01 1. 1. 1. 1. 1. 1. 9.37254906e-01 1.88235298e-01 0.
      0. 0. 0. 0. 0. 0. 0. 0. 7.49019623e-01 1. 1. 1. 1. 1. 1.
      7.49019623e-01 0. 0. 0. 0. 0. 0. 0. 0. 0. 4.39215690e-01 1. 1. 1.
      1. 1. 1. 8.11764717e-01 0. 0. 0. 0. 0. 0. 0. 0. 0. 5.60784340e-01
      1. 1. 1. 1. 1. 1. 2.50980407e-01 6.27451017e-02 0. 0. 0. 0. 0. 0.
      2.50980407e-01 2.50980407e-01 1. 1. 1. 1. 1. 1. 0. 0. 0. 0. 0. 0.
      0. 0. 0. 0. 1. 1. 1. 1. 1. 1. 1. 1. 7.49019623e-01 7.49019623e-01
      7.49019623e-01 7.49019623e-01 7.49019623e-01 1.88235298e-01 0. 0.
      0. 0. 1. 1. 1. 1. 1. 1. 1. 1. 1. 1. 1. 1. 9.37254906e-01
      1.88235298e-01 0. 0. 0. 0. 1. 1. 1. 1. 1. 1. 1. 1. 1. 1. 1. 1.
      7.49019623e-01 0. 0. 0. 0. 0. 7.49019623e-01 7.49019623e-01
      7.49019623e-01 7.49019623e-01 7.49019623e-01 7.49019623e-01
      7.49019623e-01 7.49019623e-01 7.49019623e-01 7.49019623e-01
      7.49019623e-01 7.49019623e-01 5.60784340e-01 0. 0. 0. 0. 0. 0. 0.
      0. 0. 0. 0. 0. 0. 0. 0. 0. 0. 0. 0. 0. 0.</_>
    <_>
      0. 0. 0. 0. 0. 0. 0. 0. 0. 0. 0. 0. 0. 0. 0. 0. 0. 0. 0. 0.
      1.88235298e-01 7.49019623e-01 7.49019623e-01 7.49019623e-01
      7.49019623e-01 7.49019623e-01 7.49019623e-01 1.88235298e-01 0. 0.
      0. 0. 0. 0. 0. 0. 0. 0. 1. 1. 1. 1. 1. 1. 1. 1. 1. 1.
      2.50980407e-01 6.27451017e-02 0. 0. 0. 0. 0. 0. 1. 1. 1. 1. 1. 1.
      1. 1. 1. 1. 1. 8.11764717e-01 0. 0. 0. 0. 0. 0. 1. 1. 1. 1. 1. 1.
      1. 1. 1. 1. 1. 1. 7.49019623e-01 0. 0. 0. 0. 0. 1. 1. 1. 1. 1. 1.
      1. 1. 1. 1. 1. 1. 9.37254906e-01 1.88235298e-01 0. 0. 0. 0. 1. 1.
      1. 1. 1. 1. 1. 1. 1. 1. 1. 1. 1. 2.50980407e-01 0. 0. 0. 0. 1. 1.
      1. 1. 1. 1. 1. 1. 1. 1. 1. 1. 1. 2.50980407e-01 0. 0. 0. 0. 0. 0.
      0. 0. 1. 1. 1. 1. 1. 1. 1. 1. 9.37254906e-01 1.88235298e-01 0. 0.
      0. 0. 0. 0. 0. 0. 4.39215690e-01 1. 1. 1. 1. 1. 1. 1.
      7.49019623e-01 0. 0. 0. 0. 0. 0. 0. 0. 0. 1. 1. 1. 1. 1. 1. 1. 1.
      0. 0. 0. 0. 0. 0. 1.88235298e-01 1.88235298e-01 7.49019623e-01
      7.49019623e-01 1. 1. 1. 1. 1. 1. 1. 1. 5.60784340e-01 0. 0. 0. 0.
      0. 1.88235298e-01 7.49019623e-01 7.49019623e-01 9.37254906e-01 1.
      1. 1. 1. 1. 1. 1. 1. 1. 2.50980407e-01 0. 0. 0. 0. 0. 0. 0.
      1.88235298e-01 1. 1. 1. 1. 1. 1. 1. 1. 1. 2.50980407e-01 0. 0. 0.
      0. 0. 0. 0. 0. 4.39215690e-01 1. 1. 1. 1. 1. 1. 1. 1.
      2.50980407e-01 0. 0. 0. 0. 0. 0. 0. 0. 1. 1. 1. 1. 1. 1. 1. 1. 1.
      2.50980407e-01 0. 0. 0. 0. 2.50980407e-01 1. 1. 1. 1. 1. 1. 1. 1.
      1. 1. 1. 7.49019623e-01 0. 0. 0. 0. 0. 2.50980407e-01 1. 1. 1. 1.
      1. 1. 1. 1. 1. 1. 4.39215690e-01 1.88235298e-01 0. 0. 0. 0. 0. 0.
      5.60784340e-01 7.49019623e-01 7.49019623e-01 7.49019623e-01
      7.49019623e-01 7.49019623e-01 7.49019623e-01 7.49019623e-01
      7.49019623e-01 0. 0. 0. 0. 0. 0. 0. 0. 0. 0. 0. 0. 0. 0. 0. 0. 0.
      0. 0. 0. 0. 0. 0. 0.</_>
    <_>
      0. 0. 0. 0. 0. 0. 0. 0. 0. 0. 0. 0. 0. 0. 0. 0. 0. 0. 0. 0.
      1.88235298e-01 7.49019623e-01 7.49019623e-01 7.49019623e-01
      7.49019623e-01 7.49019623e-01 7.49019623e-01 1.88235298e-01 0. 0.
      0. 0. 0. 0. 0. 0. 0. 0. 1. 1. 1. 1. 1. 1. 1. 1. 1. 1.
      2.50980407e-01 6.27451017e-02 0. 0. 0. 0. 0. 0. 1. 1. 1. 1. 1. 1.
      1. 1. 1. 1. 1. 8.11764717e-01 0. 0. 0. 0. 0. 0. 1. 1. 1. 1. 1. 1.
      1. 1. 1. 1. 1. 1. 7.49019623e-01 0. 0. 0. 0. 0. 1. 1. 1. 1. 1. 1.
      1. 1. 1. 1. 1. 1. 9.37254906e-01 1.88235298e-01 0. 0. 0. 0. 1. 1.
      1. 1. 1. 1. 1. 1. 1. 1. 1. 1. 1. 2.50980407e-01 0. 0. 0. 0. 1. 1.
      1. 1. 1. 1. 1. 1. 1. 1. 1. 1. 1. 2.50980407e-01 0. 0. 0. 0. 0. 0.
      0. 0. 1. 1. 1. 1. 1. 1. 1. 1. 9.37254906e-01 1.88235298e-01 0. 0.
      0. 0. 0. 0. 0. 0. 4.39215690e-01 1. 1. 1. 1. 1. 1. 1.
      7.49019623e-01 0. 0. 0. 0. 0. 0. 0. 0. 1.88235298e-01 1. 1. 1. 1.
      1. 1. 1. 1. 0. 0. 0. 0. 0. 0. 1.88235298e-01 7.49019623e-01
      7.49019623e-01 9.37254906e-01 1. 1. 1. 1. 1. 1. 1. 1.
      5.60784340e-01 0. 0. 0. 0. 0. 1.88235298e-01 7.49019623e-01
      7.49019623e-01 9.37254906e-01 1. 1. 1. 1. 1. 1. 1. 1. 1.
      2.50980407e-01 0. 0. 0. 0. 0. 0. 0. 1.88235298e-01 1. 1. 1. 1. 1.
      1. 1. 1. 1. 2.50980407e-01 0. 0. 0. 0. 0. 0. 0. 0. 4.39215690e-01
      1. 1. 1. 1. 1. 1. 1. 1. 2.50980407e-01 0. 0. 0. 0. 0. 0. 0. 0. 1.
      1. 1. 1. 1. 1. 1. 1. 1. 2.50980407e-01 0. 0. 0. 0. 2.50980407e-01
      1. 1. 1. 1. 1. 1. 1. 1. 1. 1. 1. 7.49019623e-01 0. 0. 0. 0. 0.
      2.50980407e-01 1. 1. 1. 1. 1. 1. 1. 1. 1. 1. 4.39215690e-01
      1.88235298e-01 0. 0. 0. 0. 0. 0. 5.60784340e-01 7.49019623e-01
      7.49019623e-01 7.49019623e-01 7.49019623e-01 7.49019623e-01
      7.49019623e-01 7.49019623e-01 7.49019623e-01 0. 0. 0. 0. 0. 0. 0.
      0. 0. 0. 0. 0. 0. 0. 0. 0. 0. 0. 0. 0. 0. 0. 0. 0.</_>
    <_>
      0. 0. 0. 0. 0. 0. 0. 0. 0. 0. 0. 0. 0. 0. 0. 0. 0. 0. 0. 0.
      1.88235298e-01 7.49019623e-01 7.49019623e-01 7.49019623e-01
      7.49019623e-01 7.49019623e-01 7.49019623e-01 1.88235298e-01 0. 0.
      0. 0. 0. 0. 0. 0. 0. 0. 2.50980407e-01 1. 1. 1. 1. 1. 1. 1. 1. 1.
      8.11764717e-01 6.27451017e-02 0. 0. 0. 0. 0. 0. 2.50980407e-01 1.
      1. 1. 1. 1. 1. 1. 1. 1. 1. 8.11764717e-01 0. 0. 0. 0. 0. 0.
      2.50980407e-01 1. 1. 1. 1. 1. 1. 1. 1. 1. 1. 1. 8.11764717e-01
      6.27451017e-02 0. 0. 0. 0. 2.50980407e-01 1. 1. 1. 1. 1. 1. 1. 1.
      1. 1. 1. 1. 2.50980407e-01 0. 0. 0. 0. 2.50980407e-01 1. 1. 1. 1.
      1. 1. 1. 1. 1. 1. 1. 1. 2.50980407e-01 0. 0. 0. 0. 2.50980407e-01
      1. 1. 1. 1. 1. 1. 1. 1. 1. 1. 1. 1. 2.50980407e-01 0. 0. 0. 0. 0.
      0. 0. 0. 8.11764717e-01 1. 1. 1. 1. 1. 1. 1. 1. 2.50980407e-01 0.
      0. 0. 0. 0. 0. 0. 0. 2.50980407e-01 1. 1. 1. 1. 1. 1. 1.
      8.11764717e-01 6.27451017e-02 0. 0. 0. 0. 0. 0. 0. 0. 1. 1. 1. 1.
      1. 1. 1. 1. 0. 0. 0. 0. 0. 0. 1.88235298e-01 1.88235298e-01
      7.49019623e-01 7.49019623e-01 1. 1. 1. 1. 1. 1. 1. 1.
      5.60784340e-01 0. 0. 0. 0. 0. 1.88235298e-01 7.49019623e-01
      7.49019623e-01 9.37254906e-01 1. 1. 1. 1. 1. 1. 1. 1. 1.
      4.39215690e-01 0. 0. 0. 0. 0. 0. 0. 1.88235298e-01 1. 1. 1. 1. 1.
      1. 1. 1. 1. 1. 0. 0. 0. 0. 0. 0. 0. 0. 2.50980407e-01 1. 1. 1. 1.
      1. 1. 1. 1. 8.11764717e-01 0. 0. 0. 0. 0. 0. 0. 0. 8.11764717e-01
      1. 1. 1. 1. 1. 1. 1. 1. 2.50980407e-01 0. 0. 0. 0. 2.50980407e-01
      1. 1. 1. 1. 1. 1. 1. 1. 1. 1. 1. 9.37254906e-01 1.88235298e-01 0.
      0. 0. 0. 2.50980407e-01 1. 1. 1. 1. 1. 1. 1. 1. 1. 1. 1.
      1.88235298e-01 0. 0. 0. 0. 0. 0. 5.60784340e-01 7.49019623e-01
      7.49019623e-01 7.49019623e-01 7.49019623e-01 7.49019623e-01
      7.49019623e-01 7.49019623e-01 7.49019623e-01 5.60784340e-01 0. 0.
      0. 0. 0. 0. 0. 0. 0. 0. 0. 0. 0. 0. 0. 0. 0. 0. 0. 0. 0. 0. 0.</_>
    <_>
      0. 0. 0. 0. 0. 0. 0. 0. 0. 0. 0. 0. 0. 0. 0. 0. 0. 0. 0. 0.
      1.88235298e-01 7.49019623e-01 7.49019623e-01 7.49019623e-01
      7.49019623e-01 7.49019623e-01 7.49019623e-01 7.49019623e-01
      5.60784340e-01 0. 0. 0. 0. 0. 0. 0. 0. 0. 1. 1. 1. 1. 1. 1. 1. 1.
      1. 1. 2.50980407e-01 6.27451017e-02 0. 0. 0. 0. 0. 0. 1. 1. 1. 1.
      1. 1. 1. 1. 1. 1. 1. 8.11764717e-01 0. 0. 0. 0. 0. 0. 1. 1. 1. 1.
      1. 1. 1. 1. 1. 1. 1. 1. 7.49019623e-01 0. 0. 0. 0. 0. 1. 1. 1. 1.
      1. 1. 1. 1. 1. 1. 1. 1. 9.37254906e-01 1.88235298e-01 0. 0. 0. 0.
      1. 1. 1. 1. 1. 1. 1. 1. 1. 1. 1. 1. 1. 2.50980407e-01 0. 0. 0. 0.
      1. 1. 1. 1. 1. 1. 1. 1. 1. 1. 1. 1. 1. 2.50980407e-01 0. 0. 0. 0.
      0. 0. 0. 0. 1. 1. 1. 1. 1. 1. 1. 1. 9.37254906e-01 1.88235298e-01
      0. 0. 0. 0. 0. 0. 0. 0. 4.39215690e-01 1. 1. 1. 1. 1. 1. 1.
      7.49019623e-01 0. 0. 0. 0. 0. 0. 0. 0. 1.88235298e-01 1. 1. 1. 1.
      1. 1. 1. 1. 0. 0. 0. 0. 0. 0. 1.88235298e-01 1.88235298e-01
      7.49019623e-01 9.37254906e-01 1. 1. 1. 1. 1. 1. 1. 1.
      5.60784340e-01 0. 0. 0. 0. 0. 1.88235298e-01 7.49019623e-01
      7.49019623e-01 9.37254906e-01 1. 1. 1. 1. 1. 1. 1. 1. 1.
      2.50980407e-01 0. 0. 0. 0. 0. 0. 0. 1.88235298e-01 1. 1. 1. 1. 1.
      1. 1. 1. 1. 2.50980407e-01 0. 0. 0. 0. 0. 0. 0. 0. 1. 1. 1. 1. 1.
      1. 1. 1. 1. 2.50980407e-01 0. 0. 0. 0. 0. 0. 0. 0. 1. 1. 1. 1. 1.
      1. 1. 1. 1. 2.50980407e-01 0. 0. 0. 0. 2.50980407e-01 1. 1. 1. 1.
      1. 1. 1. 1. 1. 1. 1. 7.49019623e-01 0. 0. 0. 0. 0. 2.50980407e-01
      1. 1. 1. 1. 1. 1. 1. 1. 1. 1. 4.39215690e-01 1.88235298e-01 0. 0.
      0. 0. 0. 0. 5.60784340e-01 7.49019623e-01 7.49019623e-01
      7.49019623e-01 7.49019623e-01 7.49019623e-01 7.49019623e-01
      7.49019623e-01 7.49019623e-01 0. 0. 0. 0. 0. 0. 0. 0. 0. 0. 0. 0.
      0. 0. 0. 0. 0. 0. 0. 0. 0. 0. 0. 0.</_>
    <_>
      0. 0. 0. 0. 0. 0. 0. 0. 0. 0. 0. 0. 0. 0. 0. 0. 0. 0. 0. 0. 0.
      5.60784340e-01 7.49019623e-01 7.49019623e-01 7.49019623e-01
      7.49019623e-01 7.49019623e-01 7.49019623e-01 5.60784340e-01 0. 0.
      0. 0. 0. 0. 0. 0. 0. 2.50980407e-01 1. 1. 1. 1. 1. 1. 1. 1. 1.
      8.11764717e-01 2.50980407e-01 0. 0. 0. 0. 0. 0. 2.50980407e-01 1.
      1. 1. 1. 1. 1. 1. 1. 1. 1. 1. 5.60784340e-01 0. 0. 0. 0. 0.
      2.50980407e-01 1. 1. 1. 1. 1. 1. 1. 1. 1. 1. 1. 8.11764717e-01
      6.27451017e-02 0. 0. 0. 0. 2.50980407e-01 1. 1. 1. 1. 1. 1. 1. 1.
      1. 1. 1. 1. 2.50980407e-01 0. 0. 0. 0. 2.50980407e-01 1. 1. 1. 1.
      1. 1. 1. 1. 1. 1. 1. 1. 1. 0. 0. 0. 0. 2.50980407e-01 1. 1. 1. 1.
      1. 1. 1. 1. 1. 1. 1. 1. 1. 0. 0. 0. 0. 0. 0. 0. 0. 8.11764717e-01
      1. 1. 1. 1. 1. 1. 1. 1. 2.50980407e-01 0. 0. 0. 0. 0. 0. 0. 0.
      2.50980407e-01 1. 1. 1. 1. 1. 1. 1. 8.11764717e-01 6.27451017e-02
      0. 0. 0. 0. 0. 0. 0. 0. 4.39215690e-01 1. 1. 1. 1. 1. 1. 1. 0. 0.
      0. 0. 0. 0. 0. 0. 7.49019623e-01 7.49019623e-01 1. 1. 1. 1. 1. 1.
      1. 1. 5.60784340e-01 0. 0. 0. 0. 0. 0. 5.60784340e-01
      7.49019623e-01 7.49019623e-01 1. 1. 1. 1. 1. 1. 1. 1. 1.
      4.39215690e-01 0. 0. 0. 0. 0. 0. 0. 0. 4.39215690e-01 1. 1. 1. 1.
      1. 1. 1. 1. 1. 0. 0. 0. 0. 0. 0. 0. 0. 2.50980407e-01 1. 1. 1. 1.
      1. 1. 1. 1. 1. 0. 0. 0. 0. 0. 0. 0. 0. 8.11764717e-01 1. 1. 1. 1.
      1. 1. 1. 1. 1. 0. 0. 0. 0. 6.27451017e-02 8.11764717e-01 1. 1. 1.
      1. 1. 1. 1. 1. 1. 1. 9.37254906e-01 1.88235298e-01 0. 0. 0. 0.
      6.27451017e-02 8.11764717e-01 1. 1. 1. 1. 1. 1. 1. 1. 1. 1.
      1.88235298e-01 0. 0. 0. 0. 0. 0. 0. 7.49019623e-01 7.49019623e-01
      7.49019623e-01 7.49019623e-01 7.49019623e-01 7.49019623e-01
      7.49019623e-01 7.49019623e-01 0. 0. 0. 0. 0. 0. 0. 0. 0. 0. 0. 0.
      0. 0. 0. 0. 0. 0. 0. 0. 0. 0. 0. 0.</_>
    <_>
      0. 0. 0. 0. 0. 0. 0. 0. 0. 0. 0. 0. 0. 0. 0. 0. 0. 0. 0. 0.
      1.88235298e-01 7.49019623e-01 7.49019623e-01 7.49019623e-01
      7.49019623e-01 7.49019623e-01 7.49019623e-01 1.88235298e-01 0. 0.
      0. 0. 0. 0. 0. 0. 0. 0. 2.50980407e-01 1. 1. 1. 1. 1. 1. 1. 1. 1.
      8.11764717e-01 6.27451017e-02 0. 0. 0. 0. 0. 0. 2.50980407e-01 1.
      1. 1. 1. 1. 1. 1. 1. 1. 1. 8.11764717e-01 0. 0. 0. 0. 0. 0.
      2.50980407e-01 1. 1. 1. 1. 1. 1. 1. 1. 1. 1. 1. 8.11764717e-01
      6.27451017e-02 0. 0. 0. 0. 2.50980407e-01 1. 1. 1. 1. 1. 1. 1. 1.
      1. 1. 1. 1. 2.50980407e-01 0. 0. 0. 0. 2.50980407e-01 1. 1. 1. 1.
      1. 1. 1. 1. 1. 1. 1. 1. 2.50980407e-01 0. 0. 0. 0. 2.50980407e-01
      1. 1. 1. 1. 1. 1. 1. 1. 1. 1. 1. 1. 2.50980407e-01 0. 0. 0. 0. 0.
      0. 0. 0. 8.11764717e-01 1. 1. 1. 1. 1. 1. 1. 1. 2.50980407e-01 0.
      0. 0. 0. 0. 0. 0. 0. 2.50980407e-01 1. 1. 1. 1. 1. 1. 1.
      8.11764717e-01 6.27451017e-02 0. 0. 0. 0. 0. 0. 0. 0. 1. 1. 1. 1.
      1. 1. 1. 1. 0. 0. 0. 0. 0. 0. 0. 0. 7.49019623e-01 7.49019623e-01
      1. 1. 1. 1. 1. 1. 1. 1. 5.60784340e-01 0. 0. 0. 0. 0.
      1.88235298e-01 7.49019623e-01 7.49019623e-01 9.37254906e-01 1. 1.
      1. 1. 1. 1. 1. 1. 1. 2.50980407e-01 0. 0. 0. 0. 0. 0. 0.
      1.88235298e-01 1. 1. 1. 1. 1. 1. 1. 1. 1. 8.11764717e-01 0. 0. 0.
      0. 0. 0. 0. 0. 4.39215690e-01 1. 1. 1. 1. 1. 1. 1. 1.
      8.11764717e-01 0. 0. 0. 0. 0. 0. 0. 0. 1. 1. 1. 1. 1. 1. 1. 1. 1.
      2.50980407e-01 0. 0. 0. 0. 2.50980407e-01 1. 1. 1. 1. 1. 1. 1. 1.
      1. 1. 1. 9.37254906e-01 1.88235298e-01 0. 0. 0. 0. 2.50980407e-01
      1. 1. 1. 1. 1. 1. 1. 1. 1. 1. 1. 1.88235298e-01 0. 0. 0. 0. 0. 0.
      0. 7.49019623e-01 7.49019623e-01 7.49019623e-01 7.49019623e-01
      7.49019623e-01 7.49019623e-01 7.49019623e-01 7.49019623e-01
      5.60784340e-01 0. 0. 0. 0. 0. 0. 0. 0. 0. 0. 0. 0. 0. 0. 0. 0. 0.
      0. 0. 0. 0. 0. 0.</_>
    <_>
      0. 0. 0. 0. 0. 0. 0. 0. 0. 0. 0. 0. 0. 0. 0. 0. 0. 0. 0. 0. 0.
      5.60784340e-01 7.49019623e-01 7.49019623e-01 7.49019623e-01
      7.49019623e-01 7.49019623e-01 1.88235298e-01 0. 0. 0. 0. 0. 0. 0.
      0. 0. 0. 2.50980407e-01 1. 1. 1. 1. 1. 1. 1. 1. 1. 8.11764717e-01
      2.50980407e-01 0. 0. 0. 0. 0. 0. 2.50980407e-01 1. 1. 1. 1. 1. 1.
      1. 1. 1. 1. 1. 5.60784340e-01 0. 0. 0. 0. 0. 2.50980407e-01 1. 1.
      1. 1. 1. 1. 1. 1. 1. 1. 1. 1. 2.50980407e-01 0. 0. 0. 0.
      2.50980407e-01 1. 1. 1. 1. 1. 1. 1. 1. 1. 1. 1. 1. 2.50980407e-01
      0. 0. 0. 0. 2.50980407e-01 1. 1. 1. 1. 1. 1. 1. 1. 1. 1. 1. 1. 1.
      0. 0. 0. 0. 2.50980407e-01 1. 1. 1. 1. 1. 1. 1. 1. 1. 1. 1. 1. 1.
      0. 0. 0. 0. 0. 0. 0. 0. 8.11764717e-01 1. 1. 1. 1. 1. 1. 1. 1.
      2.50980407e-01 0. 0. 0. 0. 0. 0. 0. 0. 2.50980407e-01 1. 1. 1. 1.
      1. 1. 1. 8.11764717e-01 6.27451017e-02 0. 0. 0. 0. 0. 0. 0. 0.
      4.39215690e-01 1. 1. 1. 1. 1. 1. 1. 5.60784340e-01 0. 0. 0. 0. 0.
      0. 0. 1.88235298e-01 7.49019623e-01 1. 1. 1. 1. 1. 1. 1. 1.
      5.60784340e-01 0. 0. 0. 0. 0. 1.88235298e-01 7.49019623e-01
      7.49019623e-01 9.37254906e-01 1. 1. 1. 1. 1. 1. 1. 1. 1.
      4.39215690e-01 0. 0. 0. 0. 0. 0. 0. 1.88235298e-01 4.39215690e-01
      1. 1. 1. 1. 1. 1. 1. 1. 1. 0. 0. 0. 0. 0. 0. 0. 0. 2.50980407e-01
      1. 1. 1. 1. 1. 1. 1. 1. 1. 0. 0. 0. 0. 0. 0. 0. 0. 8.11764717e-01
      1. 1. 1. 1. 1. 1. 1. 1. 4.39215690e-01 0. 0. 0. 0. 0.
      7.49019623e-01 1. 1. 1. 1. 1. 1. 1. 1. 1. 1. 9.37254906e-01
      1.88235298e-01 0. 0. 0. 0. 0. 7.49019623e-01 1. 1. 1. 1. 1. 1. 1.
      1. 1. 1. 1.88235298e-01 0. 0. 0. 0. 0. 0. 5.60784340e-01
      7.49019623e-01 7.49019623e-01 7.49019623e-01 7.49019623e-01
      7.49019623e-01 7.49019623e-01 7.49019623e-01 7.49019623e-01 0. 0.
      0. 0. 0. 0. 0. 0. 0. 0. 0. 0. 0. 0. 0. 0. 0. 0. 0. 0. 0. 0. 0. 0.</_>
    <_>
      0. 0. 0. 0. 0. 0. 0. 0. 0. 0. 0. 0. 0. 0. 0. 0. 0. 0. 0. 0. 0.
      5.60784340e-01 7.49019623e-01 7.49019623e-01 7.49019623e-01
      7.49019623e-01 7.49019623e-01 1.88235298e-01 0. 0. 0. 0. 0. 0. 0.
      0. 0. 0. 2.50980407e-01 1. 1. 1. 1. 1. 1. 1. 1. 1. 8.11764717e-01
      6.27451017e-02 0. 0. 0. 0. 0. 0. 2.50980407e-01 1. 1. 1. 1. 1. 1.
      1. 1. 1. 1. 8.11764717e-01 0. 0. 0. 0. 0. 0. 2.50980407e-01 1. 1.
      1. 1. 1. 1. 1. 1. 1. 1. 1. 8.11764717e-01 6.27451017e-02 0. 0. 0.
      0. 2.50980407e-01 1. 1. 1. 1. 1. 1. 1. 1. 1. 1. 1. 1.
      2.50980407e-01 0. 0. 0. 0. 2.50980407e-01 1. 1. 1. 1. 1. 1. 1. 1.
      1. 1. 1. 1. 2.50980407e-01 0. 0. 0. 0. 2.50980407e-01 1. 1. 1. 1.
      1. 1. 1. 1. 1. 1. 1. 1. 2.50980407e-01 0. 0. 0. 0. 0. 0. 0. 0.
      8.11764717e-01 1. 1. 1. 1. 1. 1. 1. 1. 2.50980407e-01 0. 0. 0. 0.
      0. 0. 0. 0. 2.50980407e-01 1. 1. 1. 1. 1. 1. 1. 8.11764717e-01
      6.27451017e-02 0. 0. 0. 0. 0. 0. 0. 0. 1. 1. 1. 1. 1. 1. 1. 1. 0.
      0. 0. 0. 0. 0. 0. 0. 7.49019623e-01 7.49019623e-01 1. 1. 1. 1. 1.
      1. 1. 1. 5.60784340e-01 0. 0. 0. 0. 0. 1.88235298e-01
      7.49019623e-01 7.49019623e-01 9.37254906e-01 1. 1. 1. 1. 1. 1. 1.
      1. 1. 2.50980407e-01 0. 0. 0. 0. 0. 0. 0. 1.88235298e-01 1. 1. 1.
      1. 1. 1. 1. 1. 1. 2.50980407e-01 0. 0. 0. 0. 0. 0. 0. 0.
      4.39215690e-01 1. 1. 1. 1. 1. 1. 1. 1. 8.11764717e-01 0. 0. 0. 0.
      0. 0. 0. 0. 1. 1. 1. 1. 1. 1. 1. 1. 1. 2.50980407e-01 0. 0. 0. 0.
      6.27451017e-02 2.50980407e-01 4.39215690e-01 1. 1. 1. 1. 1. 1. 1.
      1. 1. 9.37254906e-01 1.88235298e-01 0. 0. 0. 0. 2.50980407e-01 1.
      1. 1. 1. 1. 1. 1. 1. 1. 1. 1. 1.88235298e-01 0. 0. 0. 0. 0. 0.
      5.60784340e-01 7.49019623e-01 7.49019623e-01 7.49019623e-01
      7.49019623e-01 7.49019623e-01 7.49019623e-01 7.49019623e-01
      7.49019623e-01 5.60784340e-01 0. 0. 0. 0. 0. 0. 0. 0. 0. 0. 0. 0.
      0. 0. 0. 0. 0. 0. 0. 0. 0. 0. 0.</_>
    <_>
      0. 0. 0. 0. 0. 0. 0. 0. 0. 0. 0. 0. 0. 0. 0. 0. 0. 0. 0. 0.
      1.88235298e-01 7.49019623e-01 7.49019623e-01 7.49019623e-01
      7.49019623e-01 7.49019623e-01 7.49019623e-01 1.88235298e-01 0. 0.
      0. 0. 0. 0. 0. 0. 0. 0. 2.50980407e-01 1. 1. 1. 1. 1. 1. 1. 1. 1.
      8.11764717e-01 2.50980407e-01 0. 0. 0. 0. 0. 0. 2.50980407e-01 1.
      1. 1. 1. 1. 1. 1. 1. 1. 1. 1. 5.60784340e-01 0. 0. 0. 0. 0.
      2.50980407e-01 1. 1. 1. 1. 1. 1. 1. 1. 1. 1. 1. 8.11764717e-01
      6.27451017e-02 0. 0. 0. 0. 2.50980407e-01 1. 1. 1. 1. 1. 1. 1. 1.
      1. 1. 1. 1. 2.50980407e-01 0. 0. 0. 0. 2.50980407e-01 1. 1. 1. 1.
      1. 1. 1. 1. 1. 1. 1. 1. 1. 0. 0. 0. 0. 2.50980407e-01 1. 1. 1. 1.
      1. 1. 1. 1. 1. 1. 1. 1. 1. 0. 0. 0. 0. 0. 0. 0. 0. 8.11764717e-01
      1. 1. 1. 1. 1. 1. 1. 1. 2.50980407e-01 0. 0. 0. 0. 0. 0. 0. 0.
      2.50980407e-01 1. 1. 1. 1. 1. 1. 1. 8.11764717e-01 6.27451017e-02
      0. 0. 0. 0. 0. 0. 0. 0. 4.39215690e-01 1. 1. 1. 1. 1. 1. 1.
      5.60784340e-01 0. 0. 0. 0. 0. 0. 0. 7.49019623e-01 7.49019623e-01
      1. 1. 1. 1. 1. 1. 1. 1. 5.60784340e-01 0. 0. 0. 0. 0.
      1.88235298e-01 7.49019623e-01 7.49019623e-01 9.37254906e-01 1. 1.
      1. 1. 1. 1. 1. 1. 1. 4.39215690e-01 0. 0. 0. 0. 0. 0. 0.
      1.88235298e-01 4.39215690e-01 1. 1. 1. 1. 1. 1. 1. 1. 1. 0. 0. 0.
      0. 0. 0. 0. 0. 2.50980407e-01 1. 1. 1. 1. 1. 1. 1. 1. 1. 0. 0. 0.
      0. 0. 0. 0. 0. 8.11764717e-01 1. 1. 1. 1. 1. 1. 1. 1.
      4.39215690e-01 0. 0. 0. 0. 6.27451017e-02 8.11764717e-01 1. 1. 1.
      1. 1. 1. 1. 1. 1. 1. 9.37254906e-01 1.88235298e-01 0. 0. 0. 0.
      2.50980407e-01 1. 1. 1. 1. 1. 1. 1. 1. 1. 1. 1. 1.88235298e-01 0.
      0. 0. 0. 0. 0. 0. 7.49019623e-01 7.49019623e-01 7.49019623e-01
      7.49019623e-01 7.49019623e-01 7.49019623e-01 7.49019623e-01
      7.49019623e-01 5.60784340e-01 0. 0. 0. 0. 0. 0. 0. 0. 0. 0. 0. 0.
      0. 0. 0. 0. 0. 0. 0. 0. 0. 0. 0.</_>
    <_>
      0. 0. 0. 0. 0. 0. 0. 0. 0. 0. 0. 0. 0. 0. 0. 0. 0. 0. 0. 0. 0.
      5.60784340e-01 7.49019623e-01 7.49019623e-01 7.49019623e-01
      7.49019623e-01 7.49019623e-01 1.88235298e-01 0. 0. 0. 0. 0. 0. 0.
      0. 0. 0. 2.50980407e-01 1. 1. 1. 1. 1. 1. 1. 1. 1. 8.11764717e-01
      6.27451017e-02 0. 0. 0. 0. 0. 0. 2.50980407e-01 1. 1. 1. 1. 1. 1.
      1. 1. 1. 1. 8.11764717e-01 0. 0. 0. 0. 0. 0. 2.50980407e-01 1. 1.
      1. 1. 1. 1. 1. 1. 1. 1. 1. 8.11764717e-01 6.27451017e-02 0. 0. 0.
      0. 2.50980407e-01 1. 1. 1. 1. 1. 1. 1. 1. 1. 1. 1. 1.
      2.50980407e-01 0. 0. 0. 0. 2.50980407e-01 1. 1. 1. 1. 1. 1. 1. 1.
      1. 1. 1. 1. 2.50980407e-01 0. 0. 0. 0. 2.50980407e-01 1. 1. 1. 1.
      1. 1. 1. 1. 1. 1. 1. 1. 2.50980407e-01 0. 0. 0. 0. 0. 0. 0. 0. 1.
      1. 1. 1. 1. 1. 1. 1. 1. 2.50980407e-01 0. 0. 0. 0. 0. 0. 0. 0.
      4.39215690e-01 1. 1. 1. 1. 1. 1. 1. 8.11764717e-01 6.27451017e-02
      0. 0. 0. 0. 0. 0. 0. 0. 1. 1. 1. 1. 1. 1. 1. 1. 0. 0. 0. 0. 0. 0.
      0. 0. 7.49019623e-01 7.49019623e-01 1. 1. 1. 1. 1. 1. 1. 1.
      5.60784340e-01 0. 0. 0. 0. 0. 1.88235298e-01 7.49019623e-01
      7.49019623e-01 9.37254906e-01 1. 1. 1. 1. 1. 1. 1. 1. 1.
      2.50980407e-01 0. 0. 0. 0. 0. 0. 0. 1.88235298e-01 1. 1. 1. 1. 1.
      1. 1. 1. 1. 2.50980407e-01 0. 0. 0. 0. 0. 0. 0. 0. 4.39215690e-01
      1. 1. 1. 1. 1. 1. 1. 1. 8.11764717e-01 0. 0. 0. 0. 0. 0. 0. 0. 1.
      1. 1. 1. 1. 1. 1. 1. 1. 2.50980407e-01 0. 0. 0. 0. 6.27451017e-02
      2.50980407e-01 4.39215690e-01 1. 1. 1. 1. 1. 1. 1. 1. 1.
      9.37254906e-01 1.88235298e-01 0. 0. 0. 0. 2.50980407e-01 1. 1. 1.
      1. 1. 1. 1. 1. 1. 1. 1. 1.88235298e-01 0. 0. 0. 0. 0. 0.
      5.60784340e-01 7.49019623e-01 7.49019623e-01 7.49019623e-01
      7.49019623e-01 7.49019623e-01 7.49019623e-01 7.49019623e-01
      7.49019623e-01 5.60784340e-01 0. 0. 0. 0. 0. 0. 0. 0. 0. 0. 0. 0.
      0. 0. 0. 0. 0. 0. 0. 0. 0. 0. 0.</_>
    <_>
      0. 0. 0. 0. 0. 0. 0. 0. 0. 0. 0. 0. 0. 0. 0. 0. 0. 0. 0. 0.
      1.88235298e-01 7.49019623e-01 7.49019623e-01 7.49019623e-01
      7.49019623e-01 7.49019623e-01 7.49019623e-01 7.49019623e-01
      5.60784340e-01 0. 0. 0. 0. 0. 0. 0. 0. 0. 1. 1. 1. 1. 1. 1. 1. 1.
      1. 1. 8.11764717e-01 6.27451017e-02 0. 0. 0. 0. 0. 0. 1. 1. 1. 1.
      1. 1. 1. 1. 1. 1. 1. 8.11764717e-01 0. 0. 0. 0. 0. 0. 1. 1. 1. 1.
      1. 1. 1. 1. 1. 1. 1. 1. 7.49019623e-01 0. 0. 0. 0. 0. 1. 1. 1. 1.
      1. 1. 1. 1. 1. 1. 1. 1. 9.37254906e-01 1.88235298e-01 0. 0. 0. 0.
      1. 1. 1. 1. 1. 1. 1. 1. 1. 1. 1. 1. 1. 2.50980407e-01 0. 0. 0. 0.
      1. 1. 1. 1. 1. 1. 1. 1. 1. 1. 1. 1. 1. 2.50980407e-01 0. 0. 0. 0.
      0. 0. 0. 0. 1. 1. 1. 1. 1. 1. 1. 1. 9.37254906e-01 1.88235298e-01
      0. 0. 0. 0. 0. 0. 0. 0. 4.39215690e-01 1. 1. 1. 1. 1. 1. 1.
      7.49019623e-01 0. 0. 0. 0. 0. 0. 0. 0. 1.88235298e-01 1. 1. 1. 1.
      1. 1. 1. 1. 0. 0. 0. 0. 0. 0. 1.88235298e-01 1.88235298e-01
      7.49019623e-01 9.37254906e-01 1. 1. 1. 1. 1. 1. 1. 1.
      5.60784340e-01 0. 0. 0. 0. 0. 1.88235298e-01 7.49019623e-01
      7.49019623e-01 9.37254906e-01 1. 1. 1. 1. 1. 1. 1. 1. 1.
      2.50980407e-01 0. 0. 0. 0. 0. 0. 0. 1.88235298e-01 1. 1. 1. 1. 1.
      1. 1. 1. 1. 2.50980407e-01 0. 0. 0. 0. 0. 0. 0. 0. 1. 1. 1. 1. 1.
      1. 1. 1. 1. 2.50980407e-01 0. 0. 0. 0. 0. 0. 0. 0. 1. 1. 1. 1. 1.
      1. 1. 1. 1. 2.50980407e-01 0. 0. 0. 0. 2.50980407e-01 1. 1. 1. 1.
      1. 1. 1. 1. 1. 1. 1. 7.49019623e-01 0. 0. 0. 0. 0. 2.50980407e-01
      1. 1. 1. 1. 1. 1. 1. 1. 1. 1. 4.39215690e-01 1.88235298e-01 0. 0.
      0. 0. 0. 0. 5.60784340e-01 7.49019623e-01 7.49019623e-01
      7.49019623e-01 7.49019623e-01 7.49019623e-01 7.49019623e-01
      7.49019623e-01 7.49019623e-01 0. 0. 0. 0. 0. 0. 0. 0. 0. 0. 0. 0.
      0. 0. 0. 0. 0. 0. 0. 0. 0. 0. 0. 0.</_>
    <_>
      0. 0. 0. 0. 0. 0. 0. 0. 0. 0. 0. 0. 0. 0. 0. 0. 0. 0. 0. 0.
      1.88235298e-01 7.49019623e-01 7.49019623e-01 7.49019623e-01
      7.49019623e-01 7.49019623e-01 7.49019623e-01 7.49019623e-01
      5.60784340e-01 0. 0. 0. 0. 0. 0. 0. 0. 0. 2.50980407e-01 1. 1. 1.
      1. 1. 1. 1. 1. 1. 8.11764717e-01 2.50980407e-01 0. 0. 0. 0. 0. 0.
      2.50980407e-01 1. 1. 1. 1. 1. 1. 1. 1. 1. 1. 1. 5.60784340e-01 0.
      0. 0. 0. 0. 2.50980407e-01 1. 1. 1. 1. 1. 1. 1. 1. 1. 1. 1.
      8.11764717e-01 6.27451017e-02 0. 0. 0. 0. 2.50980407e-01 1. 1. 1.
      1. 1. 1. 1. 1. 1. 1. 1. 1. 2.50980407e-01 0. 0. 0. 0.
      2.50980407e-01 1. 1. 1. 1. 1. 1. 1. 1. 1. 1. 1. 1. 4.39215690e-01
      0. 0. 0. 0. 2.50980407e-01 1. 1. 1. 1. 1. 1. 1. 1. 1. 1. 1. 1.
      4.39215690e-01 0. 0. 0. 0. 0. 0. 0. 0. 8.11764717e-01 1. 1. 1. 1.
      1. 1. 1. 1. 2.50980407e-01 0. 0. 0. 0. 0. 0. 0. 0. 2.50980407e-01
      1. 1. 1. 1. 1. 1. 1. 8.11764717e-01 6.27451017e-02 0. 0. 0. 0. 0.
      0. 0. 0. 1. 1. 1. 1. 1. 1. 1. 1. 0. 0. 0. 0. 0. 0. 0. 0.
      7.49019623e-01 7.49019623e-01 1. 1. 1. 1. 1. 1. 1. 1.
      5.60784340e-01 0. 0. 0. 0. 0. 1.88235298e-01 7.49019623e-01
      7.49019623e-01 9.37254906e-01 1. 1. 1. 1. 1. 1. 1. 1. 1.
      4.39215690e-01 0. 0. 0. 0. 0. 0. 0. 1.88235298e-01 1. 1. 1. 1. 1.
      1. 1. 1. 1. 1. 0. 0. 0. 0. 0. 0. 0. 0. 4.39215690e-01 1. 1. 1. 1.
      1. 1. 1. 1. 8.11764717e-01 0. 0. 0. 0. 0. 0. 0. 0. 1. 1. 1. 1. 1.
      1. 1. 1. 1. 2.50980407e-01 0. 0. 0. 0. 2.50980407e-01 1. 1. 1. 1.
      1. 1. 1. 1. 1. 1. 1. 9.37254906e-01 1.88235298e-01 0. 0. 0. 0.
      2.50980407e-01 1. 1. 1. 1. 1. 1. 1. 1. 1. 1. 1. 1.88235298e-01 0.
      0. 0. 0. 0. 0. 5.60784340e-01 7.49019623e-01 7.49019623e-01
      7.49019623e-01 7.49019623e-01 7.49019623e-01 7.49019623e-01
      7.49019623e-01 7.49019623e-01 5.60784340e-01 0. 0. 0. 0. 0. 0. 0.
      0. 0. 0. 0. 0. 0. 0. 0. 0. 0. 0. 0. 0. 0. 0. 0.</_>
    <_>
      0. 0. 0. 0. 0. 0. 0. 0. 0. 0. 0. 0. 0. 0. 0. 0. 0. 0. 0. 0. 0. 0.
      7.49019623e-01 7.49019623e-01 5.60784340e-01 0. 0. 0.
      1.88235298e-01 7.49019623e-01 7.49019623e-01 7.49019623e-01
      5.60784340e-01 0. 0. 0. 0. 0. 0. 1.88235298e-01 1. 1.
      7.49019623e-01 0. 0. 7.49019623e-01 1. 1. 1. 1. 7.49019623e-01 0.
      0. 0. 0. 0. 0. 7.49019623e-01 1. 1. 7.49019623e-01 0. 0.
      7.49019623e-01 1. 1. 1. 1. 7.49019623e-01 0. 0. 0. 0. 0. 0.
      7.49019623e-01 1. 1. 7.49019623e-01 0. 0. 7.49019623e-01 1. 1. 1.
      1. 7.49019623e-01 0. 0. 0. 0. 0. 0. 7.49019623e-01 1. 1.
      7.49019623e-01 0. 0. 7.49019623e-01 1. 1. 1. 1. 7.49019623e-01 0.
      0. 0. 0. 0. 0. 7.49019623e-01 1. 1. 7.49019623e-01 0. 0.
      7.49019623e-01 1. 1. 1. 1. 7.49019623e-01 0. 0. 0. 0. 0. 0.
      7.49019623e-01 1. 1. 1.88235298e-01 0. 0. 7.49019623e-01 1. 1. 1.
      1. 7.49019623e-01 0. 0. 0. 0. 0. 0. 7.49019623e-01 1. 1. 0. 0. 0.
      7.49019623e-01 1. 1. 1. 1. 7.49019623e-01 0. 0. 0. 0. 0.
      1.88235298e-01 9.37254906e-01 1. 1. 0. 0. 0. 7.49019623e-01 1. 1.
      1. 1. 7.49019623e-01 0. 0. 0. 0. 0. 2.50980407e-01 1. 1. 1. 1. 1.
      1. 1. 1. 1. 1. 1. 1. 1. 7.49019623e-01 0. 0. 0. 2.50980407e-01 1.
      1. 1. 1. 1. 1. 1. 1. 1. 1. 1. 1. 1. 7.49019623e-01 0. 0. 0.
      2.50980407e-01 1. 1. 1. 1. 1. 1. 1. 1. 1. 1. 1. 1. 1.
      7.49019623e-01 0. 0. 0. 2.50980407e-01 1. 1. 1. 1. 1. 1. 1. 1. 1.
      1. 1. 1. 1. 7.49019623e-01 0. 0. 0. 1.88235298e-01 7.49019623e-01
      7.49019623e-01 7.49019623e-01 7.49019623e-01 7.49019623e-01
      8.11764717e-01 1. 1. 1. 1. 1. 1. 8.11764717e-01 5.60784340e-01 0.
      0. 0. 0. 0. 0. 0. 0. 0. 6.27451017e-02 8.11764717e-01 1. 1. 1. 1.
      8.11764717e-01 6.27451017e-02 0. 0. 0. 0. 0. 0. 0. 0. 0. 0. 0.
      7.49019623e-01 1. 1. 1. 1. 7.49019623e-01 0. 0. 0. 0. 0. 0. 0. 0.
      0. 0. 0. 0. 7.49019623e-01 1. 1. 1. 1. 7.49019623e-01 0. 0. 0. 0.
      0. 0. 0. 0. 0. 0. 0. 0. 7.49019623e-01 1. 1. 1. 1. 7.49019623e-01
      0. 0. 0. 0. 0. 0. 0. 0. 0. 0. 0. 0. 1.88235298e-01 2.50980407e-01
      2.50980407e-01 2.50980407e-01 2.50980407e-01 1.88235298e-01 0. 0.
      0.</_>
    <_>
      0. 0. 0. 0. 0. 0. 0. 0. 0. 0. 0. 0. 0. 0. 0. 0. 0. 0. 0. 0. 0.
      5.60784340e-01 7.49019623e-01 7.49019623e-01 0. 0. 0. 0.
      7.49019623e-01 7.49019623e-01 7.49019623e-01 1.88235298e-01 0. 0.
      0. 0. 0. 0. 0. 7.49019623e-01 1. 1. 7.49019623e-01 0.
      2.50980407e-01 1. 1. 1. 1. 1. 7.49019623e-01 0. 0. 0. 0. 0. 0.
      7.49019623e-01 1. 1. 7.49019623e-01 0. 2.50980407e-01 1. 1. 1. 1.
      1. 7.49019623e-01 0. 0. 0. 0. 0. 0. 7.49019623e-01 1. 1. 0. 0.
      2.50980407e-01 1. 1. 1. 1. 1. 7.49019623e-01 0. 0. 0. 0. 0.
      1.88235298e-01 9.37254906e-01 1. 1. 0. 0. 2.50980407e-01 1. 1. 1.
      1. 1. 7.49019623e-01 0. 0. 0. 0. 0. 2.50980407e-01 1. 1. 1. 0. 0.
      2.50980407e-01 1. 1. 1. 1. 1. 7.49019623e-01 0. 0. 0. 0. 0.
      2.50980407e-01 1. 1. 1. 0. 0. 2.50980407e-01 1. 1. 1. 1. 1.
      7.49019623e-01 0. 0. 0. 0. 0. 2.50980407e-01 1. 1. 1. 0. 0.
      2.50980407e-01 1. 1. 1. 1. 1. 7.49019623e-01 0. 0. 0. 0. 0.
      2.50980407e-01 1. 1. 1. 0. 0. 2.50980407e-01 1. 1. 1. 1. 1.
      7.49019623e-01 0. 0. 0. 0. 0. 4.39215690e-01 1. 1. 1. 1. 1. 1. 1.
      1. 1. 1. 1. 1. 1. 0. 0. 0. 0. 1. 1. 1. 1. 1. 1. 1. 1. 1. 1. 1. 1.
      1. 1. 0. 0. 0. 0. 1. 1. 1. 1. 1. 1. 1. 1. 1. 1. 1. 1. 1. 1. 0. 0.
      0. 0. 1. 1. 1. 1. 1. 1. 1. 1. 1. 1. 1. 1. 1. 1. 0. 0. 0. 0.
      7.49019623e-01 7.49019623e-01 7.49019623e-01 7.49019623e-01
      7.49019623e-01 7.49019623e-01 8.11764717e-01 1. 1. 1. 1. 1.
      9.37254906e-01 7.49019623e-01 0. 0. 0. 0. 0. 0. 0. 0. 0. 0.
      2.50980407e-01 1. 1. 1. 1. 1. 7.49019623e-01 0. 0. 0. 0. 0. 0. 0.
      0. 0. 0. 0. 2.50980407e-01 1. 1. 1. 1. 1. 7.49019623e-01 0. 0. 0.
      0. 0. 0. 0. 0. 0. 0. 0. 2.50980407e-01 1. 1. 1. 1. 1.
      7.49019623e-01 0. 0. 0. 0. 0. 0. 0. 0. 0. 0. 0. 2.50980407e-01 1.
      1. 1. 1. 1. 7.49019623e-01 0. 0. 0. 0. 0. 0. 0. 0. 0. 0. 0.
      6.27451017e-02 2.50980407e-01 2.50980407e-01 2.50980407e-01
      2.50980407e-01 2.50980407e-01 1.88235298e-01 0. 0. 0.</_>
    <_>
      0. 0. 0. 0. 0. 0. 0. 0. 0. 0. 0. 0. 0. 0. 0. 0. 0. 0. 0. 0. 0. 0.
      7.49019623e-01 7.49019623e-01 0. 0. 0. 0. 1.88235298e-01
      7.49019623e-01 5.60784340e-01 0. 0. 0. 0. 0. 0. 0. 0.
      1.88235298e-01 1. 1. 7.49019623e-01 0. 0. 7.49019623e-01 1. 1. 1.
      1. 7.49019623e-01 0. 0. 0. 0. 0. 0. 7.49019623e-01 1. 1.
      7.49019623e-01 0. 0. 7.49019623e-01 1. 1. 1. 1. 7.49019623e-01 0.
      0. 0. 0. 0. 0. 7.49019623e-01 1. 1. 7.49019623e-01 0. 0.
      7.49019623e-01 1. 1. 1. 1. 7.49019623e-01 0. 0. 0. 0. 0. 0.
      7.49019623e-01 1. 1. 7.49019623e-01 0. 0. 7.49019623e-01 1. 1. 1.
      1. 7.49019623e-01 0. 0. 0. 0. 0. 0. 7.49019623e-01 1. 1.
      7.49019623e-01 0. 0. 7.49019623e-01 1. 1. 1. 1. 7.49019623e-01 0.
      0. 0. 0. 0. 0. 7.49019623e-01 1. 1. 1.88235298e-01 0. 0.
      7.49019623e-01 1. 1. 1. 1. 7.49019623e-01 0. 0. 0. 0. 0. 0.
      7.49019623e-01 1. 1. 0. 0. 0. 7.49019623e-01 1. 1. 1. 1.
      7.49019623e-01 0. 0. 0. 0. 0. 1.88235298e-01 9.37254906e-01 1. 1.
      0. 0. 0. 7.49019623e-01 1. 1. 1. 1. 7.49019623e-01 0. 0. 0. 0. 0.
      2.50980407e-01 1. 1. 1. 1. 1. 1. 1. 1. 1. 1. 1. 1. 1.
      7.49019623e-01 0. 0. 0. 2.50980407e-01 1. 1. 1. 1. 1. 1. 1. 1. 1.
      1. 1. 1. 1. 7.49019623e-01 0. 0. 0. 2.50980407e-01 1. 1. 1. 1. 1.
      1. 1. 1. 1. 1. 1. 1. 1. 7.49019623e-01 0. 0. 0. 2.50980407e-01 1.
      1. 1. 1. 1. 1. 1. 1. 1. 1. 1. 1. 1. 7.49019623e-01 0. 0. 0.
      1.88235298e-01 7.49019623e-01 7.49019623e-01 7.49019623e-01
      7.49019623e-01 7.49019623e-01 8.11764717e-01 1. 1. 1. 1. 1. 1.
      8.11764717e-01 5.60784340e-01 0. 0. 0. 0. 0. 0. 0. 0. 0.
      6.27451017e-02 8.11764717e-01 1. 1. 1. 1. 8.11764717e-01
      6.27451017e-02 0. 0. 0. 0. 0. 0. 0. 0. 0. 0. 0. 7.49019623e-01 1.
      1. 1. 1. 7.49019623e-01 0. 0. 0. 0. 0. 0. 0. 0. 0. 0. 0. 0.
      7.49019623e-01 1. 1. 1. 1. 7.49019623e-01 0. 0. 0. 0. 0. 0. 0. 0.
      0. 0. 0. 0. 7.49019623e-01 1. 1. 1. 1. 7.49019623e-01 0. 0. 0. 0.
      0. 0. 0. 0. 0. 0. 0. 0. 1.88235298e-01 2.50980407e-01
      2.50980407e-01 2.50980407e-01 2.50980407e-01 1.88235298e-01 0. 0.
      0.</_>
    <_>
      0. 0. 0. 0. 0. 0. 0. 0. 0. 0. 0. 0. 0. 0. 0. 0. 0. 0. 0. 0. 0. 0.
      7.49019623e-01 7.49019623e-01 0. 0. 0. 0. 7.49019623e-01
      7.49019623e-01 5.60784340e-01 0. 0. 0. 0. 0. 0. 0. 0.
