<?xml version="1.0"?>
<opencv_storage>
<opencv_ml_svm>
  <format>3</format>
  <svmType>C_SVC</svmType>
  <kernel>
    <type>RBF</type>
    <gamma>2.2500000000000003e-03</gamma></kernel>
  <C>1.0000000000000001e-01</C>
  <term_criteria><epsilon>1.1920928955078125e-07</epsilon>
    <iterations>1000</iterations></term_criteria>
  <var_count>780</var_count>
  <class_count>10</class_count>
  <class_labels type_id="opencv-matrix">
    <rows>10</rows>
    <cols>1</cols>
    <dt>i</dt>
    <data>
      0 1 2 3 4 5 6 7 8 9</data></class_labels>
  <sv_total>664</sv_total>
  <support_vectors>
    <_>
      0. 0. 0. 0. 0. 0. 0. 0. 0. 0. 0. 0. 0. 0. 0. 0. 0. 0. 0. 0. 0. 0.
      0. 0. 0. 0. 0. 0. 0. 0. 0. 0. 0. 0. 0. 0. 0. 0. 0. 0. 0. 0. 0. 0.
      0. 0. 0. 0. 0. 0. 0. 0. 0. 0. 0. 0. 0. 0. 0. 0. 3.33333343e-01
      3.33333343e-01 3.33333343e-01 3.33333343e-01 3.33333343e-01
      3.33333343e-01 2.50980407e-01 0. 0. 0. 0. 0. 0. 0. 0. 0. 0. 0. 0.
      0. 0. 0. 0. 0. 8.66666675e-01 8.66666675e-01 1. 1. 1. 1. 1. 1.
      9.64705884e-01 8.66666675e-01 6.50980413e-01 0. 0. 0. 0. 0. 0. 0.
      0. 0. 0. 0. 0. 0. 9.80392173e-02 8.50980401e-01 1. 1. 1. 1. 1. 1.
      1. 1. 1. 1. 1. 5.49019635e-01 2.98039228e-01 0. 0. 0. 0. 0. 0. 0.
      0. 0. 0. 0. 9.49019611e-01 1. 1. 1. 1. 1. 1. 1. 1. 1. 1. 1. 1. 1.
      9.84313726e-01 2.31372550e-01 0. 0. 0. 0. 0. 0. 0. 0. 0.
      7.49019623e-01 1. 1. 1. 1. 1. 1. 1. 1. 1. 1. 1. 1. 1. 1. 1. 1.
      3.49019617e-01 0. 0. 0. 0. 0. 0. 0. 2.50980407e-01 1. 1. 1. 1. 1.
      1. 1. 1. 1. 1. 1. 1. 1. 1. 1. 1. 1. 7.49019623e-01 0. 0. 0. 0. 0.
      0. 0. 6.50980413e-01 1. 1. 1. 1. 1. 1. 1. 1. 1. 1. 1. 1. 1. 1. 1.
      1. 1. 8.82352948e-01 1.33333340e-01 0. 0. 0. 0. 0. 5.09803928e-02
      1. 1. 1. 1. 1. 1. 1. 1. 1. 1. 1. 1. 1. 1. 1. 1. 1. 1. 1.
      2.98039228e-01 0. 0. 0. 0. 0. 7.49019623e-01 1. 1. 1. 1. 1. 1. 1.
      1. 1. 1. 1. 1. 1. 1. 1. 1. 1. 1. 1. 1. 0. 0. 0. 0. 0.
      7.49019623e-01 1. 1. 1. 1. 1. 1. 6.50980413e-01 0. 0.
      6.50980413e-01 1. 1. 1. 1. 1. 1. 1. 1. 1. 1. 9.80392173e-02 0. 0.
      0. 0. 7.49019623e-01 1. 1. 1. 1. 1. 4.98039216e-01 0. 0. 0. 0.
      4.98039216e-01 1. 1. 1. 1. 1. 1. 1. 1. 1. 7.49019623e-01 0. 0. 0.
      0. 7.49019623e-01 1. 1. 1. 1. 9.49019611e-01 2.00000003e-01 0. 0.
      0. 0. 2.50980407e-01 1. 1. 1. 1. 1. 1. 1. 1. 1. 7.49019623e-01 0.
      0. 0. 1.84313729e-01 9.33333337e-01 1. 1. 1. 1. 7.49019623e-01 0.
      0. 0. 0. 0. 6.66666701e-02 8.15686285e-01 1. 1. 1. 1. 1. 1. 1. 1.
      7.49019623e-01 0. 0. 0. 2.50980407e-01 1. 1. 1. 1. 1.
      8.15686285e-01 6.66666701e-02 0. 0. 0. 0. 6.66666701e-02
      8.15686285e-01 1. 1. 1. 1. 1. 1. 1. 1. 7.49019623e-01 0. 0. 0.
      2.50980407e-01 1. 1. 1. 1. 1. 1. 2.50980407e-01 0. 0. 0. 0.
      2.50980407e-01 1. 1. 1. 1. 1. 1. 1. 1. 1. 7.49019623e-01 0. 0. 0.
      2.50980407e-01 1. 1. 1. 1. 1. 1. 1. 2.50980407e-01 0. 0.
      2.50980407e-01 1. 1. 1. 1. 1. 1. 1. 1. 1. 1. 7.49019623e-01 0. 0.
      0. 3.13725509e-02 7.84313738e-01 1. 1. 1. 1. 1. 1. 9.64705884e-01
      8.66666675e-01 8.66666675e-01 9.64705884e-01 1. 1. 1. 1. 1. 1. 1.
      1. 1. 1. 9.80392173e-02 0. 0. 0. 0. 7.49019623e-01 1. 1. 1. 1. 1.
      1. 1. 1. 1. 1. 1. 1. 1. 1. 1. 1. 1. 1. 1. 1. 0. 0. 0. 0. 0.
      7.49019623e-01 1. 1. 1. 1. 1. 1. 1. 1. 1. 1. 1. 1. 1. 1. 1. 1. 1.
      1. 1. 1. 0. 0. 0. 0. 0. 7.49019623e-01 1. 1. 1. 1. 1. 1. 1. 1. 1.
      1. 1. 1. 1. 1. 1. 1. 1. 1. 1. 2.50980407e-01 0. 0. 0. 0. 0. 0. 1.
      1. 1. 1. 1. 1. 1. 1. 1. 1. 1. 1. 1. 1. 1. 1. 1. 1. 1.
      2.50980407e-01 0. 0. 0. 0. 0. 0. 6.00000024e-01 1. 1. 1. 1. 1. 1.
      1. 1. 1. 1. 1. 1. 1. 1. 1. 1. 1. 7.49019623e-01 0. 0. 0. 0. 0. 0.
      0. 2.31372550e-01 9.84313726e-01 1. 1. 1. 1. 1. 1. 1. 1. 1. 1. 1.
      1. 1. 1. 1. 9.49019611e-01 0. 0. 0. 0. 0. 0. 0. 0. 0.
      2.98039228e-01 1. 1. 1. 1. 1. 1. 1. 1. 1. 1. 1. 1. 1. 1.
      8.50980401e-01 9.80392173e-02 0. 0. 0. 0. 0. 0. 0. 0. 0. 0.
      2.15686277e-01 8.66666675e-01 1. 1. 1. 1. 1. 1. 1. 1. 1. 1.
      9.64705884e-01 8.66666675e-01 0. 0. 0. 0. 0. 0. 0. 0. 0. 0. 0. 0.
      0. 0. 3.33333343e-01 3.33333343e-01 1. 1. 1. 1. 1. 1.
      8.31372559e-01 3.33333343e-01 2.50980407e-01 0. 0. 0. 0. 0. 0. 0.
      0. 0. 0. 0. 0. 0. 0. 0. 0. 0. 0. 0. 0. 0. 0. 0. 0. 0. 0. 0. 0. 0.
      0. 0. 0. 0. 0. 0. 0. 0. 0. 0. 0. 0. 0. 0. 0. 0. 0. 0. 0. 0. 0. 0.
      0. 0. 0. 0. 0. 0. 0. 0. 0. 0.</_>
    <_>
      0. 0. 0. 0. 0. 0. 0. 0. 0. 0. 0. 0. 0. 0. 0. 0. 0. 0. 0. 0. 0. 0.
      0. 0. 0. 0. 0. 0. 0. 0. 0. 0. 0. 0. 0. 0. 0. 0. 0. 0. 0. 0. 0. 0.
      0. 0. 0. 0. 0. 0. 0. 0. 0. 0. 0. 0. 0. 0. 0. 0. 0. 0.
      3.33333343e-01 3.33333343e-01 3.33333343e-01 3.33333343e-01
      2.50980407e-01 0. 0. 0. 0. 0. 0. 0. 0. 0. 0. 0. 0. 0. 0. 0. 0. 0.
      0. 0. 8.66666675e-01 8.66666675e-01 1. 1. 1. 1. 9.64705884e-01
      8.66666675e-01 6.50980413e-01 0. 0. 0. 0. 0. 0. 0. 0. 0. 0. 0. 0.
      0. 0. 2.98039228e-01 5.49019635e-01 1. 1. 1. 1. 1. 1. 1. 1. 1. 1.
      1. 2.98039228e-01 0. 0. 0. 0. 0. 0. 0. 0. 0. 0. 0. 2.31372550e-01
      9.84313726e-01 1. 1. 1. 1. 1. 1. 1. 1. 1. 1. 1. 1. 9.84313726e-01
      2.31372550e-01 0. 0. 0. 0. 0. 0. 0. 0. 0. 0. 6.00000024e-01 1. 1.
      1. 1. 1. 1. 1. 1. 1. 1. 1. 1. 1. 1. 1. 3.49019617e-01 0. 0. 0. 0.
      0. 0. 0. 0. 7.49019623e-01 1. 1. 1. 1. 1. 1. 1. 1. 1. 1. 1. 1. 1.
      1. 1. 1. 1. 2.50980407e-01 0. 0. 0. 0. 0. 0. 0. 7.49019623e-01 1.
      1. 1. 1. 1. 1. 1. 1. 1. 1. 1. 1. 1. 1. 1. 1. 1. 1. 0. 0. 0. 0. 0.
      0. 2.50980407e-01 1. 1. 1. 1. 1. 1. 1. 1. 1. 1. 1. 1. 1. 1. 1. 1.
      1. 1. 1. 5.09803928e-02 0. 0. 0. 0. 0. 6.98039234e-01 1. 1. 1. 1.
      1. 1. 1. 1. 1. 1. 1. 1. 1. 1. 1. 1. 1. 1. 1. 7.49019623e-01 0. 0.
      0. 0. 0. 1. 1. 1. 1. 1. 1. 9.64705884e-01 8.66666675e-01 0.
      6.50980413e-01 8.98039222e-01 1. 1. 1. 1. 1. 1. 1. 1. 1.
      7.49019623e-01 0. 0. 0. 0. 0. 1. 1. 1. 1. 1. 1. 7.49019623e-01 0.
      0. 0. 8.23529437e-02 8.31372559e-01 1. 1. 1. 1. 1. 1. 1. 1.
      7.49019623e-01 0. 0. 0. 0. 0. 1. 1. 1. 1. 1. 1. 0. 0. 0. 0. 0.
      7.49019623e-01 1. 1. 1. 1. 1. 1. 1. 1. 1. 2.50980407e-01 0. 0. 0.
      0. 1. 1. 1. 1. 1. 4.50980395e-01 0. 0. 0. 0. 0. 2.00000003e-01 1.
      1. 1. 1. 1. 1. 1. 1. 1. 2.50980407e-01 0. 0. 0. 7.49019623e-01 1.
      1. 1. 1. 1. 4.50980395e-01 0. 0. 0. 0. 0. 2.00000003e-01 1. 1. 1.
      1. 1. 1. 1. 1. 1. 2.50980407e-01 0. 0. 0. 7.49019623e-01 1. 1. 1.
      1. 1. 1. 0. 0. 0. 0. 0. 7.49019623e-01 1. 1. 1. 1. 1. 1. 1. 1. 1.
      2.50980407e-01 0. 0. 0. 7.49019623e-01 1. 1. 1. 1. 1. 1.
      2.50980407e-01 0. 0. 0. 3.33333343e-01 8.31372559e-01 1. 1. 1. 1.
      1. 1. 1. 1. 9.17647064e-01 1.64705887e-01 0. 0. 0. 9.80392173e-02
      1. 1. 1. 1. 1. 1. 9.64705884e-01 8.66666675e-01 8.66666675e-01
      8.66666675e-01 1. 1. 1. 1. 1. 1. 1. 1. 1. 1. 7.49019623e-01 0. 0.
      0. 0. 0. 1. 1. 1. 1. 1. 1. 1. 1. 1. 1. 1. 1. 1. 1. 1. 1. 1. 1. 1.
      1. 7.49019623e-01 0. 0. 0. 0. 0. 1. 1. 1. 1. 1. 1. 1. 1. 1. 1. 1.
      1. 1. 1. 1. 1. 1. 1. 1. 1. 7.49019623e-01 0. 0. 0. 0. 0. 1. 1. 1.
      1. 1. 1. 1. 1. 1. 1. 1. 1. 1. 1. 1. 1. 1. 1. 1. 1. 4.00000006e-01
      0. 0. 0. 0. 0. 2.50980407e-01 1. 1. 1. 1. 1. 1. 1. 1. 1. 1. 1. 1.
      1. 1. 1. 1. 1. 1. 1. 0. 0. 0. 0. 0. 0. 1.17647059e-01
      8.66666675e-01 1. 1. 1. 1. 1. 1. 1. 1. 1. 1. 1. 1. 1. 1. 1. 1. 1.
      6.00000024e-01 0. 0. 0. 0. 0. 0. 0. 7.49019623e-01 1. 1. 1. 1. 1.
      1. 1. 1. 1. 1. 1. 1. 1. 1. 1. 1. 7.49019623e-01 0. 0. 0. 0. 0. 0.
      0. 0. 2.98039228e-01 5.49019635e-01 1. 1. 1. 1. 1. 1. 1. 1. 1. 1.
      1. 1. 1. 1. 1. 2.98039228e-01 0. 0. 0. 0. 0. 0. 0. 0. 0. 0.
      6.50980413e-01 1. 1. 1. 1. 1. 1. 1. 1. 1. 1. 1. 1. 8.66666675e-01
      2.15686277e-01 0. 0. 0. 0. 0. 0. 0. 0. 0. 0. 0. 0. 3.33333343e-01
      3.33333343e-01 1. 1. 1. 1. 1. 1. 1. 1. 8.31372559e-01
      3.33333343e-01 0. 0. 0. 0. 0. 0. 0. 0. 0. 0. 0. 0. 0. 0. 0. 0. 0.
      0. 0. 0. 2.00000003e-01 2.00000003e-01 0. 0. 0. 0. 0. 0. 0. 0. 0.
      0. 0. 0. 0. 0. 0. 0. 0. 0. 0. 0. 0. 0. 0. 0. 0. 0. 0. 0. 0. 0. 0.
      0. 0. 0. 0. 0. 0. 0.</_>
    <_>
      0. 0. 0. 0. 0. 0. 0. 0. 0. 0. 0. 0. 0. 0. 0. 0. 0. 0. 0. 0. 0. 0.
      0. 0. 0. 0. 0. 0. 0. 0. 0. 0. 0. 0. 0. 0. 0. 0. 0. 0. 0. 0. 0. 0.
      0. 0. 0. 0. 0. 0. 0. 0. 0. 0. 0. 0. 0. 0. 0. 0. 8.23529437e-02
      3.33333343e-01 3.33333343e-01 3.33333343e-01 3.33333343e-01
      3.33333343e-01 3.33333343e-01 8.23529437e-02 0. 0. 0. 0. 0. 0. 0.
      0. 0. 0. 0. 0. 0. 0. 0. 0. 0. 6.50980413e-01 8.98039222e-01 1. 1.
      1. 1. 1. 1. 8.98039222e-01 8.66666675e-01 2.15686277e-01 0. 0. 0.
      0. 0. 0. 0. 0. 0. 0. 0. 0. 0. 2.98039228e-01 1. 1. 1. 1. 1. 1. 1.
      1. 1. 1. 1. 1. 8.50980401e-01 9.80392173e-02 0. 0. 0. 0. 0. 0. 0.
      0. 0. 0. 2.31372550e-01 9.84313726e-01 1. 1. 1. 1. 1. 1. 1. 1. 1.
      1. 1. 1. 1. 9.49019611e-01 0. 0. 0. 0. 0. 0. 0. 0. 0.
      3.49019617e-01 1. 1. 1. 1. 1. 1. 1. 1. 1. 1. 1. 1. 1. 1. 1. 1.
      7.49019623e-01 0. 0. 0. 0. 0. 0. 0. 0. 7.49019623e-01 1. 1. 1. 1.
      1. 1. 1. 1. 1. 1. 1. 1. 1. 1. 1. 1. 1. 2.50980407e-01 0. 0. 0. 0.
      0. 0. 1.33333340e-01 8.82352948e-01 1. 1. 1. 1. 1. 1. 1. 1. 1. 1.
      1. 1. 1. 1. 1. 1. 1. 1. 0. 0. 0. 0. 0. 0. 2.50980407e-01 1. 1. 1.
      1. 1. 1. 1. 1. 1. 1. 1. 1. 1. 1. 1. 1. 1. 1. 1. 7.49019623e-01 0.
      0. 0. 0. 0. 2.50980407e-01 1. 1. 1. 1. 1. 1. 1. 1. 1. 1. 1. 1. 1.
      1. 1. 1. 1. 1. 1. 7.49019623e-01 0. 0. 0. 0. 0. 1. 1. 1. 1. 1. 1.
      9.64705884e-01 2.15686277e-01 0. 0. 8.66666675e-01 9.64705884e-01
      1. 1. 1. 1. 1. 1. 1. 1. 7.49019623e-01 0. 0. 0. 0. 0. 1. 1. 1. 1.
      1. 1. 2.50980407e-01 0. 0. 0. 0. 7.49019623e-01 1. 1. 1. 1. 1. 1.
      1. 1. 9.17647064e-01 1.64705887e-01 0. 0. 0. 0. 1. 1. 1. 1. 1.
      8.50980401e-01 0. 0. 0. 0. 0. 7.49019623e-01 1. 1. 1. 1. 1. 1. 1.
      1. 1. 2.50980407e-01 0. 0. 0. 5.49019635e-01 1. 1. 1. 1. 1.
      2.50980407e-01 0. 0. 0. 0. 0. 2.00000003e-01 1. 1. 1. 1. 1. 1. 1.
      1. 1. 2.50980407e-01 0. 0. 0. 7.49019623e-01 1. 1. 1. 1. 1.
      4.50980395e-01 0. 0. 0. 0. 0. 2.00000003e-01 1. 1. 1. 1. 1. 1. 1.
      1. 1. 2.50980407e-01 0. 0. 0. 7.49019623e-01 1. 1. 1. 1. 1. 1. 0.
      0. 0. 0. 0. 7.49019623e-01 1. 1. 1. 1. 1. 1. 1. 1. 1.
      2.50980407e-01 0. 0. 0. 7.49019623e-01 1. 1. 1. 1. 1. 1.
      8.31372559e-01 8.23529437e-02 0. 0. 4.98039216e-01 1. 1. 1. 1. 1.
      1. 1. 1. 1. 9.17647064e-01 1.64705887e-01 0. 0. 0. 9.80392173e-02
      1. 1. 1. 1. 1. 1. 1. 8.98039222e-01 8.66666675e-01 8.66666675e-01
      1. 1. 1. 1. 1. 1. 1. 1. 1. 1. 7.49019623e-01 0. 0. 0. 0. 0. 1. 1.
      1. 1. 1. 1. 1. 1. 1. 1. 1. 1. 1. 1. 1. 1. 1. 1. 1. 1.
      7.49019623e-01 0. 0. 0. 0. 0. 1. 1. 1. 1. 1. 1. 1. 1. 1. 1. 1. 1.
      1. 1. 1. 1. 1. 1. 1. 1. 7.49019623e-01 0. 0. 0. 0. 0.
      6.50980413e-01 1. 1. 1. 1. 1. 1. 1. 1. 1. 1. 1. 1. 1. 1. 1. 1. 1.
      1. 1. 4.00000006e-01 0. 0. 0. 0. 0. 2.50980407e-01 1. 1. 1. 1. 1.
      1. 1. 1. 1. 1. 1. 1. 1. 1. 1. 1. 1. 1. 1. 0. 0. 0. 0. 0. 0.
      1.17647059e-01 8.66666675e-01 1. 1. 1. 1. 1. 1. 1. 1. 1. 1. 1. 1.
      1. 1. 1. 1. 1. 6.00000024e-01 0. 0. 0. 0. 0. 0. 0. 6.98039234e-01
      1. 1. 1. 1. 1. 1. 1. 1. 1. 1. 1. 1. 1. 1. 1. 1. 6.98039234e-01 0.
      0. 0. 0. 0. 0. 0. 0. 0. 5.49019635e-01 1. 1. 1. 1. 1. 1. 1. 1. 1.
      1. 1. 1. 1. 1. 5.49019635e-01 0. 0. 0. 0. 0. 0. 0. 0. 0. 0. 0.
      6.50980413e-01 8.98039222e-01 1. 1. 1. 1. 1. 1. 1. 1. 1. 1.
      8.98039222e-01 6.50980413e-01 0. 0. 0. 0. 0. 0. 0. 0. 0. 0. 0. 0.
      0. 8.23529437e-02 3.33333343e-01 4.98039216e-01 1. 1. 1. 1. 1. 1.
      4.98039216e-01 3.33333343e-01 8.23529437e-02 0. 0. 0. 0. 0. 0. 0.
      0. 0. 0. 0. 0. 0. 0. 0. 0. 0. 0. 0. 0. 0. 0. 0. 0. 0. 0. 0. 0. 0.
      0. 0. 0. 0. 0. 0. 0. 0. 0. 0. 0. 0. 0. 0. 0. 0. 0. 0. 0. 0. 0. 0.
      0. 0. 0. 0. 0. 0. 0. 0. 0.</_>
    <_>
      0. 0. 0. 0. 0. 0. 0. 0. 0. 0. 0. 0. 0. 0. 0. 0. 0. 0. 0. 0. 0. 0.
      0. 0. 0. 0. 0. 0. 0. 0. 0. 0. 0. 0. 0. 0. 0. 0. 0. 0. 0. 0. 0. 0.
      0. 0. 0. 0. 0. 0. 0. 0. 0. 0. 0. 0. 0. 0. 0. 0. 0. 2.50980407e-01
      3.33333343e-01 3.33333343e-01 3.33333343e-01 3.33333343e-01
      3.33333343e-01 3.33333343e-01 0. 0. 0. 0. 0. 0. 0. 0. 0. 0. 0. 0.
      0. 0. 0. 0. 0. 0. 8.66666675e-01 9.64705884e-01 1. 1. 1. 1. 1. 1.
      8.66666675e-01 8.66666675e-01 0. 0. 0. 0. 0. 0. 0. 0. 0. 0. 0. 0.
      0. 0. 5.49019635e-01 1. 1. 1. 1. 1. 1. 1. 1. 1. 1. 1. 1.
      5.49019635e-01 0. 0. 0. 0. 0. 0. 0. 0. 0. 0. 0. 6.98039234e-01 1.
      1. 1. 1. 1. 1. 1. 1. 1. 1. 1. 1. 1. 1. 6.98039234e-01 0. 0. 0. 0.
      0. 0. 0. 0. 0. 1.17647059e-01 8.66666675e-01 1. 1. 1. 1. 1. 1. 1.
      1. 1. 1. 1. 1. 1. 1. 1. 6.00000024e-01 0. 0. 0. 0. 0. 0. 0. 0. 1.
      1. 1. 1. 1. 1. 1. 1. 1. 1. 1. 1. 1. 1. 1. 1. 1. 1. 0. 0. 0. 0. 0.
      0. 0. 4.00000006e-01 1. 1. 1. 1. 1. 1. 1. 1. 1. 1. 1. 1. 1. 1. 1.
      1. 1. 1. 7.49019623e-01 0. 0. 0. 0. 0. 0. 7.49019623e-01 1. 1. 1.
      1. 1. 1. 1. 1. 1. 1. 1. 1. 1. 1. 1. 1. 1. 1. 7.64705896e-01
      1.56862754e-02 0. 0. 0. 0. 1.49019614e-01 8.98039222e-01 1. 1. 1.
      1. 1. 1. 1. 1. 1. 1. 1. 1. 1. 1. 1. 1. 1. 1. 1. 2.50980407e-01 0.
      0. 0. 0. 2.50980407e-01 1. 1. 1. 1. 1. 1. 8.98039222e-01 0. 0. 0.
      6.50980413e-01 1. 1. 1. 1. 1. 1. 1. 1. 1. 2.50980407e-01 0. 0. 0.
      0. 2.50980407e-01 1. 1. 1. 1. 1. 8.31372559e-01 8.23529437e-02 0.
      0. 0. 0. 1. 1. 1. 1. 1. 1. 1. 1. 1. 7.49019623e-01 0. 0. 0. 0.
      2.50980407e-01 1. 1. 1. 1. 1. 7.49019623e-01 0. 0. 0. 0. 0.
      2.50980407e-01 1. 1. 1. 1. 1. 1. 1. 1. 1. 0. 0. 0. 0.
      2.50980407e-01 1. 1. 1. 1. 1. 7.49019623e-01 0. 0. 0. 0. 0.
      2.50980407e-01 1. 1. 1. 1. 1. 1. 1. 1. 1. 0. 0. 0. 0.
      4.50980395e-01 1. 1. 1. 1. 1. 7.49019623e-01 0. 0. 0. 0. 0.
      4.50980395e-01 1. 1. 1. 1. 1. 1. 1. 1. 1. 0. 0. 0. 0.
      4.00000006e-01 1. 1. 1. 1. 1. 7.49019623e-01 0. 0. 0. 0. 0. 1. 1.
      1. 1. 1. 1. 1. 1. 1. 1. 0. 0. 0. 0. 2.50980407e-01 1. 1. 1. 1. 1.
      1. 4.98039216e-01 0. 0. 8.23529437e-02 8.31372559e-01 1. 1. 1. 1.
      1. 1. 1. 1. 1. 1. 0. 0. 0. 0. 2.50980407e-01 1. 1. 1. 1. 1. 1. 1.
      8.66666675e-01 8.66666675e-01 8.98039222e-01 1. 1. 1. 1. 1. 1. 1.
      1. 1. 1. 3.49019617e-01 0. 0. 0. 0. 2.50980407e-01 1. 1. 1. 1. 1.
      1. 1. 1. 1. 1. 1. 1. 1. 1. 1. 1. 1. 1. 1. 1. 2.50980407e-01 0. 0.
      0. 0. 2.50980407e-01 1. 1. 1. 1. 1. 1. 1. 1. 1. 1. 1. 1. 1. 1. 1.
      1. 1. 1. 1. 1. 2.50980407e-01 0. 0. 0. 0. 1.33333340e-01
      8.82352948e-01 1. 1. 1. 1. 1. 1. 1. 1. 1. 1. 1. 1. 1. 1. 1. 1. 1.
      1. 7.49019623e-01 0. 0. 0. 0. 0. 0. 7.49019623e-01 1. 1. 1. 1. 1.
      1. 1. 1. 1. 1. 1. 1. 1. 1. 1. 1. 1. 1. 7.49019623e-01 0. 0. 0. 0.
      0. 0. 3.49019617e-01 1. 1. 1. 1. 1. 1. 1. 1. 1. 1. 1. 1. 1. 1. 1.
      1. 1. 1. 3.49019617e-01 0. 0. 0. 0. 0. 0. 0. 9.49019611e-01 1. 1.
      1. 1. 1. 1. 1. 1. 1. 1. 1. 1. 1. 1. 1. 9.84313726e-01
      2.31372550e-01 0. 0. 0. 0. 0. 0. 0. 0. 9.80392173e-02
      8.50980401e-01 1. 1. 1. 1. 1. 1. 1. 1. 1. 1. 1. 1. 1. 1.
      2.98039228e-01 0. 0. 0. 0. 0. 0. 0. 0. 0. 0. 0. 2.15686277e-01
      9.64705884e-01 1. 1. 1. 1. 1. 1. 1. 1. 1. 1. 8.66666675e-01
      2.15686277e-01 0. 0. 0. 0. 0. 0. 0. 0. 0. 0. 0. 0. 0.
      2.50980407e-01 3.33333343e-01 8.31372559e-01 1. 1. 1. 1. 1. 1.
      8.31372559e-01 3.33333343e-01 0. 0. 0. 0. 0. 0. 0. 0. 0. 0. 0. 0.
      0. 0. 0. 0. 0. 0. 0. 0. 0. 0. 0. 0. 0. 0. 0. 0. 0. 0. 0. 0. 0. 0.
      0. 0. 0. 0. 0. 0. 0. 0. 0. 0. 0. 0. 0. 0. 0. 0. 0. 0. 0. 0. 0. 0.
      0. 0. 0. 0.</_>
    <_>
      0. 0. 0. 0. 0. 0. 0. 0. 0. 0. 0. 0. 0. 0. 0. 0. 0. 0. 0. 0. 0. 0.
      0. 0. 0. 0. 0. 0. 0. 0. 0. 0. 0. 0. 0. 0. 0. 0. 0. 0. 0. 0. 0. 0.
      0. 0. 0. 0. 0. 0. 0. 0. 0. 0. 0. 0. 0. 0. 0. 0. 3.33333343e-01
      3.33333343e-01 3.33333343e-01 3.33333343e-01 3.33333343e-01
      3.33333343e-01 2.50980407e-01 0. 0. 0. 0. 0. 0. 0. 0. 0. 0. 0. 0.
      0. 0. 0. 0. 0. 8.66666675e-01 8.66666675e-01 1. 1. 1. 1. 1. 1.
      9.64705884e-01 8.66666675e-01 6.50980413e-01 0. 0. 0. 0. 0. 0. 0.
      0. 0. 0. 0. 0. 0. 9.80392173e-02 8.50980401e-01 1. 1. 1. 1. 1. 1.
      1. 1. 1. 1. 1. 5.49019635e-01 2.98039228e-01 0. 0. 0. 0. 0. 0. 0.
      0. 0. 0. 0. 9.49019611e-01 1. 1. 1. 1. 1. 1. 1. 1. 1. 1. 1. 1. 1.
      9.84313726e-01 2.31372550e-01 0. 0. 0. 0. 0. 0. 0. 0. 0.
      7.49019623e-01 1. 1. 1. 1. 1. 1. 1. 1. 1. 1. 1. 1. 1. 1. 1. 1.
      3.49019617e-01 0. 0. 0. 0. 0. 0. 0. 2.50980407e-01 1. 1. 1. 1. 1.
      1. 1. 1. 1. 1. 1. 1. 1. 1. 1. 1. 1. 7.49019623e-01 0. 0. 0. 0. 0.
      0. 0. 6.50980413e-01 1. 1. 1. 1. 1. 1. 1. 1. 1. 1. 1. 1. 1. 1. 1.
      1. 1. 8.82352948e-01 1.33333340e-01 0. 0. 0. 0. 0. 5.09803928e-02
      1. 1. 1. 1. 1. 1. 1. 1. 1. 1. 1. 1. 1. 1. 1. 1. 1. 1. 1.
      2.98039228e-01 0. 0. 0. 0. 0. 7.49019623e-01 1. 1. 1. 1. 1. 1. 1.
      1. 1. 1. 1. 1. 1. 1. 1. 1. 1. 1. 1. 1. 0. 0. 0. 0. 0.
      7.49019623e-01 1. 1. 1. 1. 1. 1. 6.50980413e-01 0. 0.
      6.50980413e-01 1. 1. 1. 1. 1. 1. 1. 1. 1. 1. 9.80392173e-02 0. 0.
      0. 0. 7.49019623e-01 1. 1. 1. 1. 1. 4.98039216e-01 0. 0. 0. 0.
      4.98039216e-01 1. 1. 1. 1. 1. 1. 1. 1. 1. 7.49019623e-01 0. 0. 0.
      0. 7.49019623e-01 1. 1. 1. 1. 9.49019611e-01 2.00000003e-01 0. 0.
      0. 0. 2.50980407e-01 1. 1. 1. 1. 1. 1. 1. 1. 1. 7.49019623e-01 0.
      0. 0. 1.84313729e-01 9.33333337e-01 1. 1. 1. 1. 7.49019623e-01 0.
      0. 0. 0. 0. 6.66666701e-02 8.15686285e-01 1. 1. 1. 1. 1. 1. 1. 1.
      7.49019623e-01 0. 0. 0. 2.50980407e-01 1. 1. 1. 1. 1.
      8.15686285e-01 6.66666701e-02 0. 0. 0. 0. 6.66666701e-02
      8.15686285e-01 1. 1. 1. 1. 1. 1. 1. 1. 7.49019623e-01 0. 0. 0.
      2.50980407e-01 1. 1. 1. 1. 1. 1. 2.50980407e-01 0. 0. 0. 0.
      2.50980407e-01 1. 1. 1. 1. 1. 1. 1. 1. 1. 7.49019623e-01 0. 0. 0.
      2.50980407e-01 1. 1. 1. 1. 1. 1. 1. 2.50980407e-01 0. 0.
      2.50980407e-01 1. 1. 1. 1. 1. 1. 1. 1. 1. 1. 7.49019623e-01 0. 0.
      0. 3.13725509e-02 7.84313738e-01 1. 1. 1. 1. 1. 1. 9.64705884e-01
      8.66666675e-01 8.66666675e-01 9.64705884e-01 1. 1. 1. 1. 1. 1. 1.
      1. 1. 1. 7.49019623e-01 0. 0. 0. 0. 7.49019623e-01 1. 1. 1. 1. 1.
      1. 1. 1. 1. 1. 1. 1. 1. 1. 1. 1. 1. 1. 1. 1. 0. 0. 0. 0. 0.
      7.49019623e-01 1. 1. 1. 1. 1. 1. 1. 1. 1. 1. 1. 1. 1. 1. 1. 1. 1.
      1. 1. 1. 0. 0. 0. 0. 0. 7.49019623e-01 1. 1. 1. 1. 1. 1. 1. 1. 1.
      1. 1. 1. 1. 1. 1. 1. 1. 1. 1. 2.50980407e-01 0. 0. 0. 0. 0. 0. 1.
      1. 1. 1. 1. 1. 1. 1. 1. 1. 1. 1. 1. 1. 1. 1. 1. 1. 1.
      2.50980407e-01 0. 0. 0. 0. 0. 0. 6.00000024e-01 1. 1. 1. 1. 1. 1.
      1. 1. 1. 1. 1. 1. 1. 1. 1. 1. 1. 7.49019623e-01 0. 0. 0. 0. 0. 0.
      0. 2.31372550e-01 9.84313726e-01 1. 1. 1. 1. 1. 1. 1. 1. 1. 1. 1.
      1. 1. 1. 1. 9.49019611e-01 0. 0. 0. 0. 0. 0. 0. 0. 0.
      2.98039228e-01 1. 1. 1. 1. 1. 1. 1. 1. 1. 1. 1. 1. 1. 1.
      8.50980401e-01 9.80392173e-02 0. 0. 0. 0. 0. 0. 0. 0. 0. 0.
      2.15686277e-01 8.66666675e-01 1. 1. 1. 1. 1. 1. 1. 1. 1. 1.
      9.64705884e-01 8.66666675e-01 0. 0. 0. 0. 0. 0. 0. 0. 0. 0. 0. 0.
      0. 0. 3.33333343e-01 3.33333343e-01 1. 1. 1. 1. 1. 1. 1.
      4.98039216e-01 2.50980407e-01 0. 0. 0. 0. 0. 0. 0. 0. 0. 0. 0. 0.
      0. 0. 0. 0. 0. 0. 0. 0. 0. 0. 0. 0. 0. 0. 0. 0. 0. 0. 0. 0. 0. 0.
      0. 0. 0. 0. 0. 0. 0. 0. 0. 0. 0. 0. 0. 0. 0. 0. 0. 0. 0. 0. 0. 0.
      0. 0. 0. 0. 0.</_>
    <_>
      0. 0. 0. 0. 0. 0. 0. 0. 0. 0. 0. 0. 0. 0. 0. 0. 0. 0. 0. 0. 0. 0.
      0. 0. 0. 0. 0. 0. 0. 0. 0. 0. 0. 0. 0. 0. 0. 0. 0. 0. 0. 0. 0. 0.
      0. 0. 0. 0. 0. 0. 0. 0. 0. 0. 0. 0. 0. 0. 0. 0. 0. 0.
      8.23529437e-02 3.33333343e-01 3.33333343e-01 3.33333343e-01
      3.33333343e-01 8.23529437e-02 0. 0. 0. 0. 0. 0. 0. 0. 0. 0. 0. 0.
      0. 0. 0. 0. 0. 0. 2.15686277e-01 8.66666675e-01 8.98039222e-01 1.
      1. 1. 1. 8.98039222e-01 6.50980413e-01 0. 0. 0. 0. 0. 0. 0. 0. 0.
      0. 0. 0. 0. 0. 0. 4.00000006e-01 8.50980401e-01 1. 1. 1. 1. 1. 1.
      1. 1. 1. 1. 8.50980401e-01 9.80392173e-02 0. 0. 0. 0. 0. 0. 0. 0.
      0. 0. 0. 0. 1. 1. 1. 1. 1. 1. 1. 1. 1. 1. 1. 1. 1. 9.49019611e-01
      0. 0. 0. 0. 0. 0. 0. 0. 0. 0. 1.17647059e-01 8.66666675e-01 1. 1.
      1. 1. 1. 1. 1. 1. 1. 1. 1. 1. 1. 1. 8.66666675e-01 1.17647059e-01
      0. 0. 0. 0. 0. 0. 0. 0. 2.50980407e-01 1. 1. 1. 1. 1. 1. 1. 1. 1.
      1. 1. 1. 1. 1. 1. 1. 1. 0. 0. 0. 0. 0. 0. 0. 4.00000006e-01 1. 1.
      1. 1. 1. 1. 1. 1. 1. 1. 1. 1. 1. 1. 1. 1. 1. 1. 7.49019623e-01 0.
      0. 0. 0. 0. 0. 7.49019623e-01 1. 1. 1. 1. 1. 1. 1. 1. 1. 1. 1. 1.
      1. 1. 1. 1. 1. 1. 7.64705896e-01 1.56862754e-02 0. 0. 0. 0.
      1.49019614e-01 8.98039222e-01 1. 1. 1. 1. 1. 1. 1. 1. 1. 1. 1. 1.
      1. 1. 1. 1. 1. 1. 1. 2.50980407e-01 0. 0. 0. 0. 2.50980407e-01 1.
      1. 1. 1. 1. 1. 8.98039222e-01 6.50980413e-01 0. 8.66666675e-01
      9.64705884e-01 1. 1. 1. 1. 1. 1. 1. 1. 1. 2.50980407e-01 0. 0. 0.
      0. 2.50980407e-01 1. 1. 1. 1. 1. 1. 2.50980407e-01 0. 0. 0.
      2.50980407e-01 1. 1. 1. 1. 1. 1. 1. 1. 1. 7.49019623e-01 0. 0. 0.
      0. 2.50980407e-01 1. 1. 1. 1. 1. 7.49019623e-01 0. 0. 0. 0. 0.
      8.50980401e-01 1. 1. 1. 1. 1. 1. 1. 1. 1. 0. 0. 0. 0.
      2.50980407e-01 1. 1. 1. 1. 1. 7.49019623e-01 0. 0. 0. 0. 0.
      2.50980407e-01 1. 1. 1. 1. 1. 1. 1. 1. 1. 0. 0. 0. 0.
      2.50980407e-01 1. 1. 1. 1. 1. 7.49019623e-01 0. 0. 0. 0. 0.
      2.50980407e-01 1. 1. 1. 1. 1. 1. 1. 1. 1. 0. 0. 0. 0.
      2.50980407e-01 1. 1. 1. 1. 1. 7.49019623e-01 0. 0. 0. 0. 0.
      8.50980401e-01 1. 1. 1. 1. 1. 1. 1. 1. 1. 0. 0. 0. 0.
      2.50980407e-01 1. 1. 1. 1. 1. 8.31372559e-01 8.23529437e-02 0. 0.
      0. 2.50980407e-01 1. 1. 1. 1. 1. 1. 1. 1. 1. 1. 0. 0. 0. 0.
      2.50980407e-01 1. 1. 1. 1. 1. 1. 8.98039222e-01 8.66666675e-01
      8.66666675e-01 8.66666675e-01 9.64705884e-01 1. 1. 1. 1. 1. 1. 1.
      1. 1. 3.49019617e-01 0. 0. 0. 0. 2.50980407e-01 1. 1. 1. 1. 1. 1.
      1. 1. 1. 1. 1. 1. 1. 1. 1. 1. 1. 1. 1. 1. 2.50980407e-01 0. 0. 0.
      0. 2.50980407e-01 1. 1. 1. 1. 1. 1. 1. 1. 1. 1. 1. 1. 1. 1. 1. 1.
      1. 1. 1. 1. 2.50980407e-01 0. 0. 0. 0. 2.50980407e-01 1. 1. 1. 1.
      1. 1. 1. 1. 1. 1. 1. 1. 1. 1. 1. 1. 1. 1. 1. 8.82352948e-01
      1.33333340e-01 0. 0. 0. 0. 0. 7.49019623e-01 1. 1. 1. 1. 1. 1. 1.
      1. 1. 1. 1. 1. 1. 1. 1. 1. 1. 1. 7.49019623e-01 0. 0. 0. 0. 0. 0.
      7.49019623e-01 1. 1. 1. 1. 1. 1. 1. 1. 1. 1. 1. 1. 1. 1. 1. 1. 1.
      1. 3.49019617e-01 0. 0. 0. 0. 0. 0. 0. 9.49019611e-01 1. 1. 1. 1.
      1. 1. 1. 1. 1. 1. 1. 1. 1. 1. 1. 1. 9.49019611e-01 0. 0. 0. 0. 0.
      0. 0. 0. 9.80392173e-02 8.50980401e-01 1. 1. 1. 1. 1. 1. 1. 1. 1.
      1. 1. 1. 1. 1. 8.50980401e-01 9.80392173e-02 0. 0. 0. 0. 0. 0. 0.
      0. 0. 0. 8.98039222e-01 1. 1. 1. 1. 1. 1. 1. 1. 1. 1. 1.
      9.64705884e-01 8.66666675e-01 0. 0. 0. 0. 0. 0. 0. 0. 0. 0. 0. 0.
      8.23529437e-02 3.33333343e-01 4.98039216e-01 1. 1. 1. 1. 1. 1. 1.
      1. 4.98039216e-01 2.50980407e-01 0. 0. 0. 0. 0. 0. 0. 0. 0. 0. 0.
      0. 0. 0. 0. 0. 0. 0. 0. 0. 0. 6.00000024e-01 0. 0. 0. 0. 0. 0. 0.
      0. 0. 0. 0. 0. 0. 0. 0. 0. 0. 0. 0. 0. 0. 0. 0. 0. 0. 0. 0. 0. 0.
      0. 0. 0. 0. 0. 0. 0. 0.</_>
    <_>
      0. 0. 0. 0. 0. 0. 0. 0. 0. 0. 0. 0. 0. 0. 0. 0. 0. 0. 0. 0. 0. 0.
      0. 0. 0. 0. 0. 0. 0. 0. 0. 0. 0. 0. 0. 0. 0. 0. 0. 0. 0. 0. 0. 0.
      0. 0. 0. 0. 0. 0. 0. 0. 0. 0. 0. 0. 0. 0. 0. 0. 0. 0.
      3.33333343e-01 3.33333343e-01 3.33333343e-01 3.33333343e-01
      2.50980407e-01 0. 0. 0. 0. 0. 0. 0. 0. 0. 0. 0. 0. 0. 0. 0. 0. 0.
      0. 0. 8.66666675e-01 8.66666675e-01 1. 1. 1. 1. 9.64705884e-01
      8.66666675e-01 6.50980413e-01 0. 0. 0. 0. 0. 0. 0. 0. 0. 0. 0. 0.
      0. 0. 2.98039228e-01 5.49019635e-01 1. 1. 1. 1. 1. 1. 1. 1. 1. 1.
      1. 2.98039228e-01 0. 0. 0. 0. 0. 0. 0. 0. 0. 0. 0. 2.31372550e-01
      9.84313726e-01 1. 1. 1. 1. 1. 1. 1. 1. 1. 1. 1. 1. 9.84313726e-01
      2.31372550e-01 0. 0. 0. 0. 0. 0. 0. 0. 0. 0. 6.00000024e-01 1. 1.
      1. 1. 1. 1. 1. 1. 1. 1. 1. 1. 1. 1. 1. 3.49019617e-01 0. 0. 0. 0.
      0. 0. 0. 0. 7.49019623e-01 1. 1. 1. 1. 1. 1. 1. 1. 1. 1. 1. 1. 1.
      1. 1. 1. 1. 2.50980407e-01 0. 0. 0. 0. 0. 0. 0. 7.49019623e-01 1.
      1. 1. 1. 1. 1. 1. 1. 1. 1. 1. 1. 1. 1. 1. 1. 1. 1. 0. 0. 0. 0. 0.
      0. 2.50980407e-01 1. 1. 1. 1. 1. 1. 1. 1. 1. 1. 1. 1. 1. 1. 1. 1.
      1. 1. 1. 5.09803928e-02 0. 0. 0. 0. 0. 2.50980407e-01 1. 1. 1. 1.
      1. 1. 1. 1. 1. 1. 1. 1. 1. 1. 1. 1. 1. 1. 1. 7.49019623e-01 0. 0.
      0. 0. 0. 3.49019617e-01 1. 1. 1. 1. 1. 9.64705884e-01
      8.66666675e-01 0. 6.50980413e-01 8.98039222e-01 1. 1. 1. 1. 1. 1.
      1. 1. 1. 7.49019623e-01 0. 0. 0. 0. 0. 1. 1. 1. 1. 1. 1.
      7.49019623e-01 0. 0. 0. 8.23529437e-02 8.31372559e-01 1. 1. 1. 1.
      1. 1. 1. 1. 7.49019623e-01 0. 0. 0. 0. 0. 1. 1. 1. 1. 1. 1. 0. 0.
      0. 0. 0. 7.49019623e-01 1. 1. 1. 1. 1. 1. 1. 1. 1. 2.50980407e-01
      0. 0. 0. 0. 1. 1. 1. 1. 1. 4.50980395e-01 0. 0. 0. 0. 0.
      2.00000003e-01 1. 1. 1. 1. 1. 1. 1. 1. 1. 2.50980407e-01 0. 0. 0.
      7.49019623e-01 1. 1. 1. 1. 1. 4.50980395e-01 0. 0. 0. 0. 0.
      2.00000003e-01 1. 1. 1. 1. 1. 1. 1. 1. 1. 2.50980407e-01 0. 0. 0.
      7.49019623e-01 1. 1. 1. 1. 1. 1. 0. 0. 0. 0. 0. 7.49019623e-01 1.
      1. 1. 1. 1. 1. 1. 1. 1. 2.50980407e-01 0. 0. 0. 4.98039216e-01 1.
      1. 1. 1. 1. 1. 2.50980407e-01 0. 0. 0. 8.23529437e-02
      8.31372559e-01 1. 1. 1. 1. 1. 1. 1. 1. 9.17647064e-01
      1.64705887e-01 0. 0. 0. 0. 1. 1. 1. 1. 1. 1. 9.64705884e-01
      8.66666675e-01 8.66666675e-01 8.66666675e-01 8.98039222e-01 1. 1.
      1. 1. 1. 1. 1. 1. 1. 7.49019623e-01 0. 0. 0. 0. 0. 1. 1. 1. 1. 1.
      1. 1. 1. 1. 1. 1. 1. 1. 1. 1. 1. 1. 1. 1. 1. 7.49019623e-01 0. 0.
      0. 0. 0. 1. 1. 1. 1. 1. 1. 1. 1. 1. 1. 1. 1. 1. 1. 1. 1. 1. 1. 1.
      1. 7.49019623e-01 0. 0. 0. 0. 0. 1. 1. 1. 1. 1. 1. 1. 1. 1. 1. 1.
      1. 1. 1. 1. 1. 1. 1. 1. 1. 4.00000006e-01 0. 0. 0. 0. 0.
      2.50980407e-01 1. 1. 1. 1. 1. 1. 1. 1. 1. 1. 1. 1. 1. 1. 1. 1. 1.
      1. 1. 0. 0. 0. 0. 0. 0. 1.17647059e-01 8.66666675e-01 1. 1. 1. 1.
      1. 1. 1. 1. 1. 1. 1. 1. 1. 1. 1. 1. 1. 6.00000024e-01 0. 0. 0. 0.
      0. 0. 0. 7.49019623e-01 1. 1. 1. 1. 1. 1. 1. 1. 1. 1. 1. 1. 1. 1.
      1. 1. 9.84313726e-01 2.31372550e-01 0. 0. 0. 0. 0. 0. 0.
      2.98039228e-01 5.49019635e-01 1. 1. 1. 1. 1. 1. 1. 1. 1. 1. 1. 1.
      1. 1. 1. 2.98039228e-01 0. 0. 0. 0. 0. 0. 0. 0. 0. 0.
      6.50980413e-01 1. 1. 1. 1. 1. 1. 1. 1. 1. 1. 1. 1. 8.66666675e-01
      2.15686277e-01 0. 0. 0. 0. 0. 0. 0. 0. 0. 0. 0. 0. 3.33333343e-01
      3.33333343e-01 1. 1. 1. 1. 1. 1. 1. 1. 8.31372559e-01
      3.33333343e-01 0. 0. 0. 0. 0. 0. 0. 0. 0. 0. 0. 0. 0. 0. 0. 0. 0.
      0. 0. 0. 0. 0. 0. 0. 0. 0. 0. 0. 0. 0. 0. 0. 0. 0. 0. 0. 0. 0. 0.
      0. 0. 0. 0. 0. 0. 0. 0. 0. 0. 0. 0. 0. 0. 0. 0. 0. 0. 0. 0. 0.</_>
    <_>
      0. 0. 0. 0. 0. 0. 0. 0. 0. 0. 0. 0. 0. 0. 0. 0. 0. 0. 0. 0. 0. 0.
      0. 0. 0. 0. 0. 0. 0. 0. 0. 0. 0. 0. 0. 0. 0. 0. 0. 0. 0. 0. 0. 0.
      0. 0. 0. 0. 0. 0. 0. 0. 0. 0. 0. 0. 0. 0. 0. 0. 0. 0.
      3.33333343e-01 3.33333343e-01 3.33333343e-01 3.33333343e-01
      2.50980407e-01 0. 0. 0. 0. 0. 0. 0. 0. 0. 0. 0. 0. 0. 0. 0. 0. 0.
      0. 0. 8.66666675e-01 8.66666675e-01 1. 1. 1. 1. 9.64705884e-01
      8.66666675e-01 6.50980413e-01 0. 0. 0. 0. 0. 0. 0. 0. 0. 0. 0. 0.
      0. 0. 2.98039228e-01 5.49019635e-01 1. 1. 1. 1. 1. 1. 1. 1. 1. 1.
      1. 2.98039228e-01 0. 0. 0. 0. 0. 0. 0. 0. 0. 0. 0. 2.31372550e-01
      9.84313726e-01 1. 1. 1. 1. 1. 1. 1. 1. 1. 1. 1. 1. 9.84313726e-01
      2.31372550e-01 0. 0. 0. 0. 0. 0. 0. 0. 0. 0. 6.00000024e-01 1. 1.
      1. 1. 1. 1. 1. 1. 1. 1. 1. 1. 1. 1. 1. 3.49019617e-01 0. 0. 0. 0.
      0. 0. 0. 0. 7.49019623e-01 1. 1. 1. 1. 1. 1. 1. 1. 1. 1. 1. 1. 1.
      1. 1. 1. 1. 2.50980407e-01 0. 0. 0. 0. 0. 0. 0. 7.49019623e-01 1.
      1. 1. 1. 1. 1. 1. 1. 1. 1. 1. 1. 1. 1. 1. 1. 1. 1. 0. 0. 0. 0. 0.
      0. 2.50980407e-01 1. 1. 1. 1. 1. 1. 1. 1. 1. 1. 1. 1. 1. 1. 1. 1.
      1. 1. 1. 5.09803928e-02 0. 0. 0. 0. 0. 2.50980407e-01 1. 1. 1. 1.
      1. 1. 1. 1. 1. 1. 1. 1. 1. 1. 1. 1. 1. 1. 1. 7.49019623e-01 0. 0.
      0. 0. 0. 3.49019617e-01 1. 1. 1. 1. 1. 9.64705884e-01
      8.66666675e-01 0. 6.50980413e-01 8.98039222e-01 1. 1. 1. 1. 1. 1.
      1. 1. 1. 7.49019623e-01 0. 0. 0. 0. 0. 1. 1. 1. 1. 1. 1.
      7.49019623e-01 0. 0. 0. 8.23529437e-02 8.31372559e-01 1. 1. 1. 1.
      1. 1. 1. 1. 7.49019623e-01 0. 0. 0. 0. 0. 1. 1. 1. 1. 1. 1. 0. 0.
      0. 0. 0. 7.49019623e-01 1. 1. 1. 1. 1. 1. 1. 1. 1. 2.50980407e-01
      0. 0. 0. 0. 1. 1. 1. 1. 1. 4.50980395e-01 0. 0. 0. 0. 0.
      2.00000003e-01 1. 1. 1. 1. 1. 1. 1. 1. 1. 2.50980407e-01 0. 0. 0.
      7.49019623e-01 1. 1. 1. 1. 1. 4.50980395e-01 0. 0. 0. 0. 0.
      2.00000003e-01 1. 1. 1. 1. 1. 1. 1. 1. 1. 2.50980407e-01 0. 0. 0.
      7.49019623e-01 1. 1. 1. 1. 1. 1. 0. 0. 0. 0. 0. 7.49019623e-01 1.
      1. 1. 1. 1. 1. 1. 1. 1. 2.50980407e-01 0. 0. 0. 7.49019623e-01 1.
      1. 1. 1. 1. 1. 2.50980407e-01 0. 0. 0. 8.23529437e-02
      8.31372559e-01 1. 1. 1. 1. 1. 1. 1. 1. 1. 2.50980407e-01 0. 0. 0.
      9.80392173e-02 1. 1. 1. 1. 1. 1. 9.64705884e-01 8.66666675e-01
      8.66666675e-01 8.66666675e-01 8.98039222e-01 1. 1. 1. 1. 1. 1. 1.
      1. 1. 7.84313738e-01 3.13725509e-02 0. 0. 0. 0. 1. 1. 1. 1. 1. 1.
      1. 1. 1. 1. 1. 1. 1. 1. 1. 1. 1. 1. 1. 1. 7.49019623e-01 0. 0. 0.
      0. 0. 1. 1. 1. 1. 1. 1. 1. 1. 1. 1. 1. 1. 1. 1. 1. 1. 1. 1. 1. 1.
      7.49019623e-01 0. 0. 0. 0. 0. 1. 1. 1. 1. 1. 1. 1. 1. 1. 1. 1. 1.
      1. 1. 1. 1. 1. 1. 1. 1. 4.00000006e-01 0. 0. 0. 0. 0.
      2.50980407e-01 1. 1. 1. 1. 1. 1. 1. 1. 1. 1. 1. 1. 1. 1. 1. 1. 1.
      1. 1. 0. 0. 0. 0. 0. 0. 1.17647059e-01 8.66666675e-01 1. 1. 1. 1.
      1. 1. 1. 1. 1. 1. 1. 1. 1. 1. 1. 1. 1. 6.00000024e-01 0. 0. 0. 0.
      0. 0. 0. 7.49019623e-01 1. 1. 1. 1. 1. 1. 1. 1. 1. 1. 1. 1. 1. 1.
      1. 1. 7.49019623e-01 0. 0. 0. 0. 0. 0. 0. 0. 2.98039228e-01
      5.49019635e-01 1. 1. 1. 1. 1. 1. 1. 1. 1. 1. 1. 1. 1. 1. 1.
      2.98039228e-01 0. 0. 0. 0. 0. 0. 0. 0. 0. 0. 6.50980413e-01 1. 1.
      1. 1. 1. 1. 1. 1. 1. 1. 1. 1. 8.66666675e-01 2.15686277e-01 0. 0.
      0. 0. 0. 0. 0. 0. 0. 0. 0. 0. 3.33333343e-01 3.33333343e-01 1. 1.
      1. 1. 1. 1. 1. 1. 8.31372559e-01 3.33333343e-01 0. 0. 0. 0. 0. 0.
      0. 0. 0. 0. 0. 0. 0. 0. 0. 0. 0. 0. 0. 0. 2.00000003e-01
      2.00000003e-01 0. 0. 0. 0. 0. 0. 0. 0. 0. 0. 0. 0. 0. 0. 0. 0. 0.
      0. 0. 0. 0. 0. 0. 0. 0. 0. 0. 0. 0. 0. 0. 0. 0. 0. 0. 0. 0. 0.</_>
    <_>
      0. 0. 0. 0. 0. 0. 0. 0. 0. 0. 0. 0. 0. 0. 0. 0. 0. 0. 0. 0. 0. 0.
      0. 0. 0. 0. 0. 0. 0. 0. 0. 0. 0. 0. 0. 0. 0. 0. 0. 0. 0. 0. 0. 0.
      0. 0. 0. 0. 0. 0. 0. 0. 0. 0. 0. 0. 0. 0. 0. 0. 0. 0.
      8.23529437e-02 3.33333343e-01 3.33333343e-01 3.33333343e-01
      3.33333343e-01 8.23529437e-02 0. 0. 0. 0. 0. 0. 0. 0. 0. 0. 0. 0.
      0. 0. 0. 0. 0. 0. 2.15686277e-01 8.66666675e-01 8.98039222e-01 1.
      1. 1. 1. 8.98039222e-01 8.66666675e-01 2.15686277e-01 0. 0. 0. 0.
      0. 0. 0. 0. 0. 0. 0. 0. 0. 0. 4.00000006e-01 8.50980401e-01 1. 1.
      1. 1. 1. 1. 1. 1. 1. 1. 8.50980401e-01 9.80392173e-02 0. 0. 0. 0.
      0. 0. 0. 0. 0. 0. 0. 0. 1. 1. 1. 1. 1. 1. 1. 1. 1. 1. 1. 1. 1.
      9.49019611e-01 0. 0. 0. 0. 0. 0. 0. 0. 0. 0. 1.17647059e-01
      8.66666675e-01 1. 1. 1. 1. 1. 1. 1. 1. 1. 1. 1. 1. 1. 1.
      8.66666675e-01 1.17647059e-01 0. 0. 0. 0. 0. 0. 0. 0. 1. 1. 1. 1.
      1. 1. 1. 1. 1. 1. 1. 1. 1. 1. 1. 1. 1. 1. 0. 0. 0. 0. 0. 0. 0.
      4.00000006e-01 1. 1. 1. 1. 1. 1. 1. 1. 1. 1. 1. 1. 1. 1. 1. 1. 1.
      1. 7.49019623e-01 0. 0. 0. 0. 0. 0. 7.49019623e-01 1. 1. 1. 1. 1.
      1. 1. 1. 1. 1. 1. 1. 1. 1. 1. 1. 1. 1. 7.64705896e-01
      1.56862754e-02 0. 0. 0. 0. 1.49019614e-01 8.98039222e-01 1. 1. 1.
      1. 1. 1. 1. 1. 1. 1. 1. 1. 1. 1. 1. 1. 1. 1. 1. 2.50980407e-01 0.
      0. 0. 0. 2.50980407e-01 1. 1. 1. 1. 1. 1. 8.98039222e-01
      6.50980413e-01 0. 8.66666675e-01 9.64705884e-01 1. 1. 1. 1. 1. 1.
      1. 1. 1. 2.50980407e-01 0. 0. 0. 0. 2.50980407e-01 1. 1. 1. 1. 1.
      1. 2.50980407e-01 0. 0. 0. 2.50980407e-01 1. 1. 1. 1. 1. 1. 1. 1.
      1. 2.50980407e-01 0. 0. 0. 0. 2.50980407e-01 1. 1. 1. 1. 1.
      7.49019623e-01 0. 0. 0. 0. 0. 8.50980401e-01 1. 1. 1. 1. 1. 1. 1.
      1. 1. 0. 0. 0. 0. 2.50980407e-01 1. 1. 1. 1. 1. 7.49019623e-01 0.
      0. 0. 0. 0. 2.50980407e-01 1. 1. 1. 1. 1. 1. 1. 1. 1. 0. 0. 0. 0.
      2.50980407e-01 1. 1. 1. 1. 1. 7.49019623e-01 0. 0. 0. 0. 0.
      2.50980407e-01 1. 1. 1. 1. 1. 1. 1. 1. 1. 0. 0. 0. 0.
      2.50980407e-01 1. 1. 1. 1. 1. 7.49019623e-01 0. 0. 0. 0. 0.
      8.50980401e-01 1. 1. 1. 1. 1. 1. 1. 1. 1. 0. 0. 0. 0.
      2.50980407e-01 1. 1. 1. 1. 1. 1. 2.50980407e-01 0. 0. 0.
      2.50980407e-01 1. 1. 1. 1. 1. 1. 1. 1. 1. 1. 0. 0. 0. 0.
      2.50980407e-01 1. 1. 1. 1. 1. 1. 8.98039222e-01 8.66666675e-01
      8.66666675e-01 8.66666675e-01 9.64705884e-01 1. 1. 1. 1. 1. 1. 1.
      1. 1. 3.49019617e-01 0. 0. 0. 0. 2.50980407e-01 1. 1. 1. 1. 1. 1.
      1. 1. 1. 1. 1. 1. 1. 1. 1. 1. 1. 1. 1. 1. 2.50980407e-01 0. 0. 0.
      0. 2.50980407e-01 1. 1. 1. 1. 1. 1. 1. 1. 1. 1. 1. 1. 1. 1. 1. 1.
      1. 1. 1. 1. 2.50980407e-01 0. 0. 0. 0. 2.50980407e-01 1. 1. 1. 1.
      1. 1. 1. 1. 1. 1. 1. 1. 1. 1. 1. 1. 1. 1. 1. 8.82352948e-01
      1.33333340e-01 0. 0. 0. 0. 0. 7.49019623e-01 1. 1. 1. 1. 1. 1. 1.
      1. 1. 1. 1. 1. 1. 1. 1. 1. 1. 1. 7.49019623e-01 0. 0. 0. 0. 0. 0.
      7.49019623e-01 1. 1. 1. 1. 1. 1. 1. 1. 1. 1. 1. 1. 1. 1. 1. 1. 1.
      1. 3.49019617e-01 0. 0. 0. 0. 0. 0. 0. 9.49019611e-01 1. 1. 1. 1.
      1. 1. 1. 1. 1. 1. 1. 1. 1. 1. 1. 1. 9.49019611e-01 0. 0. 0. 0. 0.
      0. 0. 0. 9.80392173e-02 8.50980401e-01 1. 1. 1. 1. 1. 1. 1. 1. 1.
      1. 1. 1. 1. 1. 8.50980401e-01 9.80392173e-02 0. 0. 0. 0. 0. 0. 0.
      0. 0. 0. 8.98039222e-01 1. 1. 1. 1. 1. 1. 1. 1. 1. 1. 1.
      9.64705884e-01 8.66666675e-01 0. 0. 0. 0. 0. 0. 0. 0. 0. 0. 0. 0.
      8.23529437e-02 3.33333343e-01 4.98039216e-01 1. 1. 1. 1. 1. 1. 1.
      1. 4.98039216e-01 2.50980407e-01 0. 0. 0. 0. 0. 0. 0. 0. 0. 0. 0.
      0. 0. 0. 0. 0. 0. 0. 0. 0. 6.00000024e-01 6.00000024e-01 0. 0. 0.
      0. 0. 0. 0. 0. 0. 0. 0. 0. 0. 0. 0. 0. 0. 0. 0. 0. 0. 0. 0. 0. 0.
      0. 0. 0. 0. 0. 0. 0. 0. 0. 0. 0. 0.</_>
    <_>
      0. 0. 0. 0. 0. 0. 0. 0. 0. 0. 0. 0. 0. 0. 0. 0. 0. 0. 0. 0. 0. 0.
      0. 0. 0. 0. 0. 0. 0. 0. 0. 0. 0. 0. 0. 0. 0. 0. 0. 0. 0. 0. 0. 0.
      0. 0. 0. 0. 0. 0. 0. 0. 0. 0. 0. 0. 0. 0. 0. 0. 8.23529437e-02
      3.33333343e-01 3.33333343e-01 3.33333343e-01 3.33333343e-01
      3.33333343e-01 3.33333343e-01 8.23529437e-02 0. 0. 0. 0. 0. 0. 0.
      0. 0. 0. 0. 0. 0. 0. 0. 0. 0. 6.50980413e-01 8.98039222e-01 1. 1.
      1. 1. 1. 1. 8.98039222e-01 8.66666675e-01 2.15686277e-01 0. 0. 0.
      0. 0. 0. 0. 0. 0. 0. 0. 0. 0. 2.98039228e-01 1. 1. 1. 1. 1. 1. 1.
      1. 1. 1. 1. 1. 8.50980401e-01 9.80392173e-02 0. 0. 0. 0. 0. 0. 0.
      0. 0. 0. 2.31372550e-01 9.84313726e-01 1. 1. 1. 1. 1. 1. 1. 1. 1.
      1. 1. 1. 1. 9.49019611e-01 0. 0. 0. 0. 0. 0. 0. 0. 0.
      3.49019617e-01 1. 1. 1. 1. 1. 1. 1. 1. 1. 1. 1. 1. 1. 1. 1. 1.
      7.49019623e-01 0. 0. 0. 0. 0. 0. 0. 0. 7.49019623e-01 1. 1. 1. 1.
      1. 1. 1. 1. 1. 1. 1. 1. 1. 1. 1. 1. 1. 2.50980407e-01 0. 0. 0. 0.
      0. 0. 1.33333340e-01 8.82352948e-01 1. 1. 1. 1. 1. 1. 1. 1. 1. 1.
      1. 1. 1. 1. 1. 1. 1. 1. 0. 0. 0. 0. 0. 0. 2.50980407e-01 1. 1. 1.
      1. 1. 1. 1. 1. 1. 1. 1. 1. 1. 1. 1. 1. 1. 1. 1. 7.49019623e-01 0.
      0. 0. 0. 0. 6.98039234e-01 1. 1. 1. 1. 1. 1. 1. 1. 1. 1. 1. 1. 1.
      1. 1. 1. 1. 1. 1. 7.49019623e-01 0. 0. 0. 0. 0. 1. 1. 1. 1. 1. 1.
      9.64705884e-01 2.15686277e-01 0. 0. 8.66666675e-01 9.64705884e-01
      1. 1. 1. 1. 1. 1. 1. 1. 7.49019623e-01 0. 0. 0. 0. 0. 1. 1. 1. 1.
      1. 1. 2.50980407e-01 0. 0. 0. 0. 7.49019623e-01 1. 1. 1. 1. 1. 1.
      1. 1. 9.17647064e-01 1.64705887e-01 0. 0. 0. 0. 1. 1. 1. 1. 1.
      8.50980401e-01 0. 0. 0. 0. 0. 7.49019623e-01 1. 1. 1. 1. 1. 1. 1.
      1. 1. 2.50980407e-01 0. 0. 0. 5.49019635e-01 1. 1. 1. 1. 1.
      2.50980407e-01 0. 0. 0. 0. 0. 2.00000003e-01 1. 1. 1. 1. 1. 1. 1.
      1. 1. 2.50980407e-01 0. 0. 0. 7.49019623e-01 1. 1. 1. 1. 1. 1. 0.
      0. 0. 0. 0. 2.00000003e-01 1. 1. 1. 1. 1. 1. 1. 1. 1.
      2.50980407e-01 0. 0. 0. 7.49019623e-01 1. 1. 1. 1. 1. 1. 0. 0. 0.
      0. 0. 7.49019623e-01 1. 1. 1. 1. 1. 1. 1. 1. 1. 2.50980407e-01 0.
      0. 0. 7.49019623e-01 1. 1. 1. 1. 1. 1. 8.31372559e-01
      8.23529437e-02 0. 0. 4.98039216e-01 1. 1. 1. 1. 1. 1. 1. 1. 1.
      9.17647064e-01 1.64705887e-01 0. 0. 0. 9.80392173e-02 1. 1. 1. 1.
      1. 1. 1. 8.98039222e-01 8.66666675e-01 8.66666675e-01 1. 1. 1. 1.
      1. 1. 1. 1. 1. 1. 7.49019623e-01 0. 0. 0. 0. 0. 1. 1. 1. 1. 1. 1.
      1. 1. 1. 1. 1. 1. 1. 1. 1. 1. 1. 1. 1. 1. 7.49019623e-01 0. 0. 0.
      0. 0. 1. 1. 1. 1. 1. 1. 1. 1. 1. 1. 1. 1. 1. 1. 1. 1. 1. 1. 1. 1.
      7.49019623e-01 0. 0. 0. 0. 0. 6.50980413e-01 1. 1. 1. 1. 1. 1. 1.
      1. 1. 1. 1. 1. 1. 1. 1. 1. 1. 1. 1. 4.00000006e-01 0. 0. 0. 0. 0.
      2.50980407e-01 1. 1. 1. 1. 1. 1. 1. 1. 1. 1. 1. 1. 1. 1. 1. 1. 1.
      1. 1. 0. 0. 0. 0. 0. 0. 1.17647059e-01 8.66666675e-01 1. 1. 1. 1.
      1. 1. 1. 1. 1. 1. 1. 1. 1. 1. 1. 1. 1. 6.00000024e-01 0. 0. 0. 0.
      0. 0. 0. 6.98039234e-01 1. 1. 1. 1. 1. 1. 1. 1. 1. 1. 1. 1. 1. 1.
      1. 1. 6.98039234e-01 0. 0. 0. 0. 0. 0. 0. 0. 0. 5.49019635e-01 1.
      1. 1. 1. 1. 1. 1. 1. 1. 1. 1. 1. 1. 1. 5.49019635e-01 0. 0. 0. 0.
      0. 0. 0. 0. 0. 0. 0. 6.50980413e-01 8.66666675e-01 9.64705884e-01
      1. 1. 1. 1. 1. 1. 1. 1. 1. 8.98039222e-01 6.50980413e-01 0. 0. 0.
      0. 0. 0. 0. 0. 0. 0. 0. 0. 0. 0. 2.50980407e-01 4.98039216e-01 1.
      1. 1. 1. 1. 1. 4.98039216e-01 3.33333343e-01 8.23529437e-02 0. 0.
      0. 0. 0. 0. 0. 0. 0. 0. 0. 0. 0. 0. 0. 0. 0. 0. 0. 0. 0. 0. 0. 0.
      0. 0. 0. 0. 0. 0. 0. 0. 0. 0. 0. 0. 0. 0. 0. 0. 0. 0. 0. 0. 0. 0.
      0. 0. 0. 0. 0. 0. 0. 0. 0. 0. 0. 0. 0. 0.</_>
    <_>
      0. 0. 0. 0. 0. 0. 0. 0. 0. 0. 0. 0. 0. 0. 0. 0. 0. 0. 0. 0. 0. 0.
      0. 0. 0. 0. 0. 0. 0. 0. 0. 0. 0. 0. 0. 0. 0. 0. 0. 0. 0. 0. 0. 0.
      0. 0. 0. 0. 0. 0. 0. 0. 0. 0. 0. 0. 0. 0. 0. 0. 0. 2.50980407e-01
      3.33333343e-01 3.33333343e-01 3.33333343e-01 3.33333343e-01
      3.33333343e-01 3.33333343e-01 0. 0. 0. 0. 0. 0. 0. 0. 0. 0. 0. 0.
      0. 0. 0. 0. 0. 0. 8.66666675e-01 9.64705884e-01 1. 1. 1. 1. 1. 1.
      8.66666675e-01 8.66666675e-01 0. 0. 0. 0. 0. 0. 0. 0. 0. 0. 0. 0.
      0. 0. 5.49019635e-01 1. 1. 1. 1. 1. 1. 1. 1. 1. 1. 1. 1.
      5.49019635e-01 0. 0. 0. 0. 0. 0. 0. 0. 0. 0. 0. 6.98039234e-01 1.
      1. 1. 1. 1. 1. 1. 1. 1. 1. 1. 1. 1. 1. 6.98039234e-01 0. 0. 0. 0.
      0. 0. 0. 0. 0. 1.17647059e-01 8.66666675e-01 1. 1. 1. 1. 1. 1. 1.
      1. 1. 1. 1. 1. 1. 1. 1. 6.00000024e-01 0. 0. 0. 0. 0. 0. 0. 0. 1.
      1. 1. 1. 1. 1. 1. 1. 1. 1. 1. 1. 1. 1. 1. 1. 1. 1. 0. 0. 0. 0. 0.
      0. 0. 4.00000006e-01 1. 1. 1. 1. 1. 1. 1. 1. 1. 1. 1. 1. 1. 1. 1.
      1. 1. 1. 7.49019623e-01 0. 0. 0. 0. 0. 0. 7.49019623e-01 1. 1. 1.
      1. 1. 1. 1. 1. 1. 1. 1. 1. 1. 1. 1. 1. 1. 1. 7.64705896e-01
      1.56862754e-02 0. 0. 0. 0. 1.49019614e-01 8.98039222e-01 1. 1. 1.
      1. 1. 1. 1. 1. 1. 1. 1. 1. 1. 1. 1. 1. 1. 1. 1. 2.50980407e-01 0.
      0. 0. 0. 2.50980407e-01 1. 1. 1. 1. 1. 1. 8.98039222e-01 0. 0. 0.
      6.50980413e-01 1. 1. 1. 1. 1. 1. 1. 1. 1. 2.50980407e-01 0. 0. 0.
      0. 2.50980407e-01 1. 1. 1. 1. 1. 8.31372559e-01 8.23529437e-02 0.
      0. 0. 0. 1. 1. 1. 1. 1. 1. 1. 1. 1. 7.49019623e-01 0. 0. 0. 0.
      2.50980407e-01 1. 1. 1. 1. 1. 7.49019623e-01 0. 0. 0. 0. 0.
      2.50980407e-01 1. 1. 1. 1. 1. 1. 1. 1. 1. 0. 0. 0. 0.
      2.50980407e-01 1. 1. 1. 1. 1. 7.49019623e-01 0. 0. 0. 0. 0.
      2.50980407e-01 1. 1. 1. 1. 1. 1. 1. 1. 1. 0. 0. 0. 0.
      4.50980395e-01 1. 1. 1. 1. 1. 7.49019623e-01 0. 0. 0. 0. 0.
      4.50980395e-01 1. 1. 1. 1. 1. 1. 1. 1. 1. 0. 0. 0. 0.
      4.00000006e-01 1. 1. 1. 1. 1. 7.49019623e-01 0. 0. 0. 0. 0. 1. 1.
      1. 1. 1. 1. 1. 1. 1. 1. 0. 0. 0. 0. 2.50980407e-01 1. 1. 1. 1. 1.
      1. 4.98039216e-01 0. 0. 8.23529437e-02 8.31372559e-01 1. 1. 1. 1.
      1. 1. 1. 1. 1. 1. 0. 0. 0. 0. 2.50980407e-01 1. 1. 1. 1. 1. 1. 1.
      8.66666675e-01 8.66666675e-01 8.98039222e-01 1. 1. 1. 1. 1. 1. 1.
      1. 1. 1. 3.49019617e-01 0. 0. 0. 0. 2.50980407e-01 1. 1. 1. 1. 1.
      1. 1. 1. 1. 1. 1. 1. 1. 1. 1. 1. 1. 1. 1. 1. 2.50980407e-01 0. 0.
      0. 0. 2.50980407e-01 1. 1. 1. 1. 1. 1. 1. 1. 1. 1. 1. 1. 1. 1. 1.
      1. 1. 1. 1. 1. 2.50980407e-01 0. 0. 0. 0. 1.33333340e-01
      8.82352948e-01 1. 1. 1. 1. 1. 1. 1. 1. 1. 1. 1. 1. 1. 1. 1. 1. 1.
      1. 7.49019623e-01 0. 0. 0. 0. 0. 0. 7.49019623e-01 1. 1. 1. 1. 1.
      1. 1. 1. 1. 1. 1. 1. 1. 1. 1. 1. 1. 1. 7.49019623e-01 0. 0. 0. 0.
      0. 0. 3.49019617e-01 1. 1. 1. 1. 1. 1. 1. 1. 1. 1. 1. 1. 1. 1. 1.
      1. 1. 1. 3.49019617e-01 0. 0. 0. 0. 0. 0. 0. 9.49019611e-01 1. 1.
      1. 1. 1. 1. 1. 1. 1. 1. 1. 1. 1. 1. 1. 9.84313726e-01
      2.31372550e-01 0. 0. 0. 0. 0. 0. 0. 0. 9.80392173e-02
      8.50980401e-01 1. 1. 1. 1. 1. 1. 1. 1. 1. 1. 1. 1. 1. 1.
      7.49019623e-01 0. 0. 0. 0. 0. 0. 0. 0. 0. 0. 0. 2.15686277e-01
      9.64705884e-01 1. 1. 1. 1. 1. 1. 1. 1. 1. 1. 8.66666675e-01
      2.15686277e-01 0. 0. 0. 0. 0. 0. 0. 0. 0. 0. 0. 0. 0.
      2.50980407e-01 3.33333343e-01 8.31372559e-01 1. 1. 1. 1. 1. 1.
      8.31372559e-01 3.33333343e-01 0. 0. 0. 0. 0. 0. 0. 0. 0. 0. 0. 0.
      0. 0. 0. 0. 0. 0. 0. 0. 0. 0. 0. 0. 0. 0. 0. 0. 0. 0. 0. 0. 0. 0.
      0. 0. 0. 0. 0. 0. 0. 0. 0. 0. 0. 0. 0. 0. 0. 0. 0. 0. 0. 0. 0. 0.
      0. 0. 0. 0.</_>
    <_>
      0. 0. 0. 0. 0. 0. 0. 0. 0. 0. 0. 0. 0. 0. 0. 0. 0. 0. 0. 0. 0. 0.
      0. 0. 0. 0. 0. 0. 0. 0. 0. 0. 0. 0. 0. 0. 0. 0. 0. 0. 0. 0. 0. 0.
      0. 0. 0. 0. 0. 0. 0. 0. 0. 0. 0. 0. 0. 0. 0. 0. 0. 0.
      3.33333343e-01 3.33333343e-01 3.33333343e-01 3.33333343e-01
      2.50980407e-01 0. 0. 0. 0. 0. 0. 0. 0. 0. 0. 0. 0. 0. 0. 0. 0. 0.
      0. 0. 8.66666675e-01 8.66666675e-01 1. 1. 1. 1. 9.64705884e-01
      8.66666675e-01 6.50980413e-01 0. 0. 0. 0. 0. 0. 0. 0. 0. 0. 0. 0.
      0. 0. 2.98039228e-01 5.49019635e-01 1. 1. 1. 1. 1. 1. 1. 1. 1. 1.
      1. 2.98039228e-01 0. 0. 0. 0. 0. 0. 0. 0. 0. 0. 0. 2.31372550e-01
      9.84313726e-01 1. 1. 1. 1. 1. 1. 1. 1. 1. 1. 1. 1. 9.84313726e-01
      2.31372550e-01 0. 0. 0. 0. 0. 0. 0. 0. 0. 0. 6.00000024e-01 1. 1.
      1. 1. 1. 1. 1. 1. 1. 1. 1. 1. 1. 1. 1. 3.49019617e-01 0. 0. 0. 0.
      0. 0. 0. 0. 7.49019623e-01 1. 1. 1. 1. 1. 1. 1. 1. 1. 1. 1. 1. 1.
      1. 1. 1. 1. 2.50980407e-01 0. 0. 0. 0. 0. 0. 0. 7.49019623e-01 1.
      1. 1. 1. 1. 1. 1. 1. 1. 1. 1. 1. 1. 1. 1. 1. 1. 1. 0. 0. 0. 0. 0.
      0. 2.50980407e-01 1. 1. 1. 1. 1. 1. 1. 1. 1. 1. 1. 1. 1. 1. 1. 1.
      1. 1. 1. 5.09803928e-02 0. 0. 0. 0. 0. 6.98039234e-01 1. 1. 1. 1.
      1. 1. 1. 1. 1. 1. 1. 1. 1. 1. 1. 1. 1. 1. 1. 7.49019623e-01 0. 0.
      0. 0. 0. 3.49019617e-01 1. 1. 1. 1. 1. 9.64705884e-01
      8.66666675e-01 0. 6.50980413e-01 8.98039222e-01 1. 1. 1. 1. 1. 1.
      1. 1. 1. 7.49019623e-01 0. 0. 0. 0. 0. 1. 1. 1. 1. 1. 1.
      7.49019623e-01 0. 0. 0. 8.23529437e-02 8.31372559e-01 1. 1. 1. 1.
      1. 1. 1. 1. 7.49019623e-01 0. 0. 0. 0. 0. 1. 1. 1. 1. 1. 1. 0. 0.
      0. 0. 0. 7.49019623e-01 1. 1. 1. 1. 1. 1. 1. 1. 1. 2.50980407e-01
      0. 0. 0. 0. 1. 1. 1. 1. 1. 4.50980395e-01 0. 0. 0. 0. 0.
      2.00000003e-01 1. 1. 1. 1. 1. 1. 1. 1. 1. 2.50980407e-01 0. 0. 0.
      7.49019623e-01 1. 1. 1. 1. 1. 4.50980395e-01 0. 0. 0. 0. 0.
      2.00000003e-01 1. 1. 1. 1. 1. 1. 1. 1. 1. 2.50980407e-01 0. 0. 0.
      7.49019623e-01 1. 1. 1. 1. 1. 1. 0. 0. 0. 0. 0. 7.49019623e-01 1.
      1. 1. 1. 1. 1. 1. 1. 1. 2.50980407e-01 0. 0. 0. 7.49019623e-01 1.
      1. 1. 1. 1. 1. 2.50980407e-01 0. 0. 0. 8.23529437e-02
      8.31372559e-01 1. 1. 1. 1. 1. 1. 1. 1. 9.17647064e-01
      1.64705887e-01 0. 0. 0. 9.80392173e-02 1. 1. 1. 1. 1. 1.
      9.64705884e-01 8.66666675e-01 8.66666675e-01 8.66666675e-01
      8.98039222e-01 1. 1. 1. 1. 1. 1. 1. 1. 1. 7.49019623e-01 0. 0. 0.
      0. 0. 1. 1. 1. 1. 1. 1. 1. 1. 1. 1. 1. 1. 1. 1. 1. 1. 1. 1. 1. 1.
      7.49019623e-01 0. 0. 0. 0. 0. 1. 1. 1. 1. 1. 1. 1. 1. 1. 1. 1. 1.
      1. 1. 1. 1. 1. 1. 1. 1. 7.49019623e-01 0. 0. 0. 0. 0. 1. 1. 1. 1.
      1. 1. 1. 1. 1. 1. 1. 1. 1. 1. 1. 1. 1. 1. 1. 1. 4.00000006e-01 0.
      0. 0. 0. 0. 2.50980407e-01 1. 1. 1. 1. 1. 1. 1. 1. 1. 1. 1. 1. 1.
      1. 1. 1. 1. 1. 1. 0. 0. 0. 0. 0. 0. 1.17647059e-01 8.66666675e-01
      1. 1. 1. 1. 1. 1. 1. 1. 1. 1. 1. 1. 1. 1. 1. 1. 1. 6.00000024e-01
      0. 0. 0. 0. 0. 0. 0. 7.49019623e-01 1. 1. 1. 1. 1. 1. 1. 1. 1. 1.
      1. 1. 1. 1. 1. 1. 9.84313726e-01 2.31372550e-01 0. 0. 0. 0. 0. 0.
      0. 2.98039228e-01 5.49019635e-01 1. 1. 1. 1. 1. 1. 1. 1. 1. 1. 1.
      1. 1. 1. 1. 2.98039228e-01 0. 0. 0. 0. 0. 0. 0. 0. 0. 0.
      6.50980413e-01 1. 1. 1. 1. 1. 1. 1. 1. 1. 1. 1. 1. 8.66666675e-01
      2.15686277e-01 0. 0. 0. 0. 0. 0. 0. 0. 0. 0. 0. 0. 3.33333343e-01
      3.33333343e-01 1. 1. 1. 1. 1. 1. 1. 1. 8.31372559e-01
      3.33333343e-01 0. 0. 0. 0. 0. 0. 0. 0. 0. 0. 0. 0. 0. 0. 0. 0. 0.
      0. 0. 0. 0. 6.00000024e-01 0. 0. 0. 0. 0. 0. 0. 0. 0. 0. 0. 0. 0.
      0. 0. 0. 0. 0. 0. 0. 0. 0. 0. 0. 0. 0. 0. 0. 0. 0. 0. 0. 0. 0. 0.
      0. 0. 0.</_>
    <_>
      0. 0. 0. 0. 0. 0. 0. 0. 0. 0. 0. 0. 0. 0. 0. 0. 0. 0. 0. 0. 0. 0.
      0. 0. 0. 0. 0. 0. 0. 0. 0. 0. 0. 0. 0. 0. 0. 0. 0. 0. 0. 0. 0. 0.
      0. 0. 0. 0. 0. 0. 0. 0. 0. 0. 0. 0. 0. 0. 0. 0. 3.33333343e-01
      3.33333343e-01 3.33333343e-01 3.33333343e-01 3.33333343e-01
      3.33333343e-01 2.50980407e-01 0. 0. 0. 0. 0. 0. 0. 0. 0. 0. 0. 0.
      0. 0. 0. 0. 0. 8.66666675e-01 8.66666675e-01 1. 1. 1. 1. 1. 1.
      9.64705884e-01 8.66666675e-01 6.50980413e-01 0. 0. 0. 0. 0. 0. 0.
      0. 0. 0. 0. 0. 0. 9.80392173e-02 8.50980401e-01 1. 1. 1. 1. 1. 1.
      1. 1. 1. 1. 1. 5.49019635e-01 2.98039228e-01 0. 0. 0. 0. 0. 0. 0.
      0. 0. 0. 0. 9.49019611e-01 1. 1. 1. 1. 1. 1. 1. 1. 1. 1. 1. 1. 1.
      9.84313726e-01 2.31372550e-01 0. 0. 0. 0. 0. 0. 0. 0. 0.
      7.49019623e-01 1. 1. 1. 1. 1. 1. 1. 1. 1. 1. 1. 1. 1. 1. 1. 1. 0.
      0. 0. 0. 0. 0. 0. 0. 2.50980407e-01 1. 1. 1. 1. 1. 1. 1. 1. 1. 1.
      1. 1. 1. 1. 1. 1. 1. 7.49019623e-01 0. 0. 0. 0. 0. 0. 0.
      6.50980413e-01 1. 1. 1. 1. 1. 1. 1. 1. 1. 1. 1. 1. 1. 1. 1. 1. 1.
      8.82352948e-01 1.33333340e-01 0. 0. 0. 0. 0. 5.09803928e-02 1. 1.
      1. 1. 1. 1. 1. 1. 1. 1. 1. 1. 1. 1. 1. 1. 1. 1. 1. 2.98039228e-01
      0. 0. 0. 0. 0. 7.49019623e-01 1. 1. 1. 1. 1. 1. 1. 1. 1. 1. 1. 1.
      1. 1. 1. 1. 1. 1. 1. 1. 0. 0. 0. 0. 0. 7.49019623e-01 1. 1. 1. 1.
      1. 1. 6.50980413e-01 0. 0. 6.50980413e-01 1. 1. 1. 1. 1. 1. 1. 1.
      1. 1. 9.80392173e-02 0. 0. 0. 0. 7.49019623e-01 1. 1. 1. 1. 1.
      4.98039216e-01 0. 0. 0. 0. 4.98039216e-01 1. 1. 1. 1. 1. 1. 1. 1.
      1. 7.49019623e-01 0. 0. 0. 0. 7.49019623e-01 1. 1. 1. 1.
      9.49019611e-01 2.00000003e-01 0. 0. 0. 0. 2.50980407e-01 1. 1. 1.
      1. 1. 1. 1. 1. 1. 7.49019623e-01 0. 0. 0. 1.84313729e-01
      9.33333337e-01 1. 1. 1. 1. 7.49019623e-01 0. 0. 0. 0. 0.
      6.66666701e-02 8.15686285e-01 1. 1. 1. 1. 1. 1. 1. 1.
      7.49019623e-01 0. 0. 0. 2.50980407e-01 1. 1. 1. 1. 1.
      7.49019623e-01 0. 0. 0. 0. 0. 6.66666701e-02 8.15686285e-01 1. 1.
      1. 1. 1. 1. 1. 1. 7.49019623e-01 0. 0. 0. 2.50980407e-01 1. 1. 1.
      1. 1. 9.49019611e-01 2.00000003e-01 0. 0. 0. 0. 2.50980407e-01 1.
      1. 1. 1. 1. 1. 1. 1. 1. 7.49019623e-01 0. 0. 0. 2.50980407e-01 1.
      1. 1. 1. 1. 1. 1. 2.50980407e-01 0. 0. 2.50980407e-01 1. 1. 1. 1.
      1. 1. 1. 1. 1. 1. 7.49019623e-01 0. 0. 0. 3.13725509e-02
      7.84313738e-01 1. 1. 1. 1. 1. 1. 9.64705884e-01 8.66666675e-01
      8.66666675e-01 9.64705884e-01 1. 1. 1. 1. 1. 1. 1. 1. 1. 1.
      9.80392173e-02 0. 0. 0. 0. 7.49019623e-01 1. 1. 1. 1. 1. 1. 1. 1.
      1. 1. 1. 1. 1. 1. 1. 1. 1. 1. 1. 1. 0. 0. 0. 0. 0. 7.49019623e-01
      1. 1. 1. 1. 1. 1. 1. 1. 1. 1. 1. 1. 1. 1. 1. 1. 1. 1. 1. 1. 0. 0.
      0. 0. 0. 7.49019623e-01 1. 1. 1. 1. 1. 1. 1. 1. 1. 1. 1. 1. 1. 1.
      1. 1. 1. 1. 1. 2.50980407e-01 0. 0. 0. 0. 0. 0. 1. 1. 1. 1. 1. 1.
      1. 1. 1. 1. 1. 1. 1. 1. 1. 1. 1. 1. 1. 2.50980407e-01 0. 0. 0. 0.
      0. 0. 6.00000024e-01 1. 1. 1. 1. 1. 1. 1. 1. 1. 1. 1. 1. 1. 1. 1.
      1. 1. 7.49019623e-01 0. 0. 0. 0. 0. 0. 0. 2.31372550e-01
      9.84313726e-01 1. 1. 1. 1. 1. 1. 1. 1. 1. 1. 1. 1. 1. 1. 1.
      9.49019611e-01 0. 0. 0. 0. 0. 0. 0. 0. 0. 2.98039228e-01 1. 1. 1.
      1. 1. 1. 1. 1. 1. 1. 1. 1. 1. 1. 8.50980401e-01 9.80392173e-02 0.
      0. 0. 0. 0. 0. 0. 0. 0. 0. 2.15686277e-01 8.66666675e-01 1. 1. 1.
      1. 1. 1. 1. 1. 1. 1. 9.64705884e-01 8.66666675e-01 0. 0. 0. 0. 0.
      0. 0. 0. 0. 0. 0. 0. 0. 0. 3.33333343e-01 3.33333343e-01 1. 1. 1.
      1. 1. 1. 8.31372559e-01 3.33333343e-01 2.50980407e-01 0. 0. 0. 0.
      0. 0. 0. 0. 0. 0. 0. 0. 0. 0. 0. 0. 0. 0. 0. 0. 0. 0. 0. 0. 0. 0.
      0. 0. 0. 0. 0. 0. 0. 0. 0. 0. 0. 0. 0. 0. 0. 0. 0. 0. 0. 0. 0. 0.
      0. 0. 0. 0. 0. 0. 0. 0. 0. 0. 0. 0. 0.</_>
    <_>
      0. 0. 0. 0. 0. 0. 0. 0. 0. 0. 0. 0. 0. 0. 0. 0. 0. 0. 0. 0. 0. 0.
      0. 0. 0. 0. 0. 0. 0. 0. 0. 0. 0. 0. 0. 0. 0. 0. 0. 0. 0. 0. 0. 0.
      0. 0. 0. 0. 0. 0. 0. 0. 0. 0. 0. 0. 0. 0. 0. 0. 0. 2.50980407e-01
      3.33333343e-01 3.33333343e-01 3.33333343e-01 3.33333343e-01
      3.33333343e-01 3.33333343e-01 0. 0. 0. 0. 0. 0. 0. 0. 0. 0. 0. 0.
      0. 0. 0. 0. 0. 0. 8.66666675e-01 9.64705884e-01 1. 1. 1. 1. 1. 1.
      8.66666675e-01 8.66666675e-01 0. 0. 0. 0. 0. 0. 0. 0. 0. 0. 0. 0.
      0. 0. 5.49019635e-01 1. 1. 1. 1. 1. 1. 1. 1. 1. 1. 1. 1.
      5.49019635e-01 0. 0. 0. 0. 0. 0. 0. 0. 0. 0. 0. 6.98039234e-01 1.
      1. 1. 1. 1. 1. 1. 1. 1. 1. 1. 1. 1. 1. 6.98039234e-01 0. 0. 0. 0.
      0. 0. 0. 0. 0. 1.17647059e-01 8.66666675e-01 1. 1. 1. 1. 1. 1. 1.
      1. 1. 1. 1. 1. 1. 1. 1. 6.00000024e-01 0. 0. 0. 0. 0. 0. 0. 0. 1.
      1. 1. 1. 1. 1. 1. 1. 1. 1. 1. 1. 1. 1. 1. 1. 1. 1. 0. 0. 0. 0. 0.
      0. 0. 4.00000006e-01 1. 1. 1. 1. 1. 1. 1. 1. 1. 1. 1. 1. 1. 1. 1.
      1. 1. 1. 7.49019623e-01 0. 0. 0. 0. 0. 0. 7.49019623e-01 1. 1. 1.
      1. 1. 1. 1. 1. 1. 1. 1. 1. 1. 1. 1. 1. 1. 1. 7.64705896e-01
      1.56862754e-02 0. 0. 0. 0. 1.49019614e-01 8.98039222e-01 1. 1. 1.
      1. 1. 1. 1. 1. 1. 1. 1. 1. 1. 1. 1. 1. 1. 1. 1. 2.50980407e-01 0.
      0. 0. 0. 2.50980407e-01 1. 1. 1. 1. 1. 1. 8.98039222e-01 0. 0.
      2.15686277e-01 8.66666675e-01 1. 1. 1. 1. 1. 1. 1. 1. 1.
      2.50980407e-01 0. 0. 0. 0. 2.50980407e-01 1. 1. 1. 1. 1.
      8.31372559e-01 8.23529437e-02 0. 0. 0. 0. 1. 1. 1. 1. 1. 1. 1. 1.
      1. 7.49019623e-01 0. 0. 0. 0. 2.50980407e-01 1. 1. 1. 1. 1.
      7.49019623e-01 0. 0. 0. 0. 0. 2.50980407e-01 1. 1. 1. 1. 1. 1. 1.
      1. 1. 0. 0. 0. 0. 2.50980407e-01 1. 1. 1. 1. 1. 7.49019623e-01 0.
      0. 0. 0. 0. 2.50980407e-01 1. 1. 1. 1. 1. 1. 1. 1. 1. 0. 0. 0. 0.
      2.50980407e-01 1. 1. 1. 1. 1. 7.49019623e-01 0. 0. 0. 0. 0.
      4.50980395e-01 1. 1. 1. 1. 1. 1. 1. 1. 1. 0. 0. 0. 0.
      2.50980407e-01 1. 1. 1. 1. 1. 7.49019623e-01 0. 0. 0. 0. 0. 1. 1.
      1. 1. 1. 1. 1. 1. 1. 1. 0. 0. 0. 0. 2.50980407e-01 1. 1. 1. 1. 1.
      1. 4.98039216e-01 0. 0. 0. 7.49019623e-01 1. 1. 1. 1. 1. 1. 1. 1.
      1. 1. 0. 0. 0. 0. 2.50980407e-01 1. 1. 1. 1. 1. 1. 1.
      8.66666675e-01 8.66666675e-01 8.66666675e-01 9.64705884e-01 1. 1.
      1. 1. 1. 1. 1. 1. 1. 3.49019617e-01 0. 0. 0. 0. 2.50980407e-01 1.
      1. 1. 1. 1. 1. 1. 1. 1. 1. 1. 1. 1. 1. 1. 1. 1. 1. 1. 1.
      2.50980407e-01 0. 0. 0. 0. 2.50980407e-01 1. 1. 1. 1. 1. 1. 1. 1.
      1. 1. 1. 1. 1. 1. 1. 1. 1. 1. 1. 1. 2.50980407e-01 0. 0. 0. 0.
      1.33333340e-01 8.82352948e-01 1. 1. 1. 1. 1. 1. 1. 1. 1. 1. 1. 1.
      1. 1. 1. 1. 1. 1. 7.49019623e-01 0. 0. 0. 0. 0. 0. 7.49019623e-01
      1. 1. 1. 1. 1. 1. 1. 1. 1. 1. 1. 1. 1. 1. 1. 1. 1. 1.
      7.49019623e-01 0. 0. 0. 0. 0. 0. 3.49019617e-01 1. 1. 1. 1. 1. 1.
      1. 1. 1. 1. 1. 1. 1. 1. 1. 1. 1. 1. 3.49019617e-01 0. 0. 0. 0. 0.
      0. 0. 2.50980407e-01 1. 1. 1. 1. 1. 1. 1. 1. 1. 1. 1. 1. 1. 1. 1.
      9.84313726e-01 2.31372550e-01 0. 0. 0. 0. 0. 0. 0. 0.
      9.80392173e-02 8.50980401e-01 1. 1. 1. 1. 1. 1. 1. 1. 1. 1. 1. 1.
      1. 1. 2.98039228e-01 0. 0. 0. 0. 0. 0. 0. 0. 0. 0. 0.
      2.15686277e-01 8.66666675e-01 1. 1. 1. 1. 1. 1. 1. 1. 1. 1.
      8.66666675e-01 2.15686277e-01 0. 0. 0. 0. 0. 0. 0. 0. 0. 0. 0. 0.
      0. 0. 3.33333343e-01 8.31372559e-01 1. 1. 1. 1. 1. 1.
      8.31372559e-01 3.33333343e-01 0. 0. 0. 0. 0. 0. 0. 0. 0. 0. 0. 0.
      0. 0. 0. 0. 0. 0. 0. 0. 0. 0. 0. 0. 0. 0. 0. 0. 0. 0. 0. 0. 0. 0.
      0. 0. 0. 0. 0. 0. 0. 0. 0. 0. 0. 0. 0. 0. 0. 0. 0. 0. 0. 0. 0. 0.
      0. 0. 0. 0.</_>
    <_>
      0. 0. 0. 0. 0. 0. 0. 0. 0. 0. 0. 0. 0. 0. 0. 0. 0. 0. 0. 0. 0. 0.
      0. 0. 0. 0. 0. 0. 0. 0. 0. 0. 0. 0. 0. 0. 0. 0. 0. 0. 0. 0. 0. 0.
      0. 0. 0. 0. 0. 0. 0. 0. 0. 0. 0. 0. 0. 0. 0. 0. 8.23529437e-02
      3.33333343e-01 3.33333343e-01 3.33333343e-01 3.33333343e-01
      3.33333343e-01 3.33333343e-01 8.23529437e-02 0. 0. 0. 0. 0. 0. 0.
      0. 0. 0. 0. 0. 0. 0. 0. 0. 0. 6.50980413e-01 8.98039222e-01 1. 1.
      1. 1. 1. 1. 8.98039222e-01 8.66666675e-01 2.15686277e-01 0. 0. 0.
      0. 0. 0. 0. 0. 0. 0. 0. 0. 0. 2.98039228e-01 1. 1. 1. 1. 1. 1. 1.
      1. 1. 1. 1. 1. 8.50980401e-01 9.80392173e-02 0. 0. 0. 0. 0. 0. 0.
      0. 0. 0. 2.31372550e-01 9.84313726e-01 1. 1. 1. 1. 1. 1. 1. 1. 1.
      1. 1. 1. 1. 9.49019611e-01 0. 0. 0. 0. 0. 0. 0. 0. 0.
      3.49019617e-01 1. 1. 1. 1. 1. 1. 1. 1. 1. 1. 1. 1. 1. 1. 1. 1.
      7.49019623e-01 0. 0. 0. 0. 0. 0. 0. 0. 7.49019623e-01 1. 1. 1. 1.
      1. 1. 1. 1. 1. 1. 1. 1. 1. 1. 1. 1. 1. 2.50980407e-01 0. 0. 0. 0.
      0. 0. 1.33333340e-01 8.82352948e-01 1. 1. 1. 1. 1. 1. 1. 1. 1. 1.
      1. 1. 1. 1. 1. 1. 1. 1. 0. 0. 0. 0. 0. 0. 2.50980407e-01 1. 1. 1.
      1. 1. 1. 1. 1. 1. 1. 1. 1. 1. 1. 1. 1. 1. 1. 1. 7.49019623e-01 0.
      0. 0. 0. 0. 2.50980407e-01 1. 1. 1. 1. 1. 1. 1. 1. 1. 1. 1. 1. 1.
      1. 1. 1. 1. 1. 1. 7.49019623e-01 0. 0. 0. 0. 0. 1. 1. 1. 1. 1. 1.
      9.64705884e-01 2.15686277e-01 0. 0. 8.66666675e-01 9.64705884e-01
      1. 1. 1. 1. 1. 1. 1. 1. 7.49019623e-01 0. 0. 0. 0. 0. 1. 1. 1. 1.
      1. 1. 2.50980407e-01 0. 0. 0. 0. 7.49019623e-01 1. 1. 1. 1. 1. 1.
      1. 1. 7.49019623e-01 0. 0. 0. 0. 0. 1. 1. 1. 1. 1. 1. 0. 0. 0. 0.
      0. 7.49019623e-01 1. 1. 1. 1. 1. 1. 1. 1. 1. 2.50980407e-01 0. 0.
      0. 5.49019635e-01 1. 1. 1. 1. 1. 4.50980395e-01 0. 0. 0. 0. 0.
      2.00000003e-01 1. 1. 1. 1. 1. 1. 1. 1. 1. 2.50980407e-01 0. 0. 0.
      7.49019623e-01 1. 1. 1. 1. 1. 4.50980395e-01 0. 0. 0. 0. 0.
      2.00000003e-01 1. 1. 1. 1. 1. 1. 1. 1. 1. 2.50980407e-01 0. 0. 0.
      7.49019623e-01 1. 1. 1. 1. 1. 1. 0. 0. 0. 0. 0. 7.49019623e-01 1.
      1. 1. 1. 1. 1. 1. 1. 1. 2.50980407e-01 0. 0. 0. 7.49019623e-01 1.
      1. 1. 1. 1. 1. 8.31372559e-01 8.23529437e-02 0. 0. 4.98039216e-01
      1. 1. 1. 1. 1. 1. 1. 1. 1. 9.17647064e-01 1.64705887e-01 0. 0. 0.
      9.80392173e-02 1. 1. 1. 1. 1. 1. 1. 8.98039222e-01 8.66666675e-01
      8.66666675e-01 1. 1. 1. 1. 1. 1. 1. 1. 1. 1. 7.49019623e-01 0. 0.
      0. 0. 0. 1. 1. 1. 1. 1. 1. 1. 1. 1. 1. 1. 1. 1. 1. 1. 1. 1. 1. 1.
      1. 7.49019623e-01 0. 0. 0. 0. 0. 1. 1. 1. 1. 1. 1. 1. 1. 1. 1. 1.
      1. 1. 1. 1. 1. 1. 1. 1. 1. 7.49019623e-01 0. 0. 0. 0. 0.
      6.50980413e-01 1. 1. 1. 1. 1. 1. 1. 1. 1. 1. 1. 1. 1. 1. 1. 1. 1.
      1. 1. 4.00000006e-01 0. 0. 0. 0. 0. 2.50980407e-01 1. 1. 1. 1. 1.
      1. 1. 1. 1. 1. 1. 1. 1. 1. 1. 1. 1. 1. 1. 0. 0. 0. 0. 0. 0.
      1.17647059e-01 8.66666675e-01 1. 1. 1. 1. 1. 1. 1. 1. 1. 1. 1. 1.
      1. 1. 1. 1. 1. 6.00000024e-01 0. 0. 0. 0. 0. 0. 0. 6.98039234e-01
      1. 1. 1. 1. 1. 1. 1. 1. 1. 1. 1. 1. 1. 1. 1. 1. 6.98039234e-01 0.
      0. 0. 0. 0. 0. 0. 0. 0. 5.49019635e-01 1. 1. 1. 1. 1. 1. 1. 1. 1.
      1. 1. 1. 1. 1. 5.49019635e-01 0. 0. 0. 0. 0. 0. 0. 0. 0. 0. 0. 0.
      8.98039222e-01 1. 1. 1. 1. 1. 1. 1. 1. 1. 1. 8.98039222e-01
      6.50980413e-01 0. 0. 0. 0. 0. 0. 0. 0. 0. 0. 0. 0. 0.
      8.23529437e-02 3.33333343e-01 4.98039216e-01 1. 1. 1. 1. 1. 1.
      4.98039216e-01 3.33333343e-01 8.23529437e-02 0. 0. 0. 0. 0. 0. 0.
      0. 0. 0. 0. 0. 0. 0. 0. 0. 0. 0. 0. 0. 0. 0. 0. 0. 0. 0. 0. 0. 0.
      0. 0. 0. 0. 0. 0. 0. 0. 0. 0. 0. 0. 0. 0. 0. 0. 0. 0. 0. 0. 0. 0.
      0. 0. 0. 0. 0. 0. 0. 0. 0.</_>
    <_>
      0. 0. 0. 0. 0. 0. 0. 0. 0. 0. 0. 0. 0. 0. 0. 0. 0. 0. 0. 0. 0. 0.
      0. 0. 0. 0. 0. 0. 0. 0. 0. 0. 0. 0. 0. 0. 0. 0. 0. 0. 0. 0. 0. 0.
      0. 0. 0. 0. 0. 0. 0. 0. 0. 0. 0. 0. 0. 0. 0. 0. 8.23529437e-02
      3.33333343e-01 3.33333343e-01 3.33333343e-01 3.33333343e-01
      3.33333343e-01 2.50980407e-01 0. 0. 0. 0. 0. 0. 0. 0. 0. 0. 0. 0.
      0. 0. 0. 0. 0. 8.66666675e-01 8.66666675e-01 8.98039222e-01 1. 1.
      1. 1. 1. 9.64705884e-01 8.66666675e-01 6.50980413e-01 0. 0. 0. 0.
      0. 0. 0. 0. 0. 0. 0. 0. 0. 9.80392173e-02 8.50980401e-01 1. 1. 1.
      1. 1. 1. 1. 1. 1. 1. 1. 5.49019635e-01 2.98039228e-01 0. 0. 0. 0.
      0. 0. 0. 0. 0. 0. 0. 9.49019611e-01 1. 1. 1. 1. 1. 1. 1. 1. 1. 1.
      1. 1. 1. 9.84313726e-01 2.31372550e-01 0. 0. 0. 0. 0. 0. 0. 0. 0.
      7.49019623e-01 1. 1. 1. 1. 1. 1. 1. 1. 1. 1. 1. 1. 1. 1. 1. 1.
      3.49019617e-01 0. 0. 0. 0. 0. 0. 0. 2.50980407e-01 1. 1. 1. 1. 1.
      1. 1. 1. 1. 1. 1. 1. 1. 1. 1. 1. 1. 7.49019623e-01 0. 0. 0. 0. 0.
      0. 0. 6.50980413e-01 1. 1. 1. 1. 1. 1. 1. 1. 1. 1. 1. 1. 1. 1. 1.
      1. 1. 8.82352948e-01 1.33333340e-01 0. 0. 0. 0. 0. 5.09803928e-02
      1. 1. 1. 1. 1. 1. 1. 1. 1. 1. 1. 1. 1. 1. 1. 1. 1. 1. 1.
      2.98039228e-01 0. 0. 0. 0. 0. 7.49019623e-01 1. 1. 1. 1. 1. 1. 1.
      1. 1. 1. 1. 1. 1. 1. 1. 1. 1. 1. 1. 1. 0. 0. 0. 0. 0.
      7.49019623e-01 1. 1. 1. 1. 1. 1. 6.50980413e-01 0. 0.
      6.50980413e-01 1. 1. 1. 1. 1. 1. 1. 1. 1. 1. 9.80392173e-02 0. 0.
      0. 0. 7.49019623e-01 1. 1. 1. 1. 1. 4.98039216e-01 0. 0. 0. 0.
      4.98039216e-01 1. 1. 1. 1. 1. 1. 1. 1. 1. 7.49019623e-01 0. 0. 0.
      0. 7.49019623e-01 1. 1. 1. 1. 9.49019611e-01 2.00000003e-01 0. 0.
      0. 0. 2.50980407e-01 1. 1. 1. 1. 1. 1. 1. 1. 1. 7.49019623e-01 0.
      0. 0. 0. 7.49019623e-01 1. 1. 1. 1. 7.49019623e-01 0. 0. 0. 0. 0.
      6.66666701e-02 8.15686285e-01 1. 1. 1. 1. 1. 1. 1. 1.
      7.49019623e-01 0. 0. 0. 2.50980407e-01 1. 1. 1. 1. 1.
      7.49019623e-01 0. 0. 0. 0. 0. 6.66666701e-02 8.15686285e-01 1. 1.
      1. 1. 1. 1. 1. 1. 7.49019623e-01 0. 0. 0. 2.50980407e-01 1. 1. 1.
      1. 1. 9.49019611e-01 2.00000003e-01 0. 0. 0. 0. 2.50980407e-01 1.
      1. 1. 1. 1. 1. 1. 1. 1. 7.49019623e-01 0. 0. 0. 2.50980407e-01 1.
      1. 1. 1. 1. 1. 1. 2.50980407e-01 0. 0. 2.50980407e-01 1. 1. 1. 1.
      1. 1. 1. 1. 1. 1. 7.49019623e-01 0. 0. 0. 3.13725509e-02
      7.84313738e-01 1. 1. 1. 1. 1. 1. 9.64705884e-01 8.66666675e-01
      8.66666675e-01 9.64705884e-01 1. 1. 1. 1. 1. 1. 1. 1. 1. 1.
      9.80392173e-02 0. 0. 0. 0. 7.49019623e-01 1. 1. 1. 1. 1. 1. 1. 1.
      1. 1. 1. 1. 1. 1. 1. 1. 1. 1. 1. 1. 0. 0. 0. 0. 0. 7.49019623e-01
      1. 1. 1. 1. 1. 1. 1. 1. 1. 1. 1. 1. 1. 1. 1. 1. 1. 1. 1. 1. 0. 0.
      0. 0. 0. 7.49019623e-01 1. 1. 1. 1. 1. 1. 1. 1. 1. 1. 1. 1. 1. 1.
      1. 1. 1. 1. 1. 2.50980407e-01 0. 0. 0. 0. 0. 0. 1. 1. 1. 1. 1. 1.
      1. 1. 1. 1. 1. 1. 1. 1. 1. 1. 1. 1. 1. 2.50980407e-01 0. 0. 0. 0.
      0. 0. 6.00000024e-01 1. 1. 1. 1. 1. 1. 1. 1. 1. 1. 1. 1. 1. 1. 1.
      1. 1. 7.49019623e-01 0. 0. 0. 0. 0. 0. 0. 2.31372550e-01
      9.84313726e-01 1. 1. 1. 1. 1. 1. 1. 1. 1. 1. 1. 1. 1. 1. 1.
      9.49019611e-01 0. 0. 0. 0. 0. 0. 0. 0. 0. 2.98039228e-01 1. 1. 1.
      1. 1. 1. 1. 1. 1. 1. 1. 1. 1. 1. 8.50980401e-01 9.80392173e-02 0.
      0. 0. 0. 0. 0. 0. 0. 0. 0. 2.15686277e-01 8.66666675e-01 1. 1. 1.
      1. 1. 1. 1. 1. 1. 1. 9.64705884e-01 8.66666675e-01 0. 0. 0. 0. 0.
      0. 0. 0. 0. 0. 0. 0. 0. 0. 3.33333343e-01 3.33333343e-01 1. 1. 1.
      1. 1. 1. 8.31372559e-01 3.33333343e-01 2.50980407e-01 0. 0. 0. 0.
      0. 0. 0. 0. 0. 0. 0. 0. 0. 0. 0. 0. 0. 0. 0. 0. 0. 0. 0. 0. 0. 0.
      0. 0. 0. 0. 0. 0. 0. 0. 0. 0. 0. 0. 0. 0. 0. 0. 0. 0. 0. 0. 0. 0.
      0. 0. 0. 0. 0. 0. 0. 0. 0. 0. 0. 0. 0.</_>
    <_>
      0. 0. 0. 0. 0. 0. 0. 0. 0. 0. 0. 0. 0. 0. 0. 0. 0. 0. 0. 0. 0. 0.
      0. 0. 0. 0. 0. 0. 0. 0. 0. 0. 0. 0. 0. 0. 0. 0. 0. 0. 0. 0. 0. 0.
      0. 0. 0. 0. 0. 0. 0. 0. 0. 0. 0. 0. 0. 0. 0. 0. 0. 2.50980407e-01
      3.33333343e-01 3.33333343e-01 3.33333343e-01 3.33333343e-01
      3.33333343e-01 3.33333343e-01 0. 0. 0. 0. 0. 0. 0. 0. 0. 0. 0. 0.
      0. 0. 0. 0. 0. 0. 8.66666675e-01 9.64705884e-01 1. 1. 1. 1. 1. 1.
      8.66666675e-01 8.66666675e-01 0. 0. 0. 0. 0. 0. 0. 0. 0. 0. 0. 0.
      0. 0. 5.49019635e-01 1. 1. 1. 1. 1. 1. 1. 1. 1. 1. 1. 1.
      5.49019635e-01 0. 0. 0. 0. 0. 0. 0. 0. 0. 0. 0. 6.98039234e-01 1.
      1. 1. 1. 1. 1. 1. 1. 1. 1. 1. 1. 1. 1. 6.98039234e-01 0. 0. 0. 0.
      0. 0. 0. 0. 0. 1.17647059e-01 8.66666675e-01 1. 1. 1. 1. 1. 1. 1.
      1. 1. 1. 1. 1. 1. 1. 1. 6.00000024e-01 0. 0. 0. 0. 0. 0. 0. 0. 1.
      1. 1. 1. 1. 1. 1. 1. 1. 1. 1. 1. 1. 1. 1. 1. 1. 1. 0. 0. 0. 0. 0.
      0. 0. 4.00000006e-01 1. 1. 1. 1. 1. 1. 1. 1. 1. 1. 1. 1. 1. 1. 1.
      1. 1. 1. 7.49019623e-01 0. 0. 0. 0. 0. 0. 7.49019623e-01 1. 1. 1.
      1. 1. 1. 1. 1. 1. 1. 1. 1. 1. 1. 1. 1. 1. 1. 7.64705896e-01
      1.56862754e-02 0. 0. 0. 0. 1.49019614e-01 8.98039222e-01 1. 1. 1.
      1. 1. 1. 1. 1. 1. 1. 1. 1. 1. 1. 1. 1. 1. 1. 1. 2.50980407e-01 0.
      0. 0. 0. 2.50980407e-01 1. 1. 1. 1. 1. 1. 8.98039222e-01 0. 0. 0.
      6.50980413e-01 1. 1. 1. 1. 1. 1. 1. 1. 1. 2.50980407e-01 0. 0. 0.
      0. 2.50980407e-01 1. 1. 1. 1. 1. 8.31372559e-01 8.23529437e-02 0.
      0. 0. 0. 1. 1. 1. 1. 1. 1. 1. 1. 1. 7.49019623e-01 0. 0. 0. 0.
      2.50980407e-01 1. 1. 1. 1. 1. 7.49019623e-01 0. 0. 0. 0. 0.
      2.50980407e-01 1. 1. 1. 1. 1. 1. 1. 1. 1. 0. 0. 0. 0.
      2.50980407e-01 1. 1. 1. 1. 1. 7.49019623e-01 0. 0. 0. 0. 0.
      2.50980407e-01 1. 1. 1. 1. 1. 1. 1. 1. 1. 0. 0. 0. 0.
      2.50980407e-01 1. 1. 1. 1. 1. 7.49019623e-01 0. 0. 0. 0. 0.
      4.50980395e-01 1. 1. 1. 1. 1. 1. 1. 1. 1. 0. 0. 0. 0.
      2.50980407e-01 1. 1. 1. 1. 1. 7.49019623e-01 0. 0. 0. 0. 0. 1. 1.
      1. 1. 1. 1. 1. 1. 1. 1. 0. 0. 0. 0. 2.50980407e-01 1. 1. 1. 1. 1.
      1. 4.98039216e-01 0. 0. 8.23529437e-02 8.31372559e-01 1. 1. 1. 1.
      1. 1. 1. 1. 1. 1. 0. 0. 0. 0. 2.50980407e-01 1. 1. 1. 1. 1. 1. 1.
      8.66666675e-01 8.66666675e-01 8.98039222e-01 1. 1. 1. 1. 1. 1. 1.
      1. 1. 1. 3.49019617e-01 0. 0. 0. 0. 2.50980407e-01 1. 1. 1. 1. 1.
      1. 1. 1. 1. 1. 1. 1. 1. 1. 1. 1. 1. 1. 1. 1. 2.50980407e-01 0. 0.
      0. 0. 2.50980407e-01 1. 1. 1. 1. 1. 1. 1. 1. 1. 1. 1. 1. 1. 1. 1.
      1. 1. 1. 1. 1. 2.50980407e-01 0. 0. 0. 0. 2.50980407e-01 1. 1. 1.
      1. 1. 1. 1. 1. 1. 1. 1. 1. 1. 1. 1. 1. 1. 1. 1. 7.49019623e-01 0.
      0. 0. 0. 0. 0. 7.49019623e-01 1. 1. 1. 1. 1. 1. 1. 1. 1. 1. 1. 1.
      1. 1. 1. 1. 1. 1. 7.49019623e-01 0. 0. 0. 0. 0. 0. 3.49019617e-01
      1. 1. 1. 1. 1. 1. 1. 1. 1. 1. 1. 1. 1. 1. 1. 1. 1. 1.
      3.49019617e-01 0. 0. 0. 0. 0. 0. 0. 2.50980407e-01 1. 1. 1. 1. 1.
      1. 1. 1. 1. 1. 1. 1. 1. 1. 1. 9.84313726e-01 2.31372550e-01 0. 0.
      0. 0. 0. 0. 0. 0. 9.80392173e-02 8.50980401e-01 1. 1. 1. 1. 1. 1.
      1. 1. 1. 1. 1. 1. 1. 1. 2.98039228e-01 0. 0. 0. 0. 0. 0. 0. 0. 0.
      0. 0. 2.15686277e-01 8.66666675e-01 1. 1. 1. 1. 1. 1. 1. 1. 1. 1.
      8.66666675e-01 2.15686277e-01 0. 0. 0. 0. 0. 0. 0. 0. 0. 0. 0. 0.
      0. 0. 3.33333343e-01 8.31372559e-01 1. 1. 1. 1. 1. 1.
      8.31372559e-01 3.33333343e-01 0. 0. 0. 0. 0. 0. 0. 0. 0. 0. 0. 0.
      0. 0. 0. 0. 0. 0. 0. 0. 0. 0. 0. 0. 0. 0. 0. 0. 0. 0. 0. 0. 0. 0.
      0. 0. 0. 0. 0. 0. 0. 0. 0. 0. 0. 0. 0. 0. 0. 0. 0. 0. 0. 0. 0. 0.
      0. 0. 0. 0.</_>
    <_>
      0. 0. 0. 0. 0. 0. 0. 0. 0. 0. 0. 0. 0. 0. 0. 0. 0. 0. 0. 0. 0. 0.
      0. 0. 0. 0. 0. 0. 0. 0. 0. 0. 0. 0. 0. 0. 0. 0. 0. 0. 0. 0. 0. 0.
      0. 0. 0. 0. 0. 0. 0. 0. 0. 0. 0. 0. 0. 0. 0. 0. 3.33333343e-01
      3.33333343e-01 3.33333343e-01 3.33333343e-01 3.33333343e-01
      3.33333343e-01 2.50980407e-01 0. 0. 0. 0. 0. 0. 0. 0. 0. 0. 0. 0.
      0. 0. 0. 0. 0. 8.66666675e-01 8.66666675e-01 1. 1. 1. 1. 1. 1.
      9.64705884e-01 8.66666675e-01 6.50980413e-01 0. 0. 0. 0. 0. 0. 0.
      0. 0. 0. 0. 0. 0. 9.80392173e-02 8.50980401e-01 1. 1. 1. 1. 1. 1.
      1. 1. 1. 1. 1. 5.49019635e-01 2.98039228e-01 0. 0. 0. 0. 0. 0. 0.
      0. 0. 0. 0. 9.49019611e-01 1. 1. 1. 1. 1. 1. 1. 1. 1. 1. 1. 1. 1.
      9.84313726e-01 2.31372550e-01 0. 0. 0. 0. 0. 0. 0. 0. 0.
      7.49019623e-01 1. 1. 1. 1. 1. 1. 1. 1. 1. 1. 1. 1. 1. 1. 1. 1.
      3.49019617e-01 0. 0. 0. 0. 0. 0. 0. 2.50980407e-01 1. 1. 1. 1. 1.
      1. 1. 1. 1. 1. 1. 1. 1. 1. 1. 1. 1. 7.49019623e-01 0. 0. 0. 0. 0.
      0. 0. 6.50980413e-01 1. 1. 1. 1. 1. 1. 1. 1. 1. 1. 1. 1. 1. 1. 1.
      1. 1. 8.82352948e-01 1.33333340e-01 0. 0. 0. 0. 0. 5.09803928e-02
      1. 1. 1. 1. 1. 1. 1. 1. 1. 1. 1. 1. 1. 1. 1. 1. 1. 1. 1.
      2.98039228e-01 0. 0. 0. 0. 0. 7.49019623e-01 1. 1. 1. 1. 1. 1. 1.
      1. 1. 1. 1. 1. 1. 1. 1. 1. 1. 1. 1. 1. 0. 0. 0. 0. 0.
      7.49019623e-01 1. 1. 1. 1. 1. 1. 6.50980413e-01 0. 0.
      6.50980413e-01 1. 1. 1. 1. 1. 1. 1. 1. 1. 1. 0. 0. 0. 0. 0.
      7.49019623e-01 1. 1. 1. 1. 1. 4.98039216e-01 0. 0. 0. 0.
      4.98039216e-01 1. 1. 1. 1. 1. 1. 1. 1. 1. 4.98039216e-01 0. 0. 0.
      0. 7.49019623e-01 1. 1. 1. 1. 9.49019611e-01 2.00000003e-01 0. 0.
      0. 0. 2.50980407e-01 1. 1. 1. 1. 1. 1. 1. 1. 1. 7.49019623e-01 0.
      0. 0. 1.84313729e-01 9.33333337e-01 1. 1. 1. 1. 7.49019623e-01 0.
      0. 0. 0. 0. 6.66666701e-02 8.15686285e-01 1. 1. 1. 1. 1. 1. 1. 1.
      7.49019623e-01 0. 0. 0. 2.50980407e-01 1. 1. 1. 1. 1.
      8.15686285e-01 6.66666701e-02 0. 0. 0. 0. 6.66666701e-02
      8.15686285e-01 1. 1. 1. 1. 1. 1. 1. 1. 7.49019623e-01 0. 0. 0.
      2.50980407e-01 1. 1. 1. 1. 1. 1. 2.50980407e-01 0. 0. 0. 0.
      2.50980407e-01 1. 1. 1. 1. 1. 1. 1. 1. 1. 7.49019623e-01 0. 0. 0.
      2.50980407e-01 1. 1. 1. 1. 1. 1. 1. 2.50980407e-01 0. 0.
      2.50980407e-01 1. 1. 1. 1. 1. 1. 1. 1. 1. 1. 7.49019623e-01 0. 0.
      0. 3.13725509e-02 7.84313738e-01 1. 1. 1. 1. 1. 1. 9.64705884e-01
      8.66666675e-01 8.66666675e-01 9.64705884e-01 1. 1. 1. 1. 1. 1. 1.
      1. 1. 1. 9.80392173e-02 0. 0. 0. 0. 7.49019623e-01 1. 1. 1. 1. 1.
      1. 1. 1. 1. 1. 1. 1. 1. 1. 1. 1. 1. 1. 1. 1. 0. 0. 0. 0. 0.
      7.49019623e-01 1. 1. 1. 1. 1. 1. 1. 1. 1. 1. 1. 1. 1. 1. 1. 1. 1.
      1. 1. 1. 0. 0. 0. 0. 0. 7.49019623e-01 1. 1. 1. 1. 1. 1. 1. 1. 1.
      1. 1. 1. 1. 1. 1. 1. 1. 1. 1. 2.50980407e-01 0. 0. 0. 0. 0. 0. 1.
      1. 1. 1. 1. 1. 1. 1. 1. 1. 1. 1. 1. 1. 1. 1. 1. 1. 1.
      2.50980407e-01 0. 0. 0. 0. 0. 0. 6.00000024e-01 1. 1. 1. 1. 1. 1.
      1. 1. 1. 1. 1. 1. 1. 1. 1. 1. 1. 7.49019623e-01 0. 0. 0. 0. 0. 0.
      0. 2.31372550e-01 9.84313726e-01 1. 1. 1. 1. 1. 1. 1. 1. 1. 1. 1.
      1. 1. 1. 1. 9.49019611e-01 0. 0. 0. 0. 0. 0. 0. 0. 0.
      2.98039228e-01 1. 1. 1. 1. 1. 1. 1. 1. 1. 1. 1. 1. 1. 1.
      8.50980401e-01 9.80392173e-02 0. 0. 0. 0. 0. 0. 0. 0. 0. 0.
      2.15686277e-01 8.66666675e-01 1. 1. 1. 1. 1. 1. 1. 1. 1. 1.
      9.64705884e-01 8.66666675e-01 0. 0. 0. 0. 0. 0. 0. 0. 0. 0. 0. 0.
      0. 0. 3.33333343e-01 3.33333343e-01 1. 1. 1. 1. 1. 1. 1.
      4.98039216e-01 2.50980407e-01 0. 0. 0. 0. 0. 0. 0. 0. 0. 0. 0. 0.
      0. 0. 0. 0. 0. 0. 0. 0. 0. 0. 0. 0. 0. 0. 0. 0. 0. 0. 0. 0. 0. 0.
      0. 0. 0. 0. 0. 0. 0. 0. 0. 0. 0. 0. 0. 0. 0. 0. 0. 0. 0. 0. 0. 0.
      0. 0. 0. 0. 0.</_>
    <_>
      0. 0. 0. 0. 0. 0. 0. 0. 0. 0. 0. 0. 0. 0. 0. 0. 0. 0. 0. 0. 0. 0.
      0. 0. 0. 0. 0. 0. 0. 0. 0. 0. 0. 0. 0. 0. 0. 0. 0. 0. 0. 0. 0. 0.
      0. 0. 0. 0. 0. 0. 0. 0. 0. 0. 0. 0. 0. 0. 0. 0. 8.23529437e-02
      3.33333343e-01 3.33333343e-01 3.33333343e-01 3.33333343e-01
      3.33333343e-01 3.33333343e-01 8.23529437e-02 0. 0. 0. 0. 0. 0. 0.
      0. 0. 0. 0. 0. 0. 0. 0. 0. 0. 6.50980413e-01 8.98039222e-01 1. 1.
      1. 1. 1. 1. 8.98039222e-01 8.66666675e-01 2.15686277e-01 0. 0. 0.
      0. 0. 0. 0. 0. 0. 0. 0. 0. 0. 2.98039228e-01 1. 1. 1. 1. 1. 1. 1.
      1. 1. 1. 1. 1. 4.00000006e-01 9.80392173e-02 0. 0. 0. 0. 0. 0. 0.
      0. 0. 0. 2.31372550e-01 9.84313726e-01 1. 1. 1. 1. 1. 1. 1. 1. 1.
      1. 1. 1. 1. 9.49019611e-01 0. 0. 0. 0. 0. 0. 0. 0. 0.
      3.49019617e-01 1. 1. 1. 1. 1. 1. 1. 1. 1. 1. 1. 1. 1. 1. 1. 1.
      7.49019623e-01 0. 0. 0. 0. 0. 0. 0. 0. 7.49019623e-01 1. 1. 1. 1.
      1. 1. 1. 1. 1. 1. 1. 1. 1. 1. 1. 1. 1. 2.50980407e-01 0. 0. 0. 0.
      0. 0. 1.33333340e-01 8.82352948e-01 1. 1. 1. 1. 1. 1. 1. 1. 1. 1.
      1. 1. 1. 1. 1. 1. 1. 1. 0. 0. 0. 0. 0. 0. 2.50980407e-01 1. 1. 1.
      1. 1. 1. 1. 1. 1. 1. 1. 1. 1. 1. 1. 1. 1. 1. 1. 7.49019623e-01 0.
      0. 0. 0. 0. 6.98039234e-01 1. 1. 1. 1. 1. 1. 1. 1. 1. 1. 1. 1. 1.
      1. 1. 1. 1. 1. 1. 7.49019623e-01 0. 0. 0. 0. 0. 1. 1. 1. 1. 1. 1.
      9.64705884e-01 2.15686277e-01 0. 0. 8.66666675e-01 9.64705884e-01
      1. 1. 1. 1. 1. 1. 1. 1. 7.49019623e-01 0. 0. 0. 0. 0. 1. 1. 1. 1.
      1. 1. 2.50980407e-01 0. 0. 0. 0. 7.49019623e-01 1. 1. 1. 1. 1. 1.
      1. 1. 7.49019623e-01 0. 0. 0. 0. 0. 1. 1. 1. 1. 1. 8.50980401e-01
      0. 0. 0. 0. 0. 7.49019623e-01 1. 1. 1. 1. 1. 1. 1. 1. 1.
      2.50980407e-01 0. 0. 0. 5.49019635e-01 1. 1. 1. 1. 1.
      2.50980407e-01 0. 0. 0. 0. 0. 2.00000003e-01 1. 1. 1. 1. 1. 1. 1.
      1. 1. 2.50980407e-01 0. 0. 0. 7.49019623e-01 1. 1. 1. 1. 1.
      4.50980395e-01 0. 0. 0. 0. 0. 7.49019623e-01 1. 1. 1. 1. 1. 1. 1.
      1. 1. 2.50980407e-01 0. 0. 0. 7.49019623e-01 1. 1. 1. 1. 1. 1. 0.
      0. 0. 0. 0. 7.49019623e-01 1. 1. 1. 1. 1. 1. 1. 1. 1.
      2.50980407e-01 0. 0. 0. 7.49019623e-01 1. 1. 1. 1. 1. 1.
      8.31372559e-01 8.23529437e-02 0. 0. 4.98039216e-01 1. 1. 1. 1. 1.
      1. 1. 1. 1. 9.17647064e-01 1.64705887e-01 0. 0. 0. 9.80392173e-02
      1. 1. 1. 1. 1. 1. 1. 8.98039222e-01 8.66666675e-01 8.66666675e-01
      1. 1. 1. 1. 1. 1. 1. 1. 1. 1. 7.49019623e-01 0. 0. 0. 0. 0. 1. 1.
      1. 1. 1. 1. 1. 1. 1. 1. 1. 1. 1. 1. 1. 1. 1. 1. 1. 1.
      7.49019623e-01 0. 0. 0. 0. 0. 1. 1. 1. 1. 1. 1. 1. 1. 1. 1. 1. 1.
      1. 1. 1. 1. 1. 1. 1. 1. 7.49019623e-01 0. 0. 0. 0. 0.
      6.50980413e-01 1. 1. 1. 1. 1. 1. 1. 1. 1. 1. 1. 1. 1. 1. 1. 1. 1.
      1. 1. 4.00000006e-01 0. 0. 0. 0. 0. 2.50980407e-01 1. 1. 1. 1. 1.
      1. 1. 1. 1. 1. 1. 1. 1. 1. 1. 1. 1. 1. 1. 0. 0. 0. 0. 0. 0.
      1.17647059e-01 8.66666675e-01 1. 1. 1. 1. 1. 1. 1. 1. 1. 1. 1. 1.
      1. 1. 1. 1. 1. 6.00000024e-01 0. 0. 0. 0. 0. 0. 0. 6.98039234e-01
      1. 1. 1. 1. 1. 1. 1. 1. 1. 1. 1. 1. 1. 1. 1. 1. 6.98039234e-01 0.
      0. 0. 0. 0. 0. 0. 0. 0. 5.49019635e-01 1. 1. 1. 1. 1. 1. 1. 1. 1.
      1. 1. 1. 1. 1. 5.49019635e-01 0. 0. 0. 0. 0. 0. 0. 0. 0. 0. 0.
      6.50980413e-01 8.98039222e-01 1. 1. 1. 1. 1. 1. 1. 1. 1. 1.
      8.98039222e-01 6.50980413e-01 0. 0. 0. 0. 0. 0. 0. 0. 0. 0. 0. 0.
      0. 8.23529437e-02 3.33333343e-01 4.98039216e-01 1. 1. 1. 1. 1. 1.
      4.98039216e-01 3.33333343e-01 8.23529437e-02 0. 0. 0. 0. 0. 0. 0.
      0. 0. 0. 0. 0. 0. 0. 0. 0. 0. 0. 0. 0. 0. 0. 0. 0. 0. 0. 0. 0. 0.
      0. 0. 0. 0. 0. 0. 0. 0. 0. 0. 0. 0. 0. 0. 0. 0. 0. 0. 0. 0. 0. 0.
      0. 0. 0. 0. 0. 0. 0. 0. 0.</_>
    <_>
      0. 0. 0. 0. 0. 0. 0. 0. 0. 0. 0. 0. 0. 0. 0. 0. 0. 0. 0. 0. 0. 0.
      0. 0. 0. 0. 0. 0. 0. 0. 0. 0. 0. 0. 0. 0. 0. 0. 0. 0. 0. 0. 0. 0.
      0. 0. 0. 0. 0. 0. 0. 0. 0. 0. 0. 0. 0. 0. 0. 0. 8.23529437e-02
      3.33333343e-01 3.33333343e-01 3.33333343e-01 3.33333343e-01
      3.33333343e-01 3.33333343e-01 8.23529437e-02 0. 0. 0. 0. 0. 0. 0.
      0. 0. 0. 0. 0. 0. 0. 0. 0. 0. 6.50980413e-01 8.98039222e-01 1. 1.
      1. 1. 1. 1. 8.98039222e-01 8.66666675e-01 2.15686277e-01 0. 0. 0.
      0. 0. 0. 0. 0. 0. 0. 0. 0. 0. 2.98039228e-01 1. 1. 1. 1. 1. 1. 1.
      1. 1. 1. 1. 1. 4.00000006e-01 9.80392173e-02 0. 0. 0. 0. 0. 0. 0.
      0. 0. 0. 2.31372550e-01 9.84313726e-01 1. 1. 1. 1. 1. 1. 1. 1. 1.
      1. 1. 1. 1. 9.49019611e-01 0. 0. 0. 0. 0. 0. 0. 0. 0.
      3.49019617e-01 6.00000024e-01 1. 1. 1. 1. 1. 1. 1. 1. 1. 1. 1. 1.
      1. 1. 1. 7.49019623e-01 0. 0. 0. 0. 0. 0. 0. 0. 7.49019623e-01 1.
      1. 1. 1. 1. 1. 1. 1. 1. 1. 1. 1. 1. 1. 1. 1. 1. 2.50980407e-01 0.
      0. 0. 0. 0. 0. 1.33333340e-01 8.82352948e-01 1. 1. 1. 1. 1. 1. 1.
      1. 1. 1. 1. 1. 1. 1. 1. 1. 1. 1. 0. 0. 0. 0. 0. 0. 2.50980407e-01
      1. 1. 1. 1. 1. 1. 1. 1. 1. 1. 1. 1. 1. 1. 1. 1. 1. 1. 1.
      7.49019623e-01 0. 0. 0. 0. 0. 6.98039234e-01 1. 1. 1. 1. 1. 1. 1.
      1. 1. 1. 1. 1. 1. 1. 1. 1. 1. 1. 1. 7.49019623e-01 0. 0. 0. 0. 0.
      1. 1. 1. 1. 1. 1. 9.64705884e-01 2.15686277e-01 0. 0.
      8.98039222e-01 1. 1. 1. 1. 1. 1. 1. 1. 1. 7.49019623e-01 0. 0. 0.
      0. 0. 1. 1. 1. 1. 1. 1. 2.50980407e-01 0. 0. 0. 8.23529437e-02
      8.31372559e-01 1. 1. 1. 1. 1. 1. 1. 1. 7.49019623e-01 0. 0. 0. 0.
      0. 1. 1. 1. 1. 1. 8.50980401e-01 0. 0. 0. 0. 0. 6.00000024e-01 1.
      1. 1. 1. 1. 1. 1. 1. 1. 2.50980407e-01 0. 0. 0. 0. 1. 1. 1. 1. 1.
      2.50980407e-01 0. 0. 0. 0. 0. 0. 1. 1. 1. 1. 1. 1. 1. 1. 1.
      2.50980407e-01 0. 0. 0. 7.49019623e-01 1. 1. 1. 1. 1. 1. 0. 0. 0.
      0. 0. 2.00000003e-01 1. 1. 1. 1. 1. 1. 1. 1. 1. 2.50980407e-01 0.
      0. 0. 7.49019623e-01 1. 1. 1. 1. 1. 1. 0. 0. 0. 0. 0.
      7.49019623e-01 1. 1. 1. 1. 1. 1. 1. 1. 1. 2.50980407e-01 0. 0. 0.
      0. 1. 1. 1. 1. 1. 1. 8.31372559e-01 8.23529437e-02 0. 0.
      4.98039216e-01 1. 1. 1. 1. 1. 1. 1. 1. 1. 9.17647064e-01
      1.64705887e-01 0. 0. 0. 0. 1. 1. 1. 1. 1. 1. 1. 8.98039222e-01
      8.66666675e-01 8.66666675e-01 1. 1. 1. 1. 1. 1. 1. 1. 1. 1.
      7.49019623e-01 0. 0. 0. 0. 0. 1. 1. 1. 1. 1. 1. 1. 1. 1. 1. 1. 1.
      1. 1. 1. 1. 1. 1. 1. 1. 7.49019623e-01 0. 0. 0. 0. 0. 1. 1. 1. 1.
      1. 1. 1. 1. 1. 1. 1. 1. 1. 1. 1. 1. 1. 1. 1. 1. 7.49019623e-01 0.
      0. 0. 0. 0. 6.50980413e-01 1. 1. 1. 1. 1. 1. 1. 1. 1. 1. 1. 1. 1.
      1. 1. 1. 1. 1. 1. 4.00000006e-01 0. 0. 0. 0. 0. 2.50980407e-01 1.
      1. 1. 1. 1. 1. 1. 1. 1. 1. 1. 1. 1. 1. 1. 1. 1. 1. 1. 0. 0. 0. 0.
      0. 0. 1.17647059e-01 8.66666675e-01 1. 1. 1. 1. 1. 1. 1. 1. 1. 1.
      1. 1. 1. 1. 1. 1. 1. 6.00000024e-01 0. 0. 0. 0. 0. 0. 0.
      6.98039234e-01 1. 1. 1. 1. 1. 1. 1. 1. 1. 1. 1. 1. 1. 1. 1. 1.
      6.98039234e-01 0. 0. 0. 0. 0. 0. 0. 0. 0. 5.49019635e-01 1. 1. 1.
      1. 1. 1. 1. 1. 1. 1. 1. 1. 1. 1. 5.49019635e-01 0. 0. 0. 0. 0. 0.
      0. 0. 0. 0. 0. 0. 8.98039222e-01 1. 1. 1. 1. 1. 1. 1. 1. 1. 1.
      8.98039222e-01 6.50980413e-01 0. 0. 0. 0. 0. 0. 0. 0. 0. 0. 0. 0.
      0. 8.23529437e-02 3.33333343e-01 4.98039216e-01 1. 1. 1. 1. 1. 1.
      4.98039216e-01 3.33333343e-01 8.23529437e-02 0. 0. 0. 0. 0. 0. 0.
      0. 0. 0. 0. 0. 0. 0. 0. 0. 0. 0. 0. 0. 0. 0. 0. 0. 0. 0. 0. 0. 0.
      0. 0. 0. 0. 0. 0. 0. 0. 0. 0. 0. 0. 0. 0. 0. 0. 0. 0. 0. 0. 0. 0.
      0. 0. 0. 0. 0. 0. 0. 0. 0.</_>
    <_>
      0. 0. 0. 0. 0. 0. 0. 0. 0. 0. 0. 0. 0. 0. 0. 0. 0. 0. 0. 0. 0. 0.
      0. 0. 0. 0. 0. 0. 0. 0. 0. 0. 0. 0. 0. 0. 0. 0. 0. 0. 0. 0. 0. 0.
      0. 0. 0. 0. 0. 0. 0. 0. 0. 0. 0. 0. 0. 0. 0. 0. 3.33333343e-01
      3.33333343e-01 3.33333343e-01 3.33333343e-01 3.33333343e-01
      3.33333343e-01 2.50980407e-01 0. 0. 0. 0. 0. 0. 0. 0. 0. 0. 0. 0.
      0. 0. 0. 0. 0. 8.66666675e-01 8.66666675e-01 1. 1. 1. 1. 1. 1.
      9.64705884e-01 8.66666675e-01 6.50980413e-01 0. 0. 0. 0. 0. 0. 0.
      0. 0. 0. 0. 0. 0. 9.80392173e-02 8.50980401e-01 1. 1. 1. 1. 1. 1.
      1. 1. 1. 1. 1. 5.49019635e-01 2.98039228e-01 0. 0. 0. 0. 0. 0. 0.
      0. 0. 0. 0. 9.49019611e-01 1. 1. 1. 1. 1. 1. 1. 1. 1. 1. 1. 1. 1.
      9.84313726e-01 2.31372550e-01 0. 0. 0. 0. 0. 0. 0. 0. 0.
      7.49019623e-01 1. 1. 1. 1. 1. 1. 1. 1. 1. 1. 1. 1. 1. 1. 1. 1.
      3.49019617e-01 0. 0. 0. 0. 0. 0. 0. 2.50980407e-01 1. 1. 1. 1. 1.
      1. 1. 1. 1. 1. 1. 1. 1. 1. 1. 1. 1. 7.49019623e-01 0. 0. 0. 0. 0.
      0. 0. 6.50980413e-01 1. 1. 1. 1. 1. 1. 1. 1. 1. 1. 1. 1. 1. 1. 1.
      1. 1. 8.82352948e-01 1.33333340e-01 0. 0. 0. 0. 0. 5.09803928e-02
      1. 1. 1. 1. 1. 1. 1. 1. 1. 1. 1. 1. 1. 1. 1. 1. 1. 1. 1. 1. 0. 0.
      0. 0. 0. 7.49019623e-01 1. 1. 1. 1. 1. 1. 1. 1. 1. 1. 1. 1. 1. 1.
      1. 1. 1. 1. 1. 1. 0. 0. 0. 0. 0. 7.49019623e-01 1. 1. 1. 1. 1. 1.
      6.50980413e-01 0. 0. 6.50980413e-01 1. 1. 1. 1. 1. 1. 1. 1. 1. 1.
      9.80392173e-02 0. 0. 0. 0. 7.49019623e-01 1. 1. 1. 1. 1.
      4.98039216e-01 0. 0. 0. 0. 4.98039216e-01 1. 1. 1. 1. 1. 1. 1. 1.
      1. 7.49019623e-01 0. 0. 0. 0. 7.49019623e-01 1. 1. 1. 1.
      9.49019611e-01 2.00000003e-01 0. 0. 0. 0. 2.50980407e-01 1. 1. 1.
      1. 1. 1. 1. 1. 1. 7.49019623e-01 0. 0. 0. 1.84313729e-01
      9.33333337e-01 1. 1. 1. 1. 7.49019623e-01 0. 0. 0. 0. 0.
      6.66666701e-02 8.15686285e-01 1. 1. 1. 1. 1. 1. 1. 1.
      7.49019623e-01 0. 0. 0. 2.50980407e-01 1. 1. 1. 1. 1.
      7.49019623e-01 0. 0. 0. 0. 0. 6.66666701e-02 8.15686285e-01 1. 1.
      1. 1. 1. 1. 1. 1. 7.49019623e-01 0. 0. 0. 2.50980407e-01 1. 1. 1.
      1. 1. 9.49019611e-01 2.00000003e-01 0. 0. 0. 0. 2.50980407e-01 1.
      1. 1. 1. 1. 1. 1. 1. 1. 7.49019623e-01 0. 0. 0. 2.50980407e-01 1.
      1. 1. 1. 1. 1. 1. 2.50980407e-01 0. 0. 2.50980407e-01 1. 1. 1. 1.
      1. 1. 1. 1. 1. 1. 7.49019623e-01 0. 0. 0. 3.13725509e-02
      7.84313738e-01 1. 1. 1. 1. 1. 1. 9.64705884e-01 8.66666675e-01
      8.66666675e-01 9.64705884e-01 1. 1. 1. 1. 1. 1. 1. 1. 1. 1.
      7.49019623e-01 0. 0. 0. 0. 7.49019623e-01 1. 1. 1. 1. 1. 1. 1. 1.
      1. 1. 1. 1. 1. 1. 1. 1. 1. 1. 1. 1. 0. 0. 0. 0. 0. 7.49019623e-01
      1. 1. 1. 1. 1. 1. 1. 1. 1. 1. 1. 1. 1. 1. 1. 1. 1. 1. 1. 1. 0. 0.
      0. 0. 0. 7.49019623e-01 1. 1. 1. 1. 1. 1. 1. 1. 1. 1. 1. 1. 1. 1.
      1. 1. 1. 1. 1. 2.50980407e-01 0. 0. 0. 0. 0. 0. 1. 1. 1. 1. 1. 1.
      1. 1. 1. 1. 1. 1. 1. 1. 1. 1. 1. 1. 1. 2.50980407e-01 0. 0. 0. 0.
      0. 0. 6.00000024e-01 1. 1. 1. 1. 1. 1. 1. 1. 1. 1. 1. 1. 1. 1. 1.
      1. 1. 7.49019623e-01 0. 0. 0. 0. 0. 0. 0. 2.31372550e-01
      9.84313726e-01 1. 1. 1. 1. 1. 1. 1. 1. 1. 1. 1. 1. 1. 1. 1.
      9.49019611e-01 0. 0. 0. 0. 0. 0. 0. 0. 0. 2.98039228e-01 1. 1. 1.
      1. 1. 1. 1. 1. 1. 1. 1. 1. 1. 1. 8.50980401e-01 9.80392173e-02 0.
      0. 0. 0. 0. 0. 0. 0. 0. 0. 2.15686277e-01 8.66666675e-01 1. 1. 1.
      1. 1. 1. 1. 1. 1. 1. 9.64705884e-01 8.66666675e-01 0. 0. 0. 0. 0.
      0. 0. 0. 0. 0. 0. 0. 0. 0. 3.33333343e-01 3.33333343e-01 1. 1. 1.
      1. 1. 1. 1. 4.98039216e-01 2.50980407e-01 0. 0. 0. 0. 0. 0. 0. 0.
      0. 0. 0. 0. 0. 0. 0. 0. 0. 0. 0. 0. 0. 0. 0. 0. 0. 0. 0. 0. 0. 0.
      0. 0. 0. 0. 0. 0. 0. 0. 0. 0. 0. 0. 0. 0. 0. 0. 0. 0. 0. 0. 0. 0.
      0. 0. 0. 0. 0. 0. 0. 0. 0.</_>
    <_>
      0. 0. 0. 0. 0. 0. 0. 0. 0. 0. 0. 0. 0. 0. 0. 0. 0. 0. 0. 0. 0. 0.
      0. 0. 0. 0. 0. 0. 0. 0. 0. 0. 0. 0. 0. 0. 0. 0. 0. 0. 0. 0. 0. 0.
      0. 0. 0. 0. 0. 0. 0. 0. 0. 0. 0. 0. 0. 0. 0. 0. 3.33333343e-01
      3.33333343e-01 3.33333343e-01 3.33333343e-01 3.33333343e-01
      3.33333343e-01 2.50980407e-01 0. 0. 0. 0. 0. 0. 0. 0. 0. 0. 0. 0.
      0. 0. 0. 0. 0. 8.66666675e-01 8.66666675e-01 1. 1. 1. 1. 1. 1.
      9.64705884e-01 8.66666675e-01 6.50980413e-01 0. 0. 0. 0. 0. 0. 0.
      0. 0. 0. 0. 0. 0. 9.80392173e-02 8.50980401e-01 1. 1. 1. 1. 1. 1.
      1. 1. 1. 1. 1. 5.49019635e-01 2.98039228e-01 0. 0. 0. 0. 0. 0. 0.
      0. 0. 0. 0. 9.49019611e-01 1. 1. 1. 1. 1. 1. 1. 1. 1. 1. 1. 1. 1.
      9.84313726e-01 2.31372550e-01 0. 0. 0. 0. 0. 0. 0. 0. 0.
      7.49019623e-01 1. 1. 1. 1. 1. 1. 1. 1. 1. 1. 1. 1. 1. 1. 1. 1. 0.
      0. 0. 0. 0. 0. 0. 0. 2.50980407e-01 1. 1. 1. 1. 1. 1. 1. 1. 1. 1.
      1. 1. 1. 1. 1. 1. 1. 7.49019623e-01 0. 0. 0. 0. 0. 0. 0.
      6.50980413e-01 1. 1. 1. 1. 1. 1. 1. 1. 1. 1. 1. 1. 1. 1. 1. 1. 1.
      8.82352948e-01 1.33333340e-01 0. 0. 0. 0. 0. 5.09803928e-02 1. 1.
      1. 1. 1. 1. 1. 1. 1. 1. 1. 1. 1. 1. 1. 1. 1. 1. 1. 2.98039228e-01
      0. 0. 0. 0. 0. 7.49019623e-01 1. 1. 1. 1. 1. 1. 1. 1. 1. 1. 1. 1.
      1. 1. 1. 1. 1. 1. 1. 1. 0. 0. 0. 0. 0. 7.49019623e-01 1. 1. 1. 1.
      1. 1. 6.50980413e-01 0. 0. 6.50980413e-01 1. 1. 1. 1. 1. 1. 1. 1.
      1. 1. 0. 0. 0. 0. 0. 7.49019623e-01 1. 1. 1. 1. 1. 4.98039216e-01
      0. 0. 0. 0. 4.98039216e-01 1. 1. 1. 1. 1. 1. 1. 1. 1.
      4.98039216e-01 0. 0. 0. 0. 7.49019623e-01 1. 1. 1. 1.
      9.49019611e-01 2.00000003e-01 0. 0. 0. 0. 2.50980407e-01 1. 1. 1.
      1. 1. 1. 1. 1. 1. 7.49019623e-01 0. 0. 0. 0. 7.49019623e-01 1. 1.
      1. 1. 7.49019623e-01 0. 0. 0. 0. 0. 6.66666701e-02 8.15686285e-01
      1. 1. 1. 1. 1. 1. 1. 1. 7.49019623e-01 0. 0. 0. 2.50980407e-01 1.
      1. 1. 1. 1. 7.49019623e-01 0. 0. 0. 0. 0. 6.66666701e-02
      8.15686285e-01 1. 1. 1. 1. 1. 1. 1. 1. 7.49019623e-01 0. 0. 0.
      2.50980407e-01 1. 1. 1. 1. 1. 9.49019611e-01 2.00000003e-01 0. 0.
      0. 0. 2.50980407e-01 1. 1. 1. 1. 1. 1. 1. 1. 1. 7.49019623e-01 0.
      0. 0. 2.50980407e-01 1. 1. 1. 1. 1. 1. 1. 2.50980407e-01 0. 0.
      2.50980407e-01 1. 1. 1. 1. 1. 1. 1. 1. 1. 1. 7.49019623e-01 0. 0.
      0. 3.13725509e-02 7.84313738e-01 1. 1. 1. 1. 1. 1. 9.64705884e-01
      8.66666675e-01 8.66666675e-01 9.64705884e-01 1. 1. 1. 1. 1. 1. 1.
      1. 1. 1. 9.80392173e-02 0. 0. 0. 0. 7.49019623e-01 1. 1. 1. 1. 1.
      1. 1. 1. 1. 1. 1. 1. 1. 1. 1. 1. 1. 1. 1. 1. 0. 0. 0. 0. 0.
      7.49019623e-01 1. 1. 1. 1. 1. 1. 1. 1. 1. 1. 1. 1. 1. 1. 1. 1. 1.
      1. 1. 1. 0. 0. 0. 0. 0. 7.49019623e-01 1. 1. 1. 1. 1. 1. 1. 1. 1.
      1. 1. 1. 1. 1. 1. 1. 1. 1. 1. 2.50980407e-01 0. 0. 0. 0. 0. 0. 1.
      1. 1. 1. 1. 1. 1. 1. 1. 1. 1. 1. 1. 1. 1. 1. 1. 1. 1.
      2.50980407e-01 0. 0. 0. 0. 0. 0. 6.00000024e-01 1. 1. 1. 1. 1. 1.
      1. 1. 1. 1. 1. 1. 1. 1. 1. 1. 1. 7.49019623e-01 0. 0. 0. 0. 0. 0.
      0. 2.31372550e-01 9.84313726e-01 1. 1. 1. 1. 1. 1. 1. 1. 1. 1. 1.
      1. 1. 1. 1. 9.49019611e-01 0. 0. 0. 0. 0. 0. 0. 0. 0.
      2.98039228e-01 1. 1. 1. 1. 1. 1. 1. 1. 1. 1. 1. 1. 1. 1.
      8.50980401e-01 9.80392173e-02 0. 0. 0. 0. 0. 0. 0. 0. 0. 0.
      2.15686277e-01 8.66666675e-01 1. 1. 1. 1. 1. 1. 1. 1. 1. 1.
      9.64705884e-01 8.66666675e-01 0. 0. 0. 0. 0. 0. 0. 0. 0. 0. 0. 0.
      0. 0. 3.33333343e-01 3.33333343e-01 1. 1. 1. 1. 1. 1.
      8.31372559e-01 3.33333343e-01 2.50980407e-01 0. 0. 0. 0. 0. 0. 0.
      0. 0. 0. 0. 0. 0. 0. 0. 0. 0. 0. 0. 0. 0. 0. 0. 0. 0. 0. 0. 0. 0.
      0. 0. 0. 0. 0. 0. 0. 0. 0. 0. 0. 0. 0. 0. 0. 0. 0. 0. 0. 0. 0. 0.
      0. 0. 0. 0. 0. 0. 0. 0. 0. 0.</_>
    <_>
      0. 0. 0. 0. 0. 0. 0. 0. 0. 0. 0. 0. 0. 0. 0. 0. 0. 0. 0. 0. 0. 0.
      0. 0. 0. 0. 0. 0. 0. 0. 0. 0. 0. 0. 0. 0. 0. 0. 0. 0. 0. 0. 0. 0.
      0. 0. 0. 0. 0. 0. 0. 0. 0. 0. 0. 0. 0. 0. 0. 0. 0. 0.
      3.33333343e-01 3.33333343e-01 3.33333343e-01 3.33333343e-01
      2.50980407e-01 0. 0. 0. 0. 0. 0. 0. 0. 0. 0. 0. 0. 0. 0. 0. 0. 0.
      0. 0. 8.66666675e-01 8.66666675e-01 1. 1. 1. 1. 9.64705884e-01
      8.66666675e-01 6.50980413e-01 0. 0. 0. 0. 0. 0. 0. 0. 0. 0. 0. 0.
      0. 0. 2.98039228e-01 5.49019635e-01 1. 1. 1. 1. 1. 1. 1. 1. 1. 1.
      1. 2.98039228e-01 0. 0. 0. 0. 0. 0. 0. 0. 0. 0. 0. 2.31372550e-01
      9.84313726e-01 1. 1. 1. 1. 1. 1. 1. 1. 1. 1. 1. 1. 9.84313726e-01
      2.31372550e-01 0. 0. 0. 0. 0. 0. 0. 0. 0. 0. 6.00000024e-01 1. 1.
      1. 1. 1. 1. 1. 1. 1. 1. 1. 1. 1. 1. 1. 7.49019623e-01 0. 0. 0. 0.
      0. 0. 0. 0. 7.49019623e-01 1. 1. 1. 1. 1. 1. 1. 1. 1. 1. 1. 1. 1.
      1. 1. 1. 1. 2.50980407e-01 0. 0. 0. 0. 0. 0. 0. 7.49019623e-01 1.
      1. 1. 1. 1. 1. 1. 1. 1. 1. 1. 1. 1. 1. 1. 1. 1. 1. 0. 0. 0. 0. 0.
      0. 2.50980407e-01 1. 1. 1. 1. 1. 1. 1. 1. 1. 1. 1. 1. 1. 1. 1. 1.
      1. 1. 1. 5.09803928e-02 0. 0. 0. 0. 0. 6.98039234e-01 1. 1. 1. 1.
      1. 1. 1. 1. 1. 1. 1. 1. 1. 1. 1. 1. 1. 1. 1. 7.49019623e-01 0. 0.
      0. 0. 0. 1. 1. 1. 1. 1. 1. 9.64705884e-01 8.66666675e-01 0.
      6.50980413e-01 8.98039222e-01 1. 1. 1. 1. 1. 1. 1. 1. 1.
      7.49019623e-01 0. 0. 0. 0. 0. 1. 1. 1. 1. 1. 1. 7.49019623e-01 0.
      0. 0. 8.23529437e-02 8.31372559e-01 1. 1. 1. 1. 1. 1. 1. 1.
      7.49019623e-01 0. 0. 0. 0. 0. 1. 1. 1. 1. 1. 1. 0. 0. 0. 0. 0.
      7.49019623e-01 1. 1. 1. 1. 1. 1. 1. 1. 1. 2.50980407e-01 0. 0. 0.
      0. 1. 1. 1. 1. 1. 4.50980395e-01 0. 0. 0. 0. 0. 2.00000003e-01 1.
      1. 1. 1. 1. 1. 1. 1. 1. 2.50980407e-01 0. 0. 0. 7.49019623e-01 1.
      1. 1. 1. 1. 4.50980395e-01 0. 0. 0. 0. 0. 2.00000003e-01 1. 1. 1.
      1. 1. 1. 1. 1. 1. 2.50980407e-01 0. 0. 0. 7.49019623e-01 1. 1. 1.
      1. 1. 1. 0. 0. 0. 0. 0. 7.49019623e-01 1. 1. 1. 1. 1. 1. 1. 1. 1.
      2.50980407e-01 0. 0. 0. 7.49019623e-01 1. 1. 1. 1. 1. 1.
      2.50980407e-01 0. 0. 0. 3.33333343e-01 8.31372559e-01 1. 1. 1. 1.
      1. 1. 1. 1. 9.17647064e-01 1.64705887e-01 0. 0. 0. 7.49019623e-01
      1. 1. 1. 1. 1. 1. 9.64705884e-01 8.66666675e-01 8.66666675e-01
      8.66666675e-01 1. 1. 1. 1. 1. 1. 1. 1. 1. 1. 7.49019623e-01 0. 0.
      0. 0. 0. 1. 1. 1. 1. 1. 1. 1. 1. 1. 1. 1. 1. 1. 1. 1. 1. 1. 1. 1.
      1. 7.49019623e-01 0. 0. 0. 0. 0. 1. 1. 1. 1. 1. 1. 1. 1. 1. 1. 1.
      1. 1. 1. 1. 1. 1. 1. 1. 1. 7.49019623e-01 0. 0. 0. 0. 0.
      6.50980413e-01 1. 1. 1. 1. 1. 1. 1. 1. 1. 1. 1. 1. 1. 1. 1. 1. 1.
      1. 1. 4.00000006e-01 0. 0. 0. 0. 0. 2.50980407e-01 1. 1. 1. 1. 1.
      1. 1. 1. 1. 1. 1. 1. 1. 1. 1. 1. 1. 1. 1. 0. 0. 0. 0. 0. 0.
      1.17647059e-01 8.66666675e-01 1. 1. 1. 1. 1. 1. 1. 1. 1. 1. 1. 1.
      1. 1. 1. 1. 1. 6.00000024e-01 0. 0. 0. 0. 0. 0. 0. 7.49019623e-01
      1. 1. 1. 1. 1. 1. 1. 1. 1. 1. 1. 1. 1. 1. 1. 1. 7.49019623e-01 0.
      0. 0. 0. 0. 0. 0. 0. 2.98039228e-01 5.49019635e-01 1. 1. 1. 1. 1.
      1. 1. 1. 1. 1. 1. 1. 1. 1. 1. 2.98039228e-01 0. 0. 0. 0. 0. 0. 0.
      0. 0. 0. 6.50980413e-01 1. 1. 1. 1. 1. 1. 1. 1. 1. 1. 1. 1.
      8.66666675e-01 2.15686277e-01 0. 0. 0. 0. 0. 0. 0. 0. 0. 0. 0. 0.
      3.33333343e-01 3.33333343e-01 1. 1. 1. 1. 1. 1. 1. 1.
      8.31372559e-01 3.33333343e-01 0. 0. 0. 0. 0. 0. 0. 0. 0. 0. 0. 0.
      0. 0. 0. 0. 0. 0. 0. 0. 2.00000003e-01 2.00000003e-01 0. 0. 0. 0.
      0. 0. 0. 0. 0. 0. 0. 0. 0. 0. 0. 0. 0. 0. 0. 0. 0. 0. 0. 0. 0. 0.
      0. 0. 0. 0. 0. 0. 0. 0. 0. 0. 0. 0.</_>
    <_>
      0. 0. 0. 0. 0. 0. 0. 0. 0. 0. 0. 0. 0. 0. 0. 0. 0. 0. 0. 0. 0. 0.
      0. 0. 0. 0. 0. 0. 0. 0. 0. 0. 0. 0. 0. 0. 0. 0. 0. 0. 0. 0. 0. 0.
      0. 0. 0. 0. 0. 0. 0. 0. 0. 0. 0. 0. 0. 0. 0. 0. 0. 2.50980407e-01
      3.33333343e-01 3.33333343e-01 3.33333343e-01 3.33333343e-01
      3.33333343e-01 3.33333343e-01 0. 0. 0. 0. 0. 0. 0. 0. 0. 0. 0. 0.
      0. 0. 0. 0. 0. 0. 8.66666675e-01 9.64705884e-01 1. 1. 1. 1. 1. 1.
      8.66666675e-01 8.66666675e-01 0. 0. 0. 0. 0. 0. 0. 0. 0. 0. 0. 0.
      0. 0. 5.49019635e-01 1. 1. 1. 1. 1. 1. 1. 1. 1. 1. 1. 1.
      5.49019635e-01 0. 0. 0. 0. 0. 0. 0. 0. 0. 0. 0. 6.98039234e-01 1.
      1. 1. 1. 1. 1. 1. 1. 1. 1. 1. 1. 1. 1. 6.98039234e-01 0. 0. 0. 0.
      0. 0. 0. 0. 0. 1.17647059e-01 8.66666675e-01 1. 1. 1. 1. 1. 1. 1.
      1. 1. 1. 1. 1. 1. 1. 1. 6.00000024e-01 0. 0. 0. 0. 0. 0. 0. 0. 1.
      1. 1. 1. 1. 1. 1. 1. 1. 1. 1. 1. 1. 1. 1. 1. 1. 1. 0. 0. 0. 0. 0.
      0. 0. 4.00000006e-01 1. 1. 1. 1. 1. 1. 1. 1. 1. 1. 1. 1. 1. 1. 1.
      1. 1. 1. 7.49019623e-01 0. 0. 0. 0. 0. 0. 7.49019623e-01 1. 1. 1.
      1. 1. 1. 1. 1. 1. 1. 1. 1. 1. 1. 1. 1. 1. 1. 7.64705896e-01
      1.56862754e-02 0. 0. 0. 0. 1.49019614e-01 8.98039222e-01 1. 1. 1.
      1. 1. 1. 1. 1. 1. 1. 1. 1. 1. 1. 1. 1. 1. 1. 1. 2.50980407e-01 0.
      0. 0. 0. 2.50980407e-01 1. 1. 1. 1. 1. 1. 8.98039222e-01 0. 0. 0.
      6.50980413e-01 1. 1. 1. 1. 1. 1. 1. 1. 1. 2.50980407e-01 0. 0. 0.
      0. 2.50980407e-01 1. 1. 1. 1. 1. 8.31372559e-01 8.23529437e-02 0.
      0. 0. 0. 1. 1. 1. 1. 1. 1. 1. 1. 1. 7.49019623e-01 0. 0. 0. 0.
      2.50980407e-01 1. 1. 1. 1. 1. 7.49019623e-01 0. 0. 0. 0. 0.
      2.50980407e-01 1. 1. 1. 1. 1. 1. 1. 1. 1. 0. 0. 0. 0.
      2.50980407e-01 1. 1. 1. 1. 1. 7.49019623e-01 0. 0. 0. 0. 0.
      2.50980407e-01 1. 1. 1. 1. 1. 1. 1. 1. 1. 0. 0. 0. 0.
      2.50980407e-01 1. 1. 1. 1. 1. 7.49019623e-01 0. 0. 0. 0. 0.
      4.50980395e-01 1. 1. 1. 1. 1. 1. 1. 1. 1. 0. 0. 0. 0.
      2.50980407e-01 1. 1. 1. 1. 1. 7.49019623e-01 0. 0. 0. 0. 0. 1. 1.
      1. 1. 1. 1. 1. 1. 1. 1. 0. 0. 0. 0. 2.50980407e-01 1. 1. 1. 1. 1.
      1. 4.98039216e-01 0. 0. 8.23529437e-02 8.31372559e-01 1. 1. 1. 1.
      1. 1. 1. 1. 1. 1. 0. 0. 0. 0. 2.50980407e-01 1. 1. 1. 1. 1. 1. 1.
      8.66666675e-01 8.66666675e-01 8.98039222e-01 1. 1. 1. 1. 1. 1. 1.
      1. 1. 1. 3.49019617e-01 0. 0. 0. 0. 2.50980407e-01 1. 1. 1. 1. 1.
      1. 1. 1. 1. 1. 1. 1. 1. 1. 1. 1. 1. 1. 1. 1. 2.50980407e-01 0. 0.
      0. 0. 2.50980407e-01 1. 1. 1. 1. 1. 1. 1. 1. 1. 1. 1. 1. 1. 1. 1.
      1. 1. 1. 1. 1. 2.50980407e-01 0. 0. 0. 0. 1.33333340e-01
      8.82352948e-01 1. 1. 1. 1. 1. 1. 1. 1. 1. 1. 1. 1. 1. 1. 1. 1. 1.
      1. 7.49019623e-01 0. 0. 0. 0. 0. 0. 7.49019623e-01 1. 1. 1. 1. 1.
      1. 1. 1. 1. 1. 1. 1. 1. 1. 1. 1. 1. 1. 7.49019623e-01 0. 0. 0. 0.
      0. 0. 3.49019617e-01 1. 1. 1. 1. 1. 1. 1. 1. 1. 1. 1. 1. 1. 1. 1.
      1. 1. 1. 3.49019617e-01 0. 0. 0. 0. 0. 0. 0. 2.50980407e-01 1. 1.
      1. 1. 1. 1. 1. 1. 1. 1. 1. 1. 1. 1. 1. 9.84313726e-01
      2.31372550e-01 0. 0. 0. 0. 0. 0. 0. 0. 9.80392173e-02
      8.50980401e-01 1. 1. 1. 1. 1. 1. 1. 1. 1. 1. 1. 1. 1. 1.
      2.98039228e-01 0. 0. 0. 0. 0. 0. 0. 0. 0. 0. 0. 2.15686277e-01
      8.66666675e-01 1. 1. 1. 1. 1. 1. 1. 1. 1. 1. 8.66666675e-01
      2.15686277e-01 0. 0. 0. 0. 0. 0. 0. 0. 0. 0. 0. 0. 0. 0.
      3.33333343e-01 8.31372559e-01 1. 1. 1. 1. 1. 1. 8.31372559e-01
      3.33333343e-01 0. 0. 0. 0. 0. 0. 0. 0. 0. 0. 0. 0. 0. 0. 0. 0. 0.
      0. 0. 0. 0. 0. 0. 0. 0. 0. 0. 0. 0. 0. 0. 0. 0. 0. 0. 0. 0. 0. 0.
      0. 0. 0. 0. 0. 0. 0. 0. 0. 0. 0. 0. 0. 0. 0. 0. 0. 0. 0. 0. 0.</_>
    <_>
      0. 0. 0. 0. 0. 0. 0. 0. 0. 0. 0. 0. 0. 0. 0. 0. 0. 0. 0. 0. 0. 0.
      0. 0. 0. 0. 0. 0. 0. 0. 0. 0. 0. 0. 0. 0. 0. 0. 0. 0. 0. 0. 0. 0.
      0. 0. 0. 0. 0. 0. 0. 0. 0. 0. 0. 0. 0. 0. 0. 0. 0. 0.
      8.23529437e-02 3.33333343e-01 3.33333343e-01 3.33333343e-01
      3.33333343e-01 8.23529437e-02 0. 0. 0. 0. 0. 0. 0. 0. 0. 0. 0. 0.
      0. 0. 0. 0. 0. 0. 0. 6.50980413e-01 8.98039222e-01 1. 1. 1. 1.
      8.98039222e-01 8.66666675e-01 2.15686277e-01 0. 0. 0. 0. 0. 0. 0.
      0. 0. 0. 0. 0. 0. 0. 4.00000006e-01 8.50980401e-01 1. 1. 1. 1. 1.
      1. 1. 1. 1. 1. 8.50980401e-01 9.80392173e-02 0. 0. 0. 0. 0. 0. 0.
      0. 0. 0. 0. 0. 1. 1. 1. 1. 1. 1. 1. 1. 1. 1. 1. 1. 1.
      9.49019611e-01 0. 0. 0. 0. 0. 0. 0. 0. 0. 0. 1.17647059e-01
      8.66666675e-01 1. 1. 1. 1. 1. 1. 1. 1. 1. 1. 1. 1. 1. 1.
      8.66666675e-01 1.17647059e-01 0. 0. 0. 0. 0. 0. 0. 0. 1. 1. 1. 1.
      1. 1. 1. 1. 1. 1. 1. 1. 1. 1. 1. 1. 1. 1. 0. 0. 0. 0. 0. 0. 0.
      4.00000006e-01 1. 1. 1. 1. 1. 1. 1. 1. 1. 1. 1. 1. 1. 1. 1. 1. 1.
      1. 7.49019623e-01 0. 0. 0. 0. 0. 0. 7.49019623e-01 1. 1. 1. 1. 1.
      1. 1. 1. 1. 1. 1. 1. 1. 1. 1. 1. 1. 1. 7.64705896e-01
      1.56862754e-02 0. 0. 0. 0. 1.49019614e-01 8.98039222e-01 1. 1. 1.
      1. 1. 1. 1. 1. 1. 1. 1. 1. 1. 1. 1. 1. 1. 1. 1. 2.50980407e-01 0.
      0. 0. 0. 2.50980407e-01 1. 1. 1. 1. 1. 1. 8.98039222e-01
      6.50980413e-01 0. 8.66666675e-01 9.64705884e-01 1. 1. 1. 1. 1. 1.
      1. 1. 1. 2.50980407e-01 0. 0. 0. 0. 2.50980407e-01 1. 1. 1. 1. 1.
      1. 2.50980407e-01 0. 0. 0. 2.50980407e-01 1. 1. 1. 1. 1. 1. 1. 1.
      1. 7.49019623e-01 0. 0. 0. 0. 2.50980407e-01 1. 1. 1. 1. 1.
      7.49019623e-01 0. 0. 0. 0. 0. 8.50980401e-01 1. 1. 1. 1. 1. 1. 1.
      1. 1. 0. 0. 0. 0. 2.50980407e-01 1. 1. 1. 1. 1. 7.49019623e-01 0.
      0. 0. 0. 0. 2.50980407e-01 1. 1. 1. 1. 1. 1. 1. 1. 1. 0. 0. 0. 0.
      2.50980407e-01 1. 1. 1. 1. 1. 7.49019623e-01 0. 0. 0. 0. 0.
      2.50980407e-01 1. 1. 1. 1. 1. 1. 1. 1. 1. 0. 0. 0. 0.
      2.50980407e-01 1. 1. 1. 1. 1. 7.49019623e-01 0. 0. 0. 0. 0.
      8.50980401e-01 1. 1. 1. 1. 1. 1. 1. 1. 1. 0. 0. 0. 0.
      2.50980407e-01 1. 1. 1. 1. 1. 8.31372559e-01 8.23529437e-02 0. 0.
      0. 2.50980407e-01 1. 1. 1. 1. 1. 1. 1. 1. 1. 1. 0. 0. 0. 0.
      2.50980407e-01 1. 1. 1. 1. 1. 1. 8.98039222e-01 8.66666675e-01
      8.66666675e-01 8.66666675e-01 9.64705884e-01 1. 1. 1. 1. 1. 1. 1.
      1. 1. 1. 0. 0. 0. 0. 2.50980407e-01 1. 1. 1. 1. 1. 1. 1. 1. 1. 1.
      1. 1. 1. 1. 1. 1. 1. 1. 1. 1. 2.50980407e-01 0. 0. 0. 0.
      2.50980407e-01 1. 1. 1. 1. 1. 1. 1. 1. 1. 1. 1. 1. 1. 1. 1. 1. 1.
      1. 1. 1. 2.50980407e-01 0. 0. 0. 0. 2.50980407e-01 1. 1. 1. 1. 1.
      1. 1. 1. 1. 1. 1. 1. 1. 1. 1. 1. 1. 1. 1. 8.82352948e-01
      1.33333340e-01 0. 0. 0. 0. 0. 7.49019623e-01 1. 1. 1. 1. 1. 1. 1.
      1. 1. 1. 1. 1. 1. 1. 1. 1. 1. 1. 7.49019623e-01 0. 0. 0. 0. 0. 0.
      7.49019623e-01 1. 1. 1. 1. 1. 1. 1. 1. 1. 1. 1. 1. 1. 1. 1. 1. 1.
      1. 3.49019617e-01 0. 0. 0. 0. 0. 0. 0. 9.49019611e-01 1. 1. 1. 1.
      1. 1. 1. 1. 1. 1. 1. 1. 1. 1. 1. 1. 9.49019611e-01 0. 0. 0. 0. 0.
      0. 0. 0. 2.50980407e-01 1. 1. 1. 1. 1. 1. 1. 1. 1. 1. 1. 1. 1. 1.
      1. 8.50980401e-01 9.80392173e-02 0. 0. 0. 0. 0. 0. 0. 0. 0. 0.
      8.98039222e-01 1. 1. 1. 1. 1. 1. 1. 1. 1. 1. 1. 9.64705884e-01
      8.66666675e-01 0. 0. 0. 0. 0. 0. 0. 0. 0. 0. 0. 0. 8.23529437e-02
      3.33333343e-01 4.98039216e-01 1. 1. 1. 1. 1. 1. 1. 1.
      4.98039216e-01 2.50980407e-01 0. 0. 0. 0. 0. 0. 0. 0. 0. 0. 0. 0.
      0. 0. 0. 0. 0. 0. 0. 0. 6.00000024e-01 6.00000024e-01 0. 0. 0. 0.
      0. 0. 0. 0. 0. 0. 0. 0. 0. 0. 0. 0. 0. 0. 0. 0. 0. 0. 0. 0. 0. 0.
      0. 0. 0. 0. 0. 0. 0. 0. 0. 0. 0.</_>
    <_>
      0. 0. 0. 0. 0. 0. 0. 0. 0. 0. 0. 0. 0. 0. 0. 0. 0. 0. 0. 0. 0. 0.
      0. 0. 0. 0. 0. 0. 0. 0. 0. 0. 0. 0. 0. 0. 0. 0. 0. 0. 0. 0. 0. 0.
      0. 0. 0. 0. 0. 0. 0. 0. 0. 0. 0. 0. 0. 0. 0. 0. 8.23529437e-02
      3.33333343e-01 3.33333343e-01 3.33333343e-01 3.33333343e-01
      3.33333343e-01 3.33333343e-01 8.23529437e-02 0. 0. 0. 0. 0. 0. 0.
      0. 0. 0. 0. 0. 0. 0. 0. 0. 0. 6.50980413e-01 8.98039222e-01 1. 1.
      1. 1. 1. 1. 8.98039222e-01 8.66666675e-01 2.15686277e-01 0. 0. 0.
      0. 0. 0. 0. 0. 0. 0. 0. 0. 0. 2.98039228e-01 1. 1. 1. 1. 1. 1. 1.
      1. 1. 1. 1. 1. 8.50980401e-01 9.80392173e-02 0. 0. 0. 0. 0. 0. 0.
      0. 0. 0. 2.31372550e-01 9.84313726e-01 1. 1. 1. 1. 1. 1. 1. 1. 1.
      1. 1. 1. 1. 9.49019611e-01 0. 0. 0. 0. 0. 0. 0. 0. 0.
      3.49019617e-01 1. 1. 1. 1. 1. 1. 1. 1. 1. 1. 1. 1. 1. 1. 1. 1.
      7.49019623e-01 0. 0. 0. 0. 0. 0. 0. 0. 7.49019623e-01 1. 1. 1. 1.
      1. 1. 1. 1. 1. 1. 1. 1. 1. 1. 1. 1. 1. 2.50980407e-01 0. 0. 0. 0.
      0. 0. 1.33333340e-01 8.82352948e-01 1. 1. 1. 1. 1. 1. 1. 1. 1. 1.
      1. 1. 1. 1. 1. 1. 1. 1. 0. 0. 0. 0. 0. 0. 2.50980407e-01 1. 1. 1.
      1. 1. 1. 1. 1. 1. 1. 1. 1. 1. 1. 1. 1. 1. 1. 1. 7.49019623e-01 0.
      0. 0. 0. 0. 2.50980407e-01 1. 1. 1. 1. 1. 1. 1. 1. 1. 1. 1. 1. 1.
      1. 1. 1. 1. 1. 1. 7.49019623e-01 0. 0. 0. 0. 0. 1. 1. 1. 1. 1. 1.
      9.64705884e-01 2.15686277e-01 0. 0. 8.98039222e-01 1. 1. 1. 1. 1.
      1. 1. 1. 1. 7.49019623e-01 0. 0. 0. 0. 0. 1. 1. 1. 1. 1. 1.
      2.50980407e-01 0. 0. 0. 8.23529437e-02 8.31372559e-01 1. 1. 1. 1.
      1. 1. 1. 1. 7.49019623e-01 0. 0. 0. 0. 0. 1. 1. 1. 1. 1.
      8.50980401e-01 0. 0. 0. 0. 0. 7.49019623e-01 1. 1. 1. 1. 1. 1. 1.
      1. 1. 2.50980407e-01 0. 0. 0. 5.49019635e-01 1. 1. 1. 1. 1.
      2.50980407e-01 0. 0. 0. 0. 0. 2.00000003e-01 1. 1. 1. 1. 1. 1. 1.
      1. 1. 2.50980407e-01 0. 0. 0. 7.49019623e-01 1. 1. 1. 1. 1. 1. 0.
      0. 0. 0. 0. 7.49019623e-01 1. 1. 1. 1. 1. 1. 1. 1. 1.
      2.50980407e-01 0. 0. 0. 7.49019623e-01 1. 1. 1. 1. 1. 1. 0. 0. 0.
      0. 0. 7.49019623e-01 1. 1. 1. 1. 1. 1. 1. 1. 1. 2.50980407e-01 0.
      0. 0. 7.49019623e-01 1. 1. 1. 1. 1. 1. 8.31372559e-01
      8.23529437e-02 0. 0. 4.98039216e-01 1. 1. 1. 1. 1. 1. 1. 1. 1.
      9.17647064e-01 1.64705887e-01 0. 0. 0. 9.80392173e-02 1. 1. 1. 1.
      1. 1. 1. 8.98039222e-01 8.66666675e-01 8.66666675e-01 1. 1. 1. 1.
      1. 1. 1. 1. 1. 1. 7.49019623e-01 0. 0. 0. 0. 0. 1. 1. 1. 1. 1. 1.
      1. 1. 1. 1. 1. 1. 1. 1. 1. 1. 1. 1. 1. 1. 7.49019623e-01 0. 0. 0.
      0. 0. 1. 1. 1. 1. 1. 1. 1. 1. 1. 1. 1. 1. 1. 1. 1. 1. 1. 1. 1. 1.
      7.49019623e-01 0. 0. 0. 0. 0. 6.50980413e-01 1. 1. 1. 1. 1. 1. 1.
      1. 1. 1. 1. 1. 1. 1. 1. 1. 1. 1. 1. 4.00000006e-01 0. 0. 0. 0. 0.
      2.50980407e-01 1. 1. 1. 1. 1. 1. 1. 1. 1. 1. 1. 1. 1. 1. 1. 1. 1.
      1. 1. 0. 0. 0. 0. 0. 0. 1.17647059e-01 8.66666675e-01 1. 1. 1. 1.
      1. 1. 1. 1. 1. 1. 1. 1. 1. 1. 1. 1. 1. 6.00000024e-01 0. 0. 0. 0.
      0. 0. 0. 6.98039234e-01 1. 1. 1. 1. 1. 1. 1. 1. 1. 1. 1. 1. 1. 1.
      1. 1. 6.98039234e-01 0. 0. 0. 0. 0. 0. 0. 0. 0. 5.49019635e-01 1.
      1. 1. 1. 1. 1. 1. 1. 1. 1. 1. 1. 1. 1. 5.49019635e-01 0. 0. 0. 0.
      0. 0. 0. 0. 0. 0. 0. 6.50980413e-01 8.66666675e-01 9.64705884e-01
      1. 1. 1. 1. 1. 1. 1. 1. 1. 8.98039222e-01 6.50980413e-01 0. 0. 0.
      0. 0. 0. 0. 0. 0. 0. 0. 0. 0. 0. 2.50980407e-01 4.98039216e-01 1.
      1. 1. 1. 1. 1. 4.98039216e-01 3.33333343e-01 8.23529437e-02 0. 0.
      0. 0. 0. 0. 0. 0. 0. 0. 0. 0. 0. 0. 0. 0. 0. 0. 0. 0. 0. 0. 0. 0.
      0. 0. 0. 0. 0. 0. 0. 0. 0. 0. 0. 0. 0. 0. 0. 0. 0. 0. 0. 0. 0. 0.
      0. 0. 0. 0. 0. 0. 0. 0. 0. 0. 0. 0. 0. 0.</_>
    <_>
      0. 0. 0. 0. 0. 0. 0. 0. 0. 0. 0. 0. 0. 0. 0. 0. 0. 0. 0. 0. 0. 0.
      0. 0. 0. 0. 0. 0. 0. 0. 0. 0. 0. 0. 0. 0. 0. 0. 0. 0. 0. 0. 0. 0.
      0. 0. 0. 0. 0. 0. 0. 0. 0. 0. 0. 0. 0. 0. 0. 0. 8.23529437e-02
      3.33333343e-01 3.33333343e-01 3.33333343e-01 3.33333343e-01
      3.33333343e-01 3.33333343e-01 8.23529437e-02 0. 0. 0. 0. 0. 0. 0.
      0. 0. 0. 0. 0. 0. 0. 0. 0. 0. 6.50980413e-01 8.98039222e-01 1. 1.
      1. 1. 1. 1. 8.98039222e-01 8.66666675e-01 2.15686277e-01 0. 0. 0.
      0. 0. 0. 0. 0. 0. 0. 0. 0. 0. 2.98039228e-01 1. 1. 1. 1. 1. 1. 1.
      1. 1. 1. 1. 1. 8.50980401e-01 9.80392173e-02 0. 0. 0. 0. 0. 0. 0.
      0. 0. 0. 2.31372550e-01 9.84313726e-01 1. 1. 1. 1. 1. 1. 1. 1. 1.
      1. 1. 1. 1. 9.49019611e-01 0. 0. 0. 0. 0. 0. 0. 0. 0.
      3.49019617e-01 1. 1. 1. 1. 1. 1. 1. 1. 1. 1. 1. 1. 1. 1. 1. 1.
      7.49019623e-01 0. 0. 0. 0. 0. 0. 0. 0. 7.49019623e-01 1. 1. 1. 1.
      1. 1. 1. 1. 1. 1. 1. 1. 1. 1. 1. 1. 1. 2.50980407e-01 0. 0. 0. 0.
      0. 0. 1.33333340e-01 8.82352948e-01 1. 1. 1. 1. 1. 1. 1. 1. 1. 1.
      1. 1. 1. 1. 1. 1. 1. 1. 0. 0. 0. 0. 0. 0. 2.50980407e-01 1. 1. 1.
      1. 1. 1. 1. 1. 1. 1. 1. 1. 1. 1. 1. 1. 1. 1. 1. 7.49019623e-01 0.
      0. 0. 0. 0. 6.98039234e-01 1. 1. 1. 1. 1. 1. 1. 1. 1. 1. 1. 1. 1.
      1. 1. 1. 1. 1. 1. 7.49019623e-01 0. 0. 0. 0. 0. 1. 1. 1. 1. 1. 1.
      9.64705884e-01 2.15686277e-01 0. 0. 8.66666675e-01 9.64705884e-01
      1. 1. 1. 1. 1. 1. 1. 1. 7.49019623e-01 0. 0. 0. 0. 0. 1. 1. 1. 1.
      1. 1. 2.50980407e-01 0. 0. 0. 0. 7.49019623e-01 1. 1. 1. 1. 1. 1.
      1. 1. 9.17647064e-01 1.64705887e-01 0. 0. 0. 0. 1. 1. 1. 1. 1.
      8.50980401e-01 0. 0. 0. 0. 0. 7.49019623e-01 1. 1. 1. 1. 1. 1. 1.
      1. 1. 2.50980407e-01 0. 0. 0. 5.49019635e-01 1. 1. 1. 1. 1.
      2.50980407e-01 0. 0. 0. 0. 0. 2.00000003e-01 1. 1. 1. 1. 1. 1. 1.
      1. 1. 2.50980407e-01 0. 0. 0. 7.49019623e-01 1. 1. 1. 1. 1.
      4.50980395e-01 0. 0. 0. 0. 0. 7.49019623e-01 1. 1. 1. 1. 1. 1. 1.
      1. 1. 2.50980407e-01 0. 0. 0. 7.49019623e-01 1. 1. 1. 1. 1. 1. 0.
      0. 0. 0. 0. 7.49019623e-01 1. 1. 1. 1. 1. 1. 1. 1. 1.
      2.50980407e-01 0. 0. 0. 7.49019623e-01 1. 1. 1. 1. 1. 1.
      8.31372559e-01 8.23529437e-02 0. 0. 4.98039216e-01 1. 1. 1. 1. 1.
      1. 1. 1. 1. 9.17647064e-01 1.64705887e-01 0. 0. 0. 9.80392173e-02
      1. 1. 1. 1. 1. 1. 1. 8.98039222e-01 8.66666675e-01 8.66666675e-01
      1. 1. 1. 1. 1. 1. 1. 1. 1. 1. 7.49019623e-01 0. 0. 0. 0. 0. 1. 1.
      1. 1. 1. 1. 1. 1. 1. 1. 1. 1. 1. 1. 1. 1. 1. 1. 1. 1.
      7.49019623e-01 0. 0. 0. 0. 0. 1. 1. 1. 1. 1. 1. 1. 1. 1. 1. 1. 1.
      1. 1. 1. 1. 1. 1. 1. 1. 7.49019623e-01 0. 0. 0. 0. 0.
      6.50980413e-01 1. 1. 1. 1. 1. 1. 1. 1. 1. 1. 1. 1. 1. 1. 1. 1. 1.
      1. 1. 4.00000006e-01 0. 0. 0. 0. 0. 2.50980407e-01 1. 1. 1. 1. 1.
      1. 1. 1. 1. 1. 1. 1. 1. 1. 1. 1. 1. 1. 1. 0. 0. 0. 0. 0. 0.
      1.17647059e-01 8.66666675e-01 1. 1. 1. 1. 1. 1. 1. 1. 1. 1. 1. 1.
      1. 1. 1. 1. 1. 6.00000024e-01 0. 0. 0. 0. 0. 0. 0. 6.98039234e-01
      1. 1. 1. 1. 1. 1. 1. 1. 1. 1. 1. 1. 1. 1. 1. 1. 6.98039234e-01 0.
      0. 0. 0. 0. 0. 0. 0. 0. 5.49019635e-01 1. 1. 1. 1. 1. 1. 1. 1. 1.
      1. 1. 1. 1. 1. 5.49019635e-01 0. 0. 0. 0. 0. 0. 0. 0. 0. 0. 0.
      6.50980413e-01 8.98039222e-01 1. 1. 1. 1. 1. 1. 1. 1. 1. 1.
      8.98039222e-01 6.50980413e-01 0. 0. 0. 0. 0. 0. 0. 0. 0. 0. 0. 0.
      0. 8.23529437e-02 3.33333343e-01 4.98039216e-01 1. 1. 1. 1. 1. 1.
      4.98039216e-01 3.33333343e-01 8.23529437e-02 0. 0. 0. 0. 0. 0. 0.
      0. 0. 0. 0. 0. 0. 0. 0. 0. 0. 0. 0. 0. 0. 0. 0. 0. 0. 0. 0. 0. 0.
      0. 0. 0. 0. 0. 0. 0. 0. 0. 0. 0. 0. 0. 0. 0. 0. 0. 0. 0. 0. 0. 0.
      0. 0. 0. 0. 0. 0. 0. 0. 0.</_>
    <_>
