<?xml version="1.0"?>
<opencv_storage>
<my_svm type_id="opencv-ml-svm">
  <svm_type>C_SVC</svm_type>
  <kernel><type>RBF</type>
    <gamma>1.0000000000000001e-05</gamma></kernel>
  <C>5.0000000000000000e-01</C>
  <term_criteria><epsilon>1.1920928955078125e-07</epsilon>
    <iterations>1000</iterations></term_criteria>
  <var_all>1794</var_all>
  <var_count>1794</var_count>
  <class_count>11</class_count>
  <class_labels type_id="opencv-matrix">
    <rows>1</rows>
    <cols>11</cols>
    <dt>i</dt>
    <data>
      0 1 2 3 4 5 6 7 8 9 10</data></class_labels>
  <sv_total>201</sv_total>
  <support_vectors>
    <_>
      0. 0. 0. 0. 0. 1. 2. 4. 7. 11. 16. 22. 28. 32. 33. 34. 34. 34. 34.
      34. 34. 34. 34. 32. 28. 23. 17. 11. 7. 4. 2. 1. 0. 0. 0. 0. 0. 0.
      0. 0. 0. 0. 0. 1. 2. 3. 6. 10. 15. 21. 27. 33. 37. 38. 38. 38. 38.
      38. 38. 38. 39. 38. 37. 34. 29. 22. 16. 11. 6. 4. 2. 1. 0. 0. 0.
      0. 0. 0. 0. 0. 0. 1. 2. 4. 8. 12. 18. 25. 33. 40. 46. 49. 49. 48.
      48. 47. 47. 47. 48. 49. 50. 50. 48. 43. 36. 28. 20. 14. 8. 4. 2.
      1. 0. 0. 0. 0. 0. 0. 0. 1. 2. 5. 10. 16. 24. 32. 40. 47. 53. 57.
      58. 57. 55. 53. 52. 52. 52. 53. 55. 57. 60. 61. 59. 53. 45. 36.
      26. 17. 10. 5. 2. 1. 0. 0. 0. 0. 0. 1. 2. 5. 11. 19. 29. 39. 48.
      53. 56. 58. 58. 55. 52. 49. 46. 45. 45. 45. 47. 49. 53. 58. 63.
      66. 65. 61. 53. 42. 31. 20. 11. 5. 2. 1. 0. 0. 0. 1. 2. 5. 11. 20.
      32. 45. 55. 60. 60. 56. 52. 48. 43. 38. 35. 32. 31. 31. 31. 33.
      35. 40. 46. 54. 61. 66. 68. 66. 58. 47. 33. 21. 11. 5. 2. 1. 0. 0.
      3. 5. 10. 20. 33. 47. 59. 66. 64. 57. 48. 39. 32. 27. 23. 20. 18.
      17. 17. 17. 18. 20. 24. 30. 38. 47. 56. 65. 70. 69. 61. 48. 33.
      20. 10. 5. 2. 1. 0. 6. 9. 18. 31. 46. 60. 68. 68. 59. 47. 34. 25.
      18. 13. 10. 9. 8. 7. 7. 7. 8. 9. 11. 15. 22. 30. 40. 52. 63. 70.
      69. 61. 47. 31. 17. 8. 3. 1. 1. 11. 15. 27. 43. 58. 68. 69. 62.
      48. 33. 21. 13. 8. 5. 4. 3. 2. 2. 2. 2. 2. 3. 4. 6. 10. 16. 25.
      36. 50. 63. 70. 69. 59. 43. 27. 14. 6. 3. 2. 19. 24. 37. 53. 66.
      69. 63. 50. 34. 21. 12. 6. 3. 2. 1. 1. 1. 1. 1. 1. 1. 1. 2. 3. 4.
      7. 13. 22. 35. 50. 63. 70. 67. 55. 38. 23. 11. 5. 3. 28. 34. 47.
      62. 69. 65. 52. 36. 22. 12. 6. 3. 1. 1. 0. 0. 0. 0. 0. 0. 0. 0. 0.
      1. 1. 3. 6. 12. 22. 36. 52. 65. 69. 63. 49. 32. 17. 8. 6. 39. 44.
      56. 66. 67. 56. 40. 25. 13. 6. 3. 1. 0. 0. 0. 0. 0. 0. 0. 0. 0. 0.
      0. 0. 0. 1. 3. 6. 13. 24. 40. 56. 67. 68. 58. 41. 25. 13. 9. 49.
      53. 62. 67. 61. 47. 30. 16. 7. 3. 1. 1. 1. 1. 1. 1. 1. 1. 1. 0. 0.
      0. 0. 0. 0. 0. 1. 3. 7. 15. 28. 45. 60. 67. 63. 49. 32. 18. 14.
      57. 60. 66. 65. 54. 38. 22. 10. 4. 2. 1. 1. 1. 2. 3. 4. 4. 3. 3.
      2. 1. 0. 0. 0. 0. 0. 0. 1. 4. 9. 19. 34. 51. 63. 65. 55. 39. 24.
      19. 62. 64. 65. 60. 47. 30. 15. 6. 3. 1. 1. 2. 4. 7. 9. 10. 10. 9.
      7. 5. 3. 1. 1. 0. 0. 0. 0. 1. 2. 5. 13. 25. 42. 57. 64. 59. 44.
      30. 24. 64. 65. 63. 55. 40. 23. 11. 4. 2. 1. 3. 6. 10. 15. 19. 22.
      22. 20. 16. 11. 7. 4. 2. 1. 0. 0. 0. 0. 1. 3. 8. 19. 34. 50. 61.
      60. 48. 34. 29. 66. 66. 61. 50. 35. 19. 8. 3. 2. 3. 6. 12. 20. 28.
      34. 37. 37. 35. 29. 22. 14. 8. 4. 1. 0. 0. 0. 0. 1. 2. 5. 14. 27.
      44. 57. 59. 50. 37. 32. 69. 67. 60. 47. 31. 16. 7. 3. 3. 5. 11.
      21. 32. 43. 49. 52. 52. 50. 45. 36. 24. 14. 6. 2. 1. 0. 0. 0. 0.
      1. 4. 11. 23. 38. 52. 57. 49. 38. 34. 73. 70. 60. 44. 27. 14. 5.
      3. 3. 8. 17. 31. 45. 55. 59. 60. 60. 60. 57. 48. 35. 21. 10. 4. 1.
      0. 0. 0. 0. 1. 3. 9. 20. 35. 49. 55. 49. 39. 34. 79. 74. 61. 42.
      24. 12. 4. 3. 4. 11. 23. 39. 54. 62. 62. 59. 59. 61. 63. 57. 43.
      27. 13. 5. 2. 1. 0. 0. 0. 1. 2. 8. 18. 32. 46. 53. 48. 38. 34. 84.
      77. 61. 40. 22. 10. 4. 3. 6. 14. 28. 45. 59. 64. 59. 53. 52. 56.
      62. 59. 47. 30. 16. 6. 2. 1. 0. 0. 0. 1. 2. 7. 17. 31. 45. 52. 47.
      38. 34. 87. 80. 62. 39. 20. 9. 3. 3. 6. 16. 31. 48. 60. 61. 53.
      44. 43. 49. 58. 59. 48. 32. 17. 7. 2. 1. 0. 0. 0. 1. 2. 7. 17. 31.
      45. 52. 47. 38. 34. 89. 81. 62. 38. 20. 8. 3. 3. 7. 17. 32. 49.
      60. 60. 50. 41. 40. 47. 57. 58. 49. 32. 17. 7. 2. 1. 0. 0. 0. 1.
      2. 7. 17. 31. 45. 52. 47. 38. 34. 90. 82. 62. 38. 19. 8. 3. 3. 7.
      17. 32. 49. 61. 62. 53. 46. 45. 51. 60. 59. 49. 32. 17. 7. 2. 1.
      0. 0. 0. 1. 2. 7. 17. 31. 45. 52. 47. 38. 34. 90. 82. 62. 38. 19.
      8. 3. 3. 6. 16. 31. 48. 61. 65. 60. 55. 55. 59. 64. 60. 48. 30.
      16. 6. 2. 1. 0. 0. 0. 1. 2. 7. 17. 31. 45. 52. 47. 38. 34. 90. 82.
      62. 38. 19. 8. 3. 3. 5. 13. 27. 43. 58. 65. 65. 63. 63. 65. 65.
      58. 43. 27. 13. 5. 2. 1. 0. 0. 0. 1. 2. 7. 17. 31. 45. 52. 47. 38.
      34. 90. 82. 62. 38. 19. 8. 2. 2. 4. 10. 21. 35. 49. 58. 61. 62.
      62. 61. 58. 49. 35. 21. 10. 4. 1. 0. 0. 0. 0. 1. 2. 7. 17. 31. 45.
      52. 47. 38. 34. 90. 82. 62. 38. 19. 8. 2. 2. 2. 6. 14. 24. 35. 44.
      48. 50. 50. 48. 44. 35. 24. 14. 6. 2. 1. 0. 0. 0. 0. 1. 2. 8. 18.
      32. 46. 53. 48. 38. 34. 89. 81. 62. 39. 20. 8. 2. 1. 1. 3. 8. 14.
      21. 27. 31. 32. 32. 31. 27. 21. 14. 8. 3. 1. 0. 0. 0. 0. 0. 1. 3.
      9. 20. 35. 49. 55. 49. 39. 34. 87. 80. 62. 39. 21. 9. 3. 1. 1. 2.
      3. 6. 10. 13. 16. 17. 17. 16. 13. 10. 6. 3. 2. 1. 0. 0. 0. 0. 0.
      1. 3. 10. 22. 38. 52. 57. 49. 38. 34. 84. 78. 62. 42. 23. 11. 4.
      2. 0. 1. 1. 2. 4. 5. 6. 7. 7. 6. 5. 4. 2. 1. 1. 0. 0. 0. 0. 0. 0.
      2. 5. 13. 26. 42. 55. 58. 49. 37. 32. 80. 76. 63. 45. 28. 14. 6.
      2. 1. 0. 0. 1. 1. 2. 2. 2. 2. 2. 2. 1. 1. 0. 0. 0. 0. 0. 0. 0. 1.
      2. 6. 16. 30. 46. 58. 58. 47. 34. 29. 74. 72. 64. 51. 34. 19. 9.
      3. 1. 0. 0. 0. 0. 1. 1. 1. 1. 1. 1. 0. 0. 0. 0. 0. 0. 0. 0. 0. 1.
      3. 9. 19. 34. 50. 59. 56. 44. 31. 26. 68. 68. 65. 57. 42. 25. 13.
      5. 2. 1. 0. 0. 0. 0. 0. 0. 0. 0. 0. 0. 0. 0. 0. 0. 0. 0. 0. 1. 2.
      6. 13. 26. 41. 54. 60. 55. 42. 29. 23. 61. 63. 65. 62. 50. 33. 18.
      8. 3. 1. 0. 0. 0. 0. 0. 0. 0. 0. 0. 0. 0. 0. 0. 0. 0. 0. 1. 2. 5.
      10. 21. 35. 50. 61. 63. 55. 41. 29. 24. 52. 55. 63. 65. 57. 42.
      25. 13. 6. 3. 1. 0. 0. 0. 0. 0. 0. 0. 0. 0. 0. 0. 0. 0. 0. 1. 1.
      4. 9. 18. 31. 47. 61. 69. 67. 58. 44. 32. 27. 42. 47. 58. 66. 63.
      51. 35. 20. 11. 5. 2. 1. 1. 0. 0. 0. 0. 0. 0. 0. 0. 0. 0. 0. 1. 2.
      3. 7. 15. 28. 44. 60. 72. 76. 72. 61. 47. 35. 31. 32. 38. 51. 64.
      68. 61. 47. 32. 19. 11. 6. 4. 2. 2. 1. 1. 1. 1. 1. 1. 1. 1. 1. 2.
      3. 4. 8. 14. 25. 40. 57. 71. 79. 79. 73. 62. 48. 37. 32. 23. 29.
      42. 58. 68. 68. 59. 45. 32. 21. 14. 9. 6. 4. 3. 2. 2. 2. 2. 2. 2.
      3. 3. 5. 7. 10. 16. 25. 39. 55. 69. 79. 81. 78. 70. 59. 46. 35.
      30. 15. 20. 32. 48. 62. 69. 66. 58. 46. 35. 26. 19. 14. 11. 9. 8.
      7. 7. 7. 7. 8. 9. 10. 13. 17. 22. 29. 40. 53. 67. 77. 81. 79. 72.
      64. 53. 40. 29. 25. 9. 13. 22. 36. 51. 62. 66. 64. 57. 49. 41. 34.
      27. 23. 20. 18. 17. 17. 17. 17. 18. 20. 23. 27. 32. 38. 46. 56.
      67. 77. 82. 80. 74. 65. 55. 44. 31. 22. 18. 4. 7. 13. 24. 37. 49.
      57. 61. 60. 57. 53. 49. 44. 39. 36. 33. 32. 32. 32. 32. 33. 36.
      39. 44. 50. 56. 63. 70. 77. 82. 81. 75. 66. 56. 44. 33. 22. 14.
      11. 2. 3. 7. 13. 22. 32. 41. 48. 52. 56. 58. 59. 57. 54. 51. 48.
      47. 47. 47. 47. 49. 51. 55. 60. 65. 70. 75. 80. 83. 83. 79. 70.
      58. 46. 34. 23. 14. 9. 7. 1. 2. 3. 7. 12. 18. 25. 32. 39. 47. 54.
      60. 62. 62. 61. 59. 58. 58. 58. 58. 59. 61. 64. 68. 72. 76. 81.
      85. 87. 85. 77. 65. 51. 37. 25. 15. 8. 4. 3. 0. 1. 1. 3. 6. 9. 14.
      20. 27. 36. 47. 56. 61. 63. 63. 63. 62. 62. 62. 62. 63. 64. 66.
      69. 72. 76. 82. 87. 89. 86. 77. 62. 46. 30. 18. 10. 5. 2. 1. 0. 0.
      1. 2. 3. 6. 10. 15. 22. 32. 43. 53. 60. 62. 63. 63. 62. 62. 62.
      62. 63. 64. 65. 68. 71. 76. 82. 88. 90. 87. 77. 61. 44. 28. 16. 8.
      4. 2. 1.</_>
    <_>
      0. 0. 0. 0. 0. 1. 2. 3. 4. 7. 10. 15. 20. 25. 29. 32. 33. 34. 34.
      33. 32. 29. 26. 21. 16. 12. 9. 6. 4. 2. 1. 1. 0. 0. 0. 0. 0. 0. 0.
      0. 0. 0. 0. 1. 2. 3. 5. 7. 10. 14. 19. 24. 29. 33. 36. 37. 38. 38.
      37. 36. 34. 30. 25. 21. 16. 12. 9. 6. 4. 2. 1. 0. 0. 0. 0. 0. 0.
      0. 0. 0. 0. 1. 2. 4. 7. 11. 15. 20. 24. 29. 35. 39. 43. 45. 46.
      47. 47. 46. 45. 43. 40. 37. 32. 27. 23. 18. 13. 9. 6. 3. 2. 1. 0.
      0. 0. 0. 0. 0. 0. 1. 2. 5. 9. 16. 23. 29. 34. 38. 42. 45. 48. 50.
      51. 52. 52. 52. 52. 51. 50. 49. 47. 44. 41. 37. 32. 26. 19. 13. 8.
      4. 2. 1. 0. 0. 0. 0. 0. 1. 2. 4. 10. 18. 28. 38. 45. 49. 50. 49.
      48. 47. 46. 46. 45. 45. 45. 45. 46. 46. 47. 49. 50. 51. 50. 47.
      42. 35. 26. 17. 10. 5. 2. 1. 0. 0. 0. 1. 1. 4. 8. 17. 30. 43. 54.
      59. 59. 54. 48. 42. 38. 35. 33. 32. 31. 31. 32. 32. 34. 37. 41.
      46. 52. 56. 59. 57. 51. 42. 30. 18. 10. 4. 2. 1. 0. 0. 2. 3. 7.
      15. 27. 43. 57. 65. 65. 59. 48. 39. 31. 25. 21. 19. 18. 17. 17.
      18. 19. 21. 24. 28. 35. 43. 53. 61. 65. 64. 57. 44. 30. 17. 8. 3.
      1. 0. 0. 4. 6. 12. 24. 39. 55. 66. 69. 62. 50. 37. 26. 18. 13. 10.
      8. 7. 7. 7. 7. 8. 10. 12. 16. 22. 30. 41. 53. 63. 69. 67. 58. 43.
      27. 15. 7. 3. 1. 1. 9. 11. 21. 35. 51. 64. 70. 65. 52. 37. 24. 15.
      9. 6. 4. 3. 2. 2. 2. 2. 3. 3. 5. 7. 11. 18. 27. 39. 52. 64. 70.
      66. 55. 38. 23. 12. 5. 2. 2. 15. 19. 30. 46. 61. 69. 67. 55. 40.
      25. 14. 7. 4. 2. 1. 1. 1. 1. 1. 1. 1. 1. 2. 3. 5. 9. 15. 25. 38.
      53. 65. 70. 64. 50. 33. 19. 10. 5. 4. 22. 27. 40. 56. 66. 68. 59.
      44. 28. 15. 7. 3. 2. 1. 0. 0. 0. 0. 0. 0. 0. 0. 1. 1. 2. 4. 7. 14.
      25. 40. 56. 67. 69. 59. 44. 28. 17. 11. 9. 30. 35. 48. 61. 65. 60.
      47. 31. 18. 9. 4. 1. 1. 0. 0. 0. 0. 0. 0. 0. 0. 0. 0. 0. 1. 1. 3.
      8. 15. 28. 45. 60. 68. 66. 54. 38. 26. 20. 17. 38. 42. 52. 60. 59.
      49. 34. 20. 10. 5. 2. 1. 0. 0. 1. 1. 1. 1. 1. 0. 0. 0. 0. 0. 0. 1.
      1. 4. 9. 19. 33. 50. 63. 67. 61. 49. 37. 31. 29. 45. 48. 54. 56.
      50. 37. 23. 12. 6. 2. 1. 1. 1. 1. 2. 2. 2. 2. 2. 1. 1. 0. 0. 0. 0.
      0. 1. 2. 5. 12. 24. 39. 55. 65. 64. 57. 48. 44. 42. 51. 53. 55.
      52. 42. 28. 15. 7. 3. 1. 1. 1. 3. 4. 5. 6. 6. 6. 5. 4. 2. 1. 1. 0.
      0. 0. 0. 1. 3. 7. 16. 30. 46. 59. 64. 62. 57. 55. 54. 57. 58. 56.
      49. 36. 22. 11. 4. 2. 1. 2. 4. 7. 10. 14. 16. 16. 16. 13. 10. 6.
      3. 2. 1. 0. 0. 0. 0. 2. 4. 10. 22. 37. 52. 61. 64. 64. 63. 63. 62.
      62. 58. 47. 33. 18. 8. 3. 2. 2. 4. 9. 15. 22. 28. 31. 32. 31. 27.
      21. 14. 8. 3. 1. 0. 0. 0. 0. 1. 3. 7. 16. 30. 45. 58. 66. 68. 69.
      70. 67. 66. 59. 45. 30. 16. 6. 2. 2. 4. 9. 17. 28. 38. 46. 50. 51.
      49. 44. 35. 24. 14. 6. 2. 1. 0. 0. 0. 0. 2. 5. 12. 25. 40. 55. 66.
      71. 73. 74. 73. 70. 59. 43. 27. 14. 5. 2. 3. 7. 15. 28. 42. 54.
      61. 64. 65. 63. 59. 49. 35. 21. 10. 4. 1. 0. 0. 0. 0. 1. 3. 10.
      21. 36. 53. 66. 71. 74. 75. 79. 74. 60. 42. 24. 12. 4. 3. 4. 10.
      22. 38. 54. 65. 69. 68. 67. 67. 66. 58. 43. 27. 13. 5. 2. 1. 0. 0.
      0. 1. 3. 8. 19. 34. 51. 65. 69. 71. 71. 84. 77. 61. 40. 22. 10. 4.
      3. 5. 14. 27. 45. 60. 68. 66. 61. 60. 62. 65. 61. 48. 30. 16. 6.
      2. 1. 0. 0. 0. 1. 2. 7. 18. 33. 49. 62. 65. 64. 64. 87. 80. 62.
      39. 20. 9. 3. 3. 6. 16. 31. 49. 62. 65. 58. 51. 48. 53. 60. 59.
      48. 32. 17. 7. 2. 1. 0. 0. 0. 1. 2. 7. 18. 32. 48. 59. 59. 56. 54.
      89. 81. 62. 38. 20. 8. 3. 3. 7. 17. 32. 50. 61. 62. 52. 43. 40.
      46. 55. 57. 48. 32. 17. 7. 2. 1. 0. 0. 0. 1. 2. 7. 17. 32. 47. 56.
      54. 48. 45. 90. 82. 62. 38. 19. 8. 3. 3. 7. 17. 32. 50. 61. 62.
      52. 43. 41. 46. 55. 57. 48. 32. 17. 7. 2. 1. 0. 0. 0. 1. 2. 7. 17.
      31. 46. 54. 50. 43. 39. 90. 82. 62. 38. 19. 8. 3. 3. 6. 16. 31.
      49. 62. 66. 59. 51. 49. 52. 59. 58. 47. 31. 16. 7. 2. 1. 0. 0. 0.
      1. 2. 7. 17. 31. 45. 53. 48. 40. 36. 90. 82. 62. 38. 19. 8. 3. 3.
      5. 14. 27. 45. 60. 68. 66. 61. 58. 59. 61. 57. 45. 29. 15. 6. 2.
      1. 0. 0. 0. 1. 2. 7. 17. 31. 45. 52. 47. 39. 35. 90. 82. 62. 38.
      19. 8. 2. 2. 4. 10. 22. 38. 54. 65. 68. 66. 63. 61. 58. 51. 38.
      24. 12. 5. 1. 1. 0. 0. 0. 1. 2. 7. 17. 31. 45. 52. 47. 38. 34. 90.
      82. 62. 38. 19. 8. 2. 2. 3. 7. 15. 28. 42. 54. 59. 60. 57. 53. 48.
      40. 29. 17. 9. 3. 1. 0. 0. 0. 0. 1. 2. 8. 18. 32. 46. 53. 48. 38.
      34. 89. 81. 62. 38. 20. 8. 2. 1. 1. 4. 9. 17. 27. 37. 43. 45. 43.
      38. 33. 26. 18. 10. 5. 2. 1. 0. 0. 0. 0. 1. 3. 9. 20. 35. 49. 55.
      49. 39. 34. 87. 80. 62. 39. 20. 9. 3. 1. 1. 2. 4. 9. 15. 21. 26.
      27. 26. 23. 18. 14. 9. 5. 3. 1. 0. 0. 0. 0. 0. 1. 3. 10. 22. 38.
      52. 57. 49. 38. 34. 83. 77. 61. 40. 22. 10. 3. 1. 0. 1. 2. 4. 7.
      10. 12. 13. 13. 11. 8. 6. 4. 2. 1. 0. 0. 0. 0. 0. 0. 2. 5. 13. 26.
      42. 55. 58. 49. 37. 32. 78. 73. 60. 42. 25. 12. 5. 2. 1. 0. 1. 1.
      2. 4. 5. 5. 5. 4. 3. 2. 1. 1. 0. 0. 0. 0. 0. 0. 1. 2. 6. 15. 30.
      46. 57. 58. 47. 34. 28. 70. 68. 59. 44. 29. 15. 6. 2. 1. 0. 0. 0.
      1. 1. 1. 2. 2. 1. 1. 1. 0. 0. 0. 0. 0. 0. 0. 0. 1. 3. 8. 19. 34.
      49. 58. 55. 42. 29. 23. 62. 61. 57. 47. 34. 20. 9. 4. 1. 0. 0. 0.
      0. 0. 0. 1. 0. 0. 0. 0. 0. 0. 0. 0. 0. 0. 0. 1. 2. 5. 12. 24. 39.
      52. 56. 49. 36. 23. 18. 54. 55. 56. 51. 40. 26. 14. 6. 2. 1. 0. 0.
      0. 0. 0. 0. 0. 0. 0. 0. 0. 0. 0. 0. 0. 0. 0. 1. 4. 9. 18. 31. 45.
      54. 54. 44. 29. 17. 13. 46. 49. 54. 55. 48. 34. 20. 10. 4. 2. 1.
      0. 0. 0. 0. 0. 0. 0. 0. 0. 0. 0. 0. 0. 0. 0. 1. 3. 7. 15. 27. 42.
      54. 58. 51. 38. 23. 13. 9. 38. 43. 52. 59. 56. 44. 29. 16. 8. 4.
      2. 1. 0. 0. 0. 0. 0. 0. 0. 0. 0. 0. 0. 0. 1. 1. 3. 6. 13. 24. 38.
      53. 61. 59. 48. 32. 18. 9. 6. 31. 36. 49. 60. 63. 55. 40. 26. 14.
      8. 4. 3. 2. 1. 1. 1. 1. 1. 1. 0. 1. 1. 1. 1. 2. 3. 7. 12. 22. 36.
      51. 63. 66. 58. 42. 26. 13. 6. 4. 24. 29. 43. 58. 66. 64. 53. 39.
      26. 16. 10. 6. 4. 3. 2. 2. 2. 2. 2. 1. 2. 2. 3. 4. 5. 9. 14. 23.
      35. 50. 63. 69. 65. 52. 35. 19. 9. 4. 2. 17. 22. 35. 52. 65. 69.
      64. 53. 41. 30. 22. 15. 11. 9. 8. 7. 6. 5. 5. 4. 5. 6. 8. 10. 14.
      19. 27. 37. 50. 63. 70. 68. 58. 42. 26. 13. 6. 2. 1. 11. 15. 26.
      42. 57. 67. 69. 65. 57. 47. 38. 30. 24. 20. 18. 16. 15. 14. 13.
      12. 13. 15. 18. 22. 27. 34. 43. 53. 63. 70. 69. 61. 46. 30. 17. 8.
      3. 1. 1. 6. 9. 17. 29. 44. 57. 66. 69. 67. 61. 54. 47. 40. 36. 33.
      31. 29. 27. 26. 25. 26. 29. 33. 38. 44. 51. 58. 64. 69. 68. 60.
      48. 33. 20. 10. 4. 2. 0. 0. 3. 5. 10. 18. 30. 42. 53. 61. 66. 67.
      65. 60. 55. 51. 48. 47. 45. 44. 43. 42. 43. 45. 49. 53. 58. 63.
      66. 66. 64. 57. 46. 33. 20. 11. 5. 2. 1. 0. 0. 1. 2. 5. 10. 17.
      27. 37. 47. 56. 62. 66. 65. 63. 61. 59. 59. 59. 59. 60. 60. 60.
      61. 62. 63. 65. 65. 63. 58. 51. 41. 30. 20. 11. 5. 2. 1. 0. 0. 0.
      1. 1. 2. 5. 9. 15. 24. 33. 44. 53. 60. 64. 64. 64. 64. 64. 66. 69.
      72. 73. 72. 70. 68. 66. 64. 61. 55. 47. 38. 28. 19. 11. 6. 3. 1.
      0. 0. 0. 0. 0. 1. 1. 3. 6. 11. 19. 28. 39. 49. 57. 62. 63. 64. 64.
      65. 68. 72. 76. 77. 76. 73. 69. 66. 63. 58. 51. 42. 32. 23. 15. 8.
      4. 2. 1. 0. 0. 0. 0.</_>
    <_>
      0. 0. 0. 1. 2. 4. 7. 11. 17. 23. 28. 32. 34. 34. 34. 34. 34. 34.
      34. 34. 34. 34. 32. 28. 23. 17. 11. 7. 4. 2. 1. 0. 0. 0. 0. 0. 0.
      0. 0. 0. 0. 0. 1. 3. 5. 9. 15. 22. 28. 34. 37. 38. 39. 38. 38. 38.
      38. 38. 38. 39. 38. 37. 34. 29. 22. 16. 11. 6. 4. 2. 1. 0. 0. 0.
      0. 0. 0. 0. 0. 1. 1. 3. 6. 11. 18. 27. 36. 43. 48. 50. 50. 49. 48.
      47. 47. 47. 47. 48. 49. 50. 50. 48. 43. 36. 28. 20. 14. 8. 4. 2.
      1. 0. 0. 0. 0. 0. 0. 1. 1. 3. 7. 13. 22. 32. 43. 52. 59. 61. 60.
      57. 55. 53. 52. 52. 52. 52. 53. 55. 57. 60. 61. 59. 53. 45. 36.
      26. 17. 10. 5. 2. 1. 0. 0. 0. 0. 0. 2. 3. 7. 14. 24. 36. 48. 59.
      65. 67. 64. 59. 53. 49. 47. 45. 45. 45. 45. 47. 49. 53. 58. 63.
      66. 65. 61. 53. 42. 31. 20. 11. 5. 2. 1. 0. 0. 0. 0. 5. 7. 14. 24.
      38. 52. 63. 68. 68. 63. 55. 47. 40. 35. 33. 31. 31. 31. 31. 33.
      35. 40. 46. 54. 61. 66. 68. 66. 58. 47. 33. 21. 11. 5. 2. 1. 0. 0.
      0. 9. 13. 22. 36. 52. 64. 69. 68. 61. 51. 40. 31. 24. 20. 18. 17.
      17. 17. 17. 18. 20. 24. 30. 38. 47. 56. 65. 70. 68. 61. 48. 33.
      20. 10. 4. 2. 0. 0. 0. 16. 21. 33. 49. 63. 69. 68. 59. 47. 34. 24.
      17. 12. 9. 8. 7. 7. 7. 7. 8. 9. 11. 15. 22. 30. 40. 52. 63. 70.
      69. 61. 46. 30. 17. 8. 3. 1. 0. 0. 26. 32. 45. 59. 69. 68. 59. 45.
      31. 20. 12. 7. 4. 3. 2. 2. 2. 2. 2. 2. 3. 4. 6. 10. 16. 25. 36.
      50. 63. 70. 68. 58. 42. 26. 13. 5. 2. 1. 0. 38. 43. 55. 66. 69.
      61. 47. 31. 19. 11. 6. 3. 2. 1. 1. 1. 1. 1. 1. 1. 1. 2. 3. 4. 7.
      13. 22. 35. 50. 63. 69. 65. 52. 34. 19. 9. 3. 1. 0. 50. 54. 63.
      68. 63. 50. 34. 20. 10. 5. 2. 1. 0. 0. 0. 0. 0. 0. 0. 0. 0. 0. 1.
      1. 3. 6. 12. 22. 36. 52. 64. 66. 58. 42. 25. 12. 5. 2. 1. 60. 62.
      66. 65. 55. 39. 23. 12. 5. 2. 1. 0. 0. 1. 1. 1. 1. 0. 0. 0. 0. 0.
      0. 0. 1. 3. 6. 13. 25. 40. 54. 63. 60. 47. 30. 16. 6. 2. 1. 68.
      68. 67. 59. 45. 29. 15. 7. 3. 1. 1. 1. 1. 2. 2. 2. 2. 1. 1. 0. 0.
      0. 0. 0. 0. 1. 3. 7. 16. 29. 44. 55. 58. 49. 34. 19. 9. 3. 2. 75.
      73. 65. 52. 35. 20. 10. 4. 2. 1. 1. 3. 4. 5. 6. 6. 5. 4. 3. 1. 1.
      0. 0. 0. 0. 0. 1. 4. 10. 20. 34. 47. 54. 50. 37. 23. 11. 5. 3. 80.
      76. 63. 46. 28. 15. 6. 3. 1. 2. 4. 7. 10. 14. 15. 15. 14. 10. 7.
      4. 2. 1. 0. 0. 0. 0. 1. 2. 6. 14. 26. 39. 49. 50. 41. 27. 15. 7.
      4. 85. 79. 63. 42. 24. 11. 4. 2. 2. 5. 9. 15. 22. 28. 31. 31. 28.
      22. 15. 9. 4. 2. 1. 0. 0. 0. 0. 1. 4. 9. 19. 33. 44. 49. 44. 31.
      18. 9. 6. 89. 82. 63. 40. 21. 9. 3. 3. 4. 9. 17. 28. 39. 47. 51.
      51. 47. 39. 28. 17. 9. 4. 1. 0. 0. 0. 0. 1. 2. 6. 15. 27. 40. 48.
      46. 35. 22. 12. 8. 91. 83. 63. 38. 19. 8. 3. 4. 7. 15. 28. 42. 55.
      63. 67. 67. 63. 55. 42. 28. 15. 7. 3. 1. 0. 0. 0. 0. 2. 5. 12. 23.
      37. 47. 48. 39. 26. 14. 10. 90. 81. 60. 36. 18. 8. 3. 5. 10. 22.
      38. 54. 66. 71. 73. 73. 71. 66. 54. 38. 22. 10. 4. 1. 0. 0. 0. 0.
      1. 3. 9. 20. 34. 46. 49. 42. 28. 16. 12. 84. 76. 56. 33. 16. 7. 3.
      6. 14. 27. 45. 61. 69. 69. 67. 66. 69. 69. 60. 45. 27. 13. 5. 2.
      1. 0. 0. 0. 1. 3. 8. 19. 32. 46. 50. 43. 30. 18. 13. 76. 68. 49.
      28. 13. 6. 3. 7. 16. 31. 48. 61. 65. 60. 54. 54. 59. 65. 61. 48.
      30. 16. 6. 2. 1. 0. 0. 0. 1. 2. 7. 18. 32. 45. 51. 44. 31. 19. 14.
      66. 59. 42. 24. 11. 4. 3. 7. 17. 32. 49. 59. 59. 50. 43. 42. 49.
      58. 58. 48. 31. 16. 7. 2. 1. 0. 0. 0. 1. 2. 7. 17. 31. 45. 51. 45.
      32. 19. 14. 58. 52. 36. 20. 9. 4. 3. 7. 17. 32. 49. 59. 57. 47.
      39. 38. 45. 54. 55. 46. 30. 16. 6. 2. 1. 0. 0. 0. 1. 2. 7. 17. 31.
      45. 51. 45. 32. 19. 14. 54. 48. 33. 18. 8. 3. 3. 7. 17. 32. 49.
      59. 60. 51. 44. 42. 48. 54. 53. 43. 28. 15. 6. 2. 1. 0. 0. 0. 1.
      2. 7. 17. 31. 45. 51. 45. 32. 19. 14. 52. 46. 32. 17. 7. 3. 3. 6.
      16. 30. 48. 60. 64. 59. 53. 51. 54. 56. 52. 40. 25. 13. 5. 1. 1.
      0. 0. 0. 1. 2. 7. 17. 31. 45. 51. 45. 32. 19. 14. 52. 46. 31. 17.
      7. 3. 3. 5. 13. 27. 43. 58. 65. 64. 61. 59. 58. 56. 48. 34. 21.
      10. 4. 1. 0. 0. 0. 0. 1. 2. 7. 17. 31. 45. 51. 45. 32. 19. 14. 52.
      46. 32. 17. 7. 2. 2. 4. 10. 21. 35. 49. 58. 61. 60. 59. 56. 50.
      40. 27. 15. 7. 3. 1. 0. 0. 0. 0. 1. 2. 7. 17. 31. 45. 51. 45. 32.
      19. 14. 54. 48. 33. 18. 8. 3. 2. 2. 6. 14. 24. 35. 43. 48. 49. 48.
      44. 38. 29. 19. 10. 4. 2. 1. 0. 0. 0. 0. 1. 2. 7. 18. 32. 45. 51.
      44. 31. 19. 14. 58. 52. 36. 20. 9. 3. 2. 1. 3. 8. 14. 21. 27. 30.
      32. 31. 28. 24. 17. 11. 6. 2. 1. 0. 0. 0. 0. 0. 1. 3. 8. 19. 32.
      46. 50. 43. 30. 18. 13. 66. 59. 42. 24. 11. 4. 2. 1. 2. 3. 6. 10.
      13. 16. 17. 16. 15. 12. 9. 5. 3. 1. 0. 0. 0. 0. 0. 0. 1. 3. 10.
      21. 34. 46. 50. 42. 29. 16. 12. 75. 67. 49. 28. 13. 5. 2. 1. 1. 1.
      2. 4. 5. 6. 7. 7. 6. 5. 3. 2. 1. 0. 0. 0. 0. 0. 0. 1. 2. 5. 12.
      24. 37. 47. 48. 39. 26. 14. 10. 84. 75. 56. 34. 16. 6. 2. 1. 0. 0.
      1. 1. 2. 2. 2. 2. 2. 1. 1. 1. 0. 0. 0. 0. 0. 0. 0. 1. 3. 7. 16.
      28. 41. 49. 46. 35. 22. 12. 8. 87. 80. 60. 38. 19. 8. 3. 1. 0. 0.
      0. 0. 1. 1. 1. 1. 1. 1. 0. 0. 0. 0. 0. 0. 0. 0. 0. 2. 5. 11. 22.
      35. 46. 50. 44. 31. 18. 9. 6. 86. 80. 63. 42. 23. 11. 4. 2. 0. 0.
      0. 0. 0. 0. 0. 0. 0. 0. 0. 0. 0. 0. 0. 0. 0. 0. 1. 3. 8. 17. 30.
      43. 51. 51. 41. 27. 14. 7. 4. 82. 77. 65. 47. 30. 16. 7. 3. 1. 0.
      0. 0. 0. 0. 0. 0. 0. 0. 0. 0. 0. 0. 0. 0. 0. 1. 2. 6. 13. 26. 40.
      52. 56. 50. 37. 22. 11. 5. 3. 75. 73. 66. 54. 39. 24. 13. 6. 3. 1.
      0. 0. 0. 0. 0. 0. 0. 0. 0. 0. 0. 0. 0. 0. 1. 2. 4. 10. 21. 35. 50.
      60. 59. 47. 32. 17. 8. 3. 2. 68. 68. 68. 62. 50. 35. 22. 12. 6. 3.
      1. 1. 0. 0. 0. 0. 0. 0. 0. 0. 0. 0. 1. 1. 2. 4. 8. 16. 30. 46. 60.
      64. 58. 43. 26. 13. 5. 2. 1. 58. 61. 66. 68. 62. 49. 35. 22. 13.
      7. 4. 2. 1. 1. 1. 1. 1. 1. 1. 1. 1. 2. 2. 3. 5. 9. 15. 26. 41. 56.
      66. 65. 53. 36. 20. 9. 3. 1. 1. 45. 50. 59. 68. 69. 62. 49. 35.
      23. 14. 9. 6. 4. 3. 2. 2. 2. 2. 2. 2. 3. 4. 6. 8. 12. 18. 26. 39.
      53. 65. 68. 61. 45. 28. 14. 6. 2. 1. 0. 32. 36. 48. 60. 68. 68.
      61. 49. 36. 26. 18. 13. 10. 8. 7. 7. 7. 7. 7. 8. 9. 11. 14. 18.
      24. 31. 40. 52. 63. 69. 65. 53. 36. 20. 9. 4. 1. 0. 0. 19. 23. 34.
      48. 60. 66. 65. 58. 48. 38. 30. 25. 21. 19. 18. 17. 17. 17. 17.
      18. 20. 23. 27. 33. 38. 45. 53. 61. 66. 66. 56. 42. 26. 13. 6. 2.
      1. 0. 0. 10. 13. 21. 33. 45. 55. 60. 59. 54. 48. 43. 38. 35. 33.
      33. 32. 32. 32. 32. 33. 36. 39. 44. 48. 52. 55. 58. 61. 60. 54.
      43. 29. 17. 8. 3. 1. 0. 0. 0. 5. 6. 11. 19. 29. 39. 46. 49. 50.
      50. 49. 49. 48. 47. 47. 47. 47. 47. 47. 48. 51. 54. 57. 58. 57.
      55. 52. 50. 45. 38. 28. 18. 9. 4. 2. 0. 0. 0. 0. 2. 3. 5. 10. 16.
      23. 30. 35. 40. 44. 48. 52. 55. 57. 58. 58. 58. 58. 58. 59. 61.
      62. 62. 60. 54. 47. 40. 35. 29. 23. 16. 9. 5. 2. 1. 0. 0. 0. 0. 1.
      1. 2. 5. 8. 12. 17. 23. 29. 36. 43. 50. 56. 59. 61. 62. 62. 62.
      62. 63. 63. 63. 61. 56. 47. 37. 28. 21. 16. 12. 8. 4. 2. 1. 0. 0.
      0. 0. 0. 0. 1. 1. 3. 5. 9. 13. 18. 24. 32. 41. 49. 55. 59. 61. 62.
      62. 62. 62. 63. 63. 62. 60. 53. 43. 32. 23. 17. 12. 8. 5. 3. 1. 0.
      0. 0. 0. 0. 0.</_>
    <_>
      0. 0. 0. 1. 2. 4. 7. 11. 17. 23. 28. 32. 34. 34. 34. 34. 34. 34.
      34. 34. 34. 34. 32. 28. 23. 17. 11. 7. 4. 2. 1. 0. 0. 0. 0. 0. 0.
      0. 0. 0. 0. 0. 1. 3. 5. 9. 15. 22. 28. 34. 37. 38. 39. 38. 38. 38.
      38. 38. 38. 39. 38. 37. 34. 29. 22. 16. 11. 6. 4. 2. 1. 0. 0. 0.
      0. 0. 0. 0. 0. 1. 1. 3. 6. 11. 18. 27. 36. 43. 48. 50. 50. 49. 48.
      47. 47. 47. 47. 48. 49. 50. 50. 48. 43. 36. 28. 20. 14. 8. 4. 2.
      1. 0. 0. 0. 0. 0. 0. 1. 1. 3. 7. 13. 22. 32. 43. 52. 59. 61. 60.
      57. 55. 53. 52. 52. 52. 52. 53. 55. 57. 60. 61. 59. 53. 45. 36.
      26. 17. 10. 5. 2. 1. 0. 0. 0. 0. 0. 2. 3. 7. 14. 24. 36. 48. 59.
      65. 67. 64. 59. 53. 49. 47. 45. 45. 45. 45. 47. 49. 53. 58. 63.
      66. 65. 61. 53. 42. 31. 20. 11. 5. 2. 1. 0. 0. 0. 0. 5. 7. 14. 24.
      38. 52. 63. 68. 68. 63. 55. 47. 40. 35. 33. 31. 31. 31. 31. 33.
      35. 40. 46. 54. 61. 66. 68. 66. 58. 47. 33. 21. 11. 5. 2. 1. 0. 0.
      0. 9. 13. 22. 36. 52. 64. 69. 68. 61. 51. 40. 31. 24. 20. 18. 17.
      17. 17. 17. 18. 20. 24. 30. 38. 47. 56. 65. 70. 68. 61. 48. 33.
      20. 10. 4. 2. 1. 1. 1. 16. 21. 33. 49. 63. 69. 68. 59. 47. 34. 24.
      17. 12. 9. 8. 7. 7. 7. 7. 8. 9. 11. 15. 22. 30. 40. 52. 63. 70.
      69. 61. 46. 30. 17. 8. 4. 2. 2. 2. 26. 32. 45. 59. 69. 68. 59. 45.
      31. 20. 12. 7. 4. 3. 2. 2. 2. 2. 2. 2. 3. 4. 6. 10. 16. 25. 36.
      50. 63. 70. 68. 58. 42. 26. 14. 7. 5. 5. 6. 38. 43. 55. 66. 69.
      61. 47. 31. 19. 11. 6. 3. 2. 1. 1. 1. 1. 1. 1. 1. 1. 2. 3. 4. 7.
      13. 22. 35. 50. 63. 69. 65. 52. 35. 21. 12. 10. 11. 12. 50. 54.
      63. 68. 63. 50. 34. 20. 10. 5. 2. 1. 0. 0. 0. 0. 0. 0. 0. 0. 0. 0.
      1. 1. 3. 6. 12. 22. 36. 52. 64. 66. 58. 43. 28. 19. 17. 20. 21.
      60. 62. 66. 65. 55. 39. 23. 12. 5. 2. 1. 0. 0. 1. 1. 1. 1. 0. 0.
      0. 0. 0. 0. 0. 1. 3. 6. 13. 25. 40. 54. 63. 60. 48. 34. 26. 25.
      29. 32. 68. 68. 67. 59. 45. 29. 15. 7. 3. 1. 1. 1. 1. 2. 2. 2. 2.
      1. 1. 0. 0. 0. 0. 0. 0. 1. 3. 7. 16. 29. 44. 55. 59. 51. 40. 32.
      33. 38. 42. 75. 73. 65. 52. 35. 20. 10. 4. 2. 1. 1. 3. 4. 5. 6. 6.
      5. 4. 3. 1. 1. 0. 0. 0. 0. 0. 1. 4. 10. 20. 34. 47. 55. 52. 44.
      38. 39. 45. 49. 80. 76. 63. 46. 28. 15. 6. 3. 1. 2. 4. 7. 10. 14.
      15. 15. 14. 10. 7. 4. 2. 1. 0. 0. 0. 0. 1. 2. 6. 14. 26. 39. 50.
      51. 47. 43. 44. 50. 53. 85. 79. 63. 42. 24. 11. 4. 2. 2. 5. 9. 15.
      22. 28. 31. 31. 28. 22. 15. 9. 4. 2. 1. 0. 0. 0. 0. 1. 4. 9. 19.
      33. 45. 51. 50. 48. 49. 54. 56. 89. 82. 63. 40. 21. 9. 3. 3. 4. 9.
      17. 28. 39. 47. 51. 51. 47. 39. 28. 17. 9. 4. 1. 0. 0. 0. 0. 1. 2.
      6. 15. 27. 41. 50. 53. 52. 53. 57. 59. 91. 83. 63. 38. 19. 8. 3.
      4. 7. 15. 28. 42. 55. 63. 67. 67. 63. 55. 42. 28. 15. 7. 3. 1. 0.
      0. 0. 0. 2. 5. 12. 23. 38. 49. 55. 56. 57. 59. 61. 90. 81. 60. 36.
      18. 8. 3. 5. 10. 22. 38. 54. 66. 71. 73. 73. 71. 66. 54. 38. 22.
      10. 4. 1. 0. 0. 0. 0. 1. 3. 9. 20. 35. 48. 56. 59. 59. 61. 63. 84.
      76. 56. 33. 16. 7. 3. 6. 14. 27. 45. 61. 69. 69. 67. 66. 69. 69.
      60. 45. 27. 13. 5. 2. 1. 0. 0. 0. 1. 3. 8. 19. 33. 48. 57. 60. 61.
      62. 63. 76. 68. 49. 28. 13. 6. 3. 7. 16. 31. 48. 61. 65. 60. 54.
      54. 59. 65. 61. 48. 30. 16. 6. 2. 1. 0. 0. 0. 1. 2. 7. 18. 33. 47.
      57. 61. 61. 62. 63. 66. 59. 42. 24. 11. 4. 3. 7. 17. 32. 49. 59.
      59. 50. 43. 42. 49. 58. 58. 48. 31. 16. 7. 2. 1. 0. 0. 0. 1. 2. 7.
      17. 32. 47. 57. 60. 60. 59. 60. 58. 52. 36. 20. 9. 4. 3. 7. 17.
      32. 49. 59. 57. 47. 39. 38. 45. 54. 55. 46. 30. 16. 6. 2. 1. 0. 0.
      0. 1. 2. 7. 17. 32. 47. 56. 58. 56. 54. 53. 54. 48. 33. 18. 8. 3.
      3. 7. 17. 32. 49. 59. 60. 51. 44. 42. 48. 54. 53. 43. 28. 15. 6.
      2. 1. 0. 0. 0. 1. 2. 7. 17. 32. 46. 55. 55. 51. 46. 45. 52. 46.
      32. 17. 7. 3. 3. 6. 16. 30. 48. 60. 64. 59. 53. 51. 54. 56. 52.
      40. 25. 13. 5. 1. 1. 0. 0. 0. 1. 2. 7. 17. 31. 46. 54. 52. 44. 37.
      34. 52. 46. 31. 17. 7. 3. 3. 5. 13. 27. 43. 58. 65. 64. 61. 59.
      58. 56. 48. 34. 21. 10. 4. 1. 0. 0. 0. 0. 1. 2. 7. 17. 31. 45. 53.
      49. 39. 29. 25. 52. 46. 32. 17. 7. 2. 2. 4. 10. 21. 35. 49. 58.
      61. 60. 59. 56. 50. 40. 27. 15. 7. 3. 1. 0. 0. 0. 0. 1. 2. 7. 17.
      31. 45. 52. 47. 35. 24. 19. 54. 48. 33. 18. 8. 3. 2. 2. 6. 14. 24.
      35. 43. 48. 49. 48. 44. 38. 29. 19. 10. 4. 2. 1. 0. 0. 0. 0. 1. 2.
      7. 18. 32. 45. 51. 45. 33. 20. 16. 58. 52. 36. 20. 9. 3. 2. 1. 3.
      8. 14. 21. 27. 30. 32. 31. 28. 24. 17. 11. 6. 2. 1. 0. 0. 0. 0. 0.
      1. 3. 8. 19. 33. 46. 50. 44. 31. 18. 14. 66. 59. 42. 24. 11. 4. 2.
      1. 2. 3. 6. 10. 13. 16. 17. 16. 15. 12. 9. 5. 3. 1. 0. 0. 0. 0. 0.
      0. 1. 3. 9. 20. 34. 46. 50. 42. 29. 17. 12. 75. 67. 49. 28. 13. 5.
      2. 1. 1. 1. 2. 4. 5. 6. 7. 7. 6. 5. 3. 2. 1. 0. 0. 0. 0. 0. 0. 0.
      2. 4. 12. 23. 37. 47. 48. 39. 26. 14. 10. 84. 75. 56. 34. 16. 6.
      2. 1. 0. 0. 1. 1. 2. 2. 2. 2. 2. 1. 1. 1. 0. 0. 0. 0. 0. 0. 0. 1.
      2. 6. 15. 27. 40. 48. 46. 35. 22. 12. 8. 87. 80. 60. 38. 19. 8. 3.
      1. 0. 0. 0. 0. 1. 1. 1. 1. 1. 1. 0. 0. 0. 0. 0. 0. 0. 0. 0. 1. 4.
      9. 19. 32. 43. 48. 43. 31. 18. 9. 6. 86. 80. 63. 42. 23. 11. 4. 2.
      0. 0. 0. 0. 0. 0. 0. 0. 0. 0. 0. 0. 0. 0. 0. 0. 0. 0. 1. 3. 6. 14.
      25. 37. 46. 47. 39. 26. 14. 7. 4. 82. 77. 65. 47. 30. 16. 7. 3. 1.
      0. 0. 0. 0. 0. 0. 0. 0. 0. 0. 0. 0. 0. 0. 0. 0. 1. 2. 5. 10. 20.
      32. 43. 48. 45. 34. 21. 10. 5. 3. 75. 73. 66. 54. 39. 24. 13. 6.
      3. 1. 0. 0. 0. 0. 0. 0. 0. 0. 0. 0. 0. 0. 0. 0. 1. 2. 4. 9. 17.
      29. 42. 50. 50. 41. 28. 16. 7. 3. 2. 68. 68. 68. 62. 50. 35. 22.
      12. 6. 3. 1. 1. 0. 0. 0. 0. 0. 0. 0. 0. 0. 0. 1. 1. 2. 4. 8. 15.
      27. 40. 52. 55. 50. 37. 23. 12. 5. 2. 1. 58. 61. 66. 68. 62. 49.
      34. 21. 12. 6. 3. 2. 1. 1. 1. 1. 1. 1. 1. 1. 1. 2. 2. 3. 5. 9. 15.
      25. 39. 53. 60. 59. 47. 32. 18. 8. 3. 1. 1. 45. 50. 59. 68. 69.
      61. 48. 33. 21. 13. 8. 5. 3. 3. 2. 2. 2. 2. 2. 2. 3. 4. 6. 8. 12.
      18. 26. 38. 52. 63. 65. 57. 42. 26. 13. 5. 2. 1. 0. 32. 36. 48.
      60. 68. 68. 59. 46. 34. 23. 16. 12. 10. 8. 7. 7. 7. 7. 7. 8. 9.
      11. 14. 18. 24. 31. 40. 52. 63. 68. 64. 51. 34. 19. 9. 3. 1. 0. 0.
      19. 23. 34. 47. 59. 65. 64. 56. 45. 36. 29. 24. 21. 19. 18. 17.
      17. 17. 17. 18. 20. 23. 27. 33. 38. 45. 53. 61. 66. 65. 56. 41.
      26. 13. 6. 2. 1. 0. 0. 10. 13. 21. 33. 45. 55. 59. 58. 53. 47. 42.
      38. 35. 33. 33. 32. 32. 32. 32. 33. 36. 39. 44. 48. 52. 55. 58.
      61. 60. 54. 43. 29. 17. 8. 3. 1. 0. 0. 0. 5. 6. 11. 19. 29. 39.
      47. 51. 52. 51. 50. 49. 48. 47. 47. 47. 47. 47. 47. 48. 51. 54.
      57. 58. 57. 55. 52. 50. 45. 38. 28. 18. 9. 4. 2. 0. 0. 0. 0. 2. 3.
      5. 10. 16. 24. 32. 38. 43. 47. 50. 53. 55. 57. 58. 58. 58. 58. 58.
      59. 61. 62. 62. 60. 54. 47. 40. 35. 29. 23. 16. 9. 5. 2. 1. 0. 0.
      0. 0. 1. 1. 2. 5. 9. 14. 20. 26. 33. 39. 46. 52. 56. 59. 61. 62.
      62. 62. 62. 63. 63. 63. 61. 56. 47. 37. 28. 21. 16. 12. 8. 4. 2.
      1. 0. 0. 0. 0. 0. 0. 1. 1. 3. 6. 10. 15. 22. 28. 36. 43. 50. 55.
      59. 61. 62. 62. 62. 62. 63. 63. 62. 60. 53. 43. 32. 23. 17. 12. 8.
      5. 3. 1. 0. 0. 0. 0. 0. 0.</_>
    <_>
      0. 0. 0. 0. 0. 0. 1. 1. 2. 3. 5. 7. 10. 15. 20. 25. 29. 32. 33.
      34. 33. 32. 29. 25. 20. 15. 10. 7. 5. 3. 2. 1. 1. 0. 0. 0. 0. 0.
      0. 0. 0. 0. 0. 0. 0. 1. 2. 3. 5. 7. 10. 14. 19. 24. 29. 33. 36.
      37. 38. 37. 36. 33. 29. 24. 19. 14. 10. 7. 5. 3. 2. 1. 0. 0. 0. 0.
      0. 0. 0. 0. 0. 0. 1. 1. 3. 5. 8. 12. 16. 20. 24. 29. 35. 39. 43.
      45. 46. 47. 46. 45. 43. 39. 35. 29. 24. 20. 16. 12. 9. 5. 3. 2. 1.
      0. 0. 0. 0. 0. 0. 0. 1. 2. 4. 8. 13. 19. 25. 30. 34. 38. 42. 45.
      48. 50. 51. 52. 52. 52. 51. 50. 48. 45. 42. 38. 34. 30. 25. 19.
      13. 8. 4. 2. 1. 0. 0. 0. 0. 0. 1. 2. 4. 9. 16. 25. 34. 42. 47. 49.
      49. 49. 48. 47. 46. 46. 45. 45. 45. 46. 46. 47. 48. 49. 49. 49.
      47. 42. 34. 26. 17. 10. 5. 2. 1. 0. 0. 0. 0. 1. 3. 8. 16. 27. 40.
      51. 58. 60. 58. 53. 47. 42. 38. 35. 33. 32. 31. 32. 33. 35. 38.
      42. 47. 53. 57. 60. 58. 52. 42. 30. 19. 11. 5. 2. 1. 0. 0. 1. 2.
      6. 14. 26. 41. 55. 64. 66. 63. 55. 46. 38. 30. 25. 21. 19. 18. 17.
      18. 19. 21. 25. 30. 38. 46. 55. 63. 66. 65. 58. 46. 32. 19. 10. 4.
      2. 1. 1. 2. 5. 11. 22. 37. 53. 65. 69. 65. 55. 44. 33. 25. 18. 13.
      10. 8. 7. 7. 7. 8. 10. 13. 18. 24. 33. 44. 54. 64. 69. 68. 60. 46.
      31. 17. 8. 4. 2. 2. 3. 8. 17. 31. 48. 63. 69. 66. 55. 42. 30. 20.
      13. 8. 5. 4. 3. 2. 2. 2. 3. 4. 5. 8. 13. 20. 29. 40. 52. 63. 70.
      68. 58. 42. 26. 14. 6. 4. 3. 5. 12. 24. 40. 56. 67. 66. 56. 42.
      28. 17. 10. 6. 3. 2. 1. 1. 1. 1. 1. 1. 1. 2. 3. 6. 10. 16. 25. 37.
      51. 63. 70. 66. 53. 36. 20. 11. 7. 5. 8. 17. 31. 47. 60. 65. 58.
      44. 29. 16. 9. 4. 2. 1. 1. 0. 0. 0. 0. 0. 0. 0. 1. 1. 2. 4. 7. 13.
      23. 37. 52. 65. 68. 61. 45. 28. 16. 11. 9. 13. 23. 37. 52. 60. 58.
      47. 32. 19. 9. 4. 2. 1. 0. 0. 0. 0. 0. 0. 0. 0. 0. 0. 0. 1. 1. 3.
      7. 13. 25. 40. 56. 66. 65. 53. 36. 22. 17. 14. 19. 30. 44. 55. 57.
      50. 36. 22. 11. 5. 2. 1. 0. 0. 1. 1. 1. 1. 1. 0. 0. 0. 0. 0. 0. 0.
      1. 3. 8. 16. 30. 47. 61. 66. 59. 43. 29. 23. 20. 25. 38. 51. 57.
      53. 41. 27. 14. 7. 3. 1. 1. 1. 1. 2. 2. 2. 2. 2. 1. 1. 0. 0. 0. 0.
      0. 0. 1. 4. 10. 21. 37. 53. 63. 61. 48. 35. 29. 27. 32. 44. 55.
      57. 48. 34. 19. 9. 4. 1. 1. 1. 2. 4. 5. 6. 6. 6. 5. 4. 2. 1. 1. 0.
      0. 0. 0. 1. 2. 6. 15. 29. 45. 57. 59. 51. 40. 35. 31. 36. 48. 57.
      55. 43. 28. 14. 6. 3. 1. 2. 4. 7. 10. 14. 16. 16. 16. 13. 10. 6.
      3. 2. 1. 0. 0. 0. 0. 1. 4. 10. 22. 36. 50. 56. 52. 44. 40. 34. 39.
      49. 56. 51. 38. 23. 11. 4. 2. 2. 4. 8. 14. 21. 27. 31. 32. 31. 27.
      21. 14. 8. 3. 1. 0. 0. 0. 0. 1. 2. 7. 16. 29. 44. 53. 53. 48. 45.
      37. 41. 50. 54. 47. 33. 19. 8. 3. 2. 3. 7. 15. 26. 36. 45. 49. 51.
      49. 44. 35. 24. 14. 6. 2. 1. 0. 0. 0. 0. 2. 5. 12. 24. 39. 50. 54.
      53. 51. 40. 44. 50. 52. 44. 29. 16. 7. 3. 3. 5. 13. 24. 39. 52.
      60. 64. 65. 64. 59. 49. 35. 21. 10. 4. 1. 0. 0. 0. 0. 1. 3. 10.
      21. 35. 48. 56. 57. 56. 45. 48. 52. 50. 40. 26. 13. 5. 3. 4. 8.
      19. 34. 50. 63. 69. 69. 68. 68. 66. 58. 44. 27. 13. 5. 2. 1. 0. 0.
      0. 1. 3. 8. 19. 34. 48. 57. 60. 59. 51. 52. 54. 49. 37. 23. 11. 4.
      3. 5. 11. 24. 42. 58. 68. 68. 64. 61. 63. 65. 61. 48. 30. 16. 6.
      2. 1. 0. 0. 0. 1. 2. 7. 18. 33. 47. 58. 61. 61. 56. 57. 56. 48.
      35. 20. 9. 4. 3. 6. 14. 29. 47. 62. 68. 62. 54. 51. 55. 61. 60.
      49. 32. 17. 7. 2. 1. 0. 0. 0. 1. 2. 7. 17. 32. 47. 58. 62. 62. 59.
      59. 57. 48. 33. 18. 8. 3. 3. 6. 16. 32. 50. 63. 65. 57. 47. 44.
      49. 58. 59. 49. 32. 17. 7. 2. 1. 0. 0. 0. 1. 2. 7. 17. 32. 47. 58.
      62. 62. 61. 61. 58. 47. 33. 18. 7. 3. 3. 6. 17. 32. 51. 64. 65.
      56. 47. 45. 50. 59. 59. 48. 32. 17. 7. 2. 1. 0. 0. 0. 1. 2. 7. 17.
      32. 47. 58. 62. 62. 62. 62. 58. 47. 32. 17. 7. 3. 3. 6. 16. 31.
      50. 64. 68. 62. 55. 53. 57. 62. 59. 47. 30. 16. 6. 2. 1. 0. 0. 0.
      1. 2. 7. 17. 32. 47. 58. 62. 62. 62. 62. 58. 47. 32. 17. 7. 3. 3.
      5. 14. 28. 46. 61. 69. 68. 64. 62. 63. 63. 57. 43. 27. 13. 5. 2.
      1. 0. 0. 0. 1. 2. 7. 17. 32. 47. 58. 62. 62. 62. 62. 58. 47. 32.
      17. 7. 2. 2. 4. 10. 22. 38. 54. 65. 69. 68. 65. 63. 58. 49. 35.
      21. 10. 4. 1. 0. 0. 0. 0. 1. 2. 7. 18. 33. 47. 58. 61. 61. 62. 62.
      58. 47. 32. 17. 7. 2. 2. 3. 7. 15. 28. 42. 54. 60. 61. 58. 53. 46.
      36. 24. 14. 6. 2. 1. 0. 0. 0. 0. 1. 3. 8. 18. 33. 48. 57. 59. 59.
      61. 61. 58. 47. 33. 18. 8. 2. 1. 1. 4. 9. 17. 28. 37. 44. 45. 43.
      38. 31. 22. 14. 8. 4. 1. 0. 0. 0. 0. 0. 1. 3. 9. 20. 35. 48. 56.
      57. 56. 59. 60. 57. 48. 34. 19. 8. 3. 1. 1. 2. 4. 9. 15. 21. 26.
      27. 26. 22. 17. 12. 7. 4. 2. 1. 0. 0. 0. 0. 0. 1. 4. 11. 23. 37.
      49. 54. 52. 51. 56. 57. 56. 49. 36. 22. 10. 4. 2. 1. 1. 2. 4. 7.
      10. 12. 13. 12. 10. 7. 5. 3. 1. 1. 0. 0. 0. 0. 0. 1. 2. 5. 13. 25.
      40. 50. 51. 48. 45. 51. 53. 55. 52. 41. 26. 14. 6. 2. 1. 0. 1. 1.
      2. 4. 5. 5. 5. 4. 3. 2. 1. 0. 0. 0. 0. 0. 0. 0. 1. 2. 6. 15. 28.
      42. 51. 49. 43. 40. 45. 48. 54. 55. 47. 33. 19. 9. 3. 1. 0. 0. 0.
      1. 1. 1. 2. 1. 1. 1. 1. 0. 0. 0. 0. 0. 0. 0. 0. 1. 2. 7. 17. 31.
      44. 51. 48. 40. 36. 38. 43. 52. 58. 54. 41. 25. 13. 5. 2. 1. 0. 0.
      0. 0. 0. 1. 0. 0. 0. 0. 0. 0. 0. 0. 0. 0. 0. 0. 2. 4. 9. 20. 34.
      47. 52. 46. 37. 33. 32. 37. 49. 59. 60. 49. 33. 18. 8. 3. 1. 0. 0.
      0. 0. 0. 0. 0. 0. 0. 0. 0. 0. 0. 0. 0. 0. 0. 1. 3. 6. 14. 25. 39.
      50. 52. 44. 34. 30. 25. 31. 45. 58. 63. 57. 41. 25. 13. 5. 2. 1.
      0. 0. 0. 0. 0. 0. 0. 0. 0. 0. 0. 0. 0. 0. 0. 1. 2. 6. 12. 22. 34.
      47. 54. 52. 42. 30. 26. 19. 24. 39. 55. 65. 63. 51. 34. 19. 10. 5.
      2. 1. 0. 0. 0. 0. 0. 0. 0. 0. 0. 0. 0. 0. 1. 1. 3. 6. 12. 21. 34.
      47. 56. 58. 51. 37. 25. 20. 14. 19. 32. 49. 63. 67. 60. 45. 29.
      17. 9. 5. 3. 2. 1. 1. 1. 1. 1. 1. 1. 1. 1. 1. 1. 2. 3. 6. 12. 21.
      34. 48. 59. 64. 59. 47. 31. 19. 15. 9. 13. 25. 41. 58. 68. 67. 57.
      42. 28. 18. 11. 8. 5. 4. 3. 2. 2. 2. 2. 2. 2. 2. 3. 4. 5. 9. 14.
      23. 35. 49. 61. 68. 66. 55. 39. 24. 14. 10. 6. 8. 17. 32. 48. 63.
      69. 66. 55. 43. 32. 23. 18. 13. 10. 9. 7. 7. 6. 6. 5. 5. 6. 8. 10.
      14. 19. 27. 37. 50. 62. 69. 69. 60. 45. 29. 16. 9. 6. 3. 5. 11.
      22. 38. 54. 65. 69. 66. 57. 48. 40. 33. 27. 23. 20. 18. 16. 15.
      14. 14. 14. 15. 18. 22. 27. 34. 43. 53. 63. 69. 69. 61. 48. 33.
      19. 10. 5. 3. 2. 3. 6. 14. 26. 41. 55. 64. 68. 66. 62. 56. 50. 44.
      39. 36. 33. 31. 30. 28. 27. 28. 30. 33. 38. 44. 51. 58. 64. 69.
      68. 60. 48. 34. 21. 11. 5. 2. 1. 1. 1. 3. 8. 16. 27. 40. 51. 59.
      64. 65. 65. 62. 58. 54. 51. 48. 47. 46. 44. 44. 44. 46. 49. 53.
      58. 63. 66. 66. 64. 57. 46. 33. 21. 11. 5. 2. 1. 0. 0. 1. 2. 4. 9.
      16. 26. 35. 44. 52. 58. 62. 65. 65. 63. 61. 59. 59. 59. 59. 60.
      60. 60. 62. 63. 65. 65. 63. 58. 51. 41. 30. 20. 11. 6. 2. 1. 0. 0.
      0. 0. 1. 2. 4. 9. 15. 22. 30. 39. 47. 55. 60. 64. 64. 64. 63. 64.
      66. 68. 70. 70. 69. 67. 66. 64. 61. 55. 47. 38. 28. 19. 11. 6. 3.
      1. 0. 0. 0. 0. 0. 0. 1. 3. 6. 11. 17. 25. 33. 42. 51. 58. 62. 63.
      64. 64. 65. 67. 70. 73. 73. 71. 68. 66. 63. 58. 51. 42. 32. 23.
      15. 8. 4. 2. 1. 0. 0. 0.</_>
    <_>
      0. 0. 0. 0. 1. 1. 2. 4. 7. 11. 15. 21. 25. 29. 32. 33. 34. 34. 33.
      32. 29. 26. 21. 17. 13. 9. 6. 4. 2. 1. 0. 0. 0. 0. 0. 0. 0. 0. 0.
      0. 0. 0. 0. 1. 2. 4. 7. 10. 15. 20. 25. 30. 34. 36. 37. 38. 38.
      37. 36. 34. 30. 26. 22. 18. 14. 10. 6. 3. 2. 1. 0. 0. 0. 0. 0. 0.
      0. 0. 0. 0. 1. 2. 3. 6. 9. 14. 20. 26. 33. 38. 42. 44. 46. 46. 47.
      47. 46. 45. 44. 42. 39. 35. 31. 25. 19. 13. 8. 4. 2. 1. 0. 0. 0.
      0. 0. 0. 0. 0. 1. 2. 4. 8. 13. 20. 28. 36. 43. 48. 51. 52. 52. 52.
      52. 52. 52. 52. 51. 51. 51. 50. 50. 47. 42. 34. 26. 17. 10. 5. 2.
      1. 0. 0. 0. 0. 0. 0. 1. 2. 5. 10. 17. 26. 36. 45. 53. 58. 59. 57.
      53. 49. 47. 46. 45. 45. 45. 46. 48. 50. 54. 58. 60. 58. 52. 42.
      31. 20. 11. 5. 2. 1. 0. 0. 0. 0. 0. 3. 5. 10. 18. 30. 42. 53. 61.
      65. 64. 60. 53. 45. 38. 34. 32. 31. 31. 32. 33. 36. 41. 48. 56.
      63. 66. 65. 58. 46. 33. 21. 11. 5. 2. 1. 0. 0. 0. 0. 6. 9. 17. 29.
      44. 57. 65. 68. 66. 60. 51. 40. 31. 24. 20. 18. 17. 17. 18. 19.
      22. 27. 34. 44. 54. 64. 69. 68. 61. 48. 34. 21. 11. 5. 2. 1. 0. 0.
      0. 11. 15. 26. 42. 57. 67. 69. 65. 56. 46. 35. 26. 18. 12. 9. 8.
      7. 7. 8. 8. 10. 14. 20. 29. 40. 52. 63. 70. 69. 62. 48. 33. 20.
      10. 4. 2. 0. 0. 0. 18. 23. 36. 52. 64. 69. 64. 53. 41. 30. 21. 13.
      8. 5. 3. 2. 2. 2. 2. 3. 4. 6. 10. 16. 24. 36. 50. 62. 70. 69. 61.
      46. 31. 17. 8. 3. 1. 0. 0. 26. 31. 44. 58. 66. 63. 52. 38. 26. 16.
      10. 6. 3. 2. 1. 1. 1. 1. 1. 1. 2. 2. 4. 7. 13. 22. 35. 49. 62. 70.
      68. 58. 42. 26. 13. 5. 2. 1. 0. 35. 40. 50. 60. 61. 53. 39. 25.
      14. 8. 4. 2. 1. 0. 0. 0. 0. 0. 0. 0. 0. 1. 1. 3. 6. 12. 21. 35.
      50. 63. 69. 65. 52. 34. 19. 9. 3. 1. 0. 44. 48. 54. 58. 53. 41.
      27. 15. 8. 3. 2. 1. 0. 0. 0. 0. 0. 0. 0. 0. 0. 0. 0. 1. 3. 6. 12.
      22. 36. 52. 64. 66. 58. 42. 25. 12. 5. 2. 1. 53. 55. 57. 54. 44.
      31. 18. 9. 4. 2. 1. 0. 0. 1. 1. 1. 1. 0. 0. 0. 0. 0. 0. 0. 1. 3.
      6. 13. 24. 40. 54. 63. 60. 47. 30. 16. 7. 2. 2. 62. 62. 58. 49.
      36. 22. 11. 5. 2. 1. 1. 1. 1. 2. 2. 2. 2. 1. 1. 0. 0. 0. 0. 0. 0.
      1. 3. 7. 16. 29. 44. 55. 57. 49. 34. 20. 9. 4. 2. 71. 68. 59. 45.
      30. 16. 7. 3. 1. 1. 1. 2. 4. 5. 6. 6. 5. 4. 2. 1. 1. 0. 0. 0. 0.
      0. 1. 4. 10. 20. 33. 46. 53. 49. 38. 24. 12. 6. 4. 78. 73. 60. 42.
      25. 13. 5. 2. 1. 2. 4. 6. 10. 13. 15. 15. 13. 10. 6. 4. 2. 1. 0.
      0. 0. 0. 1. 2. 6. 13. 24. 38. 47. 49. 41. 29. 16. 8. 5. 84. 78.
      62. 40. 22. 10. 3. 2. 2. 4. 8. 14. 21. 27. 31. 31. 27. 21. 14. 8.
      4. 1. 0. 0. 0. 0. 0. 1. 3. 8. 18. 30. 42. 48. 45. 34. 21. 11. 8.
      89. 81. 62. 39. 20. 9. 3. 2. 3. 7. 15. 25. 36. 45. 50. 50. 45. 36.
      25. 14. 7. 3. 1. 0. 0. 0. 0. 1. 2. 5. 13. 25. 38. 47. 47. 38. 25.
      14. 10. 91. 83. 62. 38. 19. 8. 3. 3. 5. 12. 23. 37. 51. 61. 66.
      66. 61. 50. 36. 22. 12. 5. 2. 1. 0. 0. 0. 0. 1. 4. 10. 21. 35. 46.
      49. 41. 28. 16. 12. 90. 81. 60. 36. 18. 7. 3. 3. 8. 17. 31. 47.
      61. 70. 74. 73. 69. 60. 46. 30. 17. 7. 3. 1. 0. 0. 0. 0. 1. 3. 8.
      19. 33. 46. 50. 43. 30. 18. 13. 84. 76. 56. 33. 16. 6. 3. 4. 10.
      22. 38. 54. 67. 72. 73. 72. 69. 63. 52. 36. 21. 10. 4. 1. 0. 0. 0.
      0. 1. 2. 7. 18. 32. 45. 51. 44. 31. 19. 14. 76. 68. 49. 28. 13. 5.
      3. 5. 13. 26. 43. 60. 69. 72. 70. 68. 66. 63. 55. 40. 25. 12. 5.
      1. 1. 0. 0. 0. 1. 2. 7. 17. 31. 45. 51. 45. 32. 19. 14. 66. 59.
      42. 24. 11. 4. 3. 6. 15. 30. 48. 64. 72. 72. 69. 65. 63. 62. 56.
      42. 27. 14. 5. 2. 1. 0. 0. 0. 1. 2. 7. 17. 31. 45. 51. 45. 32. 19.
      14. 58. 52. 36. 20. 9. 4. 3. 6. 16. 31. 51. 68. 76. 76. 73. 68.
      65. 63. 56. 43. 27. 14. 5. 2. 1. 0. 0. 0. 1. 2. 7. 17. 31. 45. 51.
      45. 32. 19. 14. 54. 48. 33. 18. 8. 3. 3. 6. 16. 31. 51. 69. 80.
      82. 79. 75. 70. 66. 55. 41. 25. 12. 5. 1. 1. 0. 0. 0. 1. 2. 7. 17.
      31. 45. 51. 45. 32. 19. 14. 52. 46. 32. 18. 7. 3. 3. 5. 14. 28.
      47. 67. 80. 85. 84. 80. 74. 66. 53. 37. 21. 10. 4. 1. 0. 0. 0. 0.
      1. 2. 7. 17. 31. 45. 51. 45. 32. 19. 14. 52. 46. 32. 18. 7. 3. 2.
      4. 11. 22. 39. 58. 73. 81. 83. 79. 73. 62. 47. 30. 17. 7. 3. 1. 0.
      0. 0. 0. 1. 2. 7. 17. 31. 45. 51. 45. 32. 19. 14. 54. 48. 33. 18.
      8. 3. 2. 3. 7. 15. 29. 44. 58. 68. 71. 70. 63. 51. 37. 23. 12. 5.
      2. 1. 0. 0. 0. 0. 1. 2. 7. 18. 32. 45. 51. 44. 31. 19. 14. 58. 52.
      36. 20. 9. 3. 2. 2. 4. 9. 18. 29. 40. 48. 52. 51. 46. 36. 25. 15.
      7. 3. 1. 0. 0. 0. 0. 0. 1. 3. 8. 19. 32. 46. 50. 43. 30. 18. 13.
      66. 59. 42. 24. 11. 4. 2. 1. 2. 4. 9. 16. 23. 28. 32. 31. 28. 21.
      14. 8. 4. 1. 0. 0. 0. 0. 0. 0. 1. 3. 9. 20. 34. 46. 50. 42. 29.
      17. 12. 75. 67. 49. 28. 13. 5. 2. 1. 1. 2. 4. 7. 11. 14. 16. 15.
      13. 10. 7. 4. 2. 1. 0. 0. 0. 0. 0. 0. 2. 5. 12. 23. 37. 48. 49.
      39. 26. 15. 10. 84. 75. 56. 34. 16. 6. 2. 1. 0. 1. 1. 3. 4. 5. 6.
      6. 5. 4. 2. 1. 1. 0. 0. 0. 0. 0. 0. 1. 2. 6. 15. 28. 41. 49. 48.
      37. 24. 13. 9. 87. 80. 60. 38. 19. 8. 3. 1. 0. 0. 0. 1. 1. 2. 2.
      2. 2. 1. 1. 0. 0. 0. 0. 0. 0. 0. 0. 1. 4. 9. 20. 33. 46. 52. 48.
      36. 23. 13. 9. 86. 80. 63. 42. 23. 11. 4. 1. 0. 0. 0. 0. 0. 1. 1.
      1. 1. 0. 0. 0. 0. 0. 0. 0. 0. 0. 1. 2. 6. 14. 26. 41. 53. 57. 51.
      38. 25. 15. 11. 82. 77. 64. 46. 28. 15. 6. 2. 1. 0. 0. 0. 0. 0. 0.
      0. 0. 0. 0. 0. 0. 0. 0. 0. 0. 0. 1. 4. 10. 21. 35. 51. 62. 64. 56.
      43. 29. 18. 14. 75. 73. 65. 52. 36. 21. 10. 4. 2. 1. 0. 0. 0. 0.
      0. 0. 0. 0. 0. 0. 0. 0. 0. 0. 0. 1. 3. 7. 16. 30. 46. 62. 71. 71.
      62. 49. 33. 22. 18. 68. 69. 67. 59. 45. 29. 16. 8. 4. 2. 1. 0. 0.
      0. 0. 0. 0. 0. 0. 0. 0. 0. 0. 1. 1. 3. 6. 13. 25. 41. 58. 73. 79.
      77. 67. 52. 36. 24. 19. 60. 63. 66. 65. 55. 40. 26. 14. 8. 4. 3.
      2. 1. 1. 1. 1. 1. 1. 0. 1. 1. 1. 1. 2. 3. 7. 12. 22. 37. 54. 70.
      80. 83. 78. 68. 53. 36. 23. 18. 50. 54. 63. 68. 64. 53. 39. 26.
      16. 10. 6. 4. 3. 2. 2. 2. 2. 2. 1. 2. 2. 3. 4. 5. 9. 14. 23. 36.
      52. 67. 78. 83. 82. 76. 65. 49. 33. 20. 15. 38. 43. 55. 66. 69.
      64. 53. 41. 30. 22. 15. 11. 9. 8. 7. 6. 5. 5. 4. 5. 6. 8. 10. 14.
      19. 27. 38. 52. 66. 76. 81. 81. 77. 69. 58. 43. 28. 16. 12. 26.
      31. 43. 58. 67. 69. 65. 57. 47. 38. 30. 24. 20. 18. 16. 15. 14.
      13. 12. 13. 15. 18. 22. 28. 35. 44. 55. 67. 76. 79. 78. 74. 68.
      60. 49. 35. 21. 12. 8. 16. 20. 30. 44. 57. 66. 69. 67. 61. 54. 47.
      40. 36. 33. 31. 29. 27. 26. 25. 26. 29. 33. 39. 46. 54. 62. 71.
      77. 80. 77. 71. 64. 57. 50. 39. 27. 16. 8. 5. 8. 11. 19. 30. 42.
      53. 61. 66. 67. 65. 60. 55. 51. 48. 47. 45. 44. 43. 42. 43. 45.
      50. 55. 62. 69. 75. 80. 81. 78. 71. 63. 54. 46. 38. 29. 19. 10. 5.
      3. 4. 6. 10. 17. 27. 37. 47. 56. 62. 66. 65. 63. 61. 59. 59. 59.
      59. 60. 60. 60. 61. 63. 66. 72. 77. 80. 81. 78. 72. 64. 54. 45.
      36. 28. 19. 12. 6. 3. 2. 2. 2. 5. 9. 15. 24. 33. 44. 53. 60. 64.
      64. 64. 64. 64. 66. 69. 72. 73. 72. 71. 70. 71. 74. 78. 80. 79.
      74. 67. 59. 49. 38. 29. 20. 13. 7. 3. 1. 1. 1. 2. 3. 6. 11. 19.
      28. 39. 49. 57. 62. 63. 64. 64. 65. 68. 72. 76. 77. 76. 73. 71.
      71. 74. 77. 79. 78. 73. 66. 57. 47. 36. 26. 17. 10. 6. 3. 1. 1.</_>
    <_>
      0. 0. 0. 0. 0. 0. 1. 2. 4. 7. 11. 16. 22. 28. 32. 33. 34. 34. 34.
      34. 34. 34. 34. 33. 32. 28. 22. 16. 11. 7. 4. 2. 1. 0. 0. 0. 0. 0.
      0. 0. 0. 0. 0. 0. 1. 2. 3. 6. 10. 15. 21. 27. 33. 37. 38. 38. 38.
      38. 38. 38. 38. 38. 38. 37. 33. 27. 21. 15. 10. 6. 3. 2. 1. 0. 0.
      0. 0. 0. 0. 0. 0. 0. 1. 2. 4. 8. 12. 18. 25. 33. 40. 46. 49. 49.
      48. 48. 47. 47. 47. 48. 48. 49. 49. 46. 40. 33. 25. 18. 12. 8. 4.
      2. 1. 0. 0. 0. 0. 0. 0. 0. 1. 2. 5. 10. 16. 24. 32. 40. 47. 53.
      57. 58. 57. 55. 53. 52. 52. 52. 53. 55. 57. 58. 57. 53. 47. 40.
      32. 24. 16. 10. 5. 2. 1. 0. 0. 0. 0. 0. 1. 2. 5. 11. 19. 29. 39.
      48. 53. 56. 58. 58. 55. 52. 49. 46. 45. 45. 45. 46. 49. 52. 55.
      58. 58. 56. 53. 48. 39. 29. 19. 11. 5. 2. 1. 0. 0. 0. 1. 2. 5. 10.
      19. 32. 45. 55. 60. 60. 56. 52. 48. 43. 38. 35. 32. 31. 31. 31.
      32. 35. 38. 43. 48. 52. 56. 60. 60. 55. 45. 33. 21. 11. 5. 2. 1.
      0. 1. 1. 3. 8. 17. 31. 46. 59. 65. 64. 57. 47. 39. 32. 27. 23. 20.
      18. 17. 17. 17. 18. 20. 23. 27. 32. 39. 48. 57. 64. 66. 60. 48.
      34. 21. 11. 5. 2. 1. 2. 3. 6. 14. 27. 43. 58. 68. 68. 60. 47. 34.
      25. 18. 13. 10. 9. 8. 7. 7. 7. 8. 9. 10. 13. 18. 25. 34. 47. 59.
      68. 69. 61. 48. 33. 20. 10. 5. 3. 3. 5. 11. 23. 38. 55. 67. 69.
      62. 49. 34. 21. 13. 8. 5. 4. 3. 2. 2. 2. 2. 2. 3. 4. 5. 8. 13. 21.
      33. 48. 61. 69. 69. 61. 46. 31. 17. 9. 6. 6. 8. 17. 32. 49. 63.
      69. 65. 52. 36. 22. 12. 6. 3. 2. 1. 1. 1. 1. 1. 1. 1. 1. 1. 2. 3.
      6. 12. 21. 34. 49. 62. 70. 68. 58. 42. 26. 15. 11. 9. 13. 25. 41.
      58. 68. 67. 56. 40. 24. 13. 6. 3. 1. 1. 0. 0. 0. 0. 0. 0. 0. 0. 0.
      1. 1. 3. 6. 12. 21. 35. 50. 63. 69. 65. 52. 35. 22. 17. 14. 18.
      32. 49. 63. 67. 60. 45. 28. 15. 7. 3. 1. 1. 0. 1. 1. 0. 0. 0. 0.
      0. 0. 0. 0. 0. 1. 2. 6. 12. 22. 36. 52. 64. 67. 59. 43. 29. 23.
      19. 24. 39. 55. 65. 63. 51. 34. 19. 9. 4. 1. 1. 1. 1. 1. 2. 1. 1.
      1. 1. 0. 0. 0. 0. 0. 0. 1. 3. 6. 13. 25. 40. 55. 64. 61. 48. 35.
      29. 24. 30. 44. 59. 64. 57. 42. 25. 13. 5. 2. 1. 1. 2. 4. 5. 5. 5.
      4. 3. 2. 1. 0. 0. 0. 0. 0. 0. 1. 3. 7. 16. 30. 46. 57. 60. 51. 40.
      35. 29. 35. 48. 60. 61. 50. 34. 19. 8. 3. 2. 2. 3. 6. 10. 12. 13.
      12. 10. 7. 4. 2. 1. 0. 0. 0. 0. 0. 0. 2. 4. 11. 22. 37. 50. 56.
      52. 44. 40. 33. 38. 50. 59. 56. 43. 27. 13. 5. 2. 2. 4. 8. 14. 20.
      25. 27. 25. 21. 16. 10. 6. 3. 1. 0. 0. 0. 0. 0. 1. 3. 7. 16. 30.
      44. 53. 53. 48. 45. 37. 41. 51. 56. 51. 37. 22. 10. 4. 2. 3. 7.
      14. 24. 34. 42. 44. 42. 36. 28. 19. 11. 6. 2. 1. 0. 0. 0. 0. 0. 2.
      5. 12. 24. 39. 50. 54. 53. 51. 40. 44. 51. 54. 46. 32. 18. 8. 3.
      2. 4. 11. 21. 35. 48. 57. 59. 56. 50. 41. 30. 19. 10. 4. 2. 1. 0.
      0. 0. 0. 1. 3. 10. 21. 35. 48. 56. 57. 56. 45. 48. 52. 51. 41. 27.
      14. 6. 3. 3. 6. 15. 28. 44. 58. 64. 65. 62. 57. 50. 40. 27. 15. 7.
      3. 1. 0. 0. 0. 0. 1. 3. 8. 19. 34. 48. 57. 60. 59. 51. 52. 54. 49.
      38. 23. 11. 4. 2. 3. 8. 19. 34. 49. 60. 63. 61. 58. 57. 54. 47.
      34. 20. 10. 4. 1. 0. 0. 0. 0. 1. 2. 7. 18. 33. 47. 58. 61. 61. 56.
      57. 56. 48. 35. 20. 9. 4. 3. 4. 11. 23. 38. 52. 59. 57. 52. 50.
      52. 54. 51. 39. 25. 13. 5. 1. 1. 0. 0. 0. 1. 2. 7. 17. 32. 47. 58.
      62. 62. 59. 59. 57. 48. 33. 18. 8. 3. 3. 5. 13. 26. 42. 54. 58.
      51. 44. 42. 47. 53. 53. 43. 28. 15. 6. 2. 1. 0. 0. 0. 1. 2. 7. 17.
      32. 47. 58. 62. 62. 61. 61. 58. 47. 33. 18. 7. 3. 3. 6. 14. 29.
      45. 57. 60. 52. 44. 42. 47. 55. 55. 46. 30. 16. 6. 2. 1. 0. 0. 0.
      1. 2. 7. 17. 32. 47. 58. 62. 62. 62. 62. 58. 47. 32. 17. 7. 3. 3.
      6. 15. 29. 46. 60. 64. 59. 51. 49. 53. 59. 58. 47. 31. 16. 7. 2.
      1. 0. 0. 0. 1. 2. 7. 17. 32. 47. 58. 62. 62. 62. 62. 58. 47. 32.
      17. 7. 3. 3. 5. 13. 27. 44. 60. 68. 66. 62. 60. 62. 65. 60. 47.
      30. 15. 6. 2. 1. 0. 0. 0. 1. 2. 7. 17. 32. 47. 58. 62. 62. 62. 62.
      58. 47. 32. 17. 7. 2. 2. 4. 10. 22. 38. 54. 65. 69. 68. 67. 68.
      66. 58. 43. 27. 13. 5. 2. 1. 0. 0. 0. 1. 2. 7. 17. 32. 47. 58. 62.
      62. 62. 62. 58. 47. 32. 17. 7. 2. 2. 3. 7. 15. 28. 42. 54. 61. 64.
      65. 63. 59. 49. 35. 21. 10. 4. 1. 0. 0. 0. 0. 1. 2. 7. 18. 33. 47.
      58. 61. 61. 62. 62. 58. 47. 32. 17. 7. 2. 1. 1. 4. 9. 17. 28. 38.
      46. 50. 51. 49. 44. 35. 24. 14. 6. 2. 1. 0. 0. 0. 0. 1. 3. 8. 18.
      33. 48. 57. 59. 59. 61. 61. 58. 47. 33. 18. 8. 2. 1. 1. 2. 4. 9.
      15. 22. 28. 31. 32. 31. 27. 21. 14. 8. 3. 1. 0. 0. 0. 0. 0. 1. 3.
      9. 20. 35. 48. 56. 57. 56. 59. 60. 57. 48. 34. 19. 8. 3. 1. 0. 1.
      2. 4. 7. 10. 14. 16. 16. 16. 13. 10. 6. 3. 2. 1. 0. 0. 0. 0. 0. 1.
      4. 11. 23. 37. 49. 54. 52. 51. 56. 57. 56. 49. 37. 22. 10. 4. 2.
      0. 0. 1. 1. 3. 4. 5. 6. 6. 6. 5. 4. 2. 1. 1. 0. 0. 0. 0. 0. 1. 2.
      5. 13. 26. 40. 50. 52. 48. 45. 51. 53. 55. 52. 41. 27. 14. 6. 2.
      1. 0. 0. 0. 1. 1. 2. 2. 2. 2. 2. 1. 1. 0. 0. 0. 0. 0. 0. 0. 1. 2.
      7. 16. 30. 44. 52. 50. 44. 40. 45. 48. 54. 55. 48. 34. 20. 9. 4.
      1. 0. 0. 0. 0. 0. 1. 1. 1. 1. 1. 0. 0. 0. 0. 0. 0. 0. 0. 0. 1. 3.
      9. 20. 35. 49. 55. 50. 41. 37. 38. 43. 52. 59. 55. 43. 27. 14. 6.
      2. 1. 0. 0. 0. 0. 0. 0. 0. 0. 0. 0. 0. 0. 0. 0. 0. 0. 0. 1. 2. 5.
      13. 26. 41. 54. 58. 51. 40. 35. 31. 36. 49. 60. 62. 52. 37. 21.
      10. 4. 1. 0. 0. 0. 0. 0. 0. 0. 0. 0. 0. 0. 0. 0. 0. 0. 0. 1. 1. 4.
      9. 20. 34. 50. 61. 61. 51. 38. 32. 24. 30. 44. 58. 65. 61. 47. 30.
      16. 8. 3. 1. 0. 0. 0. 0. 0. 0. 0. 0. 0. 0. 0. 0. 0. 0. 1. 1. 3. 8.
      16. 29. 45. 60. 67. 63. 49. 35. 29. 17. 23. 36. 53. 65. 66. 56.
      40. 25. 13. 7. 3. 1. 1. 0. 0. 0. 0. 0. 0. 0. 0. 0. 0. 0. 1. 2. 4.
      7. 14. 25. 41. 57. 69. 71. 62. 46. 32. 26. 12. 16. 28. 45. 61. 68.
      65. 52. 37. 23. 13. 7. 4. 2. 2. 1. 1. 1. 1. 1. 1. 1. 1. 1. 2. 3.
      5. 9. 15. 25. 39. 55. 69. 75. 72. 59. 43. 30. 25. 7. 11. 20. 36.
      53. 66. 69. 63. 50. 36. 24. 15. 9. 6. 4. 3. 2. 2. 2. 2. 2. 2. 2.
      3. 4. 6. 11. 18. 27. 40. 55. 68. 77. 78. 70. 57. 41. 29. 25. 4. 6.
      14. 26. 42. 58. 68. 69. 61. 49. 37. 27. 20. 14. 11. 9. 8. 7. 7. 7.
      7. 7. 7. 8. 10. 14. 21. 30. 42. 56. 69. 78. 82. 78. 68. 54. 39.
      29. 25. 2. 4. 8. 17. 30. 46. 59. 66. 66. 59. 50. 41. 34. 28. 23.
      20. 18. 17. 17. 17. 17. 17. 18. 19. 21. 26. 34. 44. 57. 69. 79.
      83. 82. 74. 63. 49. 36. 27. 23. 1. 2. 4. 10. 19. 32. 45. 55. 60.
      61. 58. 54. 49. 44. 39. 36. 33. 32. 32. 32. 32. 32. 33. 34. 36.
      40. 46. 55. 66. 76. 82. 83. 78. 68. 56. 43. 30. 22. 18. 0. 1. 2.
      5. 11. 19. 29. 39. 47. 52. 56. 58. 59. 57. 54. 51. 48. 47. 47. 47.
      47. 47. 47. 48. 48. 51. 54. 61. 69. 77. 82. 81. 74. 62. 48. 34.
      23. 15. 12. 0. 0. 1. 2. 5. 10. 16. 24. 31. 39. 47. 54. 60. 62. 62.
      61. 59. 58. 58. 58. 58. 58. 58. 57. 56. 55. 56. 60. 67. 76. 82.
      80. 71. 56. 40. 26. 15. 9. 7. 0. 0. 0. 1. 2. 5. 8. 13. 19. 27. 36.
      47. 56. 61. 63. 63. 63. 62. 62. 62. 62. 62. 61. 60. 57. 54. 52.
      55. 64. 74. 81. 80. 69. 51. 34. 20. 10. 5. 4. 0. 0. 0. 0. 1. 3. 6.
      9. 15. 22. 32. 43. 53. 60. 62. 63. 63. 62. 62. 62. 62. 62. 61. 59.
      56. 52. 50. 53. 62. 73. 81. 80. 68. 49. 31. 17. 9. 4. 3.</_>
    <_>
      0. 0. 0. 0. 0. 1. 2. 4. 7. 11. 16. 22. 28. 32. 33. 34. 34. 34. 34.
      34. 34. 34. 34. 32. 28. 23. 17. 11. 7. 4. 2. 1. 0. 0. 0. 0. 0. 0.
      0. 0. 0. 0. 0. 1. 2. 3. 6. 10. 15. 21. 27. 33. 37. 38. 38. 38. 38.
      38. 38. 38. 39. 38. 37. 34. 29. 22. 16. 11. 6. 4. 2. 1. 0. 0. 0.
      0. 0. 0. 0. 0. 0. 1. 2. 4. 8. 12. 18. 25. 33. 40. 46. 49. 49. 48.
      48. 47. 47. 47. 48. 49. 50. 50. 48. 43. 36. 28. 20. 14. 8. 4. 2.
      1. 0. 0. 0. 0. 0. 0. 0. 1. 2. 5. 10. 16. 24. 32. 40. 47. 53. 57.
      58. 57. 55. 53. 52. 52. 52. 53. 55. 57. 60. 61. 59. 53. 45. 36.
      26. 17. 10. 5. 2. 1. 0. 0. 0. 0. 0. 1. 2. 5. 11. 19. 29. 39. 48.
      53. 56. 58. 58. 55. 52. 49. 46. 45. 45. 45. 47. 49. 53. 58. 63.
      66. 65. 61. 53. 42. 31. 20. 11. 5. 2. 1. 0. 0. 0. 1. 2. 5. 11. 20.
      32. 45. 55. 60. 60. 56. 52. 48. 43. 38. 35. 32. 31. 31. 31. 33.
      35. 40. 46. 54. 61. 66. 68. 66. 58. 47. 33. 21. 11. 5. 2. 1. 0. 0.
      3. 5. 10. 20. 33. 47. 59. 66. 64. 57. 48. 39. 32. 27. 23. 20. 18.
      17. 17. 17. 18. 20. 24. 30. 38. 47. 56. 65. 70. 69. 61. 48. 33.
      20. 10. 5. 2. 1. 0. 6. 9. 18. 31. 46. 60. 68. 68. 59. 47. 34. 25.
      18. 13. 10. 9. 8. 7. 7. 7. 8. 9. 11. 15. 22. 30. 40. 52. 63. 70.
      69. 61. 47. 31. 17. 8. 3. 1. 1. 11. 15. 27. 43. 58. 68. 69. 62.
      48. 33. 21. 13. 8. 5. 4. 3. 2. 2. 2. 2. 2. 3. 4. 6. 10. 16. 25.
      36. 50. 63. 70. 69. 59. 43. 27. 14. 6. 3. 2. 19. 24. 37. 53. 66.
      69. 63. 50. 34. 21. 12. 6. 3. 2. 1. 1. 1. 1. 1. 1. 1. 1. 2. 3. 4.
      7. 13. 22. 35. 50. 63. 70. 67. 55. 38. 23. 11. 5. 3. 28. 34. 47.
      62. 69. 65. 52. 36. 22. 12. 6. 3. 1. 1. 0. 0. 0. 0. 0. 0. 0. 0. 0.
      1. 1. 3. 6. 12. 22. 36. 52. 65. 69. 63. 49. 32. 17. 8. 6. 39. 44.
      56. 66. 67. 56. 40. 25. 13. 6. 3. 1. 0. 0. 0. 0. 0. 0. 0. 0. 0. 0.
      0. 0. 0. 1. 3. 6. 13. 24. 40. 56. 67. 68. 58. 41. 25. 13. 9. 49.
      53. 62. 67. 61. 47. 30. 16. 7. 3. 1. 1. 1. 1. 1. 1. 1. 1. 1. 0. 0.
      0. 0. 0. 0. 0. 1. 3. 7. 15. 28. 45. 60. 67. 63. 49. 32. 18. 14.
      57. 60. 66. 65. 54. 38. 22. 10. 4. 2. 1. 1. 1. 2. 3. 4. 4. 3. 3.
      2. 1. 0. 0. 0. 0. 0. 0. 1. 4. 9. 19. 34. 51. 63. 65. 55. 39. 24.
      19. 62. 64. 65. 60. 47. 30. 15. 6. 3. 1. 1. 2. 4. 7. 9. 10. 10. 9.
      7. 5. 3. 1. 1. 0. 0. 0. 0. 1. 2. 5. 13. 25. 42. 57. 64. 59. 44.
      30. 24. 64. 65. 63. 55. 40. 23. 11. 4. 2. 1. 3. 6. 10. 15. 19. 22.
      22. 20. 16. 11. 7. 4. 2. 1. 0. 0. 0. 0. 1. 3. 8. 19. 34. 50. 61.
      60. 48. 34. 29. 66. 66. 61. 50. 35. 19. 8. 3. 2. 3. 6. 12. 20. 28.
      34. 37. 37. 35. 29. 22. 14. 8. 4. 1. 0. 0. 0. 0. 1. 2. 5. 14. 27.
      44. 57. 59. 50. 37. 32. 69. 67. 60. 47. 31. 16. 7. 3. 3. 5. 11.
      21. 32. 43. 49. 52. 52. 50. 45. 36. 24. 14. 6. 2. 1. 0. 0. 0. 0.
      1. 4. 11. 23. 38. 52. 57. 49. 38. 34. 73. 70. 60. 44. 27. 14. 5.
      3. 3. 8. 17. 31. 45. 55. 59. 60. 60. 60. 57. 48. 35. 21. 10. 4. 1.
      0. 0. 0. 0. 1. 3. 9. 20. 35. 49. 55. 49. 39. 34. 79. 74. 61. 42.
      24. 12. 4. 3. 4. 11. 23. 39. 54. 63. 62. 60. 59. 61. 63. 57. 43.
      27. 13. 5. 2. 1. 0. 0. 0. 1. 2. 8. 18. 32. 46. 53. 48. 38. 34. 84.
      77. 61. 40. 22. 10. 4. 3. 6. 14. 28. 45. 59. 64. 59. 53. 52. 56.
      62. 59. 47. 30. 16. 6. 2. 1. 0. 0. 0. 1. 2. 7. 17. 31. 45. 52. 47.
      38. 34. 87. 80. 62. 39. 20. 9. 3. 3. 6. 16. 31. 48. 61. 62. 54.
      45. 44. 50. 58. 59. 48. 32. 17. 7. 2. 1. 0. 0. 0. 1. 2. 7. 17. 31.
      45. 52. 47. 38. 34. 89. 81. 62. 38. 20. 8. 3. 3. 7. 17. 32. 50.
      61. 62. 52. 43. 42. 48. 57. 58. 49. 32. 17. 7. 2. 1. 0. 0. 0. 1.
      2. 7. 17. 31. 45. 52. 47. 38. 34. 90. 82. 62. 38. 19. 8. 3. 3. 7.
      17. 32. 49. 62. 64. 56. 49. 48. 53. 60. 60. 49. 32. 17. 7. 2. 1.
      0. 0. 0. 1. 2. 7. 17. 31. 45. 52. 47. 38. 34. 90. 82. 62. 38. 19.
      8. 3. 3. 6. 15. 30. 47. 61. 67. 64. 59. 58. 61. 65. 61. 48. 30.
      16. 6. 2. 1. 0. 0. 0. 1. 2. 7. 17. 31. 45. 52. 47. 38. 34. 90. 82.
      62. 38. 19. 8. 3. 2. 5. 13. 25. 41. 56. 65. 67. 66. 66. 67. 66.
      58. 44. 27. 13. 5. 2. 1. 0. 0. 0. 1. 2. 7. 17. 31. 45. 52. 47. 38.
      34. 90. 82. 62. 38. 19. 8. 2. 2. 4. 9. 19. 32. 46. 56. 61. 64. 64.
      63. 59. 49. 35. 21. 10. 4. 1. 0. 0. 0. 0. 1. 2. 7. 17. 31. 45. 52.
      47. 38. 34. 90. 82. 62. 38. 19. 8. 2. 2. 2. 5. 12. 21. 31. 40. 46.
      50. 50. 49. 44. 35. 24. 14. 6. 2. 1. 0. 0. 0. 0. 1. 2. 8. 18. 32.
      46. 53. 48. 38. 34. 89. 81. 62. 38. 20. 8. 2. 1. 1. 3. 6. 11. 17.
      24. 28. 31. 32. 31. 27. 21. 14. 8. 3. 1. 0. 0. 0. 0. 0. 1. 3. 9.
      20. 35. 49. 55. 49. 39. 34. 87. 80. 62. 39. 20. 9. 3. 1. 1. 1. 3.
      5. 8. 11. 14. 16. 17. 16. 13. 10. 6. 3. 2. 1. 0. 0. 0. 0. 0. 1. 3.
      10. 22. 38. 52. 57. 49. 38. 34. 83. 77. 61. 40. 22. 10. 3. 1. 0.
      0. 1. 2. 3. 4. 5. 6. 6. 6. 5. 4. 2. 1. 1. 0. 0. 0. 0. 0. 0. 2. 5.
      13. 26. 42. 55. 58. 49. 37. 32. 78. 73. 60. 42. 25. 12. 5. 2. 1.
      0. 0. 1. 1. 1. 2. 2. 2. 2. 2. 1. 1. 0. 0. 0. 0. 0. 0. 0. 1. 2. 6.
      16. 30. 46. 58. 58. 47. 34. 28. 70. 68. 59. 44. 29. 15. 7. 2. 1.
      0. 0. 0. 0. 0. 1. 1. 1. 1. 1. 0. 0. 0. 0. 0. 0. 0. 0. 0. 1. 3. 9.
      19. 34. 49. 58. 55. 42. 29. 23. 62. 61. 57. 47. 34. 20. 10. 4. 2.
      0. 0. 0. 0. 0. 0. 0. 0. 0. 0. 0. 0. 0. 0. 0. 0. 0. 0. 1. 2. 6. 13.
      25. 40. 52. 56. 50. 36. 23. 18. 54. 55. 56. 52. 41. 27. 15. 7. 3.
      1. 0. 0. 0. 0. 0. 0. 0. 0. 0. 0. 0. 0. 0. 0. 0. 0. 1. 2. 5. 10.
      20. 34. 47. 55. 54. 44. 29. 17. 13. 46. 49. 54. 56. 50. 37. 24.
      13. 6. 3. 1. 0. 0. 0. 0. 0. 0. 0. 0. 0. 0. 0. 0. 0. 0. 1. 1. 4. 9.
      18. 30. 45. 56. 58. 51. 38. 23. 13. 9. 38. 42. 52. 60. 59. 49. 35.
      22. 12. 6. 3. 1. 1. 0. 0. 0. 0. 0. 0. 0. 0. 0. 0. 0. 1. 2. 3. 7.
      15. 27. 43. 56. 63. 59. 47. 31. 17. 9. 6. 30. 35. 48. 60. 66. 61.
      49. 35. 22. 13. 7. 4. 2. 2. 1. 1. 1. 1. 1. 1. 1. 1. 1. 2. 3. 4. 8.
      14. 25. 39. 55. 65. 66. 56. 40. 24. 12. 6. 4. 22. 27. 40. 56. 66.
      69. 62. 49. 35. 23. 15. 9. 6. 4. 3. 2. 2. 2. 2. 2. 2. 3. 3. 5. 7.
      10. 16. 25. 37. 52. 64. 69. 62. 48. 31. 17. 8. 3. 2. 14. 19. 30.
      45. 60. 68. 69. 61. 49. 37. 27. 20. 14. 11. 9. 8. 7. 7. 7. 7. 8.
      9. 10. 13. 16. 21. 28. 38. 50. 62. 69. 66. 54. 38. 22. 11. 5. 2.
      1. 8. 11. 20. 33. 47. 60. 66. 66. 59. 50. 41. 34. 28. 23. 20. 18.
      17. 17. 17. 17. 18. 20. 22. 26. 31. 36. 42. 50. 59. 66. 65. 57.
      42. 27. 14. 7. 2. 1. 0. 4. 6. 11. 20. 32. 45. 55. 61. 61. 58. 54.
      49. 44. 39. 36. 33. 32. 32. 32. 32. 33. 36. 39. 43. 47. 50. 53.
      57. 60. 60. 54. 43. 29. 17. 8. 3. 1. 0. 0. 2. 3. 5. 11. 19. 29.
      39. 47. 52. 56. 58. 59. 57. 54. 51. 48. 47. 47. 47. 47. 48. 51.
      54. 57. 59. 58. 56. 54. 51. 46. 38. 28. 18. 10. 4. 2. 1. 0. 0. 1.
      1. 2. 5. 10. 16. 24. 31. 39. 47. 54. 60. 62. 62. 61. 59. 58. 58.
      58. 58. 59. 61. 62. 63. 61. 57. 50. 43. 36. 30. 23. 16. 9. 5. 2.
      1. 0. 0. 0. 0. 0. 1. 2. 5. 8. 13. 19. 27. 36. 47. 56. 61. 63. 63.
      63. 62. 62. 62. 62. 63. 64. 64. 63. 58. 50. 40. 31. 24. 18. 13. 8.
      4. 2. 1. 0. 0. 0. 0. 0. 0. 0. 1. 3. 6. 9. 15. 22. 32. 43. 53. 60.
      62. 63. 63. 62. 62. 62. 62. 63. 63. 63. 61. 55. 47. 36. 27. 19.
      13. 9. 5. 3. 1. 0. 0. 0. 0. 0.</_>
    <_>
      0. 0. 0. 1. 2. 4. 7. 11. 17. 23. 28. 32. 34. 34. 34. 34. 34. 34.
      34. 34. 34. 34. 32. 28. 23. 17. 11. 7. 4. 2. 1. 0. 0. 0. 0. 0. 0.
      0. 0. 0. 0. 0. 1. 3. 5. 9. 15. 22. 28. 34. 37. 38. 39. 38. 38. 38.
      38. 38. 38. 39. 38. 37. 34. 29. 22. 16. 11. 6. 4. 2. 1. 0. 0. 0.
      0. 0. 0. 0. 0. 1. 1. 3. 6. 11. 18. 27. 36. 43. 48. 50. 50. 49. 48.
      47. 47. 47. 47. 48. 49. 50. 50. 48. 43. 36. 28. 20. 14. 8. 4. 2.
      1. 0. 0. 0. 0. 0. 0. 1. 1. 3. 7. 13. 22. 32. 43. 52. 59. 61. 60.
      57. 55. 53. 52. 52. 52. 52. 53. 55. 57. 60. 61. 59. 53. 45. 36.
      26. 17. 10. 5. 2. 1. 0. 0. 0. 0. 0. 2. 3. 7. 14. 24. 36. 48. 59.
      65. 67. 64. 59. 53. 49. 47. 45. 45. 45. 45. 47. 49. 53. 58. 63.
      66. 65. 61. 53. 42. 31. 20. 11. 5. 2. 1. 0. 0. 0. 0. 5. 7. 14. 24.
      38. 52. 63. 68. 68. 63. 55. 47. 40. 35. 33. 31. 31. 31. 31. 33.
      35. 40. 46. 54. 61. 66. 68. 66. 58. 47. 33. 21. 11. 5. 2. 1. 0. 0.
      0. 9. 13. 22. 36. 52. 64. 69. 68. 61. 51. 40. 31. 24. 20. 18. 17.
      17. 17. 17. 18. 20. 24. 30. 38. 47. 56. 65. 70. 68. 61. 48. 33.
      20. 10. 4. 2. 0. 0. 0. 16. 21. 33. 49. 63. 69. 68. 59. 47. 34. 24.
      17. 12. 9. 8. 7. 7. 7. 7. 8. 9. 11. 15. 22. 30. 40. 52. 63. 70.
      69. 61. 46. 30. 17. 8. 3. 1. 0. 0. 26. 32. 45. 59. 69. 68. 59. 45.
      31. 20. 12. 7. 4. 3. 2. 2. 2. 2. 2. 2. 3. 4. 6. 10. 16. 25. 36.
      50. 63. 70. 68. 58. 42. 26. 13. 5. 2. 1. 0. 38. 43. 55. 66. 69.
      61. 47. 31. 19. 11. 6. 3. 2. 1. 1. 1. 1. 1. 1. 1. 1. 2. 3. 4. 7.
      13. 22. 35. 50. 63. 69. 65. 52. 34. 19. 9. 3. 1. 0. 50. 54. 63.
      68. 63. 50. 34. 20. 10. 5. 2. 1. 0. 0. 0. 0. 0. 0. 0. 0. 0. 0. 1.
      1. 3. 6. 12. 22. 36. 52. 64. 66. 58. 42. 25. 12. 5. 2. 1. 60. 62.
      66. 65. 55. 39. 23. 12. 5. 2. 1. 0. 0. 0. 0. 1. 0. 0. 0. 0. 0. 0.
      0. 0. 1. 3. 6. 13. 25. 40. 54. 63. 60. 47. 30. 16. 6. 2. 1. 68.
      68. 67. 59. 45. 29. 15. 7. 3. 1. 1. 1. 1. 1. 1. 2. 1. 1. 1. 0. 0.
      0. 0. 0. 0. 1. 3. 7. 16. 29. 44. 55. 58. 49. 34. 19. 9. 3. 2. 75.
      73. 65. 52. 35. 20. 10. 4. 2. 1. 1. 2. 3. 4. 5. 5. 5. 4. 2. 1. 1.
      0. 0. 0. 0. 0. 1. 4. 10. 20. 34. 47. 54. 50. 37. 23. 11. 5. 3. 80.
      76. 63. 46. 28. 15. 6. 3. 1. 1. 3. 5. 7. 10. 12. 13. 12. 10. 6. 3.
      2. 1. 0. 0. 0. 0. 1. 2. 6. 14. 26. 39. 49. 50. 41. 27. 15. 7. 4.
      85. 79. 63. 42. 24. 11. 4. 2. 2. 4. 7. 12. 17. 22. 26. 27. 25. 20.
      14. 8. 4. 1. 0. 0. 0. 0. 0. 1. 4. 9. 19. 33. 44. 49. 44. 31. 18.
      9. 6. 89. 82. 63. 40. 21. 9. 3. 2. 4. 8. 14. 22. 31. 38. 42. 44.
      42. 34. 24. 14. 7. 3. 1. 0. 0. 0. 0. 1. 2. 6. 15. 27. 40. 48. 46.
      35. 22. 12. 8. 91. 83. 63. 38. 19. 8. 3. 3. 7. 14. 24. 36. 46. 53.
      57. 59. 56. 48. 36. 22. 11. 5. 2. 1. 0. 0. 0. 0. 2. 5. 12. 23. 37.
      47. 48. 39. 26. 14. 10. 90. 81. 60. 36. 18. 8. 3. 5. 10. 21. 35.
      49. 58. 62. 64. 64. 63. 57. 45. 30. 16. 7. 3. 1. 0. 0. 0. 0. 1. 3.
      9. 20. 34. 46. 49. 42. 28. 16. 12. 84. 76. 56. 33. 16. 7. 3. 6.
      13. 27. 43. 57. 63. 62. 60. 59. 60. 59. 50. 36. 21. 10. 4. 1. 0.
      0. 0. 0. 1. 3. 8. 19. 32. 46. 50. 43. 30. 18. 13. 76. 68. 49. 28.
      13. 6. 3. 7. 16. 30. 47. 59. 62. 56. 50. 49. 53. 56. 52. 40. 25.
      13. 5. 1. 1. 0. 0. 0. 1. 2. 7. 18. 32. 45. 51. 44. 31. 19. 14. 66.
      59. 42. 24. 11. 4. 3. 7. 17. 32. 48. 59. 58. 49. 41. 40. 45. 52.
      52. 42. 27. 14. 6. 2. 1. 0. 0. 0. 1. 2. 7. 17. 31. 45. 51. 45. 32.
      19. 14. 58. 52. 36. 20. 9. 4. 3. 7. 17. 32. 49. 58. 57. 46. 38.
      37. 43. 51. 52. 43. 28. 15. 6. 2. 1. 0. 0. 0. 1. 2. 7. 17. 31. 45.
      51. 45. 32. 19. 14. 54. 48. 33. 18. 8. 3. 3. 7. 17. 32. 49. 59.
      59. 51. 43. 42. 47. 53. 52. 42. 27. 14. 6. 2. 1. 0. 0. 0. 1. 2. 7.
      17. 31. 45. 51. 45. 32. 19. 14. 52. 46. 32. 17. 7. 3. 3. 6. 16.
      30. 48. 60. 64. 59. 53. 51. 53. 56. 51. 39. 25. 13. 5. 1. 1. 0. 0.
      0. 1. 2. 7. 17. 31. 45. 51. 45. 32. 19. 14. 52. 46. 31. 17. 7. 3.
      3. 5. 13. 27. 43. 58. 65. 64. 61. 59. 58. 56. 48. 34. 20. 10. 4.
      1. 0. 0. 0. 0. 1. 2. 7. 17. 31. 45. 51. 45. 32. 19. 14. 52. 46.
      32. 17. 7. 2. 2. 4. 10. 21. 35. 49. 58. 61. 60. 59. 56. 50. 40.
      27. 15. 7. 3. 1. 0. 0. 0. 0. 1. 2. 7. 17. 31. 45. 51. 45. 32. 19.
      14. 54. 48. 33. 18. 8. 3. 2. 2. 6. 14. 24. 35. 43. 48. 49. 48. 44.
      38. 29. 19. 10. 4. 2. 1. 0. 0. 0. 0. 1. 2. 7. 18. 32. 45. 51. 44.
      31. 19. 14. 58. 52. 36. 20. 9. 3. 2. 1. 3. 8. 14. 21. 27. 30. 32.
      31. 28. 24. 17. 11. 6. 2. 1. 0. 0. 0. 0. 0. 1. 3. 8. 19. 32. 46.
      50. 43. 30. 18. 13. 66. 59. 42. 24. 11. 4. 2. 1. 2. 3. 6. 10. 13.
      16. 17. 16. 15. 12. 9. 5. 3. 1. 0. 0. 0. 0. 0. 0. 1. 3. 9. 20. 34.
      46. 49. 42. 28. 16. 12. 75. 67. 49. 28. 13. 5. 2. 1. 1. 1. 2. 4.
      5. 6. 7. 7. 6. 5. 3. 2. 1. 0. 0. 0. 0. 0. 0. 0. 2. 5. 12. 23. 37.
      47. 48. 39. 26. 14. 10. 84. 75. 56. 34. 16. 6. 2. 1. 0. 0. 1. 1.
      2. 2. 2. 2. 2. 1. 1. 1. 0. 0. 0. 0. 0. 0. 0. 1. 2. 7. 15. 27. 40.
      48. 46. 35. 22. 12. 8. 87. 80. 60. 38. 19. 8. 3. 1. 0. 0. 0. 0. 1.
      1. 1. 1. 1. 1. 0. 0. 0. 0. 0. 0. 0. 0. 0. 1. 4. 10. 20. 33. 45.
      49. 44. 31. 18. 9. 6. 86. 80. 63. 42. 23. 11. 4. 2. 0. 0. 0. 0. 0.
      0. 0. 0. 0. 0. 0. 0. 0. 0. 0. 0. 0. 0. 1. 3. 7. 15. 27. 40. 49.
      50. 41. 27. 15. 7. 4. 82. 77. 65. 47. 29. 16. 7. 3. 1. 0. 0. 0. 0.
      0. 0. 0. 0. 0. 0. 0. 0. 0. 0. 0. 0. 1. 2. 5. 11. 22. 36. 49. 54.
      50. 37. 23. 11. 5. 3. 75. 73. 66. 53. 38. 23. 12. 5. 2. 1. 0. 0.
      0. 0. 0. 0. 0. 0. 0. 0. 0. 0. 0. 0. 1. 2. 4. 9. 19. 32. 47. 58.
      59. 49. 34. 19. 9. 3. 2. 68. 68. 67. 61. 49. 33. 20. 10. 5. 2. 1.
      1. 0. 0. 0. 0. 0. 0. 0. 0. 0. 0. 1. 1. 2. 4. 9. 16. 29. 44. 58.
      64. 60. 46. 29. 15. 6. 2. 1. 59. 61. 66. 67. 60. 46. 31. 18. 10.
      5. 3. 2. 1. 1. 1. 1. 1. 1. 1. 1. 1. 2. 2. 4. 6. 10. 17. 28. 42.
      56. 66. 66. 56. 40. 23. 11. 4. 1. 1. 46. 51. 60. 68. 67. 58. 44.
      30. 19. 12. 8. 5. 4. 3. 2. 2. 2. 2. 2. 2. 3. 4. 6. 9. 14. 20. 30.
      42. 55. 66. 69. 62. 48. 31. 17. 7. 3. 1. 0. 33. 38. 50. 62. 68.
      65. 56. 44. 32. 24. 18. 13. 10. 9. 8. 7. 7. 7. 7. 8. 9. 11. 14.
      19. 26. 34. 45. 55. 65. 69. 65. 53. 37. 22. 11. 5. 2. 0. 0. 21.
      26. 37. 51. 62. 65. 62. 55. 46. 38. 32. 27. 23. 20. 18. 17. 17.
      17. 17. 18. 20. 23. 27. 34. 41. 48. 56. 63. 67. 64. 55. 41. 26.
      14. 6. 2. 1. 0. 0. 12. 15. 24. 37. 49. 57. 60. 59. 56. 52. 48. 43.
      39. 36. 33. 32. 32. 32. 32. 33. 36. 39. 44. 49. 53. 57. 60. 61.
      58. 51. 40. 27. 16. 8. 3. 1. 0. 0. 0. 6. 8. 14. 23. 33. 42. 49.
      54. 57. 59. 59. 57. 54. 51. 48. 47. 47. 47. 47. 48. 51. 54. 57.
      58. 58. 56. 52. 48. 42. 34. 25. 16. 9. 4. 2. 1. 0. 0. 0. 3. 4. 7.
      12. 19. 26. 34. 42. 50. 57. 62. 63. 62. 61. 59. 58. 58. 58. 58.
      59. 61. 62. 62. 60. 54. 47. 39. 32. 26. 19. 13. 8. 4. 2. 1. 0. 0.
      0. 0. 1. 1. 3. 6. 10. 15. 22. 30. 40. 50. 58. 63. 64. 64. 63. 62.
      62. 62. 62. 63. 63. 63. 61. 56. 47. 36. 27. 20. 14. 10. 6. 3. 2.
      1. 0. 0. 0. 0. 0. 1. 1. 2. 4. 7. 11. 17. 26. 36. 47. 55. 61. 63.
      63. 63. 62. 62. 62. 62. 63. 63. 62. 60. 53. 43. 32. 22. 15. 10. 6.
      4. 2. 1. 0. 0. 0. 0. 0. 0.</_>
    <_>
      0. 0. 0. 0. 0. 0. 1. 2. 4. 7. 11. 16. 22. 28. 32. 33. 34. 34. 34.
      34. 34. 34. 34. 33. 32. 28. 22. 16. 11. 7. 4. 2. 1. 0. 0. 0. 0. 0.
      0. 0. 0. 0. 0. 0. 1. 2. 3. 6. 10. 15. 21. 27. 33. 37. 38. 38. 38.
      38. 38. 38. 38. 38. 38. 37. 33. 27. 21. 15. 10. 6. 3. 2. 1. 0. 0.
      0. 0. 0. 0. 0. 0. 0. 1. 2. 4. 8. 12. 18. 25. 33. 40. 46. 49. 49.
      48. 48. 47. 47. 47. 48. 48. 49. 49. 46. 40. 33. 25. 18. 12. 8. 4.
      2. 1. 0. 0. 0. 0. 0. 0. 0. 1. 2. 5. 10. 16. 24. 32. 40. 47. 53.
      57. 58. 57. 55. 53. 52. 52. 52. 53. 55. 57. 58. 57. 53. 47. 40.
      32. 24. 16. 10. 5. 2. 1. 0. 0. 0. 0. 0. 1. 2. 5. 11. 19. 29. 39.
      48. 53. 56. 58. 58. 55. 52. 49. 46. 45. 45. 45. 46. 49. 52. 55.
      58. 58. 56. 53. 48. 39. 29. 19. 11. 5. 2. 1. 0. 0. 0. 1. 2. 5. 10.
      19. 32. 45. 55. 60. 60. 56. 52. 48. 43. 38. 35. 32. 31. 31. 31.
      32. 35. 38. 43. 48. 52. 56. 60. 60. 55. 45. 33. 21. 11. 5. 2. 1.
      0. 1. 1. 3. 8. 17. 31. 46. 59. 65. 64. 57. 47. 39. 32. 27. 23. 20.
      18. 17. 17. 17. 18. 20. 23. 27. 32. 39. 48. 57. 64. 66. 60. 48.
      34. 21. 11. 5. 2. 1. 2. 3. 6. 14. 27. 43. 58. 68. 68. 60. 47. 34.
      25. 18. 13. 10. 9. 8. 7. 7. 7. 8. 9. 10. 13. 18. 25. 34. 47. 59.
      68. 69. 61. 48. 33. 20. 10. 5. 3. 3. 5. 11. 23. 38. 55. 67. 69.
      62. 49. 34. 21. 13. 8. 5. 4. 3. 2. 2. 2. 2. 2. 3. 4. 5. 8. 13. 21.
      33. 48. 61. 69. 69. 61. 46. 31. 17. 9. 6. 6. 8. 17. 32. 49. 63.
      69. 65. 52. 36. 22. 12. 6. 3. 2. 1. 1. 1. 1. 1. 1. 1. 1. 1. 2. 3.
      6. 12. 21. 34. 49. 62. 70. 68. 58. 42. 26. 15. 11. 9. 13. 25. 41.
      58. 68. 67. 56. 40. 24. 13. 6. 3. 1. 1. 0. 0. 0. 0. 0. 0. 0. 0. 0.
      1. 1. 3. 6. 12. 21. 35. 50. 63. 69. 65. 52. 35. 22. 17. 14. 18.
      32. 49. 63. 67. 60. 45. 28. 15. 7. 3. 1. 1. 0. 1. 1. 0. 0. 0. 0.
      0. 0. 0. 0. 0. 1. 2. 6. 12. 22. 36. 52. 64. 67. 59. 43. 29. 23.
      19. 24. 39. 55. 65. 63. 51. 34. 19. 9. 4. 1. 1. 1. 1. 1. 2. 1. 1.
      1. 1. 0. 0. 0. 0. 0. 0. 1. 3. 6. 13. 25. 40. 55. 64. 61. 48. 35.
      29. 24. 30. 44. 59. 64. 57. 42. 25. 13. 5. 2. 1. 1. 2. 4. 5. 5. 5.
      4. 2. 2. 1. 0. 0. 0. 0. 0. 0. 1. 3. 7. 16. 30. 46. 57. 60. 51. 40.
      35. 29. 35. 48. 60. 61. 50. 34. 19. 8. 3. 2. 2. 3. 6. 10. 12. 13.
      12. 10. 7. 4. 3. 1. 1. 0. 0. 0. 0. 0. 2. 4. 11. 22. 37. 50. 56.
      52. 44. 40. 33. 38. 50. 59. 56. 43. 27. 13. 5. 2. 2. 4. 8. 14. 20.
      25. 27. 25. 21. 15. 10. 6. 3. 1. 0. 0. 0. 0. 0. 1. 3. 7. 16. 30.
      44. 53. 53. 48. 45. 37. 41. 51. 56. 51. 37. 22. 10. 4. 2. 3. 7.
      14. 24. 34. 41. 43. 41. 35. 27. 20. 12. 7. 3. 1. 0. 0. 0. 0. 0. 2.
      5. 12. 24. 39. 50. 54. 53. 51. 40. 44. 51. 54. 46. 32. 18. 8. 3.
      2. 4. 11. 21. 35. 48. 56. 58. 54. 48. 40. 31. 21. 12. 6. 2. 1. 0.
      0. 0. 0. 1. 3. 10. 21. 35. 48. 56. 57. 56. 45. 48. 52. 51. 41. 27.
      14. 6. 3. 3. 6. 15. 28. 44. 58. 64. 63. 59. 55. 49. 41. 30. 18. 9.
      3. 1. 0. 0. 0. 0. 1. 3. 8. 19. 34. 48. 57. 60. 59. 51. 52. 54. 49.
      38. 23. 11. 4. 2. 3. 8. 19. 34. 49. 60. 62. 59. 56. 54. 53. 48.
      37. 23. 12. 5. 1. 1. 0. 0. 0. 1. 2. 7. 18. 33. 47. 58. 61. 61. 56.
      57. 56. 48. 35. 20. 9. 4. 3. 4. 11. 23. 38. 52. 59. 56. 50. 47.
      49. 53. 52. 42. 27. 14. 6. 2. 1. 0. 0. 0. 1. 2. 7. 17. 32. 47. 58.
      62. 62. 59. 59. 57. 48. 33. 18. 8. 3. 3. 5. 13. 26. 42. 54. 57.
      51. 43. 40. 45. 52. 53. 45. 30. 16. 6. 2. 1. 0. 0. 0. 1. 2. 7. 17.
      32. 47. 58. 62. 62. 61. 61. 58. 47. 33. 18. 7. 3. 3. 6. 14. 29.
      45. 57. 60. 52. 43. 41. 46. 54. 56. 47. 31. 17. 7. 2. 1. 0. 0. 0.
      1. 2. 7. 17. 32. 47. 58. 62. 62. 62. 62. 58. 47. 32. 17. 7. 3. 3.
      6. 15. 29. 46. 60. 64. 58. 51. 49. 53. 59. 59. 48. 31. 17. 7. 2.
      1. 0. 0. 0. 1. 2. 7. 17. 32. 47. 58. 62. 62. 62. 62. 58. 47. 32.
      17. 7. 3. 3. 5. 13. 27. 44. 60. 68. 66. 62. 60. 62. 65. 61. 47.
      30. 16. 6. 2. 1. 0. 0. 0. 1. 2. 7. 17. 32. 47. 58. 62. 62. 62. 62.
      58. 47. 32. 17. 7. 2. 2. 4. 10. 22. 38. 54. 65. 69. 68. 67. 67.
      66. 58. 43. 27. 13. 5. 2. 1. 0. 0. 0. 1. 2. 7. 17. 32. 47. 58. 62.
      62. 62. 62. 58. 47. 32. 17. 7. 2. 2. 3. 7. 15. 28. 42. 54. 61. 64.
      65. 63. 59. 49. 35. 21. 10. 4. 1. 0. 0. 0. 0. 1. 2. 7. 18. 33. 47.
      58. 61. 61. 62. 62. 58. 47. 32. 17. 7. 2. 1. 1. 4. 9. 17. 28. 38.
      46. 50. 51. 49. 44. 35. 24. 14. 6. 2. 1. 0. 0. 0. 0. 1. 3. 8. 18.
      33. 48. 57. 59. 59. 61. 61. 58. 47. 33. 18. 8. 2. 1. 1. 2. 4. 9.
      15. 22. 28. 31. 32. 31. 27. 21. 14. 8. 3. 1. 0. 0. 0. 0. 0. 1. 3.
      9. 20. 35. 48. 56. 57. 56. 59. 60. 57. 48. 34. 19. 8. 3. 1. 0. 1.
      2. 4. 7. 10. 14. 16. 16. 16. 13. 10. 6. 3. 2. 1. 0. 0. 0. 0. 0. 1.
      4. 11. 23. 37. 49. 54. 52. 51. 56. 57. 56. 49. 36. 22. 10. 4. 2.
      0. 0. 1. 1. 3. 4. 5. 6. 6. 6. 5. 4. 2. 1. 1. 0. 0. 0. 0. 0. 1. 2.
      5. 13. 26. 40. 50. 52. 48. 45. 51. 53. 55. 52. 41. 26. 14. 6. 2.
      1. 0. 0. 0. 1. 1. 2. 2. 2. 2. 2. 1. 1. 0. 0. 0. 0. 0. 0. 0. 1. 2.
      7. 16. 30. 44. 52. 50. 44. 40. 44. 47. 53. 54. 46. 33. 19. 9. 3.
      1. 0. 0. 0. 0. 0. 1. 1. 1. 1. 1. 0. 0. 0. 0. 0. 0. 0. 0. 0. 1. 3.
      9. 20. 35. 49. 55. 50. 41. 37. 37. 41. 50. 56. 52. 40. 25. 13. 6.
      2. 1. 0. 0. 0. 0. 0. 0. 0. 0. 0. 0. 0. 0. 0. 0. 0. 0. 0. 1. 2. 5.
      13. 26. 41. 54. 58. 50. 39. 35. 29. 34. 45. 55. 56. 47. 33. 19. 9.
      4. 1. 0. 0. 0. 0. 0. 0. 0. 0. 0. 0. 0. 0. 0. 0. 0. 0. 1. 1. 4. 9.
      19. 34. 50. 61. 61. 50. 37. 32. 22. 26. 38. 51. 56. 53. 41. 27.
      15. 7. 3. 1. 0. 0. 0. 0. 0. 0. 0. 0. 0. 0. 0. 0. 0. 0. 1. 1. 3. 8.
      15. 29. 45. 59. 66. 61. 47. 33. 27. 14. 19. 30. 44. 55. 57. 50.
      37. 23. 13. 6. 3. 1. 1. 0. 0. 0. 0. 0. 0. 0. 0. 0. 0. 0. 1. 2. 4.
      7. 14. 25. 40. 56. 66. 67. 57. 41. 27. 21. 9. 13. 23. 37. 52. 61.
      59. 49. 35. 22. 13. 7. 4. 2. 2. 1. 1. 1. 1. 1. 1. 1. 1. 1. 2. 3.
      5. 9. 15. 25. 38. 53. 65. 69. 63. 49. 32. 19. 15. 5. 8. 17. 30.
      47. 60. 66. 61. 49. 35. 23. 15. 9. 6. 4. 3. 2. 2. 2. 2. 2. 2. 2.
      3. 4. 6. 10. 17. 27. 39. 52. 64. 70. 66. 54. 38. 23. 13. 9. 3. 5.
      11. 23. 39. 55. 66. 68. 61. 49. 37. 27. 20. 14. 11. 9. 8. 7. 7. 7.
      7. 7. 7. 8. 10. 14. 20. 29. 40. 53. 63. 69. 67. 58. 43. 27. 15. 7.
      5. 2. 3. 7. 16. 29. 44. 58. 66. 66. 59. 50. 41. 34. 28. 23. 20.
      18. 17. 17. 17. 17. 17. 18. 19. 21. 26. 33. 42. 52. 60. 65. 64.
      57. 44. 30. 17. 8. 4. 2. 1. 2. 4. 10. 19. 31. 44. 55. 60. 61. 58.
      54. 49. 44. 39. 36. 33. 32. 32. 32. 32. 32. 33. 34. 35. 39. 44.
      50. 56. 59. 57. 51. 42. 30. 18. 10. 4. 2. 1. 0. 1. 2. 5. 10. 19.
      29. 39. 47. 52. 56. 58. 59. 57. 54. 51. 48. 47. 47. 47. 47. 47.
      47. 48. 48. 49. 50. 51. 50. 48. 42. 35. 26. 17. 10. 5. 2. 1. 0. 0.
      0. 1. 2. 5. 10. 16. 24. 31. 39. 47. 54. 60. 62. 62. 61. 59. 58.
      58. 58. 58. 58. 58. 57. 55. 52. 49. 44. 39. 33. 26. 20. 13. 8. 4.
      2. 1. 0. 0. 0. 0. 0. 1. 2. 5. 8. 13. 19. 27. 36. 47. 56. 61. 63.
      63. 63. 62. 62. 62. 62. 62. 61. 59. 56. 50. 43. 36. 28. 21. 15.
      10. 6. 3. 2. 1. 0. 0. 0. 0. 0. 0. 0. 1. 3. 6. 9. 15. 22. 32. 43.
      53. 60. 62. 63. 63. 62. 62. 62. 62. 62. 61. 59. 55. 49. 41. 32.
      23. 16. 11. 7. 4. 2. 1. 0. 0. 0. 0.</_>
    <_>
      0. 0. 0. 0. 0. 0. 1. 2. 4. 7. 11. 16. 22. 28. 32. 33. 34. 34. 34.
      34. 34. 34. 34. 33. 32. 28. 22. 16. 11. 7. 4. 2. 1. 0. 0. 0. 0. 0.
      0. 0. 0. 0. 0. 0. 1. 2. 3. 6. 10. 15. 21. 27. 33. 37. 38. 38. 38.
      38. 38. 38. 38. 38. 38. 37. 33. 27. 21. 15. 10. 6. 3. 2. 1. 0. 0.
      0. 0. 0. 0. 0. 0. 0. 1. 2. 4. 8. 12. 18. 25. 33. 40. 46. 49. 49.
      48. 48. 47. 47. 47. 48. 48. 49. 49. 46. 40. 33. 25. 18. 12. 8. 4.
      2. 1. 0. 0. 0. 0. 0. 0. 0. 1. 2. 5. 10. 16. 24. 32. 40. 47. 53.
      57. 58. 57. 55. 53. 52. 52. 52. 53. 55. 57. 58. 57. 53. 47. 40.
      32. 24. 16. 10. 5. 2. 1. 0. 0. 0. 0. 0. 1. 2. 5. 11. 19. 29. 39.
      48. 53. 56. 58. 58. 55. 52. 49. 46. 45. 45. 45. 46. 49. 52. 55.
      58. 58. 56. 53. 48. 39. 29. 19. 11. 5. 2. 1. 0. 0. 0. 0. 2. 4. 10.
      19. 32. 45. 55. 60. 60. 56. 52. 48. 43. 38. 35. 32. 31. 31. 31.
      32. 35. 38. 43. 48. 52. 56. 60. 60. 55. 45. 33. 21. 11. 5. 2. 1.
      0. 1. 1. 3. 8. 17. 30. 45. 59. 65. 64. 57. 47. 39. 32. 27. 23. 20.
      18. 17. 17. 17. 18. 20. 23. 27. 32. 39. 48. 57. 64. 66. 60. 48.
      34. 21. 11. 5. 2. 1. 1. 2. 6. 13. 26. 42. 57. 67. 68. 60. 47. 34.
      25. 18. 13. 10. 9. 8. 7. 7. 7. 8. 9. 10. 13. 18. 25. 34. 47. 59.
      68. 69. 61. 48. 33. 20. 10. 5. 3. 2. 4. 9. 20. 35. 52. 65. 68. 62.
      49. 34. 21. 13. 8. 5. 4. 3. 2. 2. 2. 2. 2. 3. 4. 5. 8. 13. 21. 33.
      48. 61. 69. 69. 61. 46. 31. 17. 9. 6. 4. 6. 13. 26. 43. 58. 66.
      63. 51. 36. 22. 12. 6. 3. 2. 1. 1. 1. 1. 1. 1. 1. 1. 1. 2. 3. 6.
      12. 21. 34. 49. 62. 70. 68. 58. 42. 26. 15. 11. 7. 10. 19. 33. 49.
      60. 61. 53. 38. 24. 13. 6. 3. 1. 1. 0. 0. 0. 0. 0. 0. 0. 0. 0. 1.
      1. 3. 6. 12. 21. 35. 50. 63. 69. 65. 52. 35. 22. 17. 11. 15. 26.
      40. 53. 58. 54. 42. 27. 15. 7. 3. 1. 1. 0. 1. 1. 1. 1. 0. 0. 0. 0.
      0. 0. 0. 1. 2. 6. 12. 22. 36. 52. 64. 67. 59. 43. 29. 23. 16. 21.
      33. 47. 56. 55. 45. 31. 18. 9. 4. 1. 1. 1. 1. 2. 2. 2. 1. 1. 1. 0.
      0. 0. 0. 0. 0. 1. 3. 6. 13. 25. 40. 55. 64. 61. 48. 35. 29. 22.
      27. 40. 53. 58. 52. 38. 23. 12. 5. 2. 1. 1. 2. 4. 5. 6. 5. 5. 3.
      2. 1. 1. 0. 0. 0. 0. 0. 1. 3. 7. 16. 30. 46. 57. 60. 51. 40. 35.
      28. 33. 46. 57. 57. 47. 32. 17. 8. 3. 2. 2. 4. 7. 10. 13. 14. 14.
      12. 9. 6. 3. 1. 1. 0. 0. 0. 0. 0. 2. 4. 11. 22. 37. 50. 56. 52.
      44. 40. 33. 38. 49. 58. 55. 42. 26. 13. 5. 2. 2. 4. 8. 14. 21. 26.
      28. 27. 23. 18. 12. 7. 4. 1. 1. 0. 0. 0. 0. 1. 3. 7. 16. 30. 44.
      53. 53. 48. 45. 36. 41. 50. 56. 50. 37. 22. 10. 4. 2. 3. 7. 15.
      25. 36. 43. 46. 43. 38. 30. 21. 13. 7. 3. 1. 0. 0. 0. 0. 0. 2. 5.
      12. 24. 39. 50. 54. 53. 51. 40. 44. 51. 54. 46. 31. 17. 8. 3. 3.
      5. 13. 24. 39. 51. 59. 60. 56. 49. 41. 31. 21. 12. 6. 2. 1. 0. 0.
      0. 0. 1. 3. 10. 21. 35. 48. 56. 57. 56. 45. 48. 52. 51. 41. 27.
      14. 6. 3. 4. 8. 19. 34. 50. 63. 67. 65. 59. 54. 48. 40. 29. 18. 9.
      3. 1. 0. 0. 0. 0. 1. 3. 8. 19. 34. 48. 57. 60. 59. 51. 52. 54. 49.
      38. 23. 11. 5. 3. 5. 11. 24. 42. 58. 68. 66. 60. 54. 52. 51. 46.
      36. 23. 12. 5. 1. 1. 0. 0. 0. 1. 2. 7. 18. 33. 47. 58. 61. 61. 56.
      57. 56. 48. 35. 20. 9. 4. 3. 6. 14. 29. 47. 62. 67. 61. 52. 46.
      47. 51. 50. 41. 27. 14. 6. 2. 1. 0. 0. 0. 1. 2. 7. 17. 32. 47. 58.
      62. 62. 59. 59. 57. 48. 33. 18. 8. 3. 3. 6. 16. 32. 50. 63. 65.
      56. 45. 40. 43. 51. 52. 44. 29. 16. 6. 2. 1. 0. 0. 0. 1. 2. 7. 17.
      32. 47. 58. 62. 62. 61. 61. 58. 47. 33. 18. 7. 3. 3. 6. 17. 32.
      51. 63. 65. 55. 45. 41. 45. 53. 55. 46. 31. 17. 7. 2. 1. 0. 0. 0.
      1. 2. 7. 17. 32. 47. 58. 62. 62. 62. 62. 58. 47. 32. 17. 7. 3. 3.
      6. 16. 31. 49. 64. 67. 60. 52. 49. 53. 59. 58. 48. 31. 17. 7. 2.
      1. 0. 0. 0. 1. 2. 7. 17. 32. 47. 58. 62. 62. 62. 62. 58. 47. 32.
      17. 7. 3. 3. 5. 14. 28. 46. 61. 69. 67. 62. 60. 62. 65. 60. 47.
      30. 16. 6. 2. 1. 0. 0. 0. 1. 2. 7. 17. 32. 47. 58. 62. 62. 62. 62.
      58. 47. 32. 17. 7. 2. 2. 4. 10. 22. 38. 54. 65. 69. 68. 67. 67.
      66. 58. 43. 27. 13. 5. 2. 1. 0. 0. 0. 1. 2. 7. 17. 32. 47. 58. 62.
      62. 62. 62. 58. 47. 32. 17. 7. 2. 2. 3. 7. 15. 28. 42. 54. 61. 64.
      65. 63. 59. 49. 35. 21. 10. 4. 1. 0. 0. 0. 0. 1. 2. 7. 18. 33. 47.
      58. 61. 61. 62. 62. 58. 47. 32. 17. 7. 2. 1. 1. 4. 9. 17. 28. 38.
      46. 50. 51. 49. 44. 35. 24. 14. 6. 2. 1. 0. 0. 0. 0. 1. 3. 8. 18.
      33. 48. 57. 59. 59. 61. 61. 58. 47. 33. 18. 8. 2. 1. 1. 2. 4. 9.
      15. 22. 28. 31. 32. 31. 27. 21. 14. 8. 3. 1. 0. 0. 0. 0. 0. 1. 3.
      9. 20. 35. 48. 56. 57. 56. 59. 60. 57. 48. 34. 19. 8. 3. 1. 0. 1.
      2. 4. 7. 10. 14. 16. 16. 16. 13. 10. 6. 3. 2. 1. 0. 0. 0. 0. 0. 1.
      4. 11. 23. 37. 49. 54. 52. 51. 56. 57. 56. 49. 37. 22. 10. 4. 2.
      0. 0. 1. 1. 3. 4. 5. 6. 6. 6. 5. 4. 2. 1. 1. 0. 0. 0. 0. 0. 1. 2.
      5. 13. 26. 40. 50. 52. 48. 45. 51. 53. 55. 52. 41. 27. 14. 6. 2.
      1. 0. 0. 0. 1. 1. 2. 2. 2. 2. 2. 1. 1. 0. 0. 0. 0. 0. 0. 0. 1. 2.
      7. 16. 30. 44. 52. 50. 44. 40. 45. 48. 54. 55. 48. 34. 20. 9. 4.
      1. 0. 0. 0. 0. 0. 1. 1. 1. 1. 1. 0. 0. 0. 0. 0. 0. 0. 0. 0. 1. 3.
      9. 20. 35. 49. 55. 50. 41. 37. 38. 43. 52. 59. 55. 43. 27. 14. 6.
      2. 1. 0. 0. 0. 0. 0. 0. 0. 0. 0. 0. 0. 0. 0. 0. 0. 0. 0. 1. 3. 6.
      14. 27. 42. 55. 58. 50. 39. 35. 31. 36. 49. 60. 62. 52. 37. 21.
      10. 4. 1. 0. 0. 0. 0. 0. 0. 0. 0. 0. 0. 0. 0. 0. 0. 0. 0. 1. 2. 5.
      11. 22. 37. 52. 62. 61. 50. 37. 32. 24. 30. 44. 58. 65. 61. 47.
      30. 16. 8. 3. 1. 0. 0. 0. 0. 0. 0. 0. 0. 0. 0. 0. 0. 0. 0. 1. 2.
      5. 10. 19. 33. 49. 62. 67. 62. 47. 33. 28. 17. 23. 36. 53. 65. 66.
      56. 40. 25. 13. 7. 3. 1. 1. 0. 0. 0. 0. 0. 0. 0. 0. 0. 0. 0. 1. 2.
      5. 10. 19. 31. 46. 61. 70. 69. 58. 41. 27. 22. 12. 16. 28. 45. 61.
      68. 65. 52. 37. 23. 13. 7. 4. 2. 2. 1. 1. 1. 1. 1. 1. 1. 1. 1. 2.
      3. 6. 10. 19. 31. 45. 60. 71. 73. 66. 51. 34. 21. 17. 7. 11. 20.
      36. 53. 66. 69. 63. 50. 36. 24. 15. 9. 6. 4. 3. 2. 2. 2. 2. 2. 2.
      2. 3. 4. 7. 12. 20. 32. 46. 60. 71. 76. 72. 60. 45. 29. 17. 14. 4.
      6. 14. 26. 42. 58. 68. 69. 61. 49. 37. 27. 20. 14. 11. 9. 8. 7. 7.
      7. 7. 7. 7. 8. 11. 15. 22. 33. 46. 60. 70. 76. 76. 68. 55. 40. 26.
      15. 12. 2. 4. 8. 17. 30. 46. 59. 66. 66. 59. 50. 41. 34. 28. 23.
      20. 18. 17. 17. 17. 17. 17. 18. 19. 22. 27. 36. 47. 60. 71. 77.
      77. 72. 63. 50. 37. 24. 15. 12. 1. 2. 4. 10. 19. 32. 45. 55. 60.
      61. 58. 54. 49. 44. 39. 36. 33. 32. 32. 32. 32. 32. 33. 34. 37.
      42. 50. 60. 70. 76. 77. 74. 67. 57. 46. 34. 22. 13. 11. 0. 1. 2.
      5. 11. 19. 29. 39. 47. 52. 56. 58. 59. 57. 54. 51. 48. 47. 47. 47.
      47. 47. 47. 48. 51. 55. 62. 70. 76. 79. 77. 71. 62. 52. 40. 28.
      18. 10. 8. 0. 0. 1. 2. 5. 10. 16. 24. 31. 39. 47. 54. 60. 62. 62.
      61. 59. 58. 58. 58. 58. 58. 58. 58. 59. 63. 68. 75. 81. 83. 79.
      71. 60. 47. 34. 22. 13. 7. 5. 0. 0. 0. 1. 2. 5. 8. 13. 19. 27. 36.
      47. 56. 61. 63. 63. 63. 62. 62. 62. 62. 62. 62. 61. 62. 65. 70.
      77. 84. 86. 82. 73. 59. 44. 29. 17. 9. 5. 3. 0. 0. 0. 0. 1. 3. 6.
      9. 15. 22. 32. 43. 53. 60. 62. 63. 63. 62. 62. 62. 62. 62. 62. 61.
      62. 64. 70. 78. 85. 88. 84. 74. 59. 42. 27. 15. 8. 4. 2.</_>
    <_>
      0. 0. 0. 0. 0. 1. 2. 3. 4. 7. 10. 15. 20. 25. 29. 32. 33. 34. 34.
      33. 32. 29. 26. 21. 16. 12. 9. 6. 4. 2. 1. 1. 0. 0. 0. 0. 0. 0. 0.
      0. 0. 0. 0. 1. 2. 3. 5. 7. 10. 14. 19. 24. 29. 33. 36. 37. 38. 38.
      37. 36. 34. 30. 25. 21. 16. 12. 9. 6. 4. 2. 1. 0. 0. 0. 0. 0. 0.
      0. 0. 0. 0. 1. 2. 4. 7. 11. 15. 20. 24. 29. 35. 39. 43. 45. 46.
      47. 47. 46. 45. 43. 40. 37. 32. 27. 23. 18. 13. 9. 6. 3. 2. 1. 0.
      0. 0. 0. 0. 0. 0. 1. 2. 5. 9. 16. 23. 29. 34. 38. 42. 45. 48. 50.
      51. 52. 52. 52. 52. 51. 50. 49. 47. 44. 41. 37. 32. 26. 19. 13. 8.
      4. 2. 1. 0. 0. 0. 0. 0. 1. 2. 4. 10. 18. 28. 38. 45. 49. 50. 49.
      48. 47. 46. 46. 45. 45. 45. 45. 46. 46. 47. 49. 50. 51. 50. 47.
      42. 35. 26. 17. 10. 5. 2. 1. 0. 0. 0. 1. 1. 4. 8. 17. 30. 43. 54.
      59. 59. 54. 48. 42. 38. 35. 33. 32. 31. 31. 32. 32. 34. 37. 41.
      46. 52. 56. 59. 57. 51. 42. 30. 18. 10. 4. 2. 1. 0. 0. 2. 3. 7.
      15. 27. 43. 57. 65. 65. 59. 48. 39. 31. 25. 21. 19. 18. 17. 17.
      18. 19. 21. 24. 28. 35. 43. 53. 61. 65. 64. 57. 44. 30. 17. 8. 3.
      1. 0. 0. 4. 6. 12. 24. 39. 55. 66. 69. 62. 50. 37. 26. 18. 13. 10.
      8. 7. 7. 7. 7. 8. 10. 12. 16. 22. 30. 41. 53. 63. 69. 67. 58. 43.
      27. 14. 6. 2. 1. 0. 9. 11. 21. 35. 51. 64. 70. 65. 52. 37. 24. 15.
      9. 6. 4. 3. 2. 2. 2. 2. 3. 3. 5. 7. 11. 18. 27. 39. 52. 64. 70.
      66. 54. 38. 22. 11. 5. 2. 1. 15. 19. 30. 46. 61. 69. 67. 55. 40.
      25. 14. 7. 4. 2. 1. 1. 1. 1. 1. 1. 1. 1. 2. 3. 5. 9. 15. 25. 38.
      53. 65. 69. 63. 48. 31. 17. 7. 3. 2. 22. 27. 40. 56. 66. 68. 59.
      44. 28. 15. 7. 3. 2. 1. 0. 0. 0. 0. 0. 0. 0. 0. 1. 1. 2. 4. 7. 14.
      25. 40. 55. 66. 66. 56. 40. 23. 11. 5. 3. 30. 35. 48. 61. 65. 60.
      47. 31. 18. 9. 4. 1. 1. 0. 0. 0. 0. 0. 0. 0. 0. 0. 0. 0. 1. 1. 3.
      8. 15. 28. 44. 58. 64. 60. 46. 29. 15. 7. 4. 38. 42. 52. 60. 59.
      49. 34. 20. 10. 5. 2. 1. 0. 0. 1. 1. 1. 1. 1. 0. 0. 0. 0. 0. 0. 1.
      1. 4. 9. 18. 32. 47. 58. 59. 49. 34. 19. 10. 6. 45. 48. 54. 56.
      50. 37. 23. 12. 6. 2. 1. 1. 1. 1. 2. 2. 2. 2. 2. 1. 1. 0. 0. 0. 0.
      0. 1. 2. 5. 11. 22. 36. 49. 54. 50. 38. 23. 13. 9. 51. 53. 55. 52.
      42. 28. 15. 7. 3. 1. 1. 1. 3. 4. 5. 6. 6. 6. 5. 4. 2. 1. 1. 0. 0.
      0. 0. 1. 3. 7. 15. 27. 40. 49. 50. 41. 28. 17. 12. 57. 58. 56. 49.
      36. 22. 11. 4. 2. 1. 2. 4. 7. 10. 14. 16. 16. 16. 13. 10. 6. 3. 2.
      1. 0. 0. 0. 0. 1. 4. 10. 20. 33. 45. 49. 44. 32. 21. 16. 62. 62.
      58. 47. 33. 18. 8. 3. 2. 2. 4. 9. 15. 22. 28. 31. 32. 31. 27. 21.
      14. 8. 3. 1. 0. 0. 0. 0. 1. 2. 7. 15. 27. 40. 48. 46. 36. 25. 21.
      67. 66. 59. 45. 30. 16. 6. 2. 2. 4. 9. 17. 28. 38. 46. 50. 51. 49.
      44. 35. 24. 14. 6. 2. 1. 0. 0. 0. 0. 2. 5. 12. 23. 37. 47. 49. 40.
      30. 26. 73. 70. 59. 43. 27. 14. 5. 2. 3. 7. 15. 28. 42. 54. 61.
      64. 65. 63. 59. 49. 35. 21. 10. 4. 1. 0. 0. 0. 0. 1. 3. 9. 20. 34.
      46. 50. 43. 34. 29. 79. 74. 60. 42. 24. 12. 4. 3. 4. 10. 22. 38.
      54. 65. 69. 68. 67. 67. 66. 58. 43. 27. 13. 5. 2. 1. 0. 0. 0. 1.
      3. 8. 19. 32. 46. 51. 45. 36. 32. 84. 77. 61. 40. 22. 10. 4. 3. 5.
      14. 27. 45. 60. 68. 66. 61. 60. 62. 65. 61. 48. 30. 16. 6. 2. 1.
      0. 0. 0. 1. 2. 7. 18. 32. 45. 52. 46. 37. 33. 87. 80. 62. 39. 20.
      9. 3. 3. 6. 16. 31. 49. 62. 65. 58. 51. 48. 53. 60. 59. 48. 32.
      17. 7. 2. 1. 0. 0. 0. 1. 2. 7. 17. 31. 45. 52. 47. 38. 34. 89. 81.
      62. 38. 20. 8. 3. 3. 7. 17. 32. 50. 61. 62. 52. 43. 40. 46. 55.
      57. 48. 32. 17. 7. 2. 1. 0. 0. 0. 1. 2. 7. 17. 31. 45. 52. 47. 38.
      34. 90. 82. 62. 38. 19. 8. 3. 3. 7. 17. 32. 50. 61. 62. 52. 43.
      41. 46. 55. 57. 48. 32. 17. 7. 2. 1. 0. 0. 0. 1. 2. 7. 17. 31. 45.
      52. 47. 38. 34. 90. 82. 62. 38. 19. 8. 3. 3. 6. 16. 31. 49. 62.
      66. 59. 51. 49. 52. 59. 58. 47. 31. 16. 7. 2. 1. 0. 0. 0. 1. 2. 7.
      17. 31. 45. 52. 47. 38. 34. 90. 82. 62. 38. 19. 8. 3. 3. 5. 14.
      27. 45. 60. 68. 66. 61. 58. 59. 61. 57. 45. 29. 15. 6. 2. 1. 0. 0.
      0. 1. 2. 7. 17. 31. 45. 52. 47. 38. 34. 90. 82. 62. 38. 19. 8. 2.
      2. 4. 10. 22. 38. 54. 65. 68. 66. 63. 61. 58. 51. 38. 24. 12. 5.
      1. 1. 0. 0. 0. 1. 2. 7. 17. 31. 45. 52. 47. 38. 34. 90. 82. 62.
      38. 19. 8. 2. 2. 3. 7. 15. 28. 42. 54. 59. 60. 57. 53. 48. 40. 29.
      17. 9. 3. 1. 0. 0. 0. 0. 1. 2. 8. 18. 32. 46. 53. 48. 38. 34. 90.
      82. 62. 38. 19. 8. 2. 1. 1. 4. 9. 17. 27. 37. 43. 45. 43. 38. 33.
      26. 18. 10. 5. 2. 1. 0. 0. 0. 0. 1. 3. 9. 20. 35. 49. 55. 49. 39.
      34. 89. 81. 62. 39. 20. 8. 2. 1. 1. 2. 4. 9. 15. 21. 26. 27. 26.
      23. 18. 14. 9. 5. 3. 1. 0. 0. 0. 0. 0. 1. 3. 10. 22. 38. 52. 57.
      49. 38. 34. 87. 80. 62. 39. 21. 9. 3. 1. 0. 1. 2. 4. 7. 10. 12.
      13. 13. 11. 8. 6. 4. 2. 1. 0. 0. 0. 0. 0. 0. 2. 5. 13. 26. 42. 55.
      58. 49. 37. 32. 84. 78. 62. 42. 24. 11. 4. 2. 0. 0. 1. 1. 2. 4. 5.
      5. 5. 4. 3. 2. 1. 1. 0. 0. 0. 0. 0. 0. 1. 2. 6. 15. 30. 46. 57.
      58. 47. 34. 28. 80. 76. 63. 46. 28. 15. 6. 2. 1. 0. 0. 0. 1. 1. 1.
      2. 2. 1. 1. 1. 0. 0. 0. 0. 0. 0. 0. 0. 1. 3. 8. 19. 34. 49. 58.
      55. 42. 29. 23. 75. 72. 65. 51. 35. 20. 9. 4. 1. 0. 0. 0. 0. 0. 0.
      1. 0. 0. 0. 0. 0. 0. 0. 0. 0. 0. 0. 1. 2. 5. 12. 24. 39. 52. 56.
      49. 36. 23. 18. 68. 68. 66. 58. 44. 28. 14. 6. 2. 1. 0. 0. 0. 0.
      0. 0. 0. 0. 0. 0. 0. 0. 0. 0. 0. 0. 0. 1. 4. 9. 18. 31. 45. 54.
      54. 44. 29. 17. 13. 60. 62. 66. 64. 53. 37. 21. 10. 4. 2. 1. 0. 0.
      0. 0. 0. 0. 0. 0. 0. 0. 0. 0. 0. 0. 0. 1. 3. 7. 15. 27. 42. 54.
      58. 51. 38. 23. 13. 9. 50. 54. 63. 67. 61. 47. 30. 16. 8. 4. 2. 1.
      0. 0. 0. 0. 0. 0. 0. 0. 0. 0. 0. 0. 1. 1. 3. 6. 13. 24. 38. 53.
      61. 59. 48. 32. 18. 9. 6. 39. 44. 56. 66. 67. 57. 41. 26. 15. 8.
      4. 3. 2. 1. 1. 1. 0. 0. 0. 0. 0. 0. 1. 1. 2. 3. 6. 12. 22. 36. 51.
      63. 66. 58. 42. 26. 13. 6. 4. 28. 34. 47. 61. 69. 65. 53. 39. 26.
      16. 10. 6. 4. 3. 2. 2. 1. 1. 1. 1. 1. 2. 2. 3. 5. 8. 13. 21. 34.
      49. 62. 68. 65. 52. 35. 19. 9. 4. 2. 19. 24. 37. 53. 66. 69. 64.
      53. 41. 30. 22. 15. 11. 8. 7. 5. 4. 3. 3. 3. 3. 5. 7. 9. 13. 18.
      25. 34. 47. 60. 68. 67. 57. 42. 26. 13. 6. 2. 1. 11. 15. 27. 42.
      57. 67. 69. 65. 57. 47. 38. 30. 23. 19. 16. 14. 12. 10. 9. 9. 10.
      13. 16. 21. 26. 32. 39. 47. 57. 64. 65. 59. 45. 30. 17. 8. 3. 1.
      1. 6. 9. 17. 30. 44. 57. 66. 69. 67. 61. 54. 47. 40. 35. 31. 27.
      24. 22. 21. 21. 22. 26. 30. 36. 42. 48. 52. 56. 60. 60. 55. 45.
      32. 19. 10. 4. 2. 0. 0. 3. 5. 10. 18. 30. 42. 53. 61. 66. 67. 65.
      60. 55. 50. 47. 44. 42. 40. 39. 39. 41. 43. 47. 52. 56. 59. 59.
      57. 54. 48. 40. 29. 19. 11. 5. 2. 1. 0. 0. 1. 2. 5. 10. 17. 27.
      37. 47. 56. 62. 66. 65. 63. 61. 60. 60. 61. 61. 61. 62. 61. 62.
      62. 63. 64. 62. 57. 50. 42. 33. 25. 17. 10. 5. 2. 1. 0. 0. 0. 1.
      1. 2. 5. 9. 15. 24. 33. 44. 53. 60. 64. 65. 66. 67. 70. 74. 77.
      79. 79. 77. 75. 72. 68. 65. 59. 50. 40. 30. 21. 14. 9. 5. 2. 1. 0.
      0. 0. 0. 0. 1. 1. 3. 6. 11. 19. 28. 39. 49. 57. 62. 64. 66. 69.
      73. 79. 83. 86. 86. 84. 79. 74. 69. 64. 57. 47. 36. 26. 17. 11. 6.
      3. 1. 0. 0. 0. 0. 0.</_>
    <_>
      0. 0. 0. 0. 1. 1. 2. 4. 7. 11. 15. 21. 25. 29. 32. 33. 34. 34. 33.
      32. 29. 26. 21. 17. 13. 9. 6. 4. 2. 1. 0. 0. 0. 0. 0. 0. 0. 0. 0.
      0. 0. 0. 0. 1. 2. 4. 7. 10. 15. 20. 25. 30. 34. 36. 37. 38. 38.
      37. 36. 34. 30. 26. 22. 18. 14. 10. 6. 3. 2. 1. 0. 0. 0. 0. 0. 0.
      0. 0. 0. 0. 1. 2. 3. 6. 9. 14. 20. 26. 33. 38. 42. 44. 46. 46. 47.
      47. 46. 45. 44. 42. 39. 35. 31. 25. 19. 13. 8. 4. 2. 1. 0. 0. 0.
      0. 0. 0. 0. 0. 1. 2. 4. 8. 13. 20. 28. 36. 43. 48. 51. 52. 52. 52.
      52. 52. 52. 52. 51. 51. 51. 50. 50. 47. 42. 34. 26. 17. 10. 5. 2.
      1. 0. 0. 0. 0. 0. 0. 1. 2. 5. 10. 17. 26. 36. 45. 53. 58. 59. 57.
      53. 49. 47. 46. 45. 45. 45. 46. 48. 50. 54. 58. 60. 58. 52. 42.
      31. 20. 11. 5. 2. 1. 0. 0. 0. 0. 0. 3. 5. 10. 18. 30. 42. 53. 61.
      65. 64. 60. 53. 45. 38. 34. 32. 31. 31. 32. 33. 36. 41. 48. 56.
      63. 66. 65. 58. 46. 33. 21. 11. 5. 2. 1. 0. 0. 0. 0. 6. 9. 17. 29.
      44. 57. 65. 68. 66. 60. 51. 40. 31. 24. 20. 18. 17. 17. 18. 19.
      22. 27. 34. 44. 54. 64. 69. 68. 61. 48. 34. 21. 11. 5. 2. 1. 0. 0.
      0. 11. 15. 26. 42. 57. 67. 69. 65. 56. 46. 35. 26. 18. 12. 9. 8.
      7. 7. 8. 8. 10. 14. 20. 29. 40. 52. 63. 70. 69. 62. 48. 33. 20.
      10. 4. 2. 0. 0. 0. 18. 23. 36. 52. 64. 69. 64. 53. 41. 30. 21. 13.
      8. 5. 3. 2. 2. 2. 2. 3. 4. 6. 10. 16. 24. 36. 50. 62. 70. 69. 61.
      46. 31. 17. 8. 3. 1. 0. 0. 26. 31. 44. 58. 66. 63. 52. 38. 26. 16.
      10. 6. 3. 2. 1. 1. 1. 1. 1. 1. 2. 2. 4. 7. 13. 22. 35. 49. 62. 70.
      68. 58. 42. 26. 13. 5. 2. 1. 0. 35. 40. 50. 60. 61. 53. 39. 25.
      14. 8. 4. 2. 1. 0. 0. 0. 0. 0. 0. 0. 0. 1. 1. 3. 6. 12. 21. 35.
      50. 63. 69. 65. 52. 34. 19. 9. 3. 1. 0. 44. 48. 54. 58. 53. 41.
      27. 15. 8. 3. 2. 1. 0. 0. 0. 0. 0. 0. 0. 0. 0. 0. 0. 1. 3. 6. 12.
      22. 36. 52. 64. 66. 58. 42. 25. 12. 5. 2. 1. 53. 55. 57. 54. 44.
      31. 18. 9. 4. 2. 1. 0. 0. 1. 1. 1. 1. 0. 0. 0. 0. 0. 0. 0. 1. 3.
      6. 13. 24. 40. 54. 63. 60. 47. 30. 16. 7. 2. 2. 62. 62. 58. 49.
      36. 22. 11. 5. 2. 1. 1. 1. 1. 2. 2. 2. 2. 1. 1. 0. 0. 0. 0. 0. 0.
      1. 3. 7. 16. 29. 44. 55. 57. 49. 34. 20. 9. 4. 2. 71. 68. 59. 45.
      30. 16. 7. 3. 1. 1. 1. 2. 4. 5. 6. 6. 5. 4. 2. 1. 1. 0. 0. 0. 0.
      0. 1. 4. 10. 20. 33. 46. 53. 49. 38. 24. 12. 6. 4. 78. 73. 60. 42.
      25. 13. 5. 2. 1. 2. 4. 6. 10. 13. 15. 15. 13. 10. 6. 4. 2. 1. 0.
      0. 0. 0. 1. 2. 6. 13. 24. 38. 47. 49. 41. 29. 16. 8. 5. 84. 78.
      62. 40. 22. 10. 3. 2. 2. 4. 8. 14. 21. 27. 31. 31. 27. 21. 14. 8.
      4. 1. 0. 0. 0. 0. 0. 1. 3. 8. 18. 30. 42. 48. 45. 34. 21. 11. 8.
      89. 81. 62. 39. 20. 9. 3. 2. 3. 7. 14. 25. 35. 44. 49. 49. 44. 35.
      25. 14. 7. 3. 1. 0. 0. 0. 0. 1. 2. 5. 13. 25. 38. 47. 47. 38. 25.
      14. 10. 91. 83. 62. 38. 19. 8. 3. 3. 5. 11. 22. 36. 49. 59. 64.
      64. 59. 49. 36. 22. 11. 5. 2. 1. 0. 0. 0. 0. 1. 4. 10. 21. 35. 46.
      49. 41. 28. 16. 12. 90. 81. 60. 36. 18. 7. 3. 3. 7. 17. 30. 45.
      58. 66. 69. 69. 66. 58. 45. 30. 16. 7. 3. 1. 0. 0. 0. 0. 1. 3. 8.
      19. 33. 46. 50. 43. 30. 18. 13. 84. 76. 56. 33. 16. 6. 3. 4. 10.
      21. 36. 51. 60. 63. 62. 62. 62. 60. 50. 36. 21. 10. 4. 1. 0. 0. 0.
      0. 1. 2. 7. 18. 32. 45. 51. 44. 31. 19. 14. 76. 68. 49. 28. 13. 5.
      3. 5. 13. 25. 41. 53. 58. 55. 51. 51. 54. 57. 52. 40. 25. 12. 5.
      1. 1. 0. 0. 0. 1. 2. 7. 17. 31. 45. 51. 45. 32. 19. 14. 66. 59.
      42. 24. 11. 4. 3. 6. 15. 29. 44. 55. 57. 50. 43. 43. 48. 54. 52.
      41. 27. 14. 5. 2. 1. 0. 0. 0. 1. 2. 7. 17. 31. 45. 51. 45. 32. 19.
      14. 58. 52. 36. 20. 9. 4. 3. 6. 16. 30. 46. 57. 58. 50. 43. 43.
      48. 54. 52. 41. 27. 14. 5. 2. 1. 0. 0. 0. 1. 2. 7. 17. 31. 45. 51.
      45. 32. 19. 14. 54. 48. 33. 18. 8. 3. 3. 6. 15. 30. 46. 59. 62.
      57. 51. 50. 54. 57. 52. 40. 25. 12. 5. 1. 1. 0. 0. 0. 1. 2. 7. 17.
      31. 45. 51. 45. 32. 19. 14. 52. 46. 32. 18. 7. 3. 3. 5. 13. 26.
      43. 57. 63. 62. 60. 60. 61. 59. 50. 36. 21. 10. 4. 1. 0. 0. 0. 0.
      1. 2. 7. 17. 31. 45. 51. 45. 32. 19. 14. 52. 46. 32. 18. 7. 3. 2.
      4. 10. 21. 35. 49. 58. 62. 64. 64. 63. 57. 45. 30. 16. 7. 3. 1. 0.
      0. 0. 0. 1. 2. 7. 17. 31. 45. 51. 45. 32. 19. 14. 54. 48. 33. 18.
      8. 3. 2. 2. 6. 14. 24. 36. 46. 53. 57. 59. 56. 48. 36. 22. 11. 5.
      2. 1. 0. 0. 0. 0. 1. 2. 7. 18. 32. 45. 51. 44. 31. 19. 14. 58. 52.
      36. 20. 9. 3. 2. 1. 4. 8. 14. 22. 31. 38. 42. 44. 42. 34. 24. 14.
      7. 3. 1. 0. 0. 0. 0. 0. 1. 3. 8. 19. 32. 46. 50. 43. 30. 18. 13.
      66. 59. 42. 24. 11. 4. 2. 1. 2. 4. 7. 12. 17. 22. 26. 27. 25. 20.
      14. 8. 4. 1. 0. 0. 0. 0. 0. 0. 1. 3. 9. 20. 34. 46. 49. 42. 28.
      16. 12. 75. 67. 49. 28. 13. 5. 2. 1. 1. 1. 3. 5. 7. 10. 12. 13.
      12. 10. 6. 3. 2. 1. 0. 0. 0. 0. 0. 0. 2. 5. 12. 23. 37. 47. 48.
      39. 26. 14. 10. 84. 75. 56. 34. 16. 6. 2. 1. 0. 0. 1. 2. 3. 4. 5.
      5. 5. 4. 2. 1. 1. 0. 0. 0. 0. 0. 0. 1. 2. 6. 15. 27. 40. 48. 46.
      35. 22. 12. 8. 87. 80. 60. 38. 19. 8. 3. 1. 0. 0. 0. 1. 1. 1. 1.
      2. 1. 1. 1. 0. 0. 0. 0. 0. 0. 0. 0. 1. 4. 9. 19. 33. 44. 49. 44.
      31. 18. 9. 6. 86. 80. 63. 42. 23. 11. 4. 1. 0. 0. 0. 0. 0. 0. 0.
      1. 0. 0. 0. 0. 0. 0. 0. 0. 0. 0. 1. 2. 6. 14. 26. 39. 49. 50. 41.
      27. 15. 7. 4. 82. 77. 64. 46. 28. 15. 6. 2. 1. 0. 0. 0. 0. 0. 0.
      0. 0. 0. 0. 0. 0. 0. 0. 0. 0. 0. 1. 4. 10. 20. 34. 47. 54. 50. 37.
      23. 11. 5. 3. 75. 73. 65. 52. 36. 21. 10. 4. 2. 1. 0. 0. 0. 0. 0.
      0. 0. 0. 0. 0. 0. 0. 0. 0. 0. 1. 3. 7. 16. 29. 44. 55. 58. 49. 34.
      19. 9. 3. 2. 68. 69. 67. 59. 45. 29. 16. 8. 4. 2. 1. 0. 0. 0. 0.
      0. 0. 0. 0. 0. 0. 0. 0. 1. 1. 3. 6. 13. 25. 40. 54. 63. 60. 47.
      30. 16. 6. 2. 1. 60. 63. 66. 65. 55. 40. 26. 14. 8. 4. 3. 2. 1. 1.
      1. 1. 1. 1. 0. 1. 1. 1. 1. 2. 3. 7. 12. 22. 36. 52. 64. 66. 58.
      42. 25. 12. 5. 2. 1. 50. 54. 63. 68. 64. 53. 39. 26. 16. 10. 6. 4.
      3. 2. 2. 2. 2. 2. 1. 2. 2. 3. 4. 5. 9. 14. 23. 35. 50. 63. 69. 65.
      52. 34. 19. 9. 3. 1. 0. 38. 43. 55. 66. 69. 64. 53. 41. 30. 22.
      15. 11. 9. 8. 7. 6. 5. 5. 4. 5. 6. 8. 10. 14. 19. 27. 37. 50. 63.
      70. 68. 58. 42. 26. 13. 5. 2. 1. 0. 26. 31. 43. 58. 67. 69. 65.
      57. 47. 38. 30. 24. 20. 18. 16. 15. 14. 13. 12. 13. 15. 18. 22.
      27. 34. 43. 53. 63. 70. 69. 61. 46. 30. 17. 8. 3. 1. 0. 0. 16. 20.
      30. 44. 57. 66. 69. 67. 61. 54. 47. 40. 36. 33. 31. 29. 27. 26.
      25. 26. 29. 33. 38. 44. 51. 58. 64. 69. 68. 60. 48. 33. 20. 10. 4.
      2. 0. 0. 0. 8. 11. 19. 30. 42. 53. 61. 66. 67. 65. 60. 55. 51. 48.
      47. 45. 44. 43. 42. 43. 45. 49. 53. 58. 63. 66. 66. 64. 57. 46.
      33. 20. 11. 5. 2. 1. 0. 0. 0. 4. 6. 10. 17. 27. 37. 47. 56. 62.
      66. 65. 63. 61. 59. 59. 59. 59. 60. 60. 60. 61. 62. 63. 65. 65.
      63. 58. 51. 41. 30. 20. 11. 5. 2. 1. 0. 0. 0. 0. 2. 2. 5. 9. 15.
      24. 33. 44. 53. 60. 64. 64. 64. 64. 64. 66. 69. 72. 73. 72. 70.
      68. 66. 64. 61. 55. 47. 38. 28. 19. 11. 6. 3. 1. 0. 0. 0. 0. 0. 1.
      2. 3. 6. 11. 19. 28. 39. 49. 57. 62. 63. 64. 64. 65. 68. 72. 76.
      77. 76. 73. 69. 66. 63. 58. 51. 42. 32. 23. 15. 8. 4. 2. 1. 0. 0.
      0. 0. 0.</_>
    <_>
      0. 0. 0. 0. 1. 3. 5. 9. 14. 19. 24. 29. 32. 34. 34. 34. 34. 34.
      34. 34. 34. 33. 31. 27. 20. 14. 9. 5. 3. 2. 1. 0. 0. 0. 0. 0. 0.
      0. 0. 0. 0. 0. 1. 2. 5. 8. 13. 18. 24. 30. 34. 37. 38. 39. 38. 38.
      38. 38. 38. 38. 38. 36. 32. 25. 19. 13. 8. 5. 3. 2. 1. 0. 0. 0. 0.
      0. 0. 0. 0. 0. 1. 2. 5. 10. 16. 24. 32. 39. 44. 48. 50. 49. 49.
      48. 47. 47. 47. 48. 48. 49. 48. 44. 38. 30. 23. 17. 11. 7. 4. 2.
      1. 0. 0. 0. 0. 0. 0. 1. 1. 2. 5. 11. 19. 29. 40. 49. 55. 59. 60.
      59. 57. 55. 53. 52. 52. 52. 53. 55. 56. 57. 55. 51. 44. 37. 30.
      23. 16. 10. 5. 2. 1. 0. 0. 0. 0. 0. 2. 3. 6. 11. 21. 33. 46. 57.
      63. 65. 64. 61. 57. 52. 49. 46. 45. 45. 45. 46. 49. 52. 55. 57.
      57. 55. 52. 47. 39. 29. 19. 11. 5. 2. 1. 0. 0. 0. 0. 4. 6. 11. 21.
      34. 48. 60. 68. 68. 64. 58. 51. 44. 38. 35. 32. 31. 31. 31. 32.
      35. 38. 43. 48. 53. 57. 61. 60. 55. 45. 32. 20. 11. 5. 2. 1. 0. 0.
      0. 9. 12. 20. 33. 48. 62. 69. 70. 63. 53. 43. 34. 28. 23. 20. 18.
      17. 17. 17. 18. 20. 23. 28. 34. 41. 50. 59. 66. 66. 60. 47. 33.
      19. 10. 4. 1. 0. 0. 0. 16. 20. 32. 47. 61. 69. 70. 62. 50. 37. 27.
      19. 14. 11. 9. 8. 7. 7. 7. 8. 9. 11. 14. 20. 27. 37. 49. 61. 69.
      69. 60. 46. 29. 16. 7. 3. 1. 0. 0. 26. 31. 44. 59. 69. 70. 62. 49.
      35. 23. 14. 9. 5. 4. 3. 2. 2. 2. 2. 2. 3. 4. 6. 9. 15. 23. 35. 49.
      62. 69. 67. 56. 40. 24. 12. 5. 1. 0. 0. 38. 43. 55. 66. 69. 63.
      50. 35. 21. 12. 6. 4. 2. 1. 1. 1. 1. 1. 1. 1. 1. 2. 2. 4. 7. 13.
      22. 35. 50. 63. 68. 63. 49. 31. 16. 7. 2. 1. 0. 50. 54. 63. 68.
      64. 52. 36. 22. 12. 6. 3. 1. 1. 0. 0. 0. 0. 0. 0. 0. 0. 0. 1. 1.
      3. 6. 12. 23. 37. 53. 64. 65. 54. 38. 21. 10. 4. 1. 1. 60. 62. 66.
      65. 55. 40. 24. 13. 6. 3. 1. 0. 0. 0. 0. 1. 0. 0. 0. 0. 0. 0. 0.
      0. 1. 3. 7. 14. 26. 42. 56. 63. 58. 43. 27. 13. 5. 2. 1. 68. 68.
      66. 59. 45. 29. 16. 7. 3. 1. 1. 1. 1. 1. 1. 2. 1. 1. 1. 0. 0. 0.
      0. 0. 0. 1. 3. 8. 18. 32. 47. 58. 58. 47. 32. 18. 8. 3. 2. 75. 73.
      65. 52. 36. 21. 10. 4. 2. 1. 1. 2. 3. 4. 5. 5. 5. 4. 2. 1. 1. 0.
      0. 0. 0. 1. 2. 5. 12. 23. 38. 51. 55. 50. 37. 22. 11. 5. 3. 80.
      76. 63. 46. 28. 15. 6. 3. 1. 1. 3. 5. 7. 10. 12. 13. 12. 10. 6. 3.
      2. 1. 0. 0. 0. 0. 1. 3. 7. 16. 29. 42. 51. 50. 41. 27. 14. 7. 4.
      85. 79. 63. 42. 24. 11. 4. 2. 2. 4. 7. 12. 17. 22. 26. 27. 25. 20.
      14. 8. 4. 1. 0. 0. 0. 0. 0. 2. 5. 11. 22. 35. 46. 50. 44. 31. 18.
      9. 6. 89. 82. 63. 40. 21. 9. 3. 2. 4. 8. 14. 22. 31. 38. 42. 44.
      42. 34. 24. 14. 7. 3. 1. 0. 0. 0. 0. 1. 3. 7. 16. 28. 41. 49. 46.
      35. 22. 12. 8. 91. 83. 63. 38. 19. 8. 3. 3. 7. 14. 24. 36. 46. 53.
      57. 59. 56. 48. 36. 22. 11. 5. 2. 1. 0. 0. 0. 1. 2. 5. 12. 24. 37.
      47. 48. 39. 26. 14. 10. 90. 81. 60. 36. 18. 8. 3. 5. 10. 21. 35.
      49. 58. 62. 64. 64. 63. 57. 45. 30. 16. 7. 3. 1. 0. 0. 0. 0. 1. 3.
      10. 21. 34. 46. 50. 42. 29. 16. 12. 84. 76. 56. 33. 16. 7. 3. 6.
      13. 27. 43. 57. 63. 62. 60. 59. 60. 59. 50. 36. 21. 10. 4. 1. 0.
      0. 0. 0. 1. 3. 8. 19. 32. 46. 50. 43. 30. 18. 13. 76. 68. 49. 28.
      13. 6. 3. 7. 16. 30. 47. 59. 62. 56. 50. 49. 53. 56. 52. 40. 25.
      13. 5. 1. 1. 0. 0. 0. 1. 2. 7. 18. 32. 45. 51. 44. 31. 19. 14. 66.
      59. 42. 24. 11. 4. 3. 7. 17. 32. 48. 59. 58. 49. 41. 40. 45. 52.
      52. 42. 27. 14. 6. 2. 1. 0. 0. 0. 1. 2. 7. 17. 31. 45. 51. 45. 32.
      19. 14. 58. 52. 36. 20. 9. 4. 3. 7. 17. 32. 49. 58. 57. 46. 38.
      37. 43. 51. 52. 43. 28. 15. 6. 2. 1. 0. 0. 0. 1. 2. 7. 17. 31. 45.
      51. 45. 32. 19. 14. 54. 48. 33. 18. 8. 3. 3. 7. 17. 32. 49. 59.
      59. 51. 43. 42. 47. 53. 52. 42. 27. 14. 6. 2. 1. 0. 0. 0. 1. 2. 7.
      17. 31. 45. 51. 45. 32. 19. 14. 52. 46. 32. 17. 7. 3. 3. 6. 16.
      30. 48. 60. 64. 59. 53. 51. 53. 56. 51. 39. 25. 13. 5. 1. 1. 0. 0.
      0. 1. 2. 7. 17. 31. 45. 51. 45. 32. 19. 14. 52. 46. 31. 17. 7. 3.
      3. 5. 13. 27. 43. 58. 65. 64. 61. 59. 58. 56. 48. 34. 20. 10. 4.
      1. 0. 0. 0. 0. 1. 2. 7. 17. 31. 45. 51. 45. 32. 19. 14. 52. 46.
      32. 17. 7. 2. 2. 4. 10. 21. 35. 49. 58. 61. 60. 59. 56. 50. 40.
      27. 15. 7. 3. 1. 0. 0. 0. 0. 1. 2. 7. 18. 32. 45. 51. 45. 32. 19.
      14. 54. 48. 33. 18. 8. 3. 2. 2. 6. 14. 24. 35. 43. 48. 49. 48. 44.
      38. 29. 19. 10. 4. 2. 1. 0. 0. 0. 0. 1. 3. 8. 18. 33. 46. 51. 44.
      31. 19. 14. 58. 52. 36. 20. 9. 3. 2. 1. 3. 8. 14. 21. 27. 30. 32.
      31. 28. 24. 17. 11. 6. 2. 1. 0. 0. 0. 0. 0. 1. 3. 9. 20. 34. 47.
      51. 44. 31. 19. 14. 66. 59. 42. 24. 11. 4. 2. 1. 2. 3. 6. 10. 13.
      16. 17. 16. 15. 12. 9. 5. 3. 1. 0. 0. 0. 0. 0. 0. 2. 4. 11. 23.
      38. 49. 52. 44. 32. 21. 16. 75. 67. 49. 28. 13. 5. 2. 1. 1. 1. 2.
      4. 5. 6. 7. 7. 6. 5. 3. 2. 1. 0. 0. 0. 0. 0. 0. 1. 2. 6. 14. 27.
      42. 53. 55. 47. 35. 25. 21. 84. 75. 56. 34. 16. 6. 2. 1. 0. 0. 1.
      1. 2. 2. 2. 2. 2. 1. 1. 1. 0. 0. 0. 0. 0. 0. 0. 1. 3. 8. 18. 32.
      48. 58. 59. 52. 41. 32. 28. 87. 80. 60. 38. 19. 8. 3. 1. 0. 0. 0.
      0. 1. 1. 1. 1. 1. 1. 0. 0. 0. 0. 0. 0. 0. 0. 0. 2. 5. 12. 24. 39.
      54. 64. 65. 59. 48. 39. 35. 86. 80. 63. 42. 23. 11. 4. 2. 0. 0. 0.
      0. 0. 0. 0. 0. 0. 0. 0. 0. 0. 0. 0. 0. 0. 0. 1. 3. 8. 18. 32. 48.
      62. 70. 71. 64. 53. 44. 39. 82. 77. 65. 47. 29. 16. 7. 3. 1. 0. 0.
      0. 0. 0. 0. 0. 0. 0. 0. 0. 0. 0. 0. 0. 0. 1. 2. 6. 14. 26. 42. 58.
      70. 75. 74. 66. 54. 44. 39. 75. 73. 66. 53. 38. 23. 12. 5. 2. 1.
      0. 0. 0. 0. 0. 0. 0. 0. 0. 0. 0. 0. 0. 0. 1. 2. 4. 10. 21. 36. 54.
      68. 77. 78. 74. 65. 51. 40. 35. 68. 68. 67. 61. 49. 33. 20. 10. 5.
      2. 1. 1. 0. 0. 0. 0. 0. 0. 0. 0. 0. 0. 1. 1. 2. 4. 8. 16. 30. 47.
      64. 76. 80. 78. 71. 60. 46. 34. 29. 59. 61. 66. 67. 60. 46. 31.
      18. 10. 5. 3. 2. 1. 1. 1. 1. 1. 1. 1. 1. 1. 2. 2. 3. 5. 9. 15. 26.
      42. 59. 73. 80. 79. 75. 66. 54. 40. 27. 22. 46. 51. 60. 68. 67.
      58. 44. 30. 19. 12. 8. 5. 4. 3. 2. 2. 2. 2. 2. 2. 3. 4. 6. 8. 12.
      18. 27. 40. 56. 70. 78. 80. 76. 69. 60. 47. 33. 21. 17. 33. 38.
      50. 62. 68. 65. 56. 44. 32. 24. 18. 13. 10. 9. 8. 7. 7. 7. 7. 8.
      9. 11. 14. 19. 24. 32. 42. 55. 68. 77. 80. 77. 71. 62. 52. 39. 26.
      15. 12. 21. 26. 37. 51. 62. 65. 62. 55. 46. 38. 32. 27. 23. 20.
      18. 17. 17. 17. 17. 18. 20. 23. 28. 34. 41. 49. 58. 68. 77. 80.
      78. 72. 63. 54. 43. 30. 19. 11. 8. 12. 15. 24. 37. 49. 57. 60. 59.
      56. 52. 48. 43. 39. 36. 33. 32. 32. 32. 32. 33. 36. 40. 45. 51.
      57. 63. 70. 75. 78. 77. 72. 64. 54. 44. 33. 22. 13. 7. 4. 6. 8.
      14. 23. 33. 42. 49. 54. 57. 59. 59. 57. 54. 51. 48. 47. 47. 47.
      47. 49. 51. 55. 60. 65. 69. 72. 75. 77. 75. 71. 63. 53. 43. 33.
      23. 14. 7. 4. 2. 3. 4. 7. 12. 19. 26. 34. 42. 50. 57. 62. 63. 62.
      61. 59. 58. 58. 58. 58. 59. 62. 65. 68. 71. 74. 75. 77. 76. 72.
      64. 54. 43. 33. 23. 14. 8. 4. 2. 1. 1. 1. 3. 6. 10. 15. 22. 30.
      40. 50. 58. 63. 64. 64. 63. 62. 62. 62. 62. 63. 65. 67. 70. 72.
      73. 75. 76. 75. 69. 59. 47. 35. 25. 16. 9. 4. 2. 1. 0. 1. 1. 2. 4.
      7. 11. 17. 26. 36. 47. 55. 61. 63. 63. 63. 62. 62. 62. 62. 63. 65.
      67. 69. 71. 73. 74. 76. 74. 68. 57. 45. 33. 22. 13. 7. 3. 1. 1. 0.</_>
    <_>
      0. 0. 0. 1. 2. 4. 7. 11. 17. 23. 28. 32. 34. 34. 34. 34. 34. 34.
      34. 34. 34. 34. 32. 28. 23. 17. 11. 7. 4. 2. 1. 0. 0. 0. 0. 0. 0.
      0. 0. 0. 0. 0. 1. 3. 5. 9. 15. 22. 28. 34. 37. 38. 39. 38. 38. 38.
      38. 38. 38. 39. 38. 37. 34. 29. 22. 16. 11. 6. 4. 2. 1. 0. 0. 0.
      0. 0. 0. 0. 0. 1. 1. 3. 6. 11. 18. 27. 36. 43. 48. 50. 50. 49. 48.
      47. 47. 47. 47. 48. 49. 50. 50. 48. 43. 36. 28. 20. 14. 8. 4. 2.
