<?xml version="1.0"?>
<opencv_storage>
<my_svm type_id="opencv-ml-svm">
  <svm_type>C_SVC</svm_type>
  <kernel><type>RBF</type>
    <gamma>1.0000000000000001e-05</gamma></kernel>
  <C>5.0000000000000000e-01</C>
  <term_criteria><epsilon>1.1920928955078125e-07</epsilon>
    <iterations>1000</iterations></term_criteria>
  <var_all>546</var_all>
  <var_count>546</var_count>
  <class_count>11</class_count>
  <class_labels type_id="opencv-matrix">
    <rows>1</rows>
    <cols>11</cols>
    <dt>i</dt>
    <data>
      0 1 2 3 4 5 6 7 8 9 10</data></class_labels>
  <sv_total>315</sv_total>
  <support_vectors>
    <_>
      0. 0. 0. 0. 0. 2. 5. 14. 26. 33. 35. 36. 43. 63. 90. 100. 97. 94.
      93. 92. 92. 0. 0. 0. 1. 3. 8. 17. 31. 48. 59. 62. 63. 68. 83. 96.
      91. 78. 68. 63. 61. 61. 0. 0. 2. 7. 18. 35. 56. 72. 83. 90. 92.
      93. 98. 110. 117. 102. 77. 50. 29. 20. 18. 0. 1. 7. 25. 56. 85.
      103. 94. 75. 63. 61. 61. 67. 86. 110. 119. 111. 80. 40. 14. 7. 1.
      3. 18. 56. 100. 117. 106. 72. 38. 22. 18. 18. 22. 36. 61. 90. 118.
      117. 81. 40. 23. 4. 12. 42. 89. 118. 99. 63. 32. 12. 4. 2. 2. 3.
      8. 19. 42. 82. 118. 118. 84. 62. 14. 32. 78. 117. 110. 64. 25. 8.
      2. 0. 0. 0. 0. 1. 3. 13. 39. 82. 118. 118. 105. 27. 54. 105. 116.
      79. 33. 8. 1. 0. 0. 0. 0. 0. 0. 0. 2. 13. 42. 88. 118. 121. 34.
      63. 105. 89. 42. 12. 2. 1. 1. 2. 2. 1. 1. 0. 0. 0. 3. 18. 56. 99.
      114. 36. 63. 96. 68. 23. 4. 2. 6. 13. 17. 17. 13. 6. 2. 0. 0. 1.
      8. 33. 77. 102. 36. 63. 93. 61. 18. 3. 6. 24. 48. 61. 61. 49. 24.
      6. 1. 0. 0. 3. 21. 64. 95. 36. 63. 92. 61. 18. 4. 16. 51. 91. 106.
      108. 93. 49. 13. 1. 0. 0. 2. 18. 61. 93. 36. 63. 92. 61. 18. 8.
      27. 68. 98. 99. 106. 106. 61. 17. 2. 0. 0. 2. 18. 61. 92. 36. 63.
      92. 61. 19. 10. 33. 73. 89. 78. 89. 102. 62. 18. 2. 0. 0. 2. 18.
      61. 92. 36. 63. 92. 61. 18. 8. 28. 70. 95. 88. 97. 103. 60. 17. 2.
      0. 0. 2. 18. 61. 92. 36. 63. 92. 61. 18. 5. 20. 63. 105. 109. 105.
      91. 48. 13. 1. 0. 0. 2. 18. 61. 93. 36. 63. 92. 61. 18. 3. 13. 49.
      90. 95. 75. 52. 24. 6. 1. 0. 0. 3. 21. 64. 95. 36. 63. 92. 61. 18.
      3. 6. 24. 45. 47. 31. 16. 6. 2. 0. 0. 1. 7. 32. 76. 101. 36. 63.
      93. 61. 18. 2. 2. 6. 12. 12. 7. 3. 1. 0. 0. 0. 1. 13. 49. 95. 112.
      36. 63. 96. 68. 23. 4. 0. 1. 1. 1. 1. 0. 0. 0. 0. 0. 4. 22. 66.
      110. 121. 34. 63. 105. 89. 43. 13. 2. 0. 0. 0. 0. 0. 0. 0. 0. 2.
      13. 43. 91. 122. 123. 27. 54. 105. 117. 82. 39. 13. 3. 1. 0. 0. 0.
      1. 1. 4. 13. 39. 82. 119. 119. 105. 14. 32. 77. 117. 118. 82. 42.
      18. 8. 3. 2. 3. 7. 13. 22. 43. 82. 118. 118. 84. 62. 4. 12. 38.
      81. 118. 118. 88. 56. 33. 21. 19. 21. 32. 49. 66. 91. 119. 118.
      81. 40. 23. 1. 3. 12. 40. 84. 118. 118. 99. 77. 64. 61. 64. 76.
      95. 110. 122. 119. 84. 40. 13. 5. 0. 1. 5. 23. 62. 105. 121. 114.
      102. 95. 93. 95. 101. 112. 121. 123. 105. 62. 23. 5. 1.</_>
    <_>
      0. 0. 0. 2. 5. 16. 36. 70. 107. 123. 123. 123. 123. 107. 71. 43.
      28. 14. 4. 1. 0. 0. 0. 2. 7. 18. 36. 63. 93. 119. 121. 115. 115.
      121. 118. 94. 71. 55. 32. 12. 3. 1. 0. 1. 7. 25. 56. 86. 109. 117.
      110. 87. 70. 70. 87. 106. 109. 109. 106. 77. 38. 12. 5. 0. 3. 18.
      56. 100. 117. 110. 87. 60. 36. 23. 23. 36. 54. 69. 90. 117. 117.
      81. 40. 23. 2. 8. 35. 86. 117. 99. 64. 36. 18. 8. 4. 4. 8. 14. 22.
      43. 82. 118. 118. 84. 62. 5. 18. 60. 109. 110. 64. 26. 9. 3. 1. 0.
      0. 1. 1. 4. 13. 39. 82. 119. 119. 105. 15. 36. 86. 116. 87. 36. 9.
      2. 1. 0. 0. 0. 0. 0. 0. 2. 13. 43. 91. 122. 123. 27. 55. 105. 108.
      60. 18. 4. 5. 8. 6. 3. 1. 1. 0. 0. 0. 4. 22. 66. 110. 121. 34. 63.
      104. 86. 36. 9. 7. 21. 35. 31. 21. 13. 6. 2. 0. 0. 1. 13. 49. 95.
      112. 36. 63. 96. 67. 22. 5. 13. 46. 82. 83. 68. 49. 24. 6. 1. 0.
      1. 7. 32. 76. 101. 36. 63. 93. 61. 18. 5. 20. 65. 113. 121. 112.
      93. 49. 13. 1. 0. 0. 3. 21. 64. 95. 36. 63. 92. 61. 18. 8. 28. 73.
      105. 104. 107. 106. 61. 17. 2. 0. 0. 2. 18. 61. 93. 36. 63. 92.
      61. 19. 10. 34. 74. 93. 84. 93. 103. 62. 18. 2. 0. 0. 2. 18. 61.
      92. 36. 63. 92. 61. 18. 8. 27. 68. 99. 100. 106. 106. 61. 17. 2.
      0. 0. 2. 18. 61. 92. 36. 63. 92. 61. 18. 4. 16. 51. 91. 106. 108.
      93. 49. 13. 1. 0. 0. 2. 18. 61. 93. 36. 63. 92. 61. 18. 3. 6. 24.
      48. 61. 61. 49. 24. 6. 1. 0. 0. 3. 21. 64. 95. 36. 63. 92. 61. 18.
      2. 2. 6. 13. 17. 17. 13. 6. 2. 0. 0. 1. 7. 32. 76. 101. 36. 63.
      93. 61. 18. 2. 0. 1. 1. 2. 2. 1. 1. 0. 0. 0. 1. 13. 49. 95. 112.
      36. 63. 96. 68. 23. 4. 0. 0. 0. 0. 0. 0. 0. 0. 0. 0. 4. 22. 66.
      110. 121. 34. 63. 105. 89. 43. 13. 2. 0. 0. 0. 0. 0. 0. 0. 0. 2.
      13. 43. 91. 122. 123. 27. 54. 105. 117. 82. 39. 12. 2. 0. 0. 0. 0.
      0. 0. 2. 12. 39. 82. 119. 119. 105. 14. 32. 77. 117. 118. 81. 38.
      12. 4. 2. 2. 2. 2. 4. 12. 38. 81. 118. 118. 84. 62. 4. 12. 38. 81.
      117. 114. 76. 39. 22. 18. 18. 18. 18. 22. 39. 76. 114. 117. 81.
      40. 23. 1. 3. 12. 38. 77. 103. 96. 76. 65. 63. 63. 63. 63. 65. 76.
      96. 103. 77. 38. 12. 5. 0. 0. 3. 12. 32. 58. 78. 96. 107. 110.
      110. 110. 110. 107. 96. 78. 58. 32. 12. 3. 1. 0. 0. 1. 4. 14. 33.
      61. 94. 114. 120. 121. 121. 120. 114. 94. 61. 33. 14. 4. 1. 0.</_>
    <_>
      0. 0. 0. 0. 0. 2. 5. 14. 26. 33. 35. 35. 33. 26. 14. 6. 3. 1. 0.
      0. 0. 0. 0. 0. 1. 3. 8. 17. 31. 48. 59. 62. 62. 59. 48. 32. 21.
      14. 7. 2. 0. 0. 0. 0. 2. 7. 18. 35. 56. 72. 83. 90. 92. 92. 90.
      82. 72. 64. 53. 31. 11. 3. 1. 0. 1. 7. 25. 56. 85. 103. 94. 75.
      63. 61. 61. 63. 71. 86. 103. 105. 77. 38. 12. 5. 1. 3. 18. 56.
      100. 117. 106. 72. 38. 22. 18. 18. 21. 32. 54. 86. 117. 117. 81.
      40. 23. 4. 12. 42. 89. 118. 99. 63. 32. 12. 4. 2. 2. 3. 8. 18. 42.
      82. 118. 118. 84. 62. 14. 32. 78. 117. 110. 64. 25. 8. 2. 0. 0. 0.
      0. 1. 3. 13. 39. 82. 118. 118. 105. 27. 54. 105. 116. 79. 33. 8.
      1. 0. 0. 0. 0. 0. 0. 0. 2. 13. 42. 88. 118. 121. 34. 63. 105. 89.
      42. 12. 2. 1. 1. 2. 2. 1. 1. 0. 0. 0. 3. 18. 56. 99. 114. 36. 63.
      96. 68. 23. 4. 2. 6. 13. 17. 17. 13. 6. 2. 0. 0. 1. 8. 33. 77.
      102. 36. 63. 93. 61. 18. 3. 6. 24. 48. 61. 61. 49. 24. 6. 1. 0. 0.
      3. 21. 64. 95. 36. 63. 92. 61. 18. 4. 16. 51. 91. 106. 108. 93.
      49. 13. 1. 0. 0. 2. 18. 61. 93. 36. 63. 92. 61. 18. 8. 27. 68. 98.
      99. 106. 106. 61. 17. 2. 0. 0. 2. 18. 61. 92. 36. 63. 92. 61. 19.
      10. 33. 73. 89. 78. 89. 102. 62. 18. 2. 0. 0. 2. 18. 61. 92. 36.
      63. 92. 61. 18. 8. 28. 70. 95. 88. 97. 103. 60. 17. 2. 0. 0. 2.
      18. 61. 92. 36. 63. 92. 61. 18. 5. 20. 63. 105. 109. 105. 91. 48.
      13. 1. 0. 0. 2. 18. 61. 93. 36. 63. 92. 61. 18. 3. 13. 49. 90. 95.
      75. 52. 24. 6. 1. 0. 0. 3. 21. 64. 95. 36. 63. 92. 61. 18. 3. 6.
      24. 45. 47. 31. 16. 6. 2. 0. 0. 1. 7. 32. 76. 101. 36. 63. 93. 61.
      18. 2. 2. 6. 12. 12. 7. 3. 1. 0. 0. 0. 1. 13. 49. 95. 112. 36. 63.
      96. 68. 23. 4. 0. 1. 1. 1. 1. 0. 0. 0. 0. 0. 4. 22. 66. 110. 121.
      34. 63. 105. 89. 43. 13. 2. 0. 0. 0. 0. 0. 0. 0. 0. 2. 13. 43. 91.
      122. 123. 27. 54. 105. 117. 82. 39. 13. 4. 1. 1. 0. 0. 0. 1. 3.
      13. 39. 82. 119. 119. 105. 14. 32. 77. 117. 118. 82. 43. 22. 13.
      7. 3. 2. 3. 8. 18. 42. 82. 118. 118. 84. 62. 4. 12. 38. 81. 118.
      119. 91. 66. 49. 32. 21. 19. 21. 33. 56. 88. 118. 118. 81. 40. 23.
      1. 3. 12. 40. 84. 119. 122. 110. 95. 76. 64. 61. 64. 77. 99. 118.
      118. 84. 40. 13. 5. 0. 1. 5. 23. 62. 105. 123. 121. 112. 101. 95.
      93. 95. 102. 114. 121. 105. 62. 23. 5. 1.</_>
    <_>
      92. 92. 93. 94. 98. 107. 121. 127. 116. 98. 97. 97. 91. 87. 73.
      72. 91. 99. 98. 100. 103. 61. 61. 62. 67. 78. 96. 118. 131. 127.
      108. 100. 100. 104. 107. 95. 90. 96. 88. 75. 75. 79. 18. 19. 24.
      43. 73. 103. 126. 131. 122. 100. 79. 79. 98. 113. 113. 115. 118.
      94. 59. 41. 39. 2. 5. 18. 53. 96. 115. 111. 91. 71. 52. 36. 36.
      52. 64. 72. 91. 119. 119. 84. 46. 31. 2. 7. 31. 71. 95. 84. 60.
      37. 22. 14. 8. 8. 13. 18. 24. 43. 82. 118. 118. 85. 63. 5. 18. 54.
      87. 77. 42. 19. 8. 3. 2. 1. 1. 1. 2. 4. 13. 39. 82. 119. 119. 105.
      15. 35. 82. 102. 65. 22. 4. 1. 1. 0. 0. 0. 0. 0. 0. 2. 13. 43. 91.
      122. 123. 27. 55. 104. 104. 54. 14. 3. 5. 8. 6. 3. 1. 1. 0. 0. 0.
      4. 22. 66. 110. 121. 34. 63. 104. 85. 36. 8. 6. 21. 35. 31. 21.
      13. 6. 2. 0. 0. 1. 13. 49. 95. 112. 36. 63. 96. 67. 22. 5. 13. 46.
      82. 84. 68. 49. 24. 6. 1. 0. 1. 7. 32. 76. 101. 36. 63. 93. 61.
      18. 4. 17. 63. 115. 124. 113. 93. 49. 13. 1. 0. 0. 3. 21. 64. 95.
      36. 63. 92. 61. 18. 4. 18. 65. 113. 114. 111. 106. 61. 17. 2. 0.
      0. 2. 18. 61. 93. 36. 63. 92. 61. 18. 4. 18. 63. 105. 99. 99. 104.
      62. 18. 2. 0. 0. 2. 18. 61. 92. 36. 63. 92. 61. 18. 4. 17. 61.
      106. 110. 110. 106. 61. 17. 2. 0. 0. 2. 18. 61. 92. 36. 63. 92.
      61. 18. 3. 13. 49. 93. 109. 109. 93. 49. 13. 1. 0. 0. 2. 18. 61.
      92. 36. 63. 92. 61. 18. 3. 6. 24. 49. 61. 61. 49. 24. 6. 1. 0. 0.
      2. 18. 61. 93. 36. 63. 92. 61. 18. 2. 2. 6. 13. 17. 17. 13. 6. 2.
      0. 0. 0. 3. 21. 64. 95. 36. 63. 93. 61. 18. 2. 0. 1. 1. 2. 2. 1.
      1. 0. 0. 0. 1. 8. 33. 77. 102. 36. 63. 96. 68. 23. 4. 0. 0. 0. 0.
      0. 0. 0. 0. 0. 0. 3. 18. 56. 99. 114. 34. 63. 105. 89. 43. 13. 2.
      0. 0. 0. 0. 0. 0. 0. 0. 2. 13. 42. 88. 118. 121. 27. 54. 105. 117.
      82. 39. 12. 2. 0. 0. 0. 0. 0. 0. 2. 12. 39. 82. 118. 118. 105. 14.
      32. 77. 117. 118. 81. 38. 12. 4. 2. 2. 2. 2. 4. 12. 38. 81. 118.
      118. 84. 62. 4. 12. 38. 81. 117. 114. 76. 39. 22. 18. 18. 18. 18.
      22. 39. 76. 114. 117. 81. 40. 23. 1. 3. 12. 38. 77. 103. 96. 76.
      65. 63. 63. 63. 63. 65. 76. 96. 103. 77. 38. 12. 5. 0. 0. 3. 12.
      32. 58. 78. 96. 107. 110. 110. 110. 110. 107. 96. 78. 58. 32. 12.
      3. 1. 0. 0. 1. 4. 14. 33. 61. 94. 114. 120. 121. 121. 120. 114.
      94. 61. 33. 14. 4. 1. 0.</_>
    <_>
      0. 0. 0. 2. 5. 16. 36. 70. 107. 123. 123. 123. 123. 107. 71. 43.
      28. 14. 4. 1. 0. 0. 0. 2. 7. 18. 36. 63. 93. 119. 121. 115. 115.
      121. 118. 94. 71. 55. 32. 12. 3. 1. 0. 1. 7. 25. 56. 86. 109. 117.
      110. 87. 70. 70. 87. 106. 109. 109. 106. 77. 38. 12. 5. 0. 3. 18.
      56. 100. 117. 110. 87. 60. 36. 23. 23. 36. 54. 69. 90. 117. 117.
      81. 40. 23. 2. 8. 35. 86. 117. 99. 64. 36. 18. 8. 4. 4. 8. 14. 22.
      43. 82. 118. 118. 84. 62. 5. 18. 60. 109. 110. 64. 26. 9. 3. 1. 0.
      0. 1. 1. 4. 13. 39. 82. 119. 119. 105. 15. 36. 86. 116. 87. 36. 9.
      1. 0. 0. 0. 0. 0. 0. 0. 2. 13. 43. 91. 122. 123. 27. 55. 105. 108.
      60. 18. 3. 1. 1. 2. 2. 1. 1. 0. 0. 0. 4. 22. 66. 110. 121. 34. 63.
      104. 86. 36. 8. 2. 6. 13. 17. 17. 13. 6. 2. 0. 0. 1. 13. 49. 95.
      112. 36. 63. 96. 67. 22. 4. 6. 24. 49. 61. 61. 49. 24. 6. 1. 0. 1.
      7. 32. 76. 101. 36. 63. 93. 61. 18. 3. 13. 49. 93. 109. 109. 93.
      49. 13. 1. 0. 0. 3. 21. 64. 95. 36. 63. 92. 61. 18. 4. 17. 61.
      106. 110. 110. 106. 61. 17. 2. 0. 0. 2. 18. 61. 93. 36. 63. 92.
      61. 18. 4. 18. 62. 104. 99. 99. 104. 62. 18. 2. 0. 0. 2. 18. 61.
      92. 36. 63. 92. 61. 18. 4. 17. 61. 106. 110. 110. 106. 61. 17. 2.
      0. 0. 2. 18. 61. 92. 36. 63. 92. 61. 18. 3. 13. 49. 93. 109. 109.
      93. 49. 13. 1. 0. 0. 2. 18. 61. 92. 36. 63. 92. 61. 18. 3. 6. 24.
      49. 61. 61. 49. 24. 6. 1. 0. 0. 2. 18. 61. 93. 36. 63. 92. 61. 18.
      2. 2. 6. 13. 17. 17. 13. 6. 2. 0. 0. 0. 3. 21. 64. 95. 36. 63. 93.
      61. 18. 2. 0. 1. 1. 2. 2. 1. 1. 0. 0. 0. 1. 8. 33. 77. 102. 36.
      63. 96. 68. 23. 4. 0. 0. 0. 0. 0. 0. 0. 0. 0. 0. 3. 18. 56. 99.
      114. 34. 63. 105. 89. 43. 13. 2. 0. 0. 0. 0. 0. 0. 0. 0. 2. 13.
      42. 88. 118. 121. 27. 54. 105. 117. 82. 39. 12. 2. 0. 0. 0. 0. 0.
      0. 2. 12. 39. 82. 118. 118. 105. 14. 32. 77. 117. 118. 81. 38. 12.
      4. 2. 2. 2. 2. 4. 13. 39. 81. 118. 118. 84. 62. 4. 12. 38. 81.
      117. 114. 76. 39. 22. 18. 18. 18. 18. 23. 43. 82. 118. 118. 81.
      40. 23. 1. 3. 12. 38. 77. 103. 96. 76. 65. 63. 63. 63. 63. 70. 91.
      119. 118. 81. 38. 12. 5. 0. 0. 3. 12. 32. 58. 78. 96. 107. 110.
      110. 110. 111. 114. 122. 119. 84. 40. 12. 3. 1. 0. 0. 1. 4. 14.
      33. 61. 94. 114. 120. 121. 121. 121. 123. 123. 105. 62. 23. 5. 1.
      0.</_>
    <_>
      92. 92. 92. 92. 93. 94. 97. 106. 118. 126. 128. 128. 126. 118.
      106. 98. 95. 94. 93. 92. 92. 61. 61. 61. 61. 63. 68. 78. 92. 109.
      120. 123. 123. 120. 109. 93. 81. 74. 67. 63. 61. 61. 18. 18. 19.
      24. 35. 53. 74. 89. 101. 108. 110. 110. 108. 100. 89. 82. 71. 49.
      29. 20. 18. 2. 3. 9. 27. 58. 87. 105. 96. 77. 65. 63. 63. 65. 73.
      88. 105. 107. 79. 40. 14. 7. 1. 3. 18. 56. 100. 117. 106. 72. 38.
      22. 18. 18. 21. 32. 54. 86. 117. 117. 81. 40. 23. 4. 12. 42. 89.
      118. 99. 63. 32. 12. 4. 2. 2. 3. 8. 18. 42. 82. 118. 118. 84. 62.
      14. 32. 78. 117. 110. 64. 25. 8. 2. 0. 0. 0. 0. 1. 3. 13. 39. 82.
      118. 118. 105. 27. 54. 105. 116. 79. 33. 8. 1. 0. 0. 0. 0. 0. 0.
      0. 2. 13. 42. 88. 118. 121. 34. 63. 105. 89. 42. 12. 2. 1. 1. 2.
      2. 1. 1. 0. 0. 0. 3. 18. 56. 99. 114. 36. 63. 96. 68. 23. 4. 2. 6.
      13. 17. 17. 13. 6. 2. 0. 0. 1. 8. 33. 77. 102. 36. 63. 93. 61. 18.
      3. 6. 24. 49. 61. 61. 49. 24. 6. 1. 0. 0. 3. 21. 64. 95. 36. 63.
      92. 60. 18. 3. 13. 49. 93. 109. 109. 93. 49. 13. 1. 0. 0. 2. 18.
      61. 93. 42. 66. 90. 58. 17. 4. 17. 61. 106. 109. 110. 106. 61. 17.
      2. 0. 0. 2. 18. 61. 92. 56. 74. 85. 50. 14. 3. 18. 62. 101. 93.
      95. 103. 62. 18. 2. 0. 0. 2. 18. 61. 92. 67. 80. 81. 45. 12. 3.
      18. 62. 103. 99. 101. 103. 60. 17. 2. 0. 0. 2. 18. 61. 92. 56. 74.
      85. 50. 14. 3. 17. 61. 107. 112. 106. 91. 48. 13. 1. 0. 0. 2. 18.
      61. 92. 42. 66. 90. 58. 17. 3. 13. 48. 90. 95. 76. 52. 24. 6. 1.
      0. 0. 2. 18. 61. 93. 36. 63. 92. 60. 18. 3. 6. 24. 45. 47. 31. 16.
      6. 2. 0. 0. 0. 3. 21. 64. 95. 36. 63. 93. 61. 18. 2. 2. 6. 12. 12.
      7. 3. 1. 0. 0. 0. 1. 8. 33. 77. 102. 36. 63. 96. 68. 23. 4. 0. 1.
      1. 1. 1. 0. 0. 0. 0. 0. 3. 18. 56. 99. 114. 34. 63. 105. 89. 43.
      13. 2. 0. 0. 0. 0. 0. 0. 0. 0. 2. 13. 42. 88. 118. 121. 27. 54.
      105. 117. 82. 39. 13. 3. 1. 0. 0. 0. 0. 1. 3. 13. 39. 82. 118.
      119. 106. 14. 32. 77. 117. 118. 82. 42. 18. 8. 3. 2. 2. 3. 8. 18.
      42. 83. 120. 121. 90. 71. 4. 12. 38. 81. 118. 118. 88. 56. 33. 21.
      18. 18. 21. 33. 56. 89. 124. 130. 102. 73. 64. 1. 3. 12. 40. 84.
      118. 118. 99. 77. 64. 61. 61. 64. 77. 99. 123. 137. 126. 104. 99.
      106. 0. 1. 5. 23. 62. 105. 121. 114. 102. 95. 93. 93. 95. 102.
      115. 128. 134. 126. 117. 126. 138.</_>
    <_>
      92. 92. 93. 94. 98. 106. 112. 97. 65. 43. 36. 36. 36. 43. 65. 97.
      112. 105. 96. 93. 92. 61. 61. 62. 67. 78. 95. 111. 105. 83. 67.
      63. 63. 63. 67. 83. 105. 110. 92. 72. 63. 61. 18. 19. 24. 43. 74.
      103. 122. 117. 102. 94. 92. 92. 92. 94. 102. 117. 122. 95. 56. 30.
      23. 2. 5. 20. 58. 102. 119. 111. 87. 68. 61. 61. 61. 61. 61. 68.
      91. 119. 119. 83. 42. 25. 2. 8. 35. 86. 117. 99. 64. 37. 22. 18.
      18. 18. 18. 18. 23. 43. 82. 118. 118. 84. 62. 5. 18. 60. 109. 110.
      64. 26. 9. 3. 2. 2. 2. 2. 2. 4. 13. 39. 82. 118. 118. 105. 15. 36.
      86. 116. 87. 36. 9. 2. 1. 0. 0. 0. 0. 0. 0. 2. 13. 42. 88. 118.
      121. 27. 55. 105. 108. 60. 18. 4. 5. 8. 6. 3. 1. 1. 0. 0. 0. 3.
      18. 56. 99. 114. 35. 64. 104. 85. 36. 9. 7. 21. 35. 31. 21. 13. 6.
      2. 0. 0. 1. 8. 33. 77. 102. 42. 67. 94. 64. 21. 5. 13. 46. 82. 84.
      68. 49. 24. 6. 1. 0. 0. 3. 21. 64. 95. 62. 77. 84. 48. 13. 3. 17.
      63. 115. 124. 113. 93. 49. 13. 1. 0. 0. 2. 18. 61. 93. 87. 91. 74.
      35. 8. 3. 18. 65. 113. 114. 111. 106. 61. 17. 2. 0. 0. 2. 18. 61.
      92. 87. 91. 74. 35. 8. 3. 18. 63. 105. 99. 99. 104. 62. 18. 2. 0.
      0. 2. 18. 61. 92. 62. 77. 83. 47. 13. 3. 17. 61. 106. 110. 110.
      106. 61. 17. 2. 0. 0. 2. 18. 61. 92. 42. 66. 90. 57. 17. 3. 13.
      49. 93. 109. 109. 93. 49. 13. 1. 0. 0. 2. 18. 61. 92. 36. 63. 92.
      60. 18. 3. 6. 24. 49. 61. 61. 49. 24. 6. 1. 0. 0. 2. 18. 61. 93.
      36. 63. 92. 61. 18. 2. 2. 6. 13. 17. 17. 13. 6. 2. 0. 0. 0. 3. 21.
      64. 95. 36. 63. 93. 61. 18. 2. 0. 1. 1. 2. 2. 1. 1. 0. 0. 0. 1. 8.
      33. 77. 102. 36. 63. 96. 68. 23. 4. 0. 0. 0. 0. 0. 0. 0. 0. 0. 0.
      3. 18. 56. 99. 114. 34. 63. 105. 89. 43. 13. 2. 0. 0. 0. 0. 0. 0.
      0. 0. 2. 13. 42. 88. 118. 121. 27. 54. 105. 117. 82. 39. 13. 3. 1.
      0. 0. 0. 0. 1. 3. 13. 39. 82. 118. 118. 105. 14. 32. 77. 117. 118.
      82. 42. 18. 8. 3. 2. 2. 3. 8. 18. 42. 82. 118. 118. 84. 62. 4. 12.
      38. 81. 117. 117. 86. 54. 32. 21. 18. 18. 21. 32. 54. 86. 117.
      117. 81. 40. 23. 1. 3. 12. 38. 77. 105. 103. 87. 72. 65. 63. 63.
      65. 72. 87. 103. 105. 77. 38. 12. 5. 0. 0. 3. 12. 32. 54. 67. 79.
      95. 106. 110. 110. 106. 95. 79. 67. 54. 32. 12. 3. 1. 0. 0. 1. 4.
      14. 27. 41. 63. 94. 114. 120. 120. 114. 94. 63. 41. 27. 14. 4. 1.
      0.</_>
    <_>
      0. 0. 0. 0. 0. 2. 5. 14. 26. 33. 35. 36. 43. 63. 90. 100. 97. 94.
      93. 92. 92. 0. 0. 0. 1. 3. 8. 17. 31. 48. 59. 62. 63. 68. 83. 96.
      91. 78. 68. 63. 61. 61. 0. 0. 2. 7. 18. 35. 56. 72. 83. 90. 92.
      93. 98. 110. 117. 102. 77. 50. 29. 20. 18. 0. 1. 7. 25. 56. 85.
      103. 94. 75. 63. 61. 61. 67. 86. 110. 119. 111. 80. 40. 14. 7. 1.
      3. 18. 56. 100. 117. 106. 72. 38. 22. 18. 18. 22. 36. 61. 90. 118.
      117. 81. 40. 23. 4. 12. 42. 89. 118. 99. 63. 32. 12. 4. 2. 2. 3.
      8. 19. 42. 82. 118. 118. 84. 62. 14. 32. 78. 117. 110. 64. 25. 8.
      2. 0. 0. 0. 0. 1. 3. 13. 39. 82. 118. 118. 105. 27. 54. 105. 116.
      79. 33. 8. 1. 0. 0. 0. 0. 0. 0. 0. 2. 13. 42. 88. 118. 121. 34.
      63. 105. 89. 42. 12. 2. 1. 1. 2. 2. 1. 1. 0. 0. 0. 3. 18. 56. 99.
      114. 36. 63. 96. 68. 23. 4. 2. 6. 13. 17. 17. 13. 6. 2. 0. 0. 1.
      8. 33. 77. 102. 36. 63. 93. 61. 18. 3. 6. 24. 49. 61. 61. 49. 24.
      6. 1. 0. 0. 3. 21. 64. 95. 36. 63. 92. 61. 18. 3. 13. 49. 93. 109.
      109. 93. 49. 13. 1. 0. 0. 2. 18. 61. 93. 36. 63. 92. 61. 18. 4.
      17. 61. 106. 109. 110. 106. 61. 17. 2. 0. 0. 2. 18. 61. 92. 36.
      63. 92. 61. 18. 4. 18. 62. 101. 93. 95. 103. 62. 18. 2. 0. 0. 2.
      18. 61. 92. 36. 63. 92. 61. 18. 4. 18. 62. 103. 99. 101. 103. 60.
      17. 2. 0. 0. 2. 18. 61. 92. 36. 63. 92. 61. 18. 4. 17. 61. 107.
      112. 106. 91. 48. 13. 1. 0. 0. 2. 18. 61. 93. 36. 63. 92. 61. 18.
      3. 13. 48. 90. 95. 76. 52. 24. 6. 1. 0. 0. 3. 21. 64. 95. 36. 63.
      92. 61. 18. 3. 6. 24. 45. 47. 31. 16. 6. 2. 0. 0. 1. 7. 32. 76.
      101. 36. 63. 93. 61. 18. 2. 2. 6. 12. 12. 7. 3. 1. 0. 0. 0. 1. 13.
      49. 95. 112. 36. 63. 96. 68. 23. 4. 0. 1. 1. 1. 1. 0. 0. 0. 0. 0.
      4. 22. 66. 110. 121. 34. 63. 105. 89. 43. 13. 2. 0. 0. 0. 0. 0. 0.
      0. 0. 2. 13. 43. 91. 122. 123. 27. 54. 105. 117. 82. 39. 13. 3. 1.
      0. 0. 0. 0. 1. 3. 13. 39. 82. 119. 119. 105. 14. 32. 77. 117. 118.
      82. 42. 18. 8. 3. 2. 2. 3. 8. 18. 42. 82. 118. 118. 84. 62. 4. 12.
      38. 81. 118. 118. 88. 56. 33. 21. 18. 18. 21. 33. 56. 88. 118.
      118. 81. 40. 23. 1. 3. 12. 40. 84. 118. 118. 99. 77. 64. 61. 61.
      64. 77. 99. 118. 118. 84. 40. 13. 5. 0. 1. 5. 23. 62. 105. 121.
      114. 102. 95. 93. 93. 95. 102. 114. 121. 105. 62. 23. 5. 1.</_>
    <_>
      92. 92. 92. 92. 93. 93. 90. 77. 55. 40. 36. 36. 43. 63. 90. 100.
      97. 94. 93. 92. 92. 61. 61. 61. 61. 63. 68. 73. 73. 68. 64. 63.
      63. 68. 83. 96. 91. 78. 68. 63. 61. 61. 18. 18. 19. 24. 35. 53.
      72. 84. 89. 91. 92. 93. 98. 110. 117. 102. 77. 50. 29. 20. 18. 2.
      3. 9. 27. 58. 87. 105. 96. 75. 64. 61. 61. 67. 86. 110. 119. 111.
      80. 40. 14. 7. 1. 3. 18. 56. 100. 117. 106. 72. 38. 22. 18. 18.
      22. 36. 61. 90. 118. 117. 81. 40. 23. 4. 12. 42. 89. 118. 99. 63.
      32. 12. 4. 2. 2. 3. 8. 19. 42. 82. 118. 118. 84. 62. 14. 32. 78.
      117. 110. 64. 25. 8. 2. 0. 0. 0. 0. 1. 3. 13. 39. 82. 118. 118.
      105. 27. 54. 105. 116. 79. 33. 8. 1. 0. 0. 0. 0. 0. 0. 0. 2. 13.
      42. 88. 118. 121. 34. 63. 105. 89. 42. 12. 2. 1. 1. 2. 2. 1. 1. 0.
      0. 0. 3. 18. 56. 99. 114. 36. 63. 96. 68. 23. 4. 2. 6. 13. 17. 17.
      13. 6. 2. 0. 0. 1. 8. 33. 77. 102. 36. 63. 93. 61. 18. 3. 6. 24.
      48. 61. 61. 49. 24. 6. 1. 0. 0. 3. 21. 64. 95. 36. 63. 92. 61. 18.
      4. 16. 51. 91. 106. 108. 93. 49. 13. 1. 0. 0. 2. 18. 61. 93. 36.
      63. 92. 61. 18. 8. 27. 68. 98. 99. 106. 106. 61. 17. 2. 0. 0. 2.
      18. 61. 92. 36. 63. 92. 61. 19. 10. 33. 73. 89. 78. 89. 102. 62.
      18. 2. 0. 0. 2. 18. 61. 92. 36. 63. 92. 61. 18. 8. 28. 70. 95. 88.
      97. 103. 60. 17. 2. 0. 0. 2. 18. 61. 92. 36. 63. 92. 61. 18. 5.
      20. 63. 105. 109. 105. 91. 48. 13. 1. 0. 0. 2. 18. 61. 93. 36. 63.
      92. 61. 18. 3. 13. 49. 90. 95. 75. 52. 24. 6. 1. 0. 0. 3. 21. 64.
      95. 36. 63. 92. 61. 18. 3. 6. 24. 45. 47. 31. 16. 6. 2. 0. 0. 1.
      7. 32. 76. 101. 36. 63. 93. 61. 18. 2. 2. 6. 12. 12. 7. 3. 1. 0.
      0. 0. 1. 13. 49. 95. 112. 36. 63. 96. 68. 23. 4. 0. 1. 1. 1. 1. 0.
      0. 0. 0. 0. 4. 22. 66. 110. 121. 34. 63. 105. 89. 43. 13. 2. 0. 0.
      0. 0. 0. 0. 0. 0. 2. 13. 43. 91. 122. 123. 27. 54. 105. 117. 82.
      39. 13. 3. 1. 0. 0. 0. 0. 1. 3. 13. 39. 82. 119. 119. 105. 14. 32.
      77. 117. 118. 82. 42. 18. 8. 3. 2. 2. 3. 8. 18. 42. 82. 118. 118.
      84. 62. 4. 12. 38. 81. 118. 118. 88. 56. 33. 21. 18. 18. 21. 33.
      56. 88. 118. 118. 81. 40. 23. 1. 3. 12. 40. 84. 118. 118. 99. 77.
      64. 61. 61. 64. 77. 99. 118. 118. 84. 40. 13. 5. 0. 1. 5. 23. 62.
      105. 121. 114. 102. 95. 93. 93. 95. 102. 114. 121. 105. 62. 23. 5.
      1.</_>
    <_>
      0. 0. 0. 0. 1. 3. 6. 14. 26. 33. 35. 36. 35. 33. 26. 14. 5. 2. 0.
      0. 0. 0. 0. 0. 2. 7. 14. 21. 32. 48. 59. 62. 63. 62. 59. 48. 31.
      17. 7. 2. 0. 0. 0. 0. 2. 11. 31. 53. 64. 72. 82. 90. 92. 92. 92.
      90. 83. 72. 55. 31. 11. 3. 1. 0. 2. 11. 37. 77. 105. 103. 86. 71.
      63. 61. 61. 61. 63. 75. 95. 103. 77. 38. 12. 5. 2. 7. 32. 78. 116.
      117. 86. 54. 32. 21. 18. 18. 18. 22. 39. 76. 114. 117. 81. 40. 23.
      5. 18. 59. 109. 118. 83. 42. 18. 8. 3. 2. 2. 2. 4. 12. 38. 81.
      118. 118. 84. 62. 15. 36. 86. 117. 90. 42. 13. 3. 1. 0. 0. 0. 0.
      0. 2. 12. 39. 82. 118. 118. 105. 27. 55. 105. 108. 61. 19. 3. 1.
      1. 2. 1. 1. 0. 0. 0. 2. 13. 42. 88. 118. 121. 34. 63. 104. 86. 36.
      8. 2. 6. 13. 16. 13. 7. 2. 0. 0. 0. 3. 18. 56. 99. 114. 36. 63.
      96. 67. 22. 4. 6. 24. 49. 61. 53. 31. 11. 2. 0. 0. 1. 8. 33. 77.
      102. 36. 63. 93. 61. 18. 3. 13. 49. 96. 117. 109. 74. 31. 7. 1. 0.
      0. 3. 21. 64. 95. 36. 63. 92. 61. 18. 4. 17. 61. 112. 127. 129.
      106. 53. 13. 1. 0. 0. 2. 18. 61. 93. 36. 63. 92. 61. 18. 4. 18.
      62. 105. 107. 114. 111. 62. 17. 2. 0. 0. 2. 18. 61. 92. 36. 63.
      92. 61. 18. 4. 18. 62. 105. 107. 114. 111. 62. 17. 2. 0. 0. 2. 18.
      61. 92. 36. 63. 92. 61. 18. 4. 17. 61. 112. 127. 129. 106. 53. 13.
      1. 0. 0. 2. 18. 61. 92. 36. 63. 92. 61. 18. 3. 13. 49. 96. 117.
      109. 74. 31. 7. 1. 0. 0. 2. 18. 61. 93. 36. 63. 92. 61. 18. 3. 6.
      24. 49. 61. 53. 31. 11. 2. 0. 0. 0. 3. 21. 64. 95. 36. 63. 93. 61.
      18. 2. 2. 6. 13. 16. 13. 7. 2. 0. 0. 0. 1. 7. 32. 76. 101. 36. 63.
      96. 67. 22. 3. 0. 1. 1. 2. 1. 1. 0. 0. 0. 0. 1. 13. 49. 95. 112.
      34. 63. 104. 86. 36. 8. 1. 0. 0. 0. 0. 0. 0. 0. 0. 0. 4. 22. 66.
      110. 121. 27. 55. 105. 108. 61. 19. 3. 0. 0. 0. 0. 0. 0. 0. 0. 2.
      13. 43. 91. 122. 123. 15. 36. 86. 117. 90. 42. 13. 4. 1. 1. 0. 0.
      1. 1. 4. 12. 38. 82. 118. 119. 105. 5. 18. 59. 108. 114. 77. 39.
      21. 13. 7. 3. 3. 7. 13. 21. 39. 76. 114. 117. 84. 62. 2. 7. 31.
      73. 102. 96. 76. 62. 49. 32. 22. 22. 32. 49. 62. 76. 96. 103. 77.
      40. 23. 0. 2. 11. 32. 58. 78. 96. 103. 94. 76. 65. 65. 76. 94.
      103. 96. 78. 58. 32. 12. 5. 0. 1. 4. 14. 33. 61. 94. 112. 111.
      101. 95. 95. 101. 111. 112. 94. 61. 33. 14. 4. 1.</_>
    <_>
      92. 92. 93. 94. 97. 100. 90. 63. 43. 36. 36. 36. 36. 43. 65. 97.
      112. 106. 98. 100. 103. 61. 61. 62. 67. 78. 91. 96. 83. 68. 63.
      63. 63. 63. 67. 83. 105. 110. 92. 76. 75. 79. 18. 19. 24. 43. 73.
      102. 117. 110. 98. 93. 92. 92. 92. 94. 102. 117. 122. 95. 59. 41.
      39. 2. 5. 20. 58. 102. 119. 111. 86. 67. 61. 61. 61. 61. 61. 68.
      91. 119. 119. 84. 46. 31. 2. 8. 35. 86. 117. 99. 64. 37. 22. 18.
      18. 18. 18. 18. 23. 43. 82. 118. 118. 85. 63. 5. 18. 60. 109. 110.
      64. 26. 9. 3. 2. 2. 2. 2. 2. 4. 13. 39. 82. 119. 119. 105. 15. 36.
      86. 116. 87. 36. 9. 2. 1. 0. 0. 0. 0. 0. 0. 2. 13. 43. 91. 122.
      123. 27. 55. 105. 108. 60. 18. 4. 5. 8. 6. 3. 1. 1. 0. 0. 0. 4.
      22. 66. 110. 121. 34. 63. 104. 86. 36. 9. 7. 21. 35. 31. 21. 13.
      6. 2. 0. 0. 1. 13. 49. 95. 112. 36. 63. 96. 67. 22. 5. 13. 46. 82.
      84. 68. 49. 24. 6. 1. 0. 1. 7. 32. 76. 101. 36. 63. 93. 61. 18. 4.
      17. 63. 115. 124. 113. 93. 49. 13. 1. 0. 0. 3. 21. 64. 95. 36. 63.
      92. 61. 18. 4. 18. 65. 113. 114. 111. 106. 61. 17. 2. 0. 0. 2. 18.
      61. 93. 36. 63. 92. 61. 18. 4. 18. 63. 105. 99. 99. 104. 62. 18.
      2. 0. 0. 2. 18. 61. 92. 36. 63. 92. 61. 18. 4. 17. 61. 106. 110.
      110. 106. 61. 17. 2. 0. 0. 2. 18. 61. 92. 36. 63. 92. 61. 18. 3.
      13. 49. 93. 109. 109. 93. 49. 13. 1. 0. 0. 2. 18. 61. 92. 36. 63.
      92. 61. 18. 3. 6. 24. 49. 61. 61. 49. 24. 6. 1. 0. 0. 2. 18. 61.
      93. 36. 63. 92. 61. 18. 2. 2. 6. 13. 17. 17. 13. 6. 2. 0. 0. 0. 3.
      21. 64. 95. 36. 63. 93. 61. 18. 2. 0. 1. 1. 2. 2. 1. 1. 0. 0. 0.
      1. 8. 33. 77. 102. 36. 63. 96. 68. 23. 4. 0. 0. 0. 0. 0. 0. 0. 0.
      0. 0. 3. 18. 56. 99. 114. 34. 63. 105. 89. 43. 13. 2. 0. 0. 0. 0.
      0. 0. 0. 0. 2. 13. 42. 88. 118. 121. 27. 54. 105. 117. 82. 39. 13.
      3. 1. 0. 0. 0. 0. 1. 3. 13. 39. 82. 118. 118. 105. 14. 32. 77.
      117. 118. 82. 42. 18. 8. 3. 2. 2. 3. 8. 18. 42. 82. 118. 118. 84.
      62. 4. 12. 38. 81. 117. 117. 86. 54. 32. 21. 18. 18. 21. 32. 54.
      86. 117. 117. 81. 40. 23. 1. 3. 12. 38. 77. 105. 103. 87. 72. 65.
      63. 63. 65. 72. 87. 103. 105. 77. 38. 12. 5. 0. 0. 3. 12. 32. 54.
      67. 79. 95. 106. 110. 110. 106. 95. 79. 67. 54. 32. 12. 3. 1. 0.
      0. 1. 4. 14. 27. 41. 63. 94. 114. 120. 120. 114. 94. 63. 41. 27.
      14. 4. 1. 0.</_>
    <_>
      92. 92. 93. 94. 97. 101. 99. 92. 87. 65. 45. 46. 72. 109. 128.
      128. 119. 106. 96. 93. 92. 61. 61. 63. 68. 78. 92. 104. 109. 108.
      89. 71. 72. 94. 122. 131. 127. 115. 92. 72. 63. 61. 18. 20. 29.
      49. 77. 103. 122. 125. 120. 108. 97. 97. 109. 121. 124. 126. 123.
      95. 56. 30. 23. 3. 9. 33. 76. 110. 119. 111. 90. 74. 66. 62. 62.
      65. 68. 73. 92. 119. 119. 83. 42. 25. 3. 14. 53. 105. 117. 91. 61.
      37. 23. 19. 18. 18. 18. 19. 24. 43. 82. 118. 118. 84. 62. 6. 22.
      68. 109. 91. 47. 19. 8. 3. 2. 2. 2. 2. 2. 4. 13. 39. 82. 119. 119.
      105. 15. 36. 86. 108. 69. 23. 4. 1. 0. 0. 0. 0. 0. 0. 0. 2. 13.
      43. 91. 122. 123. 27. 55. 104. 105. 54. 14. 2. 1. 1. 2. 2. 1. 1.
      0. 0. 0. 4. 22. 66. 110. 121. 34. 63. 104. 85. 36. 8. 2. 6. 13.
      17. 17. 13. 6. 2. 0. 0. 1. 13. 49. 95. 112. 36. 63. 96. 67. 22. 4.
      7. 24. 48. 61. 61. 49. 24. 6. 1. 0. 1. 7. 32. 76. 101. 36. 63. 93.
      61. 18. 5. 16. 51. 91. 106. 108. 93. 49. 13. 1. 0. 0. 3. 21. 64.
      95. 36. 63. 92. 61. 18. 8. 27. 68. 99. 100. 106. 106. 61. 17. 2.
      0. 0. 2. 18. 61. 93. 36. 63. 92. 61. 19. 10. 33. 74. 92. 83. 93.
      103. 62. 18. 2. 0. 0. 2. 18. 61. 92. 36. 63. 92. 61. 18. 8. 27.
      68. 99. 100. 106. 106. 61. 17. 2. 0. 0. 2. 18. 61. 92. 36. 63. 92.
      61. 18. 4. 16. 51. 91. 106. 108. 93. 49. 13. 1. 0. 0. 2. 18. 61.
      93. 36. 63. 92. 61. 18. 3. 6. 24. 48. 61. 61. 49. 24. 6. 1. 0. 0.
      3. 21. 64. 95. 36. 63. 92. 61. 18. 2. 2. 6. 13. 17. 17. 13. 6. 2.
      0. 0. 1. 7. 32. 76. 101. 36. 63. 93. 61. 18. 2. 0. 1. 1. 2. 2. 1.
      1. 0. 0. 0. 1. 13. 49. 95. 112. 36. 63. 96. 68. 23. 4. 0. 0. 0. 0.
      0. 0. 0. 0. 0. 0. 4. 22. 66. 110. 121. 34. 63. 105. 89. 43. 13. 2.
      0. 0. 0. 0. 0. 0. 0. 0. 2. 13. 43. 91. 122. 123. 27. 54. 105. 117.
      82. 39. 13. 3. 1. 0. 0. 0. 0. 1. 3. 13. 39. 82. 119. 119. 105. 14.
      32. 77. 117. 118. 82. 42. 18. 8. 3. 2. 2. 3. 8. 18. 42. 82. 118.
      118. 84. 62. 4. 12. 38. 81. 117. 117. 86. 54. 32. 21. 18. 18. 21.
      32. 54. 86. 117. 117. 81. 40. 23. 1. 3. 12. 38. 77. 105. 103. 87.
      72. 65. 63. 63. 65. 72. 87. 103. 105. 77. 38. 12. 5. 0. 0. 3. 12.
      32. 54. 67. 79. 95. 106. 110. 110. 106. 95. 79. 67. 54. 32. 12. 3.
      1. 0. 0. 1. 4. 14. 27. 41. 63. 94. 114. 120. 120. 114. 94. 63. 41.
      27. 14. 4. 1. 0.</_>
    <_>
      92. 92. 92. 93. 94. 95. 98. 106. 118. 126. 128. 128. 126. 118.
      106. 98. 95. 96. 102. 112. 117. 61. 61. 61. 63. 67. 74. 81. 93.
      109. 120. 123. 123. 120. 109. 93. 81. 75. 71. 78. 94. 102. 18. 18.
      20. 29. 49. 71. 82. 89. 100. 108. 110. 110. 108. 100. 89. 82. 71.
      53. 44. 50. 56. 2. 4. 13. 39. 79. 107. 105. 88. 73. 65. 63. 63.
      65. 73. 88. 105. 107. 80. 45. 25. 20. 2. 7. 32. 78. 116. 117. 86.
      54. 32. 21. 18. 18. 21. 32. 54. 86. 117. 117. 82. 41. 25. 5. 18.
      59. 109. 118. 83. 42. 18. 8. 3. 2. 2. 3. 8. 18. 42. 82. 118. 118.
      84. 62. 15. 36. 86. 117. 90. 42. 13. 3. 1. 0. 0. 0. 0. 1. 3. 13.
      39. 82. 118. 118. 105. 27. 55. 105. 108. 61. 19. 3. 1. 1. 2. 1. 1.
      0. 0. 0. 2. 13. 42. 88. 118. 121. 34. 63. 104. 86. 36. 8. 2. 6.
      13. 16. 13. 7. 2. 0. 0. 0. 3. 18. 56. 99. 114. 36. 64. 96. 67. 22.
      4. 6. 24. 49. 61. 53. 31. 11. 2. 0. 0. 1. 8. 33. 77. 102. 42. 66.
      91. 58. 17. 3. 13. 49. 96. 117. 109. 74. 31. 7. 1. 0. 0. 3. 21.
      64. 95. 57. 74. 85. 50. 14. 3. 17. 61. 112. 127. 129. 106. 53. 13.
      1. 0. 0. 2. 18. 61. 93. 74. 84. 79. 42. 11. 3. 18. 62. 105. 107.
      114. 111. 62. 17. 2. 0. 0. 2. 18. 61. 92. 83. 89. 76. 37. 9. 3.
      18. 62. 105. 107. 114. 111. 62. 17. 2. 0. 0. 2. 18. 61. 92. 93.
      95. 72. 32. 7. 2. 17. 61. 112. 127. 129. 106. 53. 13. 1. 0. 0. 2.
      18. 61. 92. 88. 92. 74. 34. 8. 2. 13. 49. 96. 117. 109. 74. 31. 7.
      1. 0. 0. 2. 18. 61. 93. 62. 77. 83. 47. 13. 2. 6. 24. 49. 61. 53.
      31. 11. 2. 0. 0. 0. 3. 21. 64. 95. 42. 66. 90. 58. 17. 2. 2. 6.
      13. 16. 13. 7. 2. 0. 0. 0. 1. 8. 33. 77. 102. 36. 64. 96. 67. 22.
      3. 0. 1. 1. 2. 1. 1. 0. 0. 0. 0. 3. 17. 55. 98. 114. 34. 63. 104.
      86. 36. 8. 1. 0. 0. 0. 0. 0. 0. 0. 0. 1. 8. 35. 84. 118. 121. 27.
      55. 105. 108. 61. 19. 3. 0. 0. 0. 0. 0. 0. 0. 0. 3. 19. 61. 110.
      119. 108. 15. 36. 86. 117. 90. 42. 13. 4. 2. 2. 2. 2. 2. 2. 4. 13.
      42. 90. 119. 98. 77. 5. 18. 59. 108. 114. 77. 39. 22. 18. 18. 18.
      18. 18. 18. 22. 39. 77. 116. 118. 85. 68. 2. 7. 31. 73. 102. 96.
      76. 65. 63. 63. 63. 63. 63. 63. 65. 76. 98. 112. 103. 90. 87. 0.
      2. 11. 32. 58. 78. 96. 107. 110. 110. 110. 110. 110. 110. 107. 96.
      84. 81. 90. 103. 110. 0. 1. 4. 14. 33. 61. 94. 114. 120. 121. 121.
      121. 121. 120. 114. 95. 69. 65. 87. 110. 119.</_>
    <_>
      92. 92. 93. 94. 98. 106. 112. 97. 65. 43. 36. 36. 43. 65. 97. 112.
      106. 98. 94. 93. 92. 61. 61. 62. 67. 78. 95. 111. 105. 83. 67. 63.
      63. 67. 83. 105. 111. 96. 79. 68. 63. 61. 18. 19. 24. 43. 74. 103.
      122. 117. 102. 94. 92. 92. 94. 102. 117. 122. 104. 77. 49. 29. 22.
      2. 5. 20. 58. 102. 119. 111. 87. 68. 61. 61. 61. 61. 68. 87. 110.
      119. 110. 76. 34. 17. 2. 8. 35. 86. 117. 99. 64. 37. 22. 18. 18.
      18. 18. 22. 36. 61. 91. 118. 109. 62. 36. 5. 18. 60. 109. 110. 64.
      26. 9. 3. 2. 2. 2. 2. 3. 8. 19. 46. 91. 118. 93. 70. 15. 36. 86.
      116. 87. 36. 9. 1. 0. 0. 0. 0. 0. 0. 1. 4. 19. 61. 109. 118. 107.
      27. 55. 105. 108. 60. 18. 3. 1. 1. 2. 2. 1. 1. 0. 0. 1. 8. 35. 84.
      118. 121. 35. 64. 104. 85. 36. 8. 2. 6. 13. 17. 17. 13. 6. 2. 0.
      0. 3. 17. 55. 98. 114. 42. 67. 94. 64. 21. 4. 6. 24. 49. 61. 61.
      49. 24. 6. 1. 0. 1. 8. 33. 77. 102. 63. 78. 83. 48. 13. 3. 13. 49.
      93. 110. 110. 93. 49. 13. 1. 0. 0. 3. 21. 64. 95. 93. 95. 72. 32.
      7. 2. 17. 61. 107. 114. 116. 110. 61. 17. 2. 0. 0. 2. 18. 61. 93.
      108. 103. 67. 25. 4. 2. 18. 63. 108. 112. 117. 112. 62. 17. 2. 0.
      0. 2. 18. 61. 92. 94. 95. 72. 31. 7. 2. 17. 61. 112. 128. 129.
      106. 53. 13. 1. 0. 0. 2. 18. 61. 92. 69. 81. 81. 44. 12. 3. 13.
      49. 96. 117. 109. 74. 31. 7. 1. 0. 0. 2. 18. 61. 93. 63. 78. 83.
      47. 13. 2. 6. 24. 49. 61. 53. 31. 11. 2. 0. 0. 0. 3. 21. 64. 95.
      68. 80. 81. 45. 12. 1. 2. 6. 13. 16. 13. 7. 2. 0. 0. 0. 1. 7. 32.
      76. 101. 56. 74. 86. 51. 15. 2. 0. 1. 1. 2. 1. 1. 0. 0. 0. 0. 1.
      13. 49. 95. 112. 42. 67. 94. 65. 22. 4. 0. 0. 0. 0. 0. 0. 0. 0. 0.
      0. 4. 22. 66. 110. 121. 35. 64. 105. 89. 43. 13. 2. 0. 0. 0. 0. 0.
      0. 0. 0. 2. 13. 43. 91. 122. 123. 27. 54. 105. 117. 82. 39. 13. 4.
      1. 1. 0. 0. 1. 1. 4. 13. 39. 82. 119. 119. 105. 14. 32. 77. 117.
      118. 82. 43. 22. 13. 7. 3. 3. 7. 13. 22. 43. 82. 118. 118. 84. 62.
      4. 12. 38. 81. 117. 117. 89. 64. 48. 31. 22. 22. 31. 48. 64. 89.
      117. 117. 81. 40. 23. 1. 3. 12. 38. 77. 105. 105. 94. 83. 72. 65.
      65. 72. 83. 94. 105. 105. 77. 38. 12. 5. 0. 0. 3. 12. 32. 54. 64.
      67. 78. 95. 106. 106. 95. 78. 67. 64. 54. 32. 12. 3. 1. 0. 0. 1.
      4. 14. 27. 35. 42. 63. 94. 114. 114. 94. 63. 42. 35. 27. 14. 4. 1.
      0.</_>
    <_>
      92. 92. 92. 93. 94. 97. 99. 89. 63. 43. 36. 36. 43. 63. 89. 99.
      99. 103. 112. 119. 121. 61. 61. 61. 63. 68. 77. 87. 90. 78. 67.
      63. 63. 67. 78. 90. 87. 81. 84. 96. 107. 109. 18. 18. 20. 29. 49.
      73. 88. 95. 96. 93. 92. 92. 93. 96. 95. 88. 76. 64. 60. 62. 62. 2.
      4. 13. 39. 79. 105. 97. 76. 64. 61. 61. 61. 61. 64. 76. 97. 106.
      84. 51. 29. 23. 2. 7. 32. 78. 116. 114. 76. 39. 22. 18. 18. 18.
      18. 22. 39. 76. 114. 117. 83. 42. 25. 5. 18. 59. 109. 118. 82. 38.
      12. 4. 2. 2. 2. 2. 4. 12. 38. 81. 118. 118. 84. 62. 15. 36. 86.
      117. 90. 42. 13. 2. 0. 0. 0. 0. 0. 0. 2. 12. 39. 82. 118. 118.
      105. 27. 55. 105. 108. 61. 19. 3. 1. 1. 2. 1. 1. 0. 0. 0. 2. 13.
      42. 88. 118. 121. 34. 63. 104. 86. 36. 8. 2. 6. 13. 16. 13. 7. 2.
      0. 0. 0. 3. 18. 56. 99. 114. 36. 63. 96. 67. 22. 4. 7. 24. 49. 61.
      53. 31. 11. 2. 0. 0. 1. 8. 33. 77. 102. 36. 63. 93. 61. 18. 5. 16.
      51. 94. 114. 108. 74. 31. 7. 1. 0. 0. 3. 21. 64. 95. 36. 63. 92.
      61. 18. 8. 27. 69. 104. 117. 125. 106. 53. 13. 1. 0. 0. 2. 18. 61.
      93. 36. 63. 92. 61. 19. 10. 33. 74. 93. 92. 108. 110. 62. 17. 2.
      0. 0. 2. 18. 61. 92. 36. 63. 92. 61. 18. 8. 28. 70. 97. 97. 110.
      111. 62. 17. 2. 0. 0. 2. 18. 61. 92. 36. 63. 92. 61. 18. 5. 20.
      64. 110. 124. 128. 106. 53. 13. 1. 0. 0. 2. 18. 61. 92. 36. 63.
      92. 61. 18. 3. 13. 49. 96. 117. 109. 74. 31. 7. 1. 0. 0. 2. 18.
      61. 93. 36. 63. 92. 61. 18. 3. 6. 24. 49. 61. 53. 31. 11. 2. 0. 0.
      0. 3. 21. 64. 95. 36. 63. 93. 61. 18. 2. 2. 6. 13. 16. 13. 7. 2.
      0. 0. 0. 1. 7. 32. 76. 101. 36. 63. 96. 67. 22. 3. 0. 1. 1. 2. 1.
      1. 0. 0. 0. 0. 1. 13. 49. 95. 112. 34. 63. 104. 86. 36. 8. 1. 0.
      0. 0. 0. 0. 0. 0. 0. 0. 4. 22. 66. 110. 121. 27. 55. 105. 108. 61.
      19. 3. 0. 0. 0. 0. 0. 0. 0. 0. 2. 13. 43. 91. 122. 123. 15. 36.
      86. 117. 90. 42. 13. 4. 1. 1. 0. 0. 1. 1. 4. 12. 38. 82. 118. 119.
      105. 5. 18. 59. 108. 114. 77. 39. 21. 13. 7. 3. 3. 7. 13. 21. 39.
      76. 114. 117. 84. 62. 2. 7. 31. 73. 102. 96. 76. 62. 49. 32. 22.
      22. 32. 49. 62. 76. 96. 103. 77. 40. 23. 0. 2. 11. 32. 58. 78. 96.
      103. 94. 76. 65. 65. 76. 94. 103. 96. 78. 58. 32. 12. 5. 0. 1. 4.
      14. 33. 61. 94. 112. 111. 101. 95. 95. 101. 111. 112. 94. 61. 33.
      14. 4. 1.</_>
    <_>
      0. 0. 0. 2. 5. 16. 36. 70. 107. 123. 123. 123. 123. 107. 71. 43.
      28. 14. 4. 1. 0. 0. 0. 2. 7. 18. 36. 63. 93. 119. 121. 115. 115.
      121. 118. 94. 71. 55. 32. 12. 3. 1. 0. 1. 7. 25. 56. 86. 109. 117.
      110. 87. 70. 70. 87. 106. 109. 109. 106. 77. 38. 12. 5. 0. 3. 18.
      56. 100. 117. 110. 87. 60. 36. 23. 23. 36. 54. 69. 90. 117. 117.
      81. 40. 23. 2. 8. 35. 86. 117. 99. 64. 36. 18. 8. 4. 4. 8. 14. 22.
      43. 82. 118. 118. 84. 62. 5. 18. 60. 109. 110. 64. 26. 9. 3. 1. 0.
      0. 1. 1. 4. 13. 39. 82. 119. 119. 105. 15. 36. 86. 116. 87. 36. 9.
      2. 1. 0. 0. 0. 0. 0. 0. 2. 13. 43. 91. 122. 123. 27. 55. 105. 108.
      60. 18. 4. 5. 8. 6. 3. 1. 1. 0. 0. 0. 4. 22. 66. 110. 121. 34. 63.
      104. 86. 36. 9. 7. 21. 35. 31. 21. 13. 6. 2. 0. 0. 1. 13. 49. 95.
      112. 36. 63. 96. 67. 22. 5. 13. 46. 82. 83. 68. 49. 24. 6. 1. 0.
      1. 7. 32. 76. 101. 36. 63. 93. 61. 18. 5. 20. 65. 113. 121. 112.
      93. 49. 13. 1. 0. 0. 3. 21. 64. 95. 36. 63. 92. 61. 18. 8. 28. 73.
      105. 104. 107. 106. 61. 17. 2. 0. 0. 2. 18. 61. 93. 36. 63. 92.
      61. 19. 10. 34. 74. 93. 84. 93. 103. 62. 18. 2. 0. 0. 2. 18. 61.
      92. 36. 63. 92. 61. 18. 8. 27. 68. 99. 100. 106. 106. 61. 17. 2.
      0. 0. 2. 18. 61. 92. 36. 63. 92. 61. 18. 4. 16. 51. 91. 106. 108.
      93. 49. 13. 1. 0. 0. 2. 18. 61. 92. 36. 63. 92. 61. 18. 3. 6. 24.
      48. 61. 61. 49. 24. 6. 1. 0. 0. 2. 18. 61. 93. 36. 63. 92. 61. 18.
      2. 2. 6. 13. 17. 17. 13. 6. 2. 0. 0. 0. 3. 21. 64. 95. 36. 63. 93.
      61. 18. 2. 0. 1. 1. 2. 2. 1. 1. 0. 0. 0. 1. 8. 33. 77. 102. 36.
      63. 96. 68. 23. 4. 0. 0. 0. 0. 0. 0. 0. 0. 0. 0. 3. 18. 56. 99.
      114. 34. 63. 105. 89. 43. 13. 2. 0. 0. 0. 0. 0. 0. 0. 0. 2. 13.
      42. 88. 118. 121. 27. 54. 105. 117. 82. 39. 12. 2. 0. 0. 0. 0. 0.
      0. 2. 12. 39. 82. 118. 118. 105. 14. 32. 77. 117. 118. 81. 38. 12.
      4. 2. 2. 2. 2. 4. 12. 38. 81. 118. 118. 84. 62. 4. 12. 38. 81.
      117. 114. 76. 39. 22. 18. 18. 18. 18. 22. 39. 76. 114. 117. 81.
      40. 23. 1. 3. 12. 38. 77. 103. 96. 76. 65. 63. 63. 63. 63. 65. 76.
      96. 103. 77. 38. 12. 5. 0. 0. 3. 12. 32. 58. 78. 96. 107. 110.
      110. 110. 110. 107. 96. 78. 58. 32. 12. 3. 1. 0. 0. 1. 4. 14. 33.
      61. 94. 114. 120. 121. 121. 120. 114. 94. 61. 33. 14. 4. 1. 0.</_>
    <_>
      0. 0. 0. 0. 1. 3. 6. 14. 26. 33. 35. 36. 36. 40. 55. 77. 92. 102.
      112. 119. 121. 0. 0. 0. 2. 7. 14. 21. 32. 48. 59. 62. 63. 63. 64.
      68. 73. 77. 83. 96. 107. 109. 0. 0. 2. 11. 31. 53. 64. 72. 82. 90.
      92. 92. 92. 91. 89. 84. 75. 63. 60. 62. 62. 0. 2. 11. 37. 77. 105.
      103. 86. 71. 63. 61. 61. 61. 64. 75. 97. 106. 84. 51. 29. 23. 2.
      7. 32. 78. 116. 117. 86. 54. 32. 21. 18. 18. 18. 22. 39. 76. 114.
      117. 83. 42. 25. 5. 18. 59. 109. 118. 83. 42. 18. 8. 3. 2. 2. 2.
      4. 12. 38. 81. 118. 118. 84. 62. 15. 36. 86. 117. 90. 42. 13. 3.
      1. 0. 0. 0. 0. 0. 2. 12. 39. 82. 118. 118. 105. 27. 55. 105. 108.
      61. 19. 3. 1. 1. 2. 1. 1. 0. 0. 0. 2. 13. 42. 88. 118. 121. 34.
      63. 104. 86. 36. 8. 2. 6. 13. 16. 13. 7. 2. 0. 0. 0. 3. 18. 56.
      99. 114. 36. 63. 96. 67. 22. 4. 7. 24. 49. 61. 53. 31. 11. 2. 0.
      0. 1. 8. 33. 77. 102. 36. 63. 93. 61. 18. 5. 16. 51. 94. 114. 108.
      74. 31. 7. 1. 0. 0. 3. 21. 64. 95. 36. 63. 92. 61. 18. 8. 27. 69.
      104. 117. 125. 106. 53. 13. 1. 0. 0. 2. 18. 61. 93. 36. 63. 92.
      61. 19. 10. 33. 74. 93. 92. 108. 110. 62. 17. 2. 0. 0. 2. 18. 61.
      92. 36. 63. 92. 61. 18. 8. 28. 70. 97. 97. 110. 111. 62. 17. 2. 0.
      0. 2. 18. 61. 92. 36. 63. 92. 61. 18. 5. 20. 64. 110. 124. 128.
      106. 53. 13. 1. 0. 0. 2. 18. 61. 92. 36. 63. 92. 61. 18. 3. 13.
      49. 96. 117. 109. 74. 31. 7. 1. 0. 0. 2. 18. 61. 93. 36. 63. 92.
      61. 18. 3. 6. 24. 49. 61. 53. 31. 11. 2. 0. 0. 0. 3. 21. 64. 95.
      36. 63. 93. 61. 18. 2. 2. 6. 13. 16. 13. 7. 2. 0. 0. 0. 1. 7. 32.
      76. 101. 36. 63. 96. 67. 22. 3. 0. 1. 1. 2. 1. 1. 0. 0. 0. 0. 1.
      13. 49. 95. 112. 34. 63. 104. 86. 36. 8. 1. 0. 0. 0. 0. 0. 0. 0.
      0. 0. 4. 22. 66. 110. 121. 27. 55. 105. 108. 61. 19. 3. 0. 0. 0.
      0. 0. 0. 0. 0. 2. 13. 43. 91. 122. 123. 15. 36. 86. 117. 90. 42.
      13. 4. 1. 1. 0. 0. 1. 1. 4. 12. 38. 82. 118. 119. 105. 5. 18. 59.
      108. 114. 77. 39. 21. 13. 7. 3. 3. 7. 13. 21. 39. 76. 114. 117.
      84. 62. 2. 7. 31. 73. 102. 96. 76. 62. 49. 32. 22. 22. 32. 49. 62.
      76. 96. 103. 77. 40. 23. 0. 2. 11. 32. 58. 78. 96. 103. 94. 76.
      65. 65. 76. 94. 103. 96. 78. 58. 32. 12. 5. 0. 1. 4. 14. 33. 61.
      94. 112. 111. 101. 95. 95. 101. 111. 112. 94. 61. 33. 14. 4. 1.</_>
    <_>
      92. 92. 92. 92. 93. 94. 97. 106. 118. 126. 128. 128. 126. 118.
      106. 98. 95. 94. 93. 92. 92. 61. 61. 61. 61. 63. 68. 78. 92. 109.
      120. 123. 123. 120. 109. 93. 81. 74. 67. 63. 61. 61. 18. 18. 19.
      24. 35. 53. 74. 89. 101. 108. 110. 110. 108. 100. 89. 82. 71. 49.
      29. 20. 18. 2. 3. 9. 27. 58. 87. 105. 96. 77. 65. 63. 63. 65. 73.
      88. 105. 107. 79. 40. 14. 7. 1. 3. 18. 56. 100. 117. 106. 72. 38.
      22. 18. 18. 21. 32. 54. 86. 117. 117. 81. 40. 23. 4. 12. 42. 89.
      118. 99. 63. 32. 12. 4. 2. 2. 3. 8. 18. 42. 82. 118. 118. 84. 62.
      14. 32. 78. 117. 110. 64. 25. 8. 2. 0. 0. 0. 0. 1. 3. 13. 39. 82.
      118. 118. 105. 27. 54. 105. 116. 79. 33. 8. 1. 0. 0. 0. 0. 0. 0.
      0. 2. 13. 42. 88. 118. 121. 34. 63. 105. 89. 42. 12. 2. 1. 1. 2.
      2. 1. 1. 0. 0. 0. 3. 18. 56. 99. 114. 36. 63. 96. 68. 23. 4. 2. 6.
      13. 17. 17. 13. 6. 2. 0. 0. 1. 8. 33. 77. 102. 36. 63. 93. 61. 18.
      3. 6. 24. 49. 61. 61. 49. 24. 6. 1. 0. 0. 3. 21. 64. 95. 36. 63.
      92. 61. 18. 3. 13. 49. 93. 109. 109. 93. 49. 13. 1. 0. 0. 2. 18.
      61. 93. 36. 63. 92. 61. 18. 4. 17. 61. 106. 109. 110. 106. 61. 17.
      2. 0. 0. 2. 18. 61. 92. 36. 63. 92. 61. 18. 4. 18. 62. 101. 93.
      95. 103. 62. 18. 2. 0. 0. 2. 18. 61. 92. 36. 63. 92. 60. 18. 4.
      18. 62. 103. 99. 101. 103. 60. 17. 2. 0. 0. 2. 18. 61. 92. 42. 66.
      90. 58. 17. 4. 17. 61. 107. 112. 106. 91. 48. 13. 1. 0. 0. 2. 18.
      61. 92. 56. 74. 85. 50. 14. 3. 13. 48. 90. 95. 76. 52. 24. 6. 1.
      0. 0. 2. 18. 61. 93. 67. 80. 81. 45. 12. 2. 6. 24. 45. 47. 31. 16.
      6. 2. 0. 0. 0. 3. 21. 64. 95. 56. 74. 86. 51. 15. 2. 2. 6. 12. 12.
      7. 3. 1. 0. 0. 0. 1. 8. 33. 77. 102. 42. 67. 94. 65. 22. 4. 0. 1.
      1. 1. 1. 0. 0. 0. 0. 0. 3. 18. 56. 99. 114. 35. 64. 105. 89. 43.
      13. 2. 0. 0. 0. 0. 0. 0. 0. 0. 2. 13. 42. 88. 118. 121. 27. 54.
      105. 117. 82. 39. 13. 3. 1. 0. 0. 0. 1. 1. 4. 13. 39. 82. 118.
      119. 106. 14. 32. 77. 117. 118. 82. 42. 18. 8. 3. 2. 3. 7. 13. 22.
      43. 83. 120. 121. 90. 71. 4. 12. 38. 81. 118. 118. 88. 56. 33. 21.
      19. 21. 32. 49. 66. 92. 124. 130. 102. 73. 64. 1. 3. 12. 40. 84.
      118. 118. 99. 77. 64. 61. 64. 76. 95. 111. 127. 138. 126. 104. 99.
      106. 0. 1. 5. 23. 62. 105. 121. 114. 102. 95. 93. 95. 101. 112.
      121. 130. 135. 126. 117. 126. 138.</_>
    <_>
      0. 0. 0. 0. 0. 2. 5. 14. 26. 33. 35. 35. 33. 26. 14. 6. 3. 1. 0.
      0. 0. 0. 0. 0. 1. 3. 8. 17. 31. 48. 59. 62. 62. 59. 48. 32. 21.
      14. 7. 2. 0. 0. 0. 0. 2. 7. 18. 35. 56. 72. 83. 90. 92. 92. 90.
      82. 72. 64. 53. 31. 11. 3. 1. 0. 1. 7. 25. 56. 85. 103. 94. 75.
      63. 61. 61. 63. 71. 86. 103. 105. 77. 38. 12. 5. 1. 3. 18. 56.
      100. 117. 106. 72. 38. 22. 18. 18. 21. 32. 54. 86. 117. 117. 81.
      40. 23. 4. 12. 42. 89. 118. 99. 63. 32. 12. 4. 2. 2. 3. 8. 18. 42.
      82. 118. 118. 84. 62. 14. 32. 78. 117. 110. 64. 25. 8. 2. 0. 0. 0.
      0. 1. 3. 13. 39. 82. 118. 118. 105. 27. 54. 105. 116. 79. 33. 8.
      1. 0. 0. 0. 0. 0. 0. 0. 2. 13. 42. 88. 118. 121. 34. 63. 105. 89.
      42. 12. 2. 1. 1. 2. 2. 1. 1. 0. 0. 0. 3. 18. 56. 99. 114. 36. 63.
      96. 68. 23. 4. 2. 6. 13. 17. 17. 13. 6. 2. 0. 0. 1. 8. 33. 77.
      102. 36. 63. 93. 61. 18. 3. 6. 24. 48. 61. 61. 49. 24. 6. 1. 0. 0.
      3. 21. 64. 95. 36. 63. 92. 61. 18. 4. 16. 51. 91. 106. 108. 93.
      49. 13. 1. 0. 0. 2. 18. 61. 93. 36. 63. 92. 61. 18. 8. 27. 68. 98.
      99. 106. 106. 61. 17. 2. 0. 0. 2. 18. 61. 92. 36. 63. 92. 61. 19.
      10. 33. 73. 89. 78. 89. 102. 62. 18. 2. 0. 0. 2. 18. 61. 92. 36.
      63. 92. 61. 18. 8. 28. 70. 95. 88. 97. 103. 60. 17. 2. 0. 0. 2.
      18. 61. 92. 36. 63. 92. 61. 18. 5. 20. 63. 105. 109. 105. 91. 48.
      13. 1. 0. 0. 2. 18. 61. 92. 36. 63. 92. 61. 18. 3. 13. 49. 90. 95.
      75. 52. 24. 6. 1. 0. 0. 2. 18. 61. 93. 36. 63. 92. 61. 18. 3. 6.
      24. 45. 47. 31. 16. 6. 2. 0. 0. 0. 3. 21. 64. 95. 36. 63. 93. 61.
      18. 2. 2. 6. 12. 12. 7. 3. 1. 0. 0. 0. 1. 8. 33. 77. 102. 36. 63.
      96. 68. 23. 4. 0. 1. 1. 1. 1. 0. 0. 0. 0. 0. 3. 18. 56. 99. 114.
      34. 63. 105. 89. 43. 13. 2. 0. 0. 0. 0. 0. 0. 0. 0. 2. 13. 42. 88.
      118. 121. 27. 54. 105. 117. 82. 39. 13. 3. 1. 0. 0. 0. 0. 1. 3.
      13. 39. 82. 118. 118. 105. 14. 32. 77. 117. 118. 82. 42. 18. 8. 3.
      2. 2. 3. 8. 18. 42. 82. 118. 118. 84. 62. 4. 12. 38. 81. 118. 118.
      88. 56. 33. 21. 18. 18. 21. 33. 56. 88. 118. 118. 81. 40. 23. 1.
      3. 12. 40. 84. 118. 118. 99. 77. 64. 61. 61. 64. 77. 99. 118. 118.
      84. 40. 13. 5. 0. 1. 5. 23. 62. 105. 121. 114. 102. 95. 93. 93.
      95. 102. 114. 121. 105. 62. 23. 5. 1.</_>
    <_>
      0. 0. 0. 0. 2. 5. 15. 27. 34. 36. 36. 36. 35. 33. 26. 14. 5. 2. 0.
      0. 0. 0. 0. 0. 2. 7. 18. 36. 55. 63. 63. 63. 63. 62. 59. 48. 31.
      17. 7. 2. 0. 0. 0. 0. 2. 11. 32. 59. 86. 105. 104. 96. 93. 92. 92.
      90. 83. 72. 55. 31. 11. 3. 1. 0. 2. 11. 37. 78. 109. 117. 108. 86.
      67. 61. 61. 61. 63. 75. 95. 103. 77. 38. 12. 5. 2. 7. 32. 78. 117.
      118. 90. 61. 36. 22. 18. 18. 18. 22. 39. 76. 114. 117. 81. 40. 23.
      5. 18. 59. 109. 118. 83. 42. 19. 8. 3. 2. 2. 2. 4. 12. 38. 81.
      118. 118. 84. 62. 15. 36. 86. 117. 90. 42. 13. 3. 1. 0. 0. 0. 0.
      0. 2. 12. 39. 82. 118. 118. 105. 27. 55. 105. 108. 61. 19. 3. 1.
      1. 2. 1. 1. 0. 0. 0. 2. 13. 42. 88. 118. 121. 34. 63. 104. 86. 36.
      8. 2. 6. 13. 16. 13. 7. 2. 0. 0. 0. 3. 18. 56. 99. 114. 36. 63.
      96. 67. 22. 4. 6. 24. 49. 61. 53. 31. 11. 2. 0. 0. 1. 8. 33. 77.
      102. 36. 63. 93. 61. 18. 3. 13. 49. 96. 117. 109. 74. 31. 7. 1. 0.
      0. 3. 21. 64. 95. 36. 63. 92. 61. 18. 4. 17. 61. 112. 127. 129.
      106. 53. 13. 1. 0. 0. 2. 18. 61. 93. 36. 63. 92. 61. 18. 4. 18.
      62. 105. 107. 114. 111. 62. 17. 2. 0. 0. 2. 18. 61. 92. 36. 63.
      92. 61. 18. 4. 18. 62. 105. 107. 114. 111. 62. 17. 2. 0. 0. 2. 18.
      61. 92. 36. 63. 92. 61. 18. 4. 17. 61. 112. 127. 129. 106. 53. 13.
      1. 0. 0. 2. 18. 61. 92. 36. 63. 92. 61. 18. 3. 13. 49. 96. 117.
      109. 74. 31. 7. 1. 0. 0. 2. 18. 61. 93. 36. 63. 92. 61. 18. 3. 6.
      24. 49. 61. 53. 31. 11. 2. 0. 0. 0. 3. 21. 64. 95. 36. 63. 93. 61.
      18. 2. 2. 6. 13. 16. 13. 7. 2. 0. 0. 0. 1. 7. 32. 76. 101. 36. 63.
      96. 67. 22. 3. 0. 1. 1. 2. 1. 1. 0. 0. 0. 0. 1. 13. 49. 95. 112.
      34. 63. 104. 86. 36. 8. 1. 0. 0. 0. 0. 0. 0. 0. 0. 0. 4. 22. 66.
      110. 121. 27. 55. 105. 108. 61. 19. 4. 1. 0. 0. 0. 0. 0. 0. 1. 3.
      13. 43. 91. 122. 123. 15. 36. 86. 117. 91. 46. 19. 8. 3. 2. 2. 2.
      2. 3. 8. 19. 42. 83. 119. 119. 105. 5. 18. 59. 108. 118. 91. 61.
      36. 22. 18. 18. 18. 18. 22. 36. 61. 90. 118. 117. 84. 62. 2. 7.
      31. 74. 109. 118. 110. 87. 69. 63. 63. 63. 63. 69. 87. 110. 118.
      109. 78. 40. 23. 0. 2. 11. 32. 62. 93. 119. 121. 114. 111. 110.
      110. 111. 114. 121. 119. 93. 62. 33. 12. 5. 0. 1. 4. 15. 36. 70.
      107. 123. 123. 121. 121. 121. 121. 123. 123. 107. 70. 36. 15. 4.
      1.</_>
    <_>
      92. 92. 92. 92. 93. 94. 97. 106. 118. 126. 128. 128. 128. 126.
      119. 107. 98. 94. 93. 92. 92. 61. 61. 61. 61. 63. 68. 78. 92. 109.
      120. 123. 123. 124. 124. 115. 96. 79. 68. 63. 61. 61. 18. 18. 19.
      24. 35. 53. 74. 89. 101. 108. 110. 111. 114. 122. 123. 104. 77.
      50. 29. 20. 18. 2. 3. 9. 27. 58. 87. 105. 96. 77. 65. 63. 63. 69.
      88. 110. 119. 111. 80. 40. 14. 7. 1. 3. 18. 56. 100. 117. 106. 72.
      38. 22. 18. 18. 22. 36. 61. 90. 118. 117. 81. 40. 23. 4. 12. 42.
      89. 118. 99. 63. 32. 12. 4. 2. 2. 3. 8. 19. 42. 82. 118. 118. 84.
      62. 14. 32. 78. 117. 110. 64. 25. 8. 2. 0. 0. 0. 0. 1. 3. 13. 39.
      82. 118. 118. 105. 27. 54. 105. 116. 79. 33. 8. 1. 0. 0. 0. 0. 0.
      0. 0. 2. 13. 42. 88. 118. 121. 34. 63. 105. 89. 42. 12. 2. 1. 1.
      2. 2. 1. 1. 0. 0. 0. 3. 18. 56. 99. 114. 36. 63. 96. 68. 23. 4. 2.
      6. 13. 17. 17. 13. 6. 2. 0. 0. 1. 8. 33. 77. 102. 36. 63. 93. 61.
      18. 3. 6. 24. 49. 61. 61. 49. 24. 6. 1. 0. 0. 3. 21. 64. 95. 36.
      63. 92. 61. 18. 3. 13. 49. 93. 109. 109. 93. 49. 13. 1. 0. 0. 2.
      18. 61. 93. 36. 63. 92. 61. 18. 4. 17. 61. 106. 109. 110. 106. 61.
      17. 2. 0. 0. 2. 18. 61. 92. 36. 63. 92. 61. 18. 4. 18. 62. 101.
      93. 95. 103. 62. 18. 2. 0. 0. 2. 18. 61. 92. 36. 63. 92. 61. 18.
      4. 18. 62. 103. 99. 101. 103. 60. 17. 2. 0. 0. 2. 18. 61. 92. 36.
      63. 92. 61. 18. 4. 17. 61. 107. 112. 106. 91. 48. 13. 1. 0. 0. 2.
      18. 61. 92. 36. 63. 92. 61. 18. 3. 13. 48. 90. 95. 76. 52. 24. 6.
      1. 0. 0. 2. 18. 61. 93. 36. 63. 92. 61. 18. 3. 6. 24. 45. 47. 31.
      16. 6. 2. 0. 0. 0. 3. 21. 64. 95. 36. 63. 93. 61. 18. 2. 2. 6. 12.
      12. 7. 3. 1. 0. 0. 0. 1. 8. 33. 77. 102. 36. 63. 96. 68. 23. 4. 0.
      1. 1. 1. 1. 0. 0. 0. 0. 0. 3. 18. 56. 99. 114. 34. 63. 105. 89.
      43. 13. 2. 0. 0. 0. 0. 0. 0. 0. 0. 2. 13. 42. 88. 118. 121. 27.
      54. 105. 117. 82. 39. 13. 3. 1. 0. 0. 0. 0. 1. 3. 13. 39. 82. 118.
      118. 105. 14. 32. 77. 117. 118. 82. 42. 18. 8. 3. 2. 2. 3. 8. 18.
      42. 82. 118. 118. 84. 62. 4. 12. 38. 81. 118. 118. 88. 56. 33. 21.
      18. 18. 21. 33. 56. 88. 118. 118. 81. 40. 23. 1. 3. 12. 40. 84.
      118. 118. 99. 77. 64. 61. 61. 64. 77. 99. 118. 118. 84. 40. 13. 5.
      0. 1. 5. 23. 62. 105. 121. 114. 102. 95. 93. 93. 95. 102. 114.
      121. 105. 62. 23. 5. 1.</_>
    <_>
      92. 92. 93. 94. 97. 100. 90. 63. 43. 36. 36. 36. 36. 43. 65. 97.
      112. 105. 96. 93. 92. 61. 61. 62. 67. 78. 91. 96. 83. 68. 63. 63.
      63. 63. 67. 83. 105. 110. 92. 72. 63. 61. 18. 19. 24. 43. 73. 102.
      117. 110. 98. 93. 92. 92. 92. 94. 102. 117. 122. 95. 55. 29. 22.
      2. 5. 20. 58. 102. 119. 111. 86. 67. 61. 61. 61. 61. 61. 68. 91.
      119. 118. 80. 35. 17. 2. 8. 35. 86. 117. 99. 64. 37. 22. 18. 18.
      18. 18. 18. 23. 43. 83. 118. 109. 62. 36. 5. 18. 60. 109. 110. 64.
      26. 9. 3. 2. 2. 2. 2. 2. 4. 13. 42. 90. 118. 93. 70. 15. 36. 86.
      116. 87. 36. 9. 1. 0. 0. 0. 0. 0. 0. 0. 3. 19. 61. 109. 118. 107.
      27. 55. 105. 108. 60. 18. 3. 1. 1. 2. 2. 1. 1. 0. 0. 1. 8. 35. 84.
      118. 121. 34. 63. 104. 86. 36. 8. 2. 6. 13. 17. 17. 13. 6. 2. 0.
      0. 3. 17. 55. 98. 114. 36. 63. 96. 67. 22. 4. 6. 24. 49. 61. 61.
      49. 24. 6. 1. 0. 1. 8. 33. 77. 102. 36. 63. 93. 61. 18. 3. 13. 49.
      93. 110. 110. 93. 49. 13. 1. 0. 0. 3. 21. 64. 95. 36. 63. 92. 61.
      18. 4. 17. 61. 107. 114. 116. 110. 61. 17. 2. 0. 0. 2. 18. 61. 93.
      36. 63. 92. 61. 18. 4. 18. 63. 108. 112. 117. 112. 62. 17. 2. 0.
      0. 2. 18. 61. 92. 36. 63. 92. 61. 18. 4. 17. 61. 112. 128. 129.
      106. 53. 13. 1. 0. 0. 2. 18. 61. 92. 36. 63. 92. 61. 18. 3. 13.
      49. 96. 117. 109. 74. 31. 7. 1. 0. 0. 2. 18. 61. 93. 36. 63. 92.
      61. 18. 3. 6. 24. 49. 61. 53. 31. 11. 2. 0. 0. 0. 3. 21. 64. 95.
      36. 63. 92. 61. 18. 2. 2. 6. 13. 16. 13. 7. 2. 0. 0. 0. 1. 7. 32.
      76. 101. 36. 63. 93. 61. 18. 2. 0. 1. 1. 2. 1. 1. 0. 0. 0. 0. 1.
      13. 49. 95. 112. 36. 63. 96. 68. 23. 4. 0. 0. 0. 0. 0. 0. 0. 0. 0.
      0. 4. 22. 66. 111. 121. 34. 63. 105. 89. 43. 13. 2. 0. 0. 0. 0. 0.
      0. 0. 0. 2. 13. 43. 92. 126. 129. 27. 54. 105. 117. 82. 39. 13. 3.
      1. 0. 0. 0. 0. 1. 3. 13. 39. 83. 123. 133. 127. 14. 32. 77. 117.
      118. 82. 42. 18. 8. 3. 2. 2. 3. 8. 19. 42. 82. 119. 124. 106. 96.
      4. 12. 38. 81. 117. 117. 86. 54. 32. 21. 18. 18. 22. 36. 61. 90.
      118. 118. 86. 54. 45. 1. 3. 12. 38. 77. 105. 103. 87. 72. 65. 63.
      63. 69. 87. 110. 118. 109. 78. 39. 17. 11. 0. 0. 3. 12. 32. 54.
      67. 79. 95. 106. 110. 111. 114. 121. 119. 93. 62. 33. 12. 3. 1. 0.
      0. 1. 4. 14. 27. 41. 63. 94. 114. 120. 121. 123. 123. 107. 70. 36.
      15. 4. 1. 0.</_>
    <_>
      92. 92. 92. 92. 93. 94. 97. 106. 118. 126. 128. 128. 126. 118.
      106. 98. 95. 94. 93. 92. 92. 61. 61. 61. 61. 63. 68. 78. 92. 109.
      120. 123. 123. 120. 109. 93. 81. 74. 67. 63. 61. 61. 18. 18. 19.
      24. 35. 53. 74. 89. 101. 108. 110. 110. 108. 100. 89. 82. 71. 49.
      29. 20. 18. 2. 3. 9. 27. 58. 87. 105. 96. 77. 65. 63. 63. 65. 73.
      88. 105. 107. 79. 40. 14. 7. 1. 3. 18. 56. 100. 117. 106. 72. 38.
      22. 18. 18. 21. 32. 54. 86. 117. 117. 81. 40. 23. 4. 12. 42. 89.
      118. 99. 63. 32. 12. 4. 2. 2. 3. 8. 18. 42. 82. 118. 118. 84. 62.
      14. 32. 78. 117. 110. 64. 25. 8. 2. 0. 0. 0. 0. 1. 3. 13. 39. 82.
      118. 118. 105. 27. 54. 105. 116. 79. 33. 8. 1. 0. 0. 0. 0. 0. 0.
      0. 2. 13. 42. 88. 118. 121. 34. 63. 105. 89. 42. 12. 2. 1. 1. 2.
      2. 1. 1. 0. 0. 0. 3. 18. 56. 99. 114. 36. 63. 96. 68. 23. 4. 2. 6.
      13. 17. 17. 13. 6. 2. 0. 0. 1. 8. 33. 77. 102. 36. 63. 93. 61. 18.
      3. 6. 24. 49. 61. 61. 49. 24. 6. 1. 0. 0. 3. 21. 64. 95. 36. 63.
      92. 61. 18. 3. 13. 49. 93. 109. 109. 93. 49. 13. 1. 0. 0. 2. 18.
      61. 93. 36. 63. 92. 61. 18. 4. 17. 61. 106. 109. 110. 106. 61. 17.
      2. 0. 0. 2. 18. 61. 92. 36. 63. 92. 61. 18. 4. 18. 62. 101. 93.
      95. 103. 62. 18. 2. 0. 0. 2. 18. 61. 92. 36. 63. 92. 60. 18. 4.
      18. 62. 103. 99. 101. 103. 60. 17. 2. 0. 0. 2. 18. 61. 92. 42. 66.
      90. 58. 17. 4. 17. 61. 107. 112. 106. 91. 48. 13. 1. 0. 0. 2. 18.
      61. 93. 56. 74. 85. 50. 14. 3. 13. 48. 90. 95. 76. 52. 24. 6. 1.
      0. 0. 3. 21. 64. 95. 67. 80. 81. 45. 12. 2. 6. 24. 45. 47. 31. 16.
      6. 2. 0. 0. 1. 7. 32. 76. 101. 56. 74. 86. 51. 15. 2. 2. 6. 12.
      12. 7. 3. 1. 0. 0. 0. 1. 13. 49. 95. 112. 42. 67. 94. 65. 22. 4.
      0. 1. 1. 1. 1. 0. 0. 0. 0. 0. 4. 22. 66. 110. 121. 35. 64. 105.
      89. 43. 13. 2. 0. 0. 0. 0. 0. 0. 0. 0. 2. 13. 43. 91. 122. 123.
      27. 54. 105. 117. 82. 39. 13. 3. 1. 0. 0. 0. 0. 1. 3. 13. 39. 82.
      119. 119. 106. 14. 32. 77. 117. 118. 82. 42. 18. 8. 3. 2. 2. 3. 8.
      18. 42. 83. 120. 121. 90. 71. 4. 12. 38. 81. 118. 118. 88. 56. 33.
      21. 18. 18. 21. 33. 56. 89. 124. 130. 102. 73. 64. 1. 3. 12. 40.
      84. 118. 118. 99. 77. 64. 61. 61. 64. 77. 99. 123. 137. 126. 104.
      99. 106. 0. 1. 5. 23. 62. 105. 121. 114. 102. 95. 93. 93. 95. 102.
      115. 128. 134. 126. 117. 126. 138.</_>
    <_>
      92. 92. 93. 94. 97. 101. 99. 92. 87. 65. 45. 46. 72. 109. 128.
      128. 119. 106. 98. 100. 103. 61. 61. 62. 67. 78. 92. 104. 109.
      108. 89. 71. 72. 94. 122. 131. 127. 115. 93. 76. 75. 79. 18. 19.
      24. 43. 73. 102. 122. 125. 120. 108. 97. 97. 109. 121. 124. 126.
      123. 95. 59. 41. 39. 2. 5. 20. 58. 102. 119. 112. 91. 74. 66. 62.
      62. 65. 68. 73. 92. 119. 119. 84. 46. 31. 2. 8. 35. 86. 117. 99.
      65. 37. 23. 19. 18. 18. 18. 19. 24. 43. 82. 118. 118. 85. 63. 5.
      18. 60. 109. 110. 64. 26. 9. 3. 2. 2. 2. 2. 2. 4. 13. 39. 82. 119.
      119. 105. 15. 36. 86. 116. 87. 36. 9. 2. 1. 1. 1. 0. 0. 0. 0. 2.
      13. 43. 91. 122. 123. 27. 55. 105. 108. 60. 18. 4. 6. 12. 12. 7.
      3. 1. 0. 0. 0. 4. 22. 66. 110. 121. 34. 63. 104. 86. 36. 9. 7. 24.
      45. 47. 31. 16. 6. 2. 0. 0. 1. 13. 49. 95. 112. 36. 63. 96. 67.
      22. 5. 13. 48. 90. 95. 76. 52. 24. 6. 1. 0. 1. 7. 32. 76. 101. 36.
      63. 93. 61. 18. 4. 17. 61. 107. 112. 106. 91. 48. 13. 1. 0. 0. 3.
      21. 64. 95. 36. 63. 92. 61. 18. 4. 18. 62. 103. 99. 101. 103. 60.
      17. 2. 0. 0. 2. 18. 61. 93. 36. 63. 92. 61. 18. 4. 18. 62. 101.
      93. 95. 103. 62. 18. 2. 0. 0. 2. 18. 61. 92. 36. 63. 92. 61. 18.
      4. 17. 61. 106. 109. 110. 106. 61. 17. 2. 0. 0. 2. 18. 61. 92. 36.
      63. 92. 61. 18. 3. 13. 49. 93. 109. 109. 93. 49. 13. 1. 0. 0. 2.
      18. 61. 92. 36. 63. 92. 61. 18. 3. 6. 24. 49. 61. 61. 49. 24. 6.
      1. 0. 0. 2. 18. 61. 93. 36. 63. 92. 61. 18. 2. 2. 6. 13. 17. 17.
      13. 6. 2. 0. 0. 0. 3. 21. 64. 95. 36. 63. 93. 61. 18. 2. 0. 1. 1.
      2. 2. 1. 1. 0. 0. 0. 1. 8. 33. 77. 102. 36. 63. 96. 68. 23. 4. 0.
      0. 0. 0. 0. 0. 0. 0. 0. 0. 3. 18. 56. 99. 114. 34. 63. 105. 89.
      43. 13. 2. 0. 0. 0. 0. 0. 0. 0. 0. 2. 13. 42. 88. 118. 121. 27.
      54. 105. 117. 82. 39. 13. 3. 1. 0. 0. 0. 0. 1. 3. 13. 39. 82. 118.
      118. 105. 14. 32. 77. 117. 118. 82. 42. 18. 8. 3. 2. 2. 3. 8. 18.
      42. 82. 118. 118. 84. 62. 4. 12. 38. 81. 117. 117. 86. 54. 32. 21.
      18. 18. 21. 32. 54. 86. 117. 117. 81. 40. 23. 1. 3. 12. 38. 77.
      105. 103. 87. 72. 65. 63. 63. 65. 72. 87. 103. 105. 77. 38. 12. 5.
      0. 0. 3. 12. 32. 54. 67. 79. 95. 106. 110. 110. 106. 95. 79. 67.
      54. 32. 12. 3. 1. 0. 0. 1. 4. 14. 27. 41. 63. 94. 114. 120. 120.
      114. 94. 63. 41. 27. 14. 4. 1. 0.</_>
    <_>
      92. 92. 92. 93. 94. 98. 107. 119. 126. 128. 128. 128. 128. 126.
      119. 107. 100. 103. 112. 119. 121. 61. 61. 61. 63. 68. 79. 96.
      115. 124. 124. 123. 123. 124. 124. 115. 96. 83. 84. 96. 107. 109.
      18. 18. 20. 29. 50. 77. 104. 123. 122. 114. 111. 111. 114. 122.
      123. 104. 81. 64. 60. 62. 62. 2. 4. 13. 39. 80. 111. 119. 110. 88.
      69. 63. 63. 69. 88. 110. 119. 112. 85. 51. 29. 23. 2. 7. 32. 78.
      117. 118. 90. 61. 36. 22. 18. 18. 22. 36. 61. 90. 118. 118. 83.
      42. 25. 5. 18. 59. 109. 118. 83. 42. 19. 8. 3. 2. 2. 3. 8. 19. 42.
      82. 118. 118. 84. 62. 15. 36. 86. 117. 90. 42. 13. 3. 1. 0. 0. 0.
      0. 1. 3. 13. 39. 82. 118. 118. 105. 27. 55. 105. 108. 61. 19. 3.
      1. 1. 2. 1. 1. 0. 0. 0. 2. 13. 42. 88. 118. 121. 34. 63. 104. 86.
      36. 8. 2. 6. 13. 16. 13. 7. 2. 0. 0. 0. 3. 18. 56. 99. 114. 36.
      64. 96. 67. 22. 4. 6. 24. 49. 61. 53. 31. 11. 2. 0. 0. 1. 8. 33.
      77. 102. 42. 66. 91. 58. 17. 3. 13. 49. 96. 117. 109. 74. 31. 7.
      1. 0. 0. 3. 21. 64. 95. 56. 74. 85. 50. 14. 3. 17. 61. 112. 127.
      129. 106. 53. 13. 1. 0. 0. 2. 18. 61. 93. 67. 80. 81. 45. 12. 3.
      18. 62. 105. 107. 114. 111. 62. 17. 2. 0. 0. 2. 18. 61. 92. 56.
      74. 85. 50. 14. 3. 18. 62. 105. 107. 114. 111. 62. 17. 2. 0. 0. 2.
      18. 61. 92. 42. 66. 90. 58. 17. 4. 17. 61. 112. 127. 129. 106. 53.
      13. 1. 0. 0. 2. 18. 61. 92. 36. 63. 92. 60. 18. 3. 13. 49. 96.
      117. 109. 74. 31. 7. 1. 0. 0. 2. 18. 61. 93. 36. 63. 92. 61. 18.
      3. 6. 24. 49. 61. 53. 31. 11. 2. 0. 0. 0. 3. 21. 64. 95. 36. 63.
      93. 61. 18. 2. 2. 6. 13. 16. 13. 7. 2. 0. 0. 0. 1. 7. 32. 76. 101.
      36. 63. 96. 67. 22. 3. 0. 1. 1. 2. 1. 1. 0. 0. 0. 0. 1. 13. 49.
      95. 112. 34. 63. 104. 86. 36. 8. 1. 0. 0. 0. 0. 0. 0. 0. 0. 0. 4.
      22. 66. 110. 121. 27. 55. 105. 108. 61. 19. 3. 0. 0. 0. 0. 0. 0.
      0. 0. 2. 13. 43. 91. 122. 123. 15. 36. 86. 117. 90. 42. 13. 4. 2.
      2. 2. 2. 2. 2. 4. 12. 38. 82. 118. 119. 105. 5. 18. 59. 108. 114.
      77. 39. 22. 18. 18. 18. 18. 18. 18. 22. 39. 76. 114. 117. 84. 62.
      2. 7. 31. 73. 102. 96. 76. 65. 63. 63. 63. 63. 63. 63. 65. 76. 96.
      103. 77. 40. 23. 0. 2. 11. 32. 58. 78. 96. 107. 110. 110. 110.
      110. 110. 110. 107. 96. 78. 58. 32. 12. 5. 0. 1. 4. 14. 33. 61.
      94. 114. 120. 121. 121. 121. 121. 120. 114. 94. 61. 33. 14. 4. 1.</_>
    <_>
      0. 0. 0. 2. 5. 16. 36. 70. 107. 123. 123. 123. 123. 108. 79. 73.
      91. 99. 98. 100. 103. 0. 0. 2. 7. 18. 36. 63. 93. 119. 121. 115.
      115. 121. 118. 98. 91. 96. 88. 75. 75. 79. 0. 1. 7. 25. 56. 86.
      109. 117. 110. 87. 70. 70. 87. 106. 110. 115. 118. 94. 59. 41. 39.
      0. 3. 18. 56. 100. 117. 110. 87. 60. 36. 23. 23. 36. 54. 69. 91.
      119. 119. 84. 46. 31. 2. 8. 35. 86. 117. 99. 64. 36. 18. 8. 4. 4.
      8. 14. 22. 43. 82. 118. 118. 85. 63. 5. 18. 60. 109. 110. 64. 26.
      9. 3. 1. 0. 0. 1. 1. 4. 13. 39. 82. 119. 119. 105. 15. 36. 86.
      116. 87. 36. 9. 1. 0. 0. 0. 0. 0. 0. 0. 2. 13. 43. 91. 122. 123.
      27. 55. 105. 108. 60. 18. 3. 1. 1. 2. 2. 1. 1. 0. 0. 0. 4. 22. 66.
      110. 121. 34. 63. 104. 86. 36. 8. 2. 6. 13. 17. 17. 13. 6. 2. 0.
      0. 1. 13. 49. 95. 112. 36. 63. 96. 67. 22. 4. 6. 24. 49. 61. 61.
      49. 24. 6. 1. 0. 1. 7. 32. 76. 101. 36. 63. 93. 61. 18. 3. 13. 49.
      93. 109. 109. 93. 49. 13. 1. 0. 0. 3. 21. 64. 95. 36. 63. 92. 61.
      18. 4. 17. 61. 106. 110. 110. 106. 61. 17. 2. 0. 0. 2. 18. 61. 93.
      36. 63. 92. 61. 18. 4. 18. 62. 104. 99. 99. 104. 62. 18. 2. 0. 0.
      2. 18. 61. 92. 36. 63. 92. 61. 18. 4. 17. 61. 106. 110. 110. 106.
      61. 17. 2. 0. 0. 2. 18. 61. 92. 36. 63. 92. 61. 18. 3. 13. 49. 93.
      109. 109. 93. 49. 13. 1. 0. 0. 2. 18. 61. 93. 36. 63. 92. 61. 18.
      3. 6. 24. 49. 61. 61. 49. 24. 6. 1. 0. 0. 3. 21. 64. 95. 36. 63.
      92. 61. 18. 2. 2. 6. 13. 17. 17. 13. 6. 2. 0. 0. 1. 7. 32. 76.
      101. 36. 63. 93. 61. 18. 2. 0. 1. 1. 2. 2. 1. 1. 0. 0. 0. 1. 13.
      49. 95. 112. 36. 63. 96. 68. 23. 4. 0. 0. 0. 0. 0. 0. 0. 0. 0. 0.
      4. 22. 66. 110. 121. 34. 63. 105. 89. 43. 13. 2. 0. 0. 0. 0. 0. 0.
      0. 0. 2. 13. 43. 91. 122. 123. 27. 54. 105. 117. 82. 39. 12. 2. 0.
      0. 0. 0. 0. 0. 2. 12. 39. 82. 119. 119. 105. 14. 32. 77. 117. 118.
      81. 38. 12. 4. 2. 2. 2. 2. 4. 12. 38. 81. 118. 118. 84. 62. 4. 12.
      38. 81. 117. 114. 76. 39. 22. 18. 18. 18. 18. 22. 39. 76. 114.
      117. 81. 40. 23. 1. 3. 12. 38. 77. 103. 96. 76. 65. 63. 63. 63.
      63. 65. 76. 96. 103. 77. 38. 12. 5. 0. 0. 3. 12. 32. 58. 78. 96.
      107. 110. 110. 110. 110. 107. 96. 78. 58. 32. 12. 3. 1. 0. 0. 1.
      4. 14. 33. 61. 94. 114. 120. 121. 121. 120. 114. 94. 61. 33. 14.
      4. 1. 0.</_>
    <_>
      92. 92. 93. 94. 98. 106. 112. 97. 65. 43. 36. 36. 43. 65. 99. 119.
      118. 106. 96. 93. 92. 61. 61. 62. 67. 78. 95. 111. 105. 83. 67.
      63. 63. 67. 82. 105. 119. 114. 92. 72. 63. 61. 18. 19. 24. 43. 74.
      103. 122. 117. 102. 94. 92. 92. 94. 98. 109. 122. 123. 95. 55. 29.
      22. 2. 5. 20. 58. 102. 119. 111. 87. 68. 61. 61. 61. 61. 62. 69.
      91. 119. 118. 80. 35. 17. 2. 8. 35. 86. 117. 99. 64. 37. 22. 18.
      18. 18. 18. 18. 23. 43. 83. 118. 109. 62. 36. 5. 18. 60. 109. 110.
      64. 26. 9. 3. 2. 2. 2. 2. 2. 4. 13. 42. 90. 118. 93. 70. 15. 36.
      86. 116. 87. 36. 9. 1. 0. 0. 0. 0. 0. 0. 0. 3. 19. 61. 109. 118.
      107. 27. 55. 105. 108. 60. 18. 3. 1. 1. 2. 2. 1. 1. 0. 0. 1. 8.
      35. 84. 118. 121. 35. 64. 104. 85. 36. 8. 2. 6. 13. 17. 17. 13. 6.
      2. 0. 0. 3. 17. 55. 98. 114. 42. 67. 94. 64. 21. 4. 6. 24. 49. 61.
      61. 49. 24. 6. 1. 0. 1. 8. 33. 77. 102. 62. 77. 84. 48. 13. 3. 13.
      49. 93. 110. 110. 93. 49. 13. 1. 0. 0. 3. 21. 64. 95. 87. 91. 74.
      35. 8. 3. 17. 61. 107. 114. 116. 110. 61. 17. 2. 0. 0. 2. 18. 61.
      93. 87. 91. 74. 35. 8. 3. 18. 63. 108. 112. 117. 112. 62. 17. 2.
      0. 0. 2. 18. 61. 92. 62. 77. 83. 47. 13. 3. 17. 61. 112. 128. 129.
      106. 53. 13. 1. 0. 0. 2. 18. 61. 92. 42. 66. 90. 57. 17. 3. 13.
      49. 96. 117. 109. 74. 31. 7. 1. 0. 0. 2. 18. 61. 93. 36. 63. 92.
      60. 18. 3. 6. 24. 49. 61. 53. 31. 11. 2. 0. 0. 0. 3. 21. 64. 95.
      36. 63. 92. 61. 18. 2. 2. 6. 13. 16. 13. 7. 2. 0. 0. 0. 1. 7. 32.
      76. 101. 36. 63. 93. 61. 18. 2. 0. 1. 1. 2. 1. 1. 0. 0. 0. 0. 1.
      13. 49. 95. 112. 36. 63. 96. 68. 23. 4. 0. 0. 0. 0. 0. 0. 0. 0. 0.
      0. 4. 22. 66. 110. 121. 34. 63. 105. 89. 43. 13. 2. 0. 0. 0. 0. 0.
      0. 0. 0. 2. 13. 43. 91. 122. 123. 27. 54. 105. 117. 82. 39. 13. 4.
      1. 1. 0. 0. 1. 1. 4. 13. 39. 82. 119. 119. 105. 14. 32. 77. 117.
      118. 82. 43. 22. 13. 7. 3. 3. 7. 13. 22. 43. 82. 118. 118. 84. 62.
      4. 12. 38. 81. 117. 117. 89. 64. 48. 31. 22. 22. 31. 48. 64. 89.
      117. 117. 81. 40. 23. 1. 3. 12. 38. 77. 105. 105. 94. 83. 72. 65.
      65. 72. 83. 94. 105. 105. 77. 38. 12. 5. 0. 0. 3. 12. 32. 54. 64.
      67. 78. 95. 106. 106. 95. 78. 67. 64. 54. 32. 12. 3. 1. 0. 0. 1.
      4. 14. 27. 35. 42. 63. 94. 114. 114. 94. 63. 42. 35. 27. 14. 4. 1.
      0.</_>
    <_>
      92. 92. 92. 93. 93. 91. 78. 56. 41. 36. 36. 36. 36. 41. 56. 78.
      91. 93. 93. 92. 92. 61. 61. 61. 63. 67. 74. 77. 74. 68. 64. 63.
      63. 64. 68. 74. 77. 74. 67. 63. 61. 61. 18. 18. 20. 29. 50. 76.
      98. 111. 106. 96. 93. 93. 96. 106. 111. 98. 76. 50. 29. 20. 18. 2.
      4. 13. 39. 80. 111. 119. 109. 86. 67. 61. 61. 67. 86. 109. 119.
      111. 80. 40. 14. 7. 2. 7. 32. 78. 117. 118. 90. 61. 36. 22. 18.
      18. 22. 36. 61. 90. 118. 117. 81. 40. 23. 5. 18. 59. 109. 118. 83.
      42. 19. 8. 3. 2. 2. 3. 8. 19. 42. 82. 118. 118. 84. 62. 15. 36.
      86. 117. 90. 42. 13. 3. 1. 0. 0. 0. 0. 1. 3. 13. 39. 82. 118. 118.
      105. 27. 55. 105. 108. 61. 19. 3. 1. 1. 2. 1. 1. 0. 0. 0. 2. 13.
      42. 88. 118. 121. 34. 63. 104. 86. 36. 8. 2. 6. 13. 16. 13. 7. 2.
      0. 0. 0. 3. 18. 56. 99. 114. 36. 64. 96. 67. 22. 4. 6. 24. 49. 61.
      53. 31. 11. 2. 0. 0. 1. 8. 33. 77. 102. 42. 66. 90. 58. 17. 3. 13.
      49. 96. 117. 109. 74. 31. 7. 1. 0. 0. 3. 21. 64. 95. 63. 78. 83.
      47. 13. 3. 17. 61. 112. 127. 129. 106. 53. 13. 1. 0. 0. 2. 18. 61.
      93. 93. 95. 72. 32. 7. 3. 18. 62. 105. 107. 114. 111. 62. 17. 2.
      0. 0. 2. 18. 61. 92. 108. 103. 67. 25. 4. 2. 18. 62. 105. 107.
      114. 111. 62. 17. 2. 0. 0. 2. 18. 61. 92. 93. 95. 72. 32. 7. 2.
      17. 61. 112. 127. 129. 106. 53. 13. 1. 0. 0. 2. 18. 61. 92. 63.
      78. 83. 47. 13. 3. 13. 49. 96. 117. 109. 74. 31. 7. 1. 0. 0. 2.
      18. 61. 93. 42. 66. 90. 57. 17. 2. 6. 24. 49. 61. 53. 31. 11. 2.
      0. 0. 0. 3. 21. 64. 95. 36. 63. 93. 61. 18. 2. 2. 6. 13. 16. 13.
      7. 2. 0. 0. 0. 1. 8. 33. 77. 102. 36. 63. 96. 67. 22. 3. 0. 1. 1.
      2. 1. 1. 0. 0. 0. 0. 3. 17. 55. 98. 114. 34. 63. 104. 86. 36. 8.
      1. 0. 0. 0. 0. 0. 0. 0. 0. 1. 9. 36. 84. 118. 121. 27. 55. 105.
      108. 61. 19. 4. 1. 0. 0. 0. 0. 0. 0. 2. 8. 25. 64. 110. 118. 107.
      15. 36. 86. 117. 91. 46. 19. 8. 3. 2. 2. 2. 2. 4. 12. 33. 64. 99.
      118. 93. 70. 5. 18. 59. 108. 118. 91. 61. 36. 22. 18. 18. 18. 18.
      23. 42. 79. 111. 119. 102. 59. 35. 2. 7. 31. 74. 109. 118. 110.
      87. 69. 63. 63. 63. 63. 70. 91. 119. 123. 100. 67. 32. 16. 0. 2.
      11. 32. 62. 93. 119. 121. 114. 111. 110. 110. 111. 114. 123. 123.
      104. 80. 55. 26. 13. 0. 1. 4. 15. 36. 70. 107. 123. 123. 121. 121.
      121. 121. 123. 124. 113. 91. 80. 62. 31. 15.</_>
    <_>
      92. 92. 92. 93. 94. 95. 98. 106. 118. 126. 128. 128. 126. 118.
      106. 98. 95. 96. 102. 112. 117. 61. 61. 61. 63. 67. 74. 81. 93.
      109. 120. 123. 123. 120. 109. 93. 81. 75. 71. 78. 94. 102. 18. 18.
      20. 29. 49. 71. 82. 89. 100. 108. 110. 110. 108. 100. 89. 82. 71.
      53. 44. 50. 56. 2. 4. 13. 39. 79. 107. 105. 88. 73. 65. 63. 63.
      65. 73. 88. 105. 107. 80. 45. 25. 20. 2. 7. 32. 78. 116. 117. 86.
      54. 32. 21. 18. 18. 21. 32. 54. 86. 117. 117. 82. 41. 25. 5. 18.
      59. 109. 118. 83. 42. 18. 8. 3. 2. 2. 3. 8. 18. 42. 82. 118. 118.
      84. 62. 15. 36. 86. 117. 90. 42. 13. 3. 1. 0. 0. 0. 0. 1. 3. 13.
      39. 82. 118. 118. 105. 27. 55. 105. 108. 61. 19. 3. 1. 1. 2. 1. 1.
      0. 0. 0. 2. 13. 42. 88. 118. 121. 35. 64. 104. 85. 36. 8. 2. 6.
      13. 16. 13. 7. 2. 0. 0. 0. 3. 18. 56. 99. 114. 42. 67. 94. 64. 21.
      4. 6. 24. 49. 61. 53. 31. 11. 2. 0. 0. 1. 8. 33. 77. 102. 63. 78.
      83. 48. 13. 3. 13. 49. 96. 117. 109. 74. 31. 7. 1. 0. 0. 3. 21.
      64. 95. 93. 95. 72. 32. 7. 2. 17. 61. 112. 127. 129. 106. 53. 13.
      1. 0. 0. 2. 18. 61. 93. 108. 103. 67. 25. 4. 2. 18. 62. 105. 107.
      114. 111. 62. 17. 2. 0. 0. 2. 18. 61. 92. 93. 95. 72. 32. 7. 3.
      18. 62. 105. 107. 114. 111. 62. 17. 2. 0. 0. 2. 18. 61. 92. 63.
      78. 83. 47. 13. 3. 17. 61. 112. 127. 129. 106. 53. 13. 1. 0. 0. 2.
      18. 61. 92. 42. 66. 90. 57. 17. 3. 13. 49. 96. 117. 109. 74. 31.
      7. 1. 0. 0. 2. 18. 61. 93. 36. 63. 92. 60. 18. 3. 6. 24. 49. 61.
      53. 31. 11. 2. 0. 0. 0. 3. 21. 64. 95. 36. 63. 93. 61. 18. 2. 2.
      6. 13. 16. 13. 7. 2. 0. 0. 0. 1. 8. 33. 77. 102. 36. 63. 96. 67.
      22. 3. 0. 1. 1. 2. 1. 1. 0. 0. 0. 0. 3. 17. 55. 98. 114. 34. 63.
      104. 86. 36. 8. 1. 0. 0. 0. 0. 0. 0. 0. 0. 1. 8. 35. 84. 118. 121.
      27. 55. 105. 108. 61. 19. 3. 0. 0. 0. 0. 0. 0. 0. 0. 3. 19. 61.
      110. 119. 108. 15. 36. 86. 117. 90. 42. 13. 4. 2. 2. 2. 2. 2. 2.
      4. 13. 42. 90. 119. 98. 77. 5. 18. 59. 108. 114. 77. 39. 22. 18.
      18. 18. 18. 18. 18. 22. 39. 77. 116. 118. 85. 67. 2. 7. 31. 73.
      102. 96. 76. 65. 63. 63. 63. 63. 63. 63. 65. 76. 98. 111. 102. 86.
      81. 0. 2. 11. 32. 58. 78. 96. 107. 110. 110. 110. 110. 110. 110.
      107. 96. 84. 80. 85. 89. 88. 0. 1. 4. 14. 33. 61. 94. 114. 120.
      121. 121. 121. 121. 120. 114. 95. 69. 64. 80. 88. 85.</_>
    <_>
      92. 92. 92. 92. 93. 94. 98. 107. 119. 126. 128. 128. 126. 118.
      106. 98. 95. 94. 93. 92. 92. 61. 61. 61. 61. 63. 68. 78. 96. 115.
      124. 124. 123. 120. 109. 93. 81. 74. 67. 63. 61. 61. 18. 18. 19.
      24. 34. 49. 72. 100. 122. 122. 114. 110. 108. 100. 89. 82. 71. 49.
      29. 20. 18. 2. 3. 9. 27. 53. 73. 89. 104. 106. 87. 69. 63. 65. 73.
      88. 105. 107. 79. 40. 14. 7. 1. 3. 18. 56. 94. 95. 77. 65. 54. 36.
      22. 19. 21. 32. 54. 86. 117. 117. 81. 40. 23. 4. 12. 42. 89. 114.
      84. 42. 22. 14. 8. 3. 2. 3. 8. 18. 42. 82. 118. 118. 84. 62. 14.
      32. 78. 117. 109. 59. 19. 4. 1. 1. 0. 0. 0. 1. 3. 13. 39. 82. 118.
      118. 105. 27. 54. 105. 116. 79. 32. 7. 1. 0. 0. 0. 0. 0. 0. 0. 2.
      13. 42. 88. 118. 121. 34. 63. 105. 89. 42. 12. 2. 1. 1. 2. 2. 1.
      1. 0. 0. 0. 3. 18. 56. 99. 114. 36. 63. 96. 68. 23. 4. 2. 6. 13.
      17. 17. 13. 6. 2. 0. 0. 1. 8. 33. 77. 102. 36. 63. 93. 61. 18. 3.
      6. 24. 49. 61. 61. 49. 24. 6. 1. 0. 0. 3. 21. 64. 95. 36. 63. 92.
      60. 18. 3. 13. 49. 93. 109. 109. 93. 49. 13. 1. 0. 0. 2. 18. 61.
      93. 42. 66. 90. 57. 17. 4. 17. 61. 106. 110. 110. 106. 61. 17. 2.
      0. 0. 2. 18. 61. 92. 63. 78. 83. 47. 13. 3. 18. 63. 105. 99. 99.
      104. 62. 18. 2. 0. 0. 2. 18. 61. 92. 93. 95. 72. 32. 7. 3. 18. 65.
      113. 114. 111. 106. 61. 17. 2. 0. 0. 2. 18. 61. 92. 108. 103. 67.
      25. 4. 2. 17. 63. 115. 124. 113. 93. 49. 13. 1. 0. 0. 2. 18. 61.
      93. 93. 95. 72. 32. 7. 2. 13. 46. 82. 84. 68. 49. 24. 6. 1. 0. 0.
      3. 21. 64. 95. 63. 78. 83. 47. 13. 2. 6. 21. 35. 31. 21. 13. 6. 2.
      0. 0. 1. 7. 32. 76. 101. 42. 66. 90. 58. 17. 2. 1. 5. 8. 6. 3. 1.
      1. 0. 0. 0. 1. 13. 49. 95. 112. 36. 64. 96. 67. 23. 4. 0. 0. 1. 0.
      0. 0. 0. 0. 0. 0. 4. 22. 66. 110. 121. 34. 63. 105. 89. 43. 13. 2.
      0. 0. 0. 0. 0. 0. 0. 0. 2. 13. 43. 91. 122. 123. 27. 54. 105. 117.
      82. 39. 13. 3. 1. 1. 1. 2. 2. 2. 4. 13. 39. 82. 119. 119. 105. 14.
      32. 77. 117. 118. 82. 42. 18. 9. 8. 13. 17. 18. 18. 23. 43. 82.
      118. 118. 84. 62. 4. 12. 38. 81. 118. 118. 88. 56. 36. 36. 49. 59.
      62. 63. 70. 91. 119. 118. 81. 40. 23. 1. 3. 12. 40. 84. 118. 118.
      99. 81. 80. 95. 106. 110. 111. 114. 122. 119. 84. 40. 13. 5. 0. 1.
      5. 23. 62. 105. 121. 114. 104. 104. 112. 119. 121. 121. 123. 123.
      105. 62. 23. 5. 1.</_>
    <_>
      92. 92. 93. 94. 98. 107. 121. 126. 109. 72. 46. 45. 65. 81. 72.
      72. 91. 99. 96. 93. 92. 61. 61. 62. 67. 78. 96. 118. 131. 123. 94.
      72. 71. 89. 103. 95. 90. 96. 88. 72. 63. 61. 18. 19. 24. 43. 74.
      103. 126. 132. 125. 109. 97. 97. 107. 116. 113. 115. 118. 94. 56.
      30. 23. 2. 5. 20. 58. 102. 119. 112. 91. 74. 66. 62. 62. 65. 68.
      72. 91. 119. 119. 83. 42. 25. 2. 8. 35. 86. 117. 99. 65. 37. 23.
      19. 18. 18. 18. 19. 24. 43. 82. 118. 118. 84. 62. 5. 18. 60. 109.
      110. 64. 26. 9. 3. 2. 2. 2. 2. 2. 4. 13. 39. 82. 119. 119. 105.
      15. 36. 86. 116. 87. 36. 9. 2. 1. 1. 1. 0. 0. 0. 0. 2. 13. 43. 91.
      122. 123. 27. 55. 105. 108. 60. 18. 4. 6. 12. 12. 7. 3. 1. 0. 0.
      0. 4. 22. 66. 110. 121. 34. 63. 104. 86. 36. 9. 7. 24. 45. 47. 31.
      16. 6. 2. 0. 0. 1. 13. 49. 95. 112. 36. 63. 96. 67. 22. 5. 13. 49.
      90. 95. 75. 52. 24. 6. 1. 0. 1. 7. 32. 76. 101. 36. 63. 93. 61.
      18. 5. 20. 63. 105. 109. 105. 91. 48. 13. 1. 0. 0. 3. 21. 64. 95.
      36. 63. 92. 61. 18. 8. 28. 70. 95. 88. 97. 103. 60. 17. 2. 0. 0.
      2. 18. 61. 93. 36. 63. 92. 61. 19. 10. 33. 73. 89. 78. 89. 102.
      62. 18. 2. 0. 0. 2. 18. 61. 92. 36. 63. 92. 61. 18. 8. 27. 68. 98.
      99. 106. 106. 61. 17. 2. 0. 0. 2. 18. 61. 92. 36. 63. 92. 61. 18.
      4. 16. 51. 91. 106. 108. 93. 49. 13. 1. 0. 0. 2. 18. 61. 92. 36.
      63. 92. 61. 18. 3. 6. 24. 48. 61. 61. 49. 24. 6. 1. 0. 0. 2. 18.
      61. 93. 36. 63. 92. 61. 18. 2. 2. 6. 13. 17. 17. 13. 6. 2. 0. 0.
      0. 3. 21. 64. 95. 36. 63. 93. 61. 18. 2. 0. 1. 1. 2. 2. 1. 1. 0.
      0. 0. 1. 8. 33. 77. 102. 36. 63. 96. 68. 23. 4. 0. 0. 0. 0. 0. 0.
      0. 0. 0. 0. 3. 18. 56. 99. 114. 34. 63. 105. 89. 43. 13. 2. 0. 0.
      0. 0. 0. 0. 0. 0. 2. 13. 42. 88. 118. 121. 27. 54. 105. 117. 82.
      39. 12. 2. 0. 0. 0. 0. 0. 0. 2. 12. 39. 82. 118. 118. 105. 14. 32.
      77. 117. 118. 81. 38. 12. 4. 2. 2. 2. 2. 4. 12. 38. 81. 118. 118.
      84. 62. 4. 12. 38. 81. 117. 114. 76. 39. 22. 18. 18. 18. 18. 22.
      39. 76. 114. 117. 81. 40. 23. 1. 3. 12. 38. 77. 103. 96. 76. 65.
      63. 63. 63. 63. 65. 76. 96. 103. 77. 38. 12. 5. 0. 0. 3. 12. 32.
      58. 78. 96. 107. 110. 110. 110. 110. 107. 96. 78. 58. 32. 12. 3.
      1. 0. 0. 1. 4. 14. 33. 61. 94. 114. 120. 121. 121. 120. 114. 94.
      61. 33. 14. 4. 1. 0.</_>
    <_>
      0. 0. 0. 2. 5. 16. 36. 70. 107. 123. 123. 123. 123. 107. 71. 43.
      28. 14. 4. 1. 0. 0. 0. 2. 7. 18. 36. 63. 93. 119. 121. 115. 115.
      121. 118. 94. 71. 55. 32. 12. 3. 1. 0. 1. 7. 25. 56. 86. 109. 117.
      110. 87. 70. 70. 87. 106. 109. 109. 106. 77. 38. 12. 5. 0. 3. 18.
      56. 100. 117. 110. 87. 60. 36. 23. 23. 36. 54. 69. 90. 117. 117.
      81. 40. 23. 2. 8. 35. 86. 117. 99. 64. 36. 18. 8. 4. 4. 8. 14. 22.
      43. 82. 118. 118. 84. 62. 5. 18. 60. 109. 110. 64. 26. 9. 3. 1. 0.
      0. 1. 1. 4. 13. 39. 82. 119. 119. 105. 15. 36. 86. 116. 87. 36. 9.
      1. 0. 0. 0. 0. 0. 0. 0. 2. 13. 43. 91. 122. 123. 27. 55. 105. 108.
      60. 18. 3. 1. 1. 2. 2. 1. 1. 0. 0. 0. 4. 22. 66. 110. 121. 34. 63.
      104. 86. 36. 8. 2. 6. 13. 17. 17. 13. 6. 2. 0. 0. 1. 13. 49. 95.
      112. 36. 63. 96. 67. 22. 4. 6. 24. 49. 61. 61. 49. 24. 6. 1. 0. 1.
      7. 32. 76. 101. 36. 63. 93. 61. 18. 3. 13. 49. 93. 109. 109. 93.
      49. 13. 1. 0. 0. 3. 21. 64. 95. 36. 63. 92. 61. 18. 4. 17. 61.
      106. 110. 110. 106. 61. 17. 2. 0. 0. 2. 18. 61. 93. 36. 63. 92.
      61. 18. 4. 18. 62. 104. 99. 99. 104. 62. 18. 2. 0. 0. 2. 18. 61.
      92. 36. 63. 92. 61. 18. 4. 17. 61. 106. 110. 110. 106. 61. 17. 2.
      0. 0. 2. 18. 61. 92. 36. 63. 92. 61. 18. 3. 13. 49. 93. 109. 109.
      93. 49. 13. 1. 0. 0. 2. 18. 61. 93. 36. 63. 92. 61. 18. 3. 6. 24.
      49. 61. 61. 49. 24. 6. 1. 0. 0. 3. 21. 64. 95. 36. 63. 92. 61. 18.
      2. 2. 6. 13. 17. 17. 13. 6. 2. 0. 0. 1. 7. 32. 76. 101. 36. 63.
      93. 61. 18. 2. 0. 1. 1. 2. 2. 1. 1. 0. 0. 0. 1. 13. 49. 95. 112.
      36. 63. 96. 68. 23. 4. 0. 0. 0. 0. 0. 0. 0. 0. 0. 0. 4. 22. 66.
      110. 121. 34. 63. 105. 89. 43. 13. 2. 0. 0. 0. 0. 0. 0. 0. 0. 2.
      13. 43. 91. 122. 123. 27. 54. 105. 117. 82. 39. 12. 2. 0. 0. 0. 0.
      0. 0. 2. 12. 39. 82. 119. 119. 105. 14. 32. 77. 117. 118. 81. 38.
      12. 4. 2. 2. 2. 2. 4. 13. 39. 81. 118. 118. 84. 62. 4. 12. 38. 81.
      117. 114. 76. 39. 22. 18. 18. 18. 18. 23. 43. 82. 118. 118. 81.
      40. 23. 1. 3. 12. 38. 77. 103. 96. 76. 65. 63. 63. 63. 63. 70. 91.
      119. 118. 81. 38. 12. 5. 0. 0. 3. 12. 32. 58. 78. 96. 107. 110.
      110. 110. 111. 114. 122. 119. 84. 40. 12. 3. 1. 0. 0. 1. 4. 14.
      33. 61. 94. 114. 120. 121. 121. 121. 123. 123. 105. 62. 23. 5. 1.
      0.</_>
    <_>
      94. 101. 125. 150. 148. 135. 129. 128. 128. 128. 128. 128. 128.
      128. 126. 118. 105. 95. 93. 92. 92. 63. 70. 98. 132. 141. 132.
      125. 123. 123. 123. 123. 123. 123. 124. 123. 110. 85. 67. 61. 61.
      61. 20. 29. 64. 114. 137. 127. 115. 111. 110. 110. 110. 110. 111.
      115. 122. 110. 66. 31. 19. 18. 18. 5. 17. 59. 113. 123. 93. 70.
      63. 63. 63. 63. 63. 64. 74. 99. 106. 63. 19. 4. 2. 2. 4. 17. 62.
      106. 91. 48. 24. 18. 18. 18. 18. 18. 20. 34. 72. 97. 61. 18. 2. 0.
      0. 4. 18. 61. 96. 68. 24. 5. 2. 2. 2. 2. 2. 4. 20. 62. 93. 61. 18.
      2. 0. 0. 4. 18. 61. 93. 61. 18. 2. 0. 0. 0. 0. 0. 2. 18. 61. 92.
      61. 18. 2. 0. 0. 4. 18. 61. 92. 61. 18. 2. 0. 0. 0. 0. 0. 2. 18.
      61. 92. 61. 18. 2. 0. 0. 4. 18. 61. 93. 61. 18. 2. 0. 0. 0. 0. 0.
      2. 18. 61. 92. 61. 18. 2. 0. 0. 4. 18. 61. 96. 68. 23. 4. 0. 0. 0.
      0. 0. 2. 18. 61. 92. 61. 18. 2. 0. 0. 4. 17. 61. 105. 89. 42. 12.
      2. 0. 0. 0. 0. 2. 18. 61. 92. 61. 18. 2. 0. 0. 3. 13. 53. 105.
      116. 78. 31. 7. 1. 0. 0. 0. 2. 18. 61. 92. 61. 18. 2. 0. 0. 1. 7.
      31. 78. 116. 105. 53. 13. 1. 0. 0. 0. 2. 18. 61. 92. 61. 18. 2. 0.
      0. 0. 2. 12. 42. 89. 105. 61. 17. 2. 0. 0. 0. 2. 18. 61. 92. 61.
      18. 2. 0. 0. 0. 0. 4. 23. 68. 96. 61. 18. 2. 0. 0. 0. 2. 18. 61.
      92. 61. 18. 2. 0. 0. 0. 0. 2. 18. 61. 93. 61. 18. 2. 0. 0. 0. 2.
      18. 61. 92. 61. 18. 2. 0. 0. 0. 0. 2. 18. 61. 92. 61. 18. 2. 0. 0.
      0. 2. 18. 61. 92. 61. 18. 2. 0. 0. 0. 0. 2. 18. 61. 92. 61. 18. 2.
      0. 0. 0. 2. 18. 61. 92. 61. 18. 2. 0. 0. 0. 0. 2. 18. 61. 92. 61.
      18. 2. 0. 0. 0. 2. 18. 61. 92. 61. 18. 2. 0. 0. 0. 0. 2. 18. 61.
      92. 61. 18. 2. 0. 0. 0. 2. 18. 61. 92. 61. 18. 2. 0. 0. 0. 0. 2.
      18. 61. 92. 61. 18. 2. 0. 0. 0. 2. 18. 61. 92. 61. 18. 2. 0. 0. 0.
      0. 2. 18. 61. 93. 61. 18. 2. 0. 0. 0. 2. 18. 61. 93. 61. 18. 2. 0.
      0. 0. 0. 2. 18. 61. 96. 67. 23. 5. 2. 2. 2. 5. 24. 68. 96. 61. 18.
      2. 0. 0. 0. 0. 2. 17. 61. 102. 85. 44. 23. 18. 18. 18. 24. 48. 91.
      106. 62. 17. 2. 0. 0. 0. 0. 2. 14. 54. 101. 105. 81. 65. 61. 61.
      61. 69. 96. 128. 116. 59. 15. 2. 0. 0. 0. 0. 1. 12. 48. 95. 112.
      103. 95. 93. 92. 93. 101. 125. 146. 117. 54. 13. 1. 0. 0.</_>
    <_>
      92. 92. 93. 97. 105. 106. 97. 103. 115. 120. 121. 120. 114. 94.
      63. 41. 26. 12. 3. 0. 0. 61. 61. 62. 70. 93. 113. 109. 104. 107.
      110. 110. 110. 106. 95. 79. 66. 50. 25. 6. 1. 0. 18. 18. 20. 34.
      75. 118. 111. 81. 66. 63. 63. 63. 65. 73. 88. 102. 92. 49. 13. 1.
      0. 2. 2. 4. 20. 66. 108. 88. 44. 23. 18. 18. 18. 21. 33. 59. 94.
      104. 61. 17. 2. 0. 0. 0. 2. 18. 62. 97. 68. 23. 5. 2. 2. 2. 3. 9.
      29. 71. 97. 61. 18. 2. 0. 0. 0. 2. 18. 61. 93. 61. 18. 2. 0. 0. 0.
      0. 3. 19. 62. 93. 61. 18. 2. 0. 0. 0. 2. 18. 61. 92. 61. 18. 2. 0.
      0. 0. 0. 2. 18. 61. 92. 61. 18. 2. 0. 0. 0. 2. 18. 61. 92. 61. 18.
      2. 0. 0. 0. 0. 2. 18. 61. 92. 61. 18. 2. 0. 0. 0. 2. 18. 61. 93.
      61. 18. 2. 0. 0. 0. 0. 2. 18. 61. 92. 61. 18. 2. 0. 0. 0. 2. 18.
      61. 96. 67. 22. 3. 0. 0. 0. 0. 2. 18. 61. 92. 61. 18. 2. 0. 0. 0.
      2. 17. 61. 104. 85. 36. 8. 1. 0. 0. 0. 2. 18. 61. 92. 61. 18. 2.
      0. 0. 0. 1. 14. 53. 104. 104. 53. 14. 1. 0. 0. 0. 2. 18. 61. 92.
      61. 18. 2. 0. 0. 0. 1. 8. 36. 85. 104. 61. 17. 2. 0. 0. 0. 2. 18.
      61. 92. 61. 18. 2. 0. 0. 0. 0. 3. 22. 67. 96. 61. 18. 2. 0. 0. 0.
      2. 18. 61. 92. 61. 18. 2. 0. 0. 0. 0. 2. 18. 61. 93. 61. 18. 2. 0.
      0. 0. 2. 18. 61. 92. 61. 18. 2. 0. 0. 0. 0. 2. 18. 61. 92. 61. 18.
      2. 0. 0. 0. 2. 18. 61. 92. 61. 18. 2. 0. 0. 0. 0. 2. 18. 61. 92.
      61. 18. 2. 0. 0. 0. 2. 18. 61. 92. 61. 18. 2. 0. 0. 0. 0. 2. 18.
      61. 92. 61. 18. 2. 0. 0. 0. 2. 18. 61. 92. 61. 18. 2. 0. 0. 0. 0.
      2. 18. 61. 92. 61. 18. 2. 0. 0. 0. 2. 18. 61. 92. 61. 18. 2. 0. 0.
      0. 0. 2. 18. 61. 92. 61. 18. 2. 0. 0. 0. 2. 18. 61. 92. 61. 18. 2.
      0. 0. 0. 0. 2. 18. 61. 93. 61. 18. 2. 0. 0. 0. 2. 18. 61. 92. 61.
      18. 2. 0. 0. 0. 0. 2. 18. 61. 96. 68. 24. 5. 2. 2. 2. 4. 20. 62.
      93. 61. 18. 2. 0. 0. 0. 0. 2. 17. 61. 105. 90. 47. 24. 18. 18. 18.
      20. 34. 72. 97. 61. 18. 2. 0. 0. 0. 0. 1. 13. 53. 105. 118. 92.
      70. 63. 63. 63. 64. 74. 99. 106. 61. 17. 2. 0. 0. 0. 0. 1. 7. 33.
      80. 118. 122. 114. 111. 110. 110. 111. 115. 121. 105. 55. 14. 2.
      0. 0. 0. 0. 0. 4. 22. 61. 105. 123. 123. 121. 121. 121. 121. 123.
      121. 97. 48. 12. 1. 0.</_>
    <_>
      0. 1. 4. 14. 27. 34. 36. 36. 36. 36. 36. 36. 36. 37. 43. 62. 86.
      95. 94. 93. 92. 0. 2. 11. 31. 54. 63. 63. 63. 63. 63. 63. 63. 63.
      64. 71. 81. 84. 74. 64. 61. 61. 1. 7. 31. 73. 104. 105. 96. 93.
      92. 92. 92. 92. 93. 98. 109. 109. 77. 40. 22. 18. 18. 3. 13. 53.
      104. 116. 90. 68. 61. 61. 61. 61. 61. 62. 72. 98. 109. 68. 23. 5.
      2. 2. 4. 17. 61. 105. 90. 47. 24. 18. 18. 18. 18. 18. 20. 34. 72.
      98. 62. 18. 2. 0. 0. 4. 18. 61. 96. 68. 24. 5. 2. 2. 2. 2. 2. 4.
      20. 62. 93. 61. 18. 2. 0. 0. 4. 18. 61. 93. 61. 18. 2. 0. 0. 0. 0.
      0. 2. 18. 61. 92. 61. 18. 2. 0. 0. 4. 18. 61. 92. 61. 18. 2. 0. 0.
      0. 0. 0. 2. 18. 61. 92. 61. 18. 2. 0. 0. 4. 18. 61. 93. 61. 18. 2.
      0. 0. 0. 0. 0. 2. 18. 61. 92. 61. 18. 2. 0. 0. 4. 18. 61. 96. 68.
      23. 4. 0. 0. 0. 0. 0. 2. 18. 61. 92. 61. 18. 2. 0. 0. 4. 17. 61.
      105. 89. 42. 12. 2. 0. 0. 0. 0. 2. 18. 61. 92. 61. 18. 2. 0. 0. 3.
      13. 53. 105. 116. 78. 31. 7. 1. 0. 0. 0. 2. 18. 61. 92. 61. 18. 2.
      0. 0. 1. 7. 31. 78. 116. 105. 53. 13. 1. 0. 0. 0. 2. 18. 61. 92.
      61. 18. 2. 0. 0. 0. 2. 12. 42. 89. 105. 61. 17. 2. 0. 0. 0. 2. 18.
      61. 92. 61. 18. 2. 0. 0. 0. 0. 4. 23. 68. 96. 61. 18. 2. 0. 0. 0.
      2. 18. 61. 92. 61. 18. 2. 0. 0. 0. 0. 2. 18. 61. 93. 61. 18. 2. 0.
      0. 0. 2. 18. 61. 92. 61. 18. 2. 0. 0. 0. 0. 2. 18. 61. 92. 61. 18.
      2. 0. 0. 0. 2. 18. 61. 92. 61. 18. 2. 0. 0. 0. 0. 2. 18. 61. 92.
      61. 18. 2. 0. 0. 0. 2. 18. 61. 92. 61. 18. 2. 0. 0. 0. 0. 2. 18.
      61. 92. 61. 18. 2. 0. 0. 0. 2. 18. 61. 92. 61. 18. 2. 0. 0. 0. 0.
      2. 18. 61. 92. 61. 18. 2. 0. 0. 0. 2. 18. 61. 92. 61. 18. 2. 0. 0.
      0. 0. 2. 18. 61. 92. 61. 18. 2. 0. 0. 0. 2. 18. 61. 92. 61. 18. 2.
      0. 0. 0. 0. 2. 18. 61. 93. 61. 18. 2. 0. 0. 0. 2. 18. 61. 92. 61.
      18. 2. 0. 0. 0. 0. 2. 18. 61. 96. 67. 23. 5. 2. 2. 2. 4. 20. 62.
      93. 61. 18. 2. 0. 0. 0. 0. 2. 17. 61. 102. 85. 44. 23. 18. 18. 18.
      20. 34. 73. 98. 62. 18. 2. 0. 0. 0. 0. 2. 14. 54. 101. 105. 81.
      65. 61. 61. 61. 62. 74. 102. 112. 65. 18. 2. 0. 0. 0. 0. 1. 12.
      48. 95. 112. 103. 95. 93. 92. 92. 94. 103. 123. 122. 68. 19. 2. 0.
      0.</_>
    <_>
      92. 92. 92. 88. 75. 55. 41. 36. 36. 36. 36. 36. 36. 36. 37. 50.
      84. 120. 119. 107. 105. 61. 61. 61. 62. 66. 69. 67. 64. 63. 63.
      63. 63. 63. 63. 65. 75. 95. 106. 92. 80. 80. 18. 18. 19. 29. 61.
      98. 106. 97. 93. 92. 92. 92. 92. 93. 98. 110. 113. 84. 47. 34. 35.
      2. 2. 4. 19. 62. 105. 97. 72. 62. 61. 61. 61. 61. 62. 72. 98. 109.
      69. 24. 9. 8. 0. 0. 2. 18. 61. 97. 72. 34. 20. 18. 18. 18. 18. 20.
      34. 72. 98. 62. 18. 3. 1. 0. 0. 2. 18. 61. 93. 62. 20. 4. 2. 2. 2.
      2. 4. 20. 62. 93. 61. 18. 2. 0. 0. 0. 2. 18. 61. 92. 61. 18. 2. 0.
      0. 0. 0. 2. 18. 61. 92. 61. 18. 2. 0. 0. 0. 2. 18. 61. 92. 61. 18.
      2. 0. 0. 0. 0. 2. 18. 61. 92. 61. 18. 2. 0. 0. 0. 2. 18. 61. 93.
      61. 18. 2. 0. 0. 0. 0. 2. 18. 61. 92. 61. 18. 2. 0. 0. 0. 2. 18.
      61. 96. 67. 22. 3. 0. 0. 0. 0. 2. 18. 61. 92. 61. 18. 2. 0. 0. 0.
      2. 17. 61. 104. 85. 36. 8. 1. 0. 0. 0. 2. 18. 61. 92. 61. 18. 2.
      0. 0. 0. 1. 14. 53. 104. 104. 53. 14. 1. 0. 0. 0. 2. 18. 61. 92.
      61. 18. 2. 0. 0. 0. 1. 8. 36. 85. 104. 61. 17. 2. 0. 0. 0. 2. 18.
      61. 92. 61. 18. 2. 0. 0. 0. 0. 3. 22. 67. 96. 61. 18. 2. 0. 0. 0.
      2. 18. 61. 92. 61. 18. 2. 0. 0. 0. 0. 2. 18. 61. 93. 61. 18. 2. 0.
      0. 0. 2. 18. 61. 92. 61. 18. 2. 0. 0. 0. 0. 2. 18. 61. 92. 61. 18.
      2. 0. 0. 0. 2. 18. 61. 92. 61. 18. 2. 0. 0. 0. 0. 2. 18. 61. 92.
      61. 18. 2. 0. 0. 0. 2. 18. 61. 92. 61. 18. 2. 0. 0. 0. 0. 2. 18.
      61. 92. 61. 18. 2. 0. 0. 0. 2. 18. 61. 92. 61. 18. 2. 0. 0. 0. 0.
      2. 18. 61. 92. 61. 18. 2. 0. 0. 0. 2. 18. 61. 92. 61. 18. 2. 0. 0.
      0. 0. 2. 18. 61. 92. 61. 18. 2. 0. 0. 0. 2. 18. 61. 92. 61. 18. 2.
      0. 0. 0. 0. 2. 18. 60. 92. 61. 18. 2. 0. 0. 0. 2. 18. 61. 92. 61.
      18. 2. 0. 0. 0. 0. 2. 17. 57. 90. 64. 23. 5. 2. 2. 2. 4. 20. 62.
      93. 61. 18. 2. 0. 0. 0. 0. 1. 13. 47. 83. 76. 43. 23. 18. 18. 18.
      20. 34. 72. 97. 61. 18. 2. 0. 0. 0. 0. 1. 7. 31. 71. 96. 85. 69.
      63. 63. 63. 64. 74. 99. 106. 61. 17. 2. 0. 0. 0. 0. 0. 3. 18. 57.
      103. 118. 114. 111. 110. 110. 111. 115. 121. 105. 55. 14. 2. 0. 0.
      0. 0. 0. 2. 13. 48. 97. 120. 123. 121. 121. 121. 121. 123. 121.
      97. 48. 12. 1. 0.</_>
    <_>
      92. 93. 95. 102. 115. 125. 127. 121. 99. 72. 72. 99. 121. 127.
      129. 135. 149. 158. 144. 128. 122. 61. 61. 65. 79. 103. 122. 126.
      120. 104. 86. 86. 104. 118. 123. 125. 131. 141. 141. 127. 115.
      111. 18. 18. 22. 41. 83. 121. 125. 114. 105. 99. 99. 105. 109.
      111. 116. 127. 129. 103. 76. 65. 63. 2. 2. 5. 23. 68. 110. 100.
      74. 63. 61. 61. 62. 62. 64. 74. 100. 112. 74. 34. 20. 18. 0. 0. 2.
      18. 62. 98. 72. 34. 20. 18. 18. 18. 18. 20. 34. 72. 98. 63. 20. 4.
      2. 0. 0. 2. 18. 61. 93. 62. 20. 4. 2. 2. 2. 2. 4. 20. 62. 93. 61.
      18. 2. 0. 0. 0. 2. 18. 61. 92. 61. 18. 2. 0. 0. 0. 0. 2. 18. 61.
      92. 61. 18. 2. 0. 0. 0. 2. 18. 61. 92. 61. 18. 2. 0. 0. 0. 0. 2.
      18. 61. 92. 61. 18. 2. 0. 0. 0. 2. 18. 61. 92. 61. 18. 2. 0. 0. 0.
      0. 2. 18. 61. 92. 61. 18. 2. 0. 0. 0. 2. 18. 61. 93. 61. 18. 2. 0.
      0. 0. 0. 2. 18. 61. 92. 61. 18. 2. 0. 0. 0. 2. 18. 61. 96. 67. 22.
      3. 0. 0. 0. 0. 2. 18. 61. 92. 61. 18. 2. 0. 0. 0. 2. 17. 61. 104.
      85. 36. 8. 1. 0. 0. 0. 2. 18. 61. 92. 61. 18. 2. 0. 0. 0. 1. 14.
      53. 104. 104. 53. 14. 1. 0. 0. 0. 2. 18. 61. 92. 61. 18. 2. 0. 0.
      0. 1. 8. 36. 85. 104. 61. 17. 2. 0. 0. 0. 2. 18. 61. 92. 61. 18.
      2. 0. 0. 0. 0. 3. 22. 67. 96. 61. 18. 2. 0. 0. 0. 2. 18. 61. 92.
      61. 18. 2. 0. 0. 0. 0. 2. 18. 61. 93. 61. 18. 2. 0. 0. 0. 2. 18.
      61. 92. 61. 18. 2. 0. 0. 0. 0. 2. 18. 61. 92. 61. 18. 2. 0. 0. 0.
      2. 18. 61. 92. 61. 18. 2. 0. 0. 0. 0. 2. 18. 61. 92. 61. 18. 2. 0.
      0. 0. 2. 18. 61. 92. 61. 18. 2. 0. 0. 0. 0. 2. 18. 61. 92. 61. 18.
      2. 0. 0. 0. 2. 18. 61. 92. 61. 18. 2. 0. 0. 0. 0. 2. 18. 61. 92.
      61. 18. 2. 0. 0. 0. 2. 18. 61. 92. 61. 18. 2. 0. 0. 0. 0. 2. 18.
      61. 93. 61. 18. 2. 0. 0. 0. 2. 18. 61. 92. 61. 18. 2. 0. 0. 0. 0.
      2. 18. 61. 96. 67. 22. 3. 0. 0. 0. 2. 18. 61. 92. 61. 18. 2. 0. 0.
      0. 0. 2. 17. 61. 104. 85. 37. 9. 3. 2. 2. 4. 20. 62. 93. 61. 18.
      2. 0. 0. 0. 0. 1. 13. 52. 101. 103. 61. 29. 19. 18. 18. 20. 34.
      73. 98. 62. 18. 2. 0. 0. 0. 0. 1. 7. 32. 76. 102. 88. 69. 61. 61.
      61. 62. 74. 102. 112. 65. 18. 2. 0. 0. 0. 0. 0. 4. 21. 59. 96.
      103. 96. 93. 92. 92. 94. 103. 123. 122. 68. 19. 2. 0.</_>
    <_>
      91. 88. 75. 55. 41. 36. 36. 36. 36. 36. 36. 36. 36. 37. 50. 84.
      119. 117. 100. 93. 92. 61. 62. 66. 69. 67. 64. 63. 63. 63. 63. 63.
      63. 63. 65. 75. 95. 106. 88. 68. 61. 61. 20. 29. 61. 98. 106. 97.
      93. 92. 92. 92. 92. 92. 93. 98. 110. 113. 84. 44. 23. 18. 18. 6.
      19. 62. 105. 97. 72. 62. 61. 61. 61. 61. 61. 62. 72. 98. 109. 68.
      23. 5. 2. 2. 4. 18. 61. 97. 72. 34. 20. 18. 18. 18. 18. 18. 20.
      34. 72. 98. 62. 18. 2. 0. 0. 4. 18. 61. 93. 62. 20. 4. 2. 2. 2. 2.
      2. 4. 20. 62. 93. 61. 18. 2. 0. 0. 4. 18. 61. 92. 61. 18. 2. 0. 0.
      0. 0. 0. 2. 18. 61. 92. 61. 18. 2. 0. 0. 4. 18. 61. 92. 61. 18. 2.
      0. 0. 0. 0. 0. 2. 18. 61. 92. 61. 18. 2. 0. 0. 4. 18. 61. 93. 61.
      18. 2. 0. 0. 0. 0. 0. 2. 18. 61. 92. 61. 18. 2. 0. 0. 4. 18. 61.
      96. 67. 22. 3. 0. 0. 0. 0. 0. 2. 18. 61. 92. 61. 18. 2. 0. 0. 4.
      17. 61. 104. 85. 36. 8. 1. 0. 0. 0. 0. 2. 18. 61. 92. 61. 18. 2.
      0. 0. 3. 13. 52. 101. 102. 56. 17. 3. 0. 0. 0. 0. 2. 18. 61. 92.
      61. 18. 2. 0. 0. 1. 7. 31. 72. 94. 72. 31. 7. 1. 0. 0. 0. 2. 18.
      61. 92. 61. 18. 2. 0. 0. 0. 2. 12. 38. 75. 83. 47. 13. 1. 0. 0. 0.
      2. 18. 61. 92. 61. 18. 2. 0. 0. 0. 0. 4. 22. 63. 90. 57. 17. 2. 0.
      0. 0. 2. 18. 61. 92. 61. 18. 2. 0. 0. 0. 0. 2. 18. 61. 92. 60. 18.
      2. 0. 0. 0. 2. 18. 61. 92. 61. 18. 2. 0. 0. 0. 0. 2. 18. 61. 92.
      61. 18. 2. 0. 0. 0. 2. 18. 61. 92. 61. 18. 2. 0. 0. 0. 0. 2. 18.
      61. 92. 61. 18. 2. 0. 0. 0. 2. 18. 61. 92. 61. 18. 2. 0. 0. 0. 0.
      2. 18. 61. 92. 61. 18. 2. 0. 0. 0. 2. 18. 61. 92. 61. 18. 2. 0. 0.
      0. 0. 2. 18. 61. 92. 61. 18. 2. 0. 0. 0. 2. 18. 61. 92. 61. 18. 2.
      0. 0. 0. 0. 2. 18. 61. 93. 61. 18. 2. 0. 0. 0. 2. 18. 61. 92. 61.
      18. 2. 0. 0. 0. 0. 2. 18. 61. 96. 68. 24. 5. 2. 2. 2. 4. 20. 62.
      93. 61. 18. 2. 0. 0. 0. 0. 2. 17. 61. 105. 90. 47. 24. 18. 18. 18.
      20. 34. 72. 97. 61. 18. 2. 0. 0. 0. 0. 1. 13. 53. 105. 118. 92.
      70. 63. 63. 63. 64. 74. 99. 106. 61. 17. 2. 0. 0. 0. 0. 1. 7. 33.
      80. 118. 122. 114. 111. 110. 110. 111. 115. 121. 105. 55. 14. 2.
      0. 0. 0. 0. 0. 4. 22. 61. 105. 123. 123. 121. 121. 121. 121. 123.
      121. 97. 48. 12. 1. 0. 0.</_>
    <_>
      0. 0. 0. 3. 12. 26. 34. 36. 36. 36. 36. 36. 36. 36. 36. 35. 33.
      44. 75. 105. 115. 0. 0. 1. 6. 25. 50. 62. 63. 63. 63. 63. 63. 63.
      63. 63. 63. 55. 48. 63. 90. 101. 0. 0. 1. 13. 49. 92. 104. 97. 93.
      92. 92. 92. 92. 93. 97. 104. 94. 58. 39. 48. 55. 0. 0. 2. 17. 61.
      104. 97. 72. 62. 61. 61. 61. 61. 62. 72. 97. 105. 62. 23. 14. 15.
      0. 0. 2. 18. 61. 97. 72. 34. 20. 18. 18. 18. 18. 20. 34. 72. 97.
      62. 18. 3. 2. 0. 0. 2. 18. 61. 93. 62. 20. 4. 2. 2. 2. 2. 4. 20.
      62. 93. 61. 18. 2. 0. 0. 0. 2. 18. 61. 92. 61. 18. 2. 0. 0. 0. 0.
      2. 18. 61. 92. 61. 18. 2. 0. 0. 0. 2. 18. 61. 92. 61. 18. 2. 0. 0.
      0. 0. 2. 18. 61. 92. 61. 18. 2. 0. 0. 0. 2. 18. 61. 92. 61. 18. 2.
      0. 0. 0. 0. 2. 18. 61. 92. 61. 18. 2. 0. 0. 0. 2. 18. 61. 93. 61.
      18. 2. 0. 0. 0. 0. 2. 18. 61. 92. 61. 18. 2. 0. 0. 0. 2. 18. 61.
      96. 67. 22. 3. 0. 0. 0. 0. 2. 18. 61. 92. 61. 18. 2. 0. 0. 0. 2.
      17. 61. 104. 85. 36. 8. 1. 0. 0. 0. 2. 18. 61. 92. 61. 18. 2. 0.
      0. 0. 1. 14. 53. 104. 104. 53. 14. 1. 0. 0. 0. 2. 18. 61. 92. 61.
      18. 2. 0. 0. 0. 1. 8. 36. 85. 104. 61. 17. 2. 0. 0. 0. 2. 18. 61.
      92. 61. 18. 2. 0. 0. 0. 0. 3. 22. 67. 96. 61. 18. 2. 0. 0. 0. 2.
      18. 61. 92. 61. 18. 2. 0. 0. 0. 0. 2. 18. 61. 93. 61. 18. 2. 0. 0.
      0. 2. 18. 61. 92. 61. 18. 2. 0. 0. 0. 0. 2. 18. 61. 92. 61. 18. 2.
      0. 0. 0. 2. 18. 61. 92. 61. 18. 2. 0. 0. 0. 0. 2. 18. 61. 92. 61.
      18. 2. 0. 0. 0. 2. 18. 61. 92. 61. 18. 2. 0. 0. 0. 0. 2. 18. 61.
      92. 61. 18. 2. 0. 0. 0. 2. 18. 61. 92. 61. 18. 2. 0. 0. 0. 0. 2.
      18. 61. 92. 61. 18. 2. 0. 0. 0. 2. 18. 61. 92. 61. 18. 2. 0. 0. 0.
      0. 2. 18. 61. 92. 61. 18. 2. 0. 0. 0. 2. 18. 61. 92. 61. 18. 2. 0.
      0. 0. 0. 2. 18. 61. 93. 61. 18. 2. 0. 0. 0. 2. 18. 61. 92. 61. 18.
      2. 0. 0. 0. 0. 2. 18. 61. 96. 68. 24. 5. 2. 2. 2. 4. 20. 62. 93.
      61. 18. 2. 0. 0. 0. 0. 2. 17. 62. 106. 91. 48. 24. 18. 18. 18. 20.
      34. 73. 98. 62. 18. 2. 0. 0. 0. 0. 2. 15. 59. 116. 128. 96. 69.
      61. 61. 61. 62. 74. 102. 112. 65. 18. 2. 0. 0. 0. 0. 1. 13. 54.
      117. 146. 125. 101. 93. 92. 92. 94. 103. 123. 122. 68. 19. 2. 0.</_>
    <_>
      1. 4. 21. 55. 85. 92. 103. 115. 120. 121. 121. 120. 114. 94. 61.
      33. 13. 3. 0. 0. 0. 1. 7. 32. 77. 106. 105. 103. 107. 110. 110.
      110. 110. 107. 96. 77. 54. 25. 6. 1. 0. 0. 3. 13. 53. 107. 125.
      103. 77. 65. 63. 63. 63. 63. 65. 77. 95. 90. 48. 13. 1. 0. 0. 4.
      17. 62. 108. 100. 63. 34. 21. 18. 18. 18. 18. 23. 43. 84. 101. 60.
      17. 2. 0. 0. 4. 18. 62. 98. 72. 30. 9. 3. 2. 2. 2. 2. 5. 23. 67.
      96. 61. 18. 2. 0. 0. 4. 18. 61. 93. 62. 19. 3. 0. 0. 0. 0. 0. 2.
      18. 61. 93. 61. 18. 2. 0. 0. 4. 18. 61. 92. 61. 18. 2. 0. 0. 0. 0.
      0. 2. 18. 61. 92. 61. 18. 2. 0. 0. 4. 18. 61. 92. 61. 18. 2. 0. 0.
      0. 0. 0. 2. 18. 61. 92. 61. 18. 2. 0. 0. 4. 18. 61. 93. 61. 18. 2.
      0. 0. 0. 0. 0. 2. 18. 61. 92. 61. 18. 2. 0. 0. 4. 18. 61. 96. 68.
      23. 4. 0. 0. 0. 0. 0. 2. 18. 61. 92. 61. 18. 2. 0. 0. 4. 17. 61.
      105. 89. 42. 12. 2. 0. 0. 0. 0. 2. 18. 61. 92. 61. 18. 2. 0. 0. 3.
      13. 53. 105. 116. 78. 31. 7. 1. 0. 0. 0. 2. 18. 61. 92. 61. 18. 2.
      0. 0. 1. 7. 31. 78. 116. 105. 53. 13. 1. 0. 0. 0. 2. 18. 61. 92.
      61. 18. 2. 0. 0. 0. 2. 12. 42. 89. 105. 61. 17. 2. 0. 0. 0. 2. 18.
      61. 92. 61. 18. 2. 0. 0. 0. 0. 4. 23. 68. 96. 61. 18. 2. 0. 0. 0.
      2. 18. 61. 92. 61. 18. 2. 0. 0. 0. 0. 2. 18. 61. 93. 61. 18. 2. 0.
      0. 0. 2. 18. 61. 92. 61. 18. 2. 0. 0. 0. 0. 2. 18. 61. 92. 61. 18.
      2. 0. 0. 0. 2. 18. 61. 92. 61. 18. 2. 0. 0. 0. 0. 2. 18. 61. 92.
      61. 18. 2. 0. 0. 0. 2. 18. 61. 92. 61. 18. 2. 0. 0. 0. 0. 2. 18.
      61. 92. 61. 18. 2. 0. 0. 0. 2. 18. 61. 92. 61. 18. 2. 0. 0. 0. 0.
      2. 18. 61. 92. 61. 18. 2. 0. 0. 0. 2. 18. 61. 92. 61. 18. 2. 0. 0.
      0. 0. 2. 18. 61. 92. 61. 18. 2. 0. 0. 0. 2. 18. 61. 92. 61. 18. 2.
      0. 0. 0. 0. 2. 18. 61. 93. 62. 20. 4. 2. 2. 2. 4. 20. 62. 93. 61.
      18. 2. 0. 0. 0. 0. 2. 18. 61. 97. 72. 34. 20. 18. 18. 18. 20. 34.
      72. 97. 61. 18. 2. 0. 0. 0. 0. 2. 17. 61. 106. 99. 74. 64. 63. 63.
      63. 64. 74. 99. 106. 61. 17. 2. 0. 0. 0. 0. 2. 14. 55. 105. 121.
      115. 111. 110. 110. 110. 111. 115. 121. 105. 55. 14. 2. 0. 0. 0.
      0. 1. 12. 48. 97. 121. 123. 121. 121. 121. 121. 121. 123. 121. 97.
      48. 12. 1. 0. 0.</_>
    <_>
      92. 93. 96. 106. 119. 126. 121. 99. 65. 43. 36. 36. 36. 34. 27.
      14. 4. 1. 0. 0. 0. 61. 63. 71. 92. 114. 123. 119. 104. 82. 67. 63.
      63. 63. 63. 54. 31. 11. 2. 0. 0. 0. 19. 25. 49. 91. 122. 123. 113.
      105. 98. 94. 92. 93. 96. 105. 104. 73. 31. 7. 1. 0. 0. 5. 15. 55.
      106. 118. 92. 70. 63. 61. 61. 61. 61. 68. 90. 116. 104. 53. 13. 1.
      0. 0. 4. 17. 61. 105. 90. 47. 24. 18. 18. 18. 18. 18. 24. 47. 90.
      105. 61. 17. 2. 0. 0. 4. 18. 61. 96. 68. 24. 5. 2. 2. 2. 2. 2. 5.
      24. 68. 96. 61. 18. 2. 0. 0. 4. 18. 61. 93. 61. 18. 2. 0. 0. 0. 0.
      0. 2. 18. 61. 93. 61. 18. 2. 0. 0. 4. 18. 61. 92. 61. 18. 2. 0. 0.
      0. 0. 0. 2. 18. 61. 92. 61. 18. 2. 0. 0. 4. 18. 61. 92. 61. 18. 2.
      0. 0. 0. 0. 0. 2. 18. 61. 92. 61. 18. 2. 0. 0. 4. 18. 61. 93. 61.
      18. 2. 0. 0. 0. 0. 0. 2. 18. 61. 92. 61. 18. 2. 0. 0. 4. 18. 61.
      96. 67. 22. 3. 0. 0. 0. 0. 0. 2. 18. 61. 92. 61. 18. 2. 0. 0. 4.
      17. 61. 104. 85. 36. 8. 1. 0. 0. 0. 0. 2. 18. 61. 92. 61. 18. 2.
      0. 0. 3. 13. 52. 101. 102. 56. 17. 3. 0. 0. 0. 0. 2. 18. 61. 92.
      61. 18. 2. 0. 0. 1. 7. 31. 72. 94. 72. 31. 7. 1. 0. 0. 0. 2. 18.
      61. 92. 61. 18. 2. 0. 0. 0. 2. 12. 38. 75. 83. 47. 13. 1. 0. 0. 0.
      2. 18. 61. 92. 61. 18. 2. 0. 0. 0. 0. 4. 22. 63. 90. 57. 17. 2. 0.
      0. 0. 2. 18. 61. 92. 61. 18. 2. 0. 0. 0. 0. 2. 18. 61. 92. 60. 18.
      2. 0. 0. 0. 2. 18. 61. 92. 61. 18. 2. 0. 0. 0. 0. 2. 18. 61. 92.
      61. 18. 2. 0. 0. 0. 2. 18. 61. 92. 61. 18. 2. 0. 0. 0. 0. 2. 18.
      61. 92. 61. 18. 2. 0. 0. 0. 2. 18. 61. 92. 61. 18. 2. 0. 0. 0. 0.
      2. 18. 61. 92. 61. 18. 2. 0. 0. 0. 2. 18. 61. 92. 61. 18. 2. 0. 0.
      0. 0. 2. 18. 61. 92. 61. 18. 2. 0. 0. 0. 2. 18. 61. 92. 61. 18. 2.
      0. 0. 0. 0. 2. 18. 61. 93. 61. 18. 2. 0. 0. 0. 2. 18. 61. 92. 61.
      18. 2. 0. 0. 0. 0. 2. 18. 61. 96. 68. 24. 5. 2. 2. 2. 4. 20. 62.
      93. 61. 18. 2. 0. 0. 0. 0. 2. 17. 62. 106. 91. 48. 24. 18. 18. 18.
      20. 34. 73. 98. 62. 18. 2. 0. 0. 0. 0. 2. 15. 59. 116. 128. 96.
      69. 61. 61. 61. 62. 74. 102. 112. 65. 18. 2. 0. 0. 0. 0. 1. 13.
      54. 117. 146. 125. 101. 93. 92. 92. 94. 103. 123. 122. 68. 19. 2.
      0. 0.</_>
    <_>
      0. 0. 0. 3. 12. 26. 34. 36. 36. 36. 36. 36. 36. 36. 36. 34. 26.
      12. 3. 0. 0. 0. 0. 1. 6. 25. 50. 62. 63. 63. 63. 63. 63. 63. 63.
      63. 62. 50. 25. 6. 1. 0. 0. 0. 1. 13. 49. 92. 104. 97. 93. 92. 92.
      92. 92. 93. 97. 104. 92. 49. 13. 1. 0. 0. 0. 2. 17. 61. 104. 97.
      72. 62. 61. 61. 61. 61. 62. 72. 97. 104. 61. 17. 2. 0. 0. 0. 2.
      18. 61. 97. 72. 34. 20. 18. 18. 18. 18. 20. 34. 72. 97. 61. 18. 2.
      0. 0. 0. 2. 18. 61. 93. 62. 20. 4. 2. 2. 2. 2. 4. 20. 62. 93. 61.
      18. 2. 0. 0. 0. 2. 18. 61. 92. 61. 18. 2. 0. 0. 0. 0. 2. 18. 61.
      92. 61. 18. 2. 0. 0. 0. 2. 18. 61. 92. 61. 18. 2. 0. 0. 0. 0. 2.
      18. 61. 92. 61. 18. 2. 0. 0. 0. 2. 18. 61. 92. 61. 18. 2. 0. 0. 0.
      0. 2. 18. 61. 92. 61. 18. 2. 0. 0. 0. 2. 18. 61. 93. 61. 18. 2. 0.
      0. 0. 0. 2. 18. 61. 92. 61. 18. 2. 0. 0. 0. 2. 18. 61. 96. 67. 22.
      3. 0. 0. 0. 0. 2. 18. 61. 92. 61. 18. 2. 0. 0. 0. 2. 17. 61. 104.
      85. 36. 8. 1. 0. 0. 0. 2. 18. 61. 92. 61. 18. 2. 0. 0. 0. 1. 14.
      53. 104. 104. 53. 14. 1. 0. 0. 0. 2. 18. 61. 92. 61. 18. 2. 0. 0.
      0. 1. 8. 36. 85. 104. 61. 17. 2. 0. 0. 0. 2. 18. 61. 92. 61. 18.
      2. 0. 0. 0. 0. 3. 22. 67. 96. 61. 18. 2. 0. 0. 0. 2. 18. 61. 92.
      61. 18. 2. 0. 0. 0. 0. 2. 18. 61. 93. 61. 18. 2. 0. 0. 0. 2. 18.
      61. 92. 61. 18. 2. 0. 0. 0. 0. 2. 18. 61. 92. 61. 18. 2. 0. 0. 0.
      2. 18. 61. 92. 61. 18. 2. 0. 0. 0. 0. 2. 18. 61. 92. 61. 18. 2. 0.
      0. 0. 2. 18. 61. 92. 61. 18. 2. 0. 0. 0. 0. 2. 18. 61. 92. 61. 18.
      2. 0. 0. 0. 2. 18. 61. 92. 61. 18. 2. 0. 0. 0. 0. 2. 18. 61. 92.
      61. 18. 2. 0. 0. 0. 2. 18. 61. 92. 61. 18. 2. 0. 0. 0. 0. 2. 18.
      61. 92. 61. 18. 2. 0. 0. 0. 2. 18. 61. 92. 61. 18. 2. 0. 0. 0. 0.
      2. 18. 60. 92. 61. 19. 3. 0. 0. 0. 2. 18. 61. 93. 61. 18. 2. 0. 0.
      0. 0. 2. 17. 57. 91. 67. 28. 9. 3. 2. 2. 5. 23. 67. 96. 61. 18. 2.
      0. 0. 0. 0. 1. 13. 46. 82. 80. 56. 33. 21. 18. 18. 23. 44. 85.
      102. 61. 17. 2. 0. 0. 0. 0. 1. 7. 28. 65. 91. 92. 76. 64. 61. 61.
      65. 81. 105. 101. 54. 14. 2. 0. 0. 0. 0. 0. 4. 19. 53. 90. 105.
      101. 95. 93. 93. 95. 103. 112. 95. 48. 12. 1. 0.</_>
    <_>
      92. 92. 92. 88. 75. 55. 41. 36. 36. 36. 36. 36. 36. 36. 37. 50.
      84. 119. 117. 100. 94. 61. 61. 61. 62. 66. 69. 67. 64. 63. 63. 63.
      63. 63. 63. 65. 75. 95. 106. 88. 68. 62. 18. 18. 19. 29. 61. 98.
      106. 97. 93. 92. 92. 92. 92. 93. 98. 110. 113. 84. 44. 23. 19. 2.
      2. 4. 19. 62. 105. 97. 72. 62. 61. 61. 61. 61. 62. 72. 98. 109.
      68. 23. 5. 2. 0. 0. 3. 21. 64. 95. 69. 33. 20. 18. 18. 18. 18. 20.
      34. 72. 98. 62. 18. 2. 0. 0. 1. 7. 31. 71. 83. 49. 15. 3. 2. 2. 2.
      2. 4. 20. 62. 93. 61. 18. 2. 0. 0. 1. 12. 44. 80. 73. 35. 8. 1. 0.
      0. 0. 0. 2. 18. 61. 92. 61. 18. 2. 0. 0. 1. 12. 44. 80. 73. 35. 8.
      1. 0. 0. 0. 0. 2. 18. 61. 92. 61. 18. 2. 0. 0. 1. 7. 31. 71. 83.
      48. 13. 2. 0. 0. 0. 0. 2. 18. 61. 92. 61. 18. 2. 0. 0. 0. 3. 21.
      64. 94. 64. 21. 3. 0. 0. 0. 0. 2. 18. 61. 92. 61. 18. 2. 0. 0. 0.
      2. 17. 62. 104. 85. 36. 7. 1. 0. 0. 0. 2. 18. 61. 92. 61. 18. 2.
      0. 0. 0. 1. 14. 53. 104. 104. 53. 14. 1. 0. 0. 0. 2. 18. 61. 92.
      61. 18. 2. 0. 0. 0. 1. 8. 36. 85. 104. 61. 17. 2. 0. 0. 0. 2. 18.
      61. 92. 61. 18. 2. 0. 0. 0. 0. 3. 22. 67. 96. 61. 18. 2. 0. 0. 0.
      2. 18. 61. 92. 61. 18. 2. 0. 0. 0. 0. 2. 18. 61. 93. 61. 18. 2. 0.
      0. 0. 2. 18. 61. 92. 61. 18. 2. 0. 0. 0. 0. 2. 18. 61. 92. 61. 18.
      2. 0. 0. 0. 2. 18. 61. 92. 61. 18. 2. 0. 0. 0. 0. 2. 18. 61. 92.
      61. 18. 2. 0. 0. 0. 2. 18. 61. 92. 61. 18. 2. 0. 0. 0. 0. 2. 18.
      61. 92. 61. 18. 2. 0. 0. 0. 2. 18. 61. 92. 61. 18. 2. 0. 0. 0. 0.
      2. 18. 61. 92. 61. 18. 2. 0. 0. 0. 2. 18. 61. 92. 61. 18. 2. 0. 0.
      0. 0. 2. 18. 61. 92. 61. 18. 2. 0. 0. 0. 2. 18. 61. 92. 61. 18. 2.
      0. 0. 0. 0. 2. 18. 60. 92. 61. 18. 2. 0. 0. 0. 2. 18. 61. 92. 61.
      18. 2. 0. 0. 0. 0. 2. 17. 57. 90. 64. 23. 5. 2. 2. 2. 4. 20. 62.
      93. 61. 18. 2. 0. 0. 0. 0. 1. 13. 47. 83. 76. 43. 23. 18. 18. 18.
      20. 34. 72. 97. 61. 18. 2. 0. 0. 0. 0. 1. 7. 31. 71. 96. 85. 69.
      63. 63. 63. 64. 74. 99. 106. 61. 17. 2. 0. 0. 0. 0. 0. 3. 18. 57.
      103. 118. 114. 111. 110. 110. 111. 115. 121. 105. 55. 14. 2. 0. 0.
      0. 0. 0. 2. 13. 48. 97. 120. 123. 121. 121. 121. 121. 123. 121.
      97. 48. 12. 1. 0.</_>
    <_>
      1. 4. 22. 61. 105. 123. 123. 121. 121. 121. 121. 120. 114. 94. 61.
      33. 13. 3. 0. 0. 0. 1. 7. 33. 80. 118. 122. 114. 111. 110. 110.
      110. 110. 107. 96. 77. 54. 25. 6. 1. 0. 0. 3. 13. 53. 105. 118.
      92. 70. 63. 63. 63. 63. 63. 65. 77. 95. 90. 48. 13. 1. 0. 0. 4.
      17. 61. 105. 90. 47. 24. 18. 18. 18. 18. 18. 23. 43. 84. 101. 60.
      17. 2. 0. 0. 4. 18. 61. 96. 68. 24. 5. 2. 2. 2. 2. 2. 5. 23. 67.
      96. 61. 18. 2. 0. 0. 4. 18. 61. 93. 61. 18. 2. 0. 0. 0. 0. 0. 2.
      18. 61. 93. 61. 18. 2. 0. 0. 4. 18. 61. 92. 61. 18. 2. 0. 0. 0. 0.
      0. 2. 18. 61. 92. 61. 18. 2. 0. 0. 4. 18. 61. 92. 61. 18. 2. 0. 0.
      0. 0. 0. 2. 18. 61. 92. 61. 18. 2. 0. 0. 4. 18. 61. 93. 61. 18. 2.
      0. 0. 0. 0. 0. 2. 18. 61. 92. 61. 18. 2. 0. 0. 4. 18. 61. 96. 68.
      23. 4. 0. 0. 0. 0. 0. 2. 18. 61. 92. 61. 18. 2. 0. 0. 4. 17. 61.
      105. 89. 42. 12. 2. 0. 0. 0. 0. 2. 18. 61. 92. 61. 18. 2. 0. 0. 3.
      13. 53. 105. 116. 78. 31. 7. 1. 0. 0. 0. 2. 18. 61. 92. 61. 18. 2.
      0. 0. 1. 7. 31. 78. 116. 105. 53. 13. 1. 0. 0. 0. 2. 18. 61. 92.
